{"biases": [[[-0.012726554078847234], [1.7165762321617886], [-0.18319099328405758], [0.4493125268117805], [1.5510083481511834], [-2.252944705501126], [-1.5178921558437315], [-2.045585637714408], [-0.05639160295864348], [0.09975070499894777], [-0.21808784433910286], [0.4883171198676642], [-0.2380943294714622], [1.5687450947250512], [-0.9308028301161556], [1.5306617658278885], [1.2914598517164133], [-0.9854071534464627], [-0.2735349585177884], [0.2590102581864732], [0.7219310227317786], [-0.6261327788263783], [0.22013406980521427], [1.9684871753222795], [2.7404777130694167], [-0.14690788546675992], [0.05756985423779433], [0.06335884687958478], [-0.06086718261360684], [0.18518081046595117], [-1.5209019525614933], [-0.17498946871461152]], [[0.28330666418757805], [-0.5751212458987857], [0.4077192544445756], [0.7131034233966247], [0.08341896197782768], [0.052032853914794175], [-1.3480082809911578], [0.2474122624172089], [0.45952567329358296], [0.8550505416008912], [-0.3871522123228046], [-1.2267036584014417], [-0.3305098655614547], [-0.7095941542607702], [-1.2657192562235264], [-0.16856574387233828]], [[-2.273327847228139], [-1.1717310681825095], [-2.293630077290986], [-3.4617509104227646], [-0.460526301979887], [-1.9041163205148066], [-2.4308773515159365], [-0.8705313383432063], [-2.616984359217995], [-0.6457159965736762]]]}