{"weights": [[[-0.028505276181657064, 0.0006836836729879849, 0.01545700500589522, 0.0032675468042996547, -0.015859708233330633, -0.08365346771025102, 0.06108621715399398, -0.008538625521420144, 0.0002654964341337379, -0.04598832227226651, -0.08300842167085158, -0.049304792204968195, 0.033337069452995687, -0.02581064891030087, 0.07198669657059732, -0.046294011890926745, -0.08922624361403413, -0.053365933665187694, 0.020436459113358674, -0.0043181074843160975, -0.035350826028026396, -0.05765950915020889, -0.03871402434916067, -0.03680013023138377, -0.06289931573431849, -0.04374965941453531, -0.030365366409681013, -0.034171121715373974, -0.05945416247421901, 0.03005338493163687, 0.060230253835941494, 0.009317571008222808, 0.03813639462588604, -0.006981731094670561, -0.08654086406291375, -0.003809144223243827, -0.020062352356441153, -0.002126697837996499, -0.015936159550018345, 0.010388274920734, -0.0024050797875459907, -0.026931855359145215, -0.0018517237467894497, 0.07520940086862626, -0.020464829947410737, -0.0014594909784079544, 0.013233593127841179, 0.05730493005312167, -0.015428198276403767, 0.021372838495588003, 0.07176896014243975, -0.0735000484825367, -0.043508044646707024, -0.04264720941622464, 0.01258028245521472, -0.006779965168124573, -0.011251725889957214, -0.02094716270595687, 0.0014551568147237132, -0.010308576242957222, -0.0510813377698118, -0.010952565698958607, 0.02006521753276278, -0.031108456184203038, -0.003803641445093, 0.07468112297881783, 0.04384312624048153, 0.046600299841912024, 0.03633828353458427, 0.011470876229512527, 0.046659116581212454, 0.07249838414668124, 0.0901807560189557, 0.11107390221806528, 0.1386964695718763, 0.2581111673577557, 0.13106913661941028, 0.08863591896018588, 0.037384262889404885, 0.036604074167703025, 0.03893083586602094, -0.008664380699737307, -0.03234342586655089, -0.01593164411206315, 0.029367851770755158, -0.024962333625444564, 0.028362757491948175, -0.04527841868367386, 0.044831139155942064, 0.024465224028168187, 0.052415188888497784, 0.012622625721290527, 0.05707523169043145, 0.04724589969423429, -0.023386538111025437, -0.09946636711470035, 0.03482261710148799, -0.13980013120976564, -0.05608316753046394, -0.015858299058552374, -0.17971414011940848, 0.08798485973013373, 0.3030563411788277, 0.10545306156481259, 0.24020523456973794, 0.2638264722712124, 0.28099605196028393, 0.12419797884187796, 0.08583642301252149, -0.05644708068209784, -0.006863770815169743, 0.03414388527710509, 0.08747261193082816, 0.046968251850831984, -0.02553065568082303, 0.01315187229428337, 0.004790939332079517, 0.062157304573367295, 0.10140705347311615, 0.08304744057795517, 0.09180289436654278, 0.09827399426311761, -0.04050435506451665, -0.01681306439323022, -0.013571131710280848, -0.2718821137460666, -0.05803865487468008, -0.16410296653454426, 0.02020256571821124, -0.10629354338882496, 0.2125974068929054, 0.02304305702444798, -0.08781214441829757, 0.1650037779229464, 0.22315821591876403, 0.24759991434328527, 0.1334160946310983, 0.0952401124082511, 0.0047796150975177275, 0.0006667733208433341, -0.05006493285485304, 0.09720622554084034, -0.008559799603334807, 0.029113936818653468, 0.0035427260304714847, 0.03186221713869851, -0.0007139255678234889, 0.05109627064746275, 0.20826565447623416, 0.2358102701492758, 0.2741819252684895, -0.06917525183662389, 0.12334145578200152, -0.16894269551893987, -0.17269036720284792, -0.15592235280884342, -0.23760615019559786, -0.4098821661420701, -0.10262009817135166, 0.11869590725963393, 0.18541927935289235, 0.11426856120564853, 0.15485550128895434, 0.3270975352861765, 0.2639703946055362, 0.061821437360804546, 0.03086795142039683, -0.000862633691676995, -0.07593313674884494, -0.0006564181929609121, 0.03062825124009835, 0.06884066370989508, -0.018613666379674064, -0.04695328086489525, 0.06608617136374428, 0.33218063438344636, 0.38343093232561576, 0.3434504660327286, 0.07758825711057715, 0.06719994897097617, 0.1474402477469176, 0.023645725783903424, 0.010042933781210083, -0.43962522199760656, -0.1230121134138646, 0.002710405023975138, -0.2566027388243145, -0.05976650324898747, 0.16886013291025365, -0.24441838377592448, -0.02857367208156941, 0.10353532029781626, 0.5384351585641177, 0.35575441550613024, 0.10700945994174806, -0.01855363120311304, 0.009946913110623071, -0.010499560706538551, -0.04746040505827027, 0.04204279014443667, 0.04652952959832969, 0.06893192233920258, 0.024445462054840068, 0.2887614901752111, 0.389643431453867, -0.04819854764769019, 0.060959511607205405, 0.017122333060596, 0.08380937523733926, -0.07639818456043353, -0.25785761804587637, -0.33675486483500966, -0.07825649191429312, -0.08438828106637948, -0.26202892758477914, -0.14257761877912367, 0.1763133872347488, -0.0011843153082357932, -0.13071344522951342, -0.03949149876821145, 0.4522163987636379, 0.43607390168824317, 0.09270223070272875, 0.0458537515215826, 0.029053614733497463, 0.0014165550784748218, -0.09581099618112471, -0.06026928673940478, 0.034669908648797425, 0.16543139870970158, 0.11752751418888505, 0.20867337448029538, 0.0837996948260875, 0.12473006366091557, 0.11757109585069457, 0.094100608622929, 0.15214692923507567, 0.3116544075279068, -0.03347863770930583, -0.3377501619786844, -0.439168604213793, -0.1489724424702204, 0.023237344978933473, 0.058537765108589636, 0.08897104838003714, -0.1421276821435303, 0.17360706361417202, 0.017621301840347242, 0.32546043362434196, 0.7002874209469603, 0.17329835223546425, 0.05103818242974595, 0.028547902739371772, -0.061785841995643576, 0.10244556076000806, -0.019934815193256426, 0.02512905291432825, 0.07278682984827468, 0.10328489447148413, 0.413387144416258, 0.17579598787183512, 0.07484547206294756, -0.27132894772960003, 0.11554232861942551, 0.15098579209934734, -0.2506515776370082, 0.1536100424159706, 0.01557023053379864, -0.2546740272726513, -0.08888490293665766, -0.27459003225891004, -0.3261213424465809, -0.048454216571900605, 0.27935795426330856, 0.23414955698224799, -0.03201802294632185, 0.33695447061081546, 0.733031777234501, 0.148898234687943, 0.014636689766271027, 0.07253765620519956, 0.0005105342494986665, 0.006745713660578688, 0.06186054195500414, -0.061931932956261496, -0.03287222689270492, 0.11307738367634712, 0.055247763683298395, 0.2888730767769497, 0.07252260303651022, 0.21005329281867519, 0.07097415387786322, 0.014512951842797722, 0.49446549049921695, 0.33850733136193467, 0.38251546434027367, -0.18523989447144995, -0.3236711699267293, -0.3231739560529526, -0.06251697492081486, 0.1618280450615518, 0.12744315834937806, 0.08827477415824878, -0.09768615290972751, 0.12225738797274856, 0.6580441020423348, 0.20830924449306273, -0.035699872100358236, -0.015248374267172581, 0.015796809304426614, -0.003469956375455459, -0.01585705152117931, -0.11296230107315315, -0.165263545495365, -0.20897082983945894, 0.19217027789223445, -0.12970144618027704, 0.30507448135998444, 0.11948736357666491, 0.2031060618940895, 0.43794982976431646, 0.639931543313559, 0.6020294179966126, 0.5241273258032303, 0.13701773288031832, 0.23567609252093794, 0.15385676687890182, -0.1823716536226317, -0.31620905592728393, -0.4050742795072633, -0.569604226865318, -0.33657958869469795, -0.40739359107085676, 0.18812845419453786, 0.10068917021835778, -0.020432091733090327, -0.01791147346575677, -0.0007394667543692134, 0.007548881932090737, -0.05398487057823386, -0.11640058194400073, -0.17282716208712828, 0.016597683717037105, 0.2053463351445622, 0.1642186088359565, 0.27845939509802947, 0.19869702867307656, 0.3198089695037729, 0.14249779270951649, 0.21559774428505843, 0.3981467126613019, 0.3965170765923573, 0.19369897214860654, -0.044249845867085524, -0.2786599562705223, -0.5552884520837921, -0.45639531838755537, -0.7716498169121062, -0.7164776273203445, -0.6914211266696665, -0.8527182306450976, -0.19595323114785226, -0.03159747049694245, -0.04967656828141281, -0.029029412048059772, 0.014091257816697431, -0.0005890752629912656, -0.0579938697954123, -0.1528340371109023, -0.026344248223702633, -0.04222673535634339, -0.08182694004692632, 0.12863185703948288, 0.11969403664717393, -0.08867308227918325, 0.15063894740737238, 0.09982186374644757, 0.15138841621147728, 0.31674495054656054, 0.6905584160457913, 0.49462444723529153, -0.10608069309856338, -0.2028076422413194, -0.029886311078019038, -0.2500185233410909, -0.16312358620035242, -0.39100118171675563, -0.6379895692387799, -0.40471833018380043, -0.22723026345529257, -0.08306089457098244, -0.005121523746262344, -0.004037153541747498, 0.040724415035846694, 0.08935403465787284, 0.05364975155783655, -0.019887603286080153, -0.0015756436122882265, -0.2825650892148031, -0.589337474801922, -0.2723737795013901, -0.2905835781632535, -0.020885650086891236, -0.14065515135646686, -0.37482850578045745, -0.09737275044787268, 0.5010904382187201, 0.6624817260958183, 0.4500236870920622, -0.19285049533090598, -0.22816440594463908, -0.0893766206629816, -0.06591914408826319, -0.040723770701111106, 0.05901546338202038, -0.23914407670209217, -0.20847058941942412, -0.16694275370620773, -0.17521064594254704, -0.04003625519145215, -0.030581866854764682, -0.004501428358916147, 0.05655392081888663, 0.08951355636615485, 0.015404217805276416, -0.47737487375319354, -0.1650165407791918, -0.4208969192372249, -0.41107296538278976, -0.10728397187279055, -0.4784473341801286, -0.30718407887013943, -0.20959568216034022, 0.35069507720882537, 0.5225904009913406, 0.5720464863960031, 0.030022115630055735, -0.18053858465421466, -0.050739012309597445, 0.0378854472984772, -0.013733395365253847, 0.25928928212106367, 0.14483876874941878, -0.008336564631962863, -0.21340408520201742, -0.20259742458538846, -0.20824076838277913, -0.02900058302504953, 0.030540411728219197, 0.09066339418871953, 0.03410382711530534, -0.01892626650030874, -0.06659200802349063, -0.434343156322744, -0.33446200007928767, -0.02288666982245422, -0.3358903129108938, -0.07443873739362496, -0.43992147173310503, -0.20230009035671387, -0.1551022102109055, 0.42208496858753763, 0.4282382385752555, 0.25970085784074337, -0.07781802257957093, -0.29135876017228507, -0.14731082942859028, -0.026986255832087736, -0.19668033713433686, 0.031415832728063774, -0.17654417461728936, -0.13608808663745348, 0.03342621833386417, -0.09982496167462339, -0.08291066578329205, -0.0029190822074173614, 0.0031759286675247292, -0.04863802180969753, 0.013371356362372732, -0.04737654261856267, 0.003503309118432416, -0.08760019927612886, -0.16015013961353552, -0.3137043268508828, -0.32947967481013896, -0.18777153625038812, -0.4388796165104976, -0.3876626850723561, -0.0021057426698093858, 0.4244780093139746, 0.12494239225828642, -0.26283978095644284, -0.20295323653091177, 0.15144256570778528, -0.003528133725369758, -0.10085459337268296, -0.20203649757908204, -0.17418668133755852, -0.3182680650398122, 0.1687075356009113, 0.32847274534586746, -0.1141743763781297, -0.10554729941651989, -0.033835359407245025, 0.022231273906106026, 0.004004351786491585, 0.010610626785819956, 0.1747914341418155, 0.18921907991435286, -0.0028795664211657287, -0.11837045263789166, -0.042290765711334465, -0.28781536428679294, -0.35653013270369205, -0.9114835730812901, -0.2371322868643798, 0.1255045186807499, 0.48063672459490686, 0.22140406958985184, 0.010523179492424626, -0.11819513612123923, 0.12458834534622727, -0.08417515243013043, 0.13654781777922234, 0.1889908951711688, -0.09395332557167527, -0.06220868872391115, 0.05128218183015048, 0.07708640202992738, -0.2634935557888307, -0.09878469345600527, 0.0010617324051828579, 0.027159911372711072, -0.04079203683858386, 0.02889029303320115, 0.26572230583409834, 0.2551524362706523, 0.038839715379113716, -0.10141300218648643, 0.01738468409109557, -0.16296948449635482, -0.16755863188817086, -0.016345479036071427, 0.22053862446907085, -0.09353869100973138, 0.32533978332988306, 0.21451093482516517, 0.07013444411770905, 0.010312585713656255, 0.04466850176330794, -0.08650369391994314, 0.14836259261875354, 0.13771745530047275, -0.09791431431787091, -0.07271171250626933, -0.05387666926159489, -0.07555503452443625, -0.2650320876532195, -0.058426124478182254, -0.01722713903479066, -0.056638189586569784, 0.001970131974002382, 0.033930695454163266, 0.1603673155029752, 0.1593082030427806, -0.31808013230712484, -0.23955007663167535, -0.202512362834121, -0.19361120752471314, -0.03961334579480346, -0.1721913943652562, -0.1416508759853283, 0.19905655755404392, 0.17255150510043224, 0.3980714889593391, 0.14785378198649554, 0.10720738627744023, 0.16803339140444687, 0.0732348039106429, 0.04413442315653338, 0.02152665714722428, -0.08075837046824295, 0.1981580970120851, 0.05374998013373955, -0.15117738623077498, -0.13293440089668587, -0.012918043417511885, 0.05864547996278946, -0.01727238924488327, -0.012678423444913097, 0.04116416964686517, 0.006188222808089074, 0.03920757173623555, -0.1985304304186934, -0.26891285916702273, -0.03626721163275629, 0.2010352238005417, -0.020130064088577152, -0.024483530843493577, -0.11062915124507448, -0.1124022980681367, 0.03247908438419561, 0.12497308786849862, 0.1426826117115162, -0.0632839477270796, 0.2490182912217876, 0.20303459238013177, 0.024153725977586457, -0.10421805044142339, -0.075903621789289, -0.1632595423653615, -0.027351577240361604, -0.2720819189249682, -0.12161289574354606, -0.04554888909849667, -0.06411221269528986, -0.06307184397486265, -0.009258401199651172, 0.027305264022876242, -0.10423422795123155, 0.10282202108041899, -0.18549447066866676, -0.2512541937745416, 0.07084314486204256, -0.16453728141660562, -0.186446434353173, 0.15355317838044621, 0.12094147987230718, 0.01951150961982141, -0.03985056734229058, 0.16115999402499734, 0.22645414036769784, 0.21112071828285736, 0.04868549757885912, 0.15923378105062155, 0.10939742568175624, -0.016684256506542112, -0.16886203136106037, -0.23587655701094565, -0.16585753121795213, -0.13053114990743403, -0.036350556352179667, 0.04078092428236127, -0.02882030176991543, -0.022931744869632276, 0.015491964666660474, -0.03391598038570221, -0.01500239853514918, 0.20062426057188829, 0.26540405076639795, 0.06154567764249174, 0.17742965995186252, -0.20128672556693267, -0.2840964896298579, -0.04861959522788821, -0.23046385144433962, -0.08405786649947387, 0.1803506915452131, 0.0898516672147027, 0.0523805518686611, 0.1311661986668065, 0.0497031014186592, 0.19760410065176232, 0.3029636153193177, 0.26840734041814435, -0.10616561558780603, -0.2918654314952898, -0.2498770458194514, -0.07594383488693603, -0.07199627853540695, 0.0019203054784569084, 0.03406210022766159, -0.0028958699944110133, 0.07082601120861785, 0.039965400030960774, 0.09276066826796588, 0.2157306225124084, 0.4193690883743199, 0.4746561931718385, 0.5602955432283454, 0.33343919218972246, 0.06334978954689134, 0.2703090714918567, 0.07986525616236792, -0.08307654651641096, -0.02872329617059681, -0.04176699931397258, 0.018989807064799316, 0.12494385223961685, 0.20009291983200028, 0.1506005068099802, 0.08124310255966322, 0.01209289241994994, 0.025165029304699923, -0.1885326740254663, -0.2047871956391554, -0.1262102835009108, -0.05332803352827415, -0.02677374922128944, 0.07322951420004335, 0.056701097020429726, -0.027103207502860074, 0.022474301269747005, 0.017754603037875172, 0.07992712661368617, 0.1374851590354092, 0.17456987019256082, 0.21705840384292868, 0.26472844353546454, 0.3860456121911847, 0.6094190219643952, 0.29721810435072765, 0.2878547807695351, 0.3205813332896737, 0.2785015764795278, 0.454491447812267, 0.1436382524511144, 0.22138502604215704, 0.11451775452637684, -0.08500061851658146, -0.21089234211418026, -0.09438571494511734, -0.0919169697106846, 0.028366863153353968, 0.029536791251001844, -0.024322402058209673, -0.03105271351773888, 0.063915811844408, -0.07901228294163812, -0.019289683829673877, -0.06813709563298702, 0.00870069270942084, -0.0015932027322379963, 0.01150239173864153, 0.004404530724441774, -0.05807774292384337, 0.134666357287404, 0.14590734404124078, 0.03674819817179952, 0.05713063162155586, -0.03450551509474955, -0.06065475533575111, -0.05490202461860767, 0.2064407234879449, 0.21964719754073905, 0.15564229698349835, 0.00049707244333785, -0.03668692891217447, -0.08258681441923131, 0.021243858810812758, -0.03219434606063859, -0.06622427649522322, -0.0037499622110453755, -0.03309163955240194, -0.04287690597726914, 0.0057813062404252465, -0.023805828283692328, -0.0913024456960091, 0.007695158169952929, -0.030960848999512892, -0.002121546299620689, -0.028464058633225413, -0.005447799655373103, 0.030019914126473205, -0.025539111607615586, -0.022524372316308425, -0.01995215092869218, 0.00797900103479644, -0.00176025361403403, 0.06966568967682402, 0.10028467441446412, 0.0742496497915767, 0.02515135260031357, -0.003193740560981665, -0.03525455628703803, -0.016278479122675604, -0.02526608109971147, 0.04287529180079716, 0.03143056007335374, 0.014753041436215215, -0.020744162040158404, -0.03642615059855241, 0.011678469462244998, 0.007535669065789778], [0.024871167674886178, -0.06062752692688498, 0.03285716962845488, -0.047230680053311394, -0.048488344488906265, -0.0005336577505111003, -0.019066553284481497, 0.015850486512895234, 0.018465569911460235, -0.04182189978279992, -0.030400701942507123, -0.04913737578947624, 0.050728796315497315, 0.06486672629379116, 0.019150493181286334, -0.017390776601884587, -0.027314718156145865, -0.022117476880150665, 0.02648780932061614, 0.02033431758728419, 0.021533221505627902, 0.010721436752977294, -0.05929231700377208, 0.04757407805790389, 0.05020236413132318, 0.004384576661686412, -0.015042651051494977, -0.012990240959546736, -0.026394420607548354, -0.012501535588710993, 0.012319549864201498, 0.01880596837106429, -0.009074769030565866, 0.011013480733109607, -0.014945397420602743, 0.031449103378946346, 0.048730781791972946, 0.0867893894115927, 0.03731026182479583, 0.09800194408954563, 0.0930486374478023, 0.1456575275186171, 0.07703206033310334, 0.1204122235275577, 0.13773034957572394, -0.022803681989282256, -0.00726168149865558, 0.01327800692716984, 0.0430670743539555, 0.02642496153589627, -0.033078964435468504, 0.02531136612863759, 0.018581493120583128, 0.02490036032801934, 0.008986017978819344, 0.04199835495007256, 0.035019492517644274, -0.022386578151064603, -0.06255595895427161, 0.0357244217180798, 0.010528393221543284, 0.012650124021796728, 0.03426507198294318, 0.08175178983551314, 0.09327421437713983, 0.12114161206177021, 0.27055837618061435, 0.25997117358442556, 0.44971059017893705, 0.4251495812615032, 0.36933816789055274, 0.3343041705595101, 0.30007191296878394, 0.1460698415588244, 0.13811052313722538, 0.14888634345583812, 0.04165908434665317, 0.0022585388338433, 0.0734549802137773, 0.04705835246779516, 0.15108596049209386, 0.06690088673947113, 0.017063124645219183, 0.008459351944540158, -0.04020491749437703, 0.06387862662878938, 0.006649434789332975, 0.02400941559688518, 0.029825892436228504, 0.05241646151041985, 0.08065028780837828, 0.16365865704090574, 0.2779194477695957, 0.28162725397216287, 0.4116045861014877, 0.5985710389135707, 0.7507300218422914, 0.8856646794767917, 0.7105211153326355, 0.5259975445078292, 0.452541497767752, 0.3948459177702301, 0.19855632335189535, 0.1469469111474968, 0.20172110017273245, -0.022266132236502312, 0.004865936079277821, 0.09520514054684641, 0.023719680414871176, -0.050502493083422494, -0.06570407049962163, -0.053602362263095796, -0.06678963553417606, 0.03627008574661383, -0.007382552419282923, 0.04952846151413675, 0.0036324730336148594, 0.0051719877082657215, 0.05809431561038406, 0.13898306092457222, 0.292487751353797, 0.31227545115483124, 0.5946787097099976, 0.60516101891396, 0.6474084163091061, 0.48588446029412746, 0.8623801608639327, 0.8595743769673392, 0.7442727866143076, 0.6900150929283273, 0.3737936705022861, 0.040104622841973386, 0.08474369232433208, -0.15043795857075581, -0.23597630651553947, -0.1352226956550446, -0.04004818428150076, 0.11706287272666772, 0.005531498942214044, 0.03444655193059626, 0.02142288948437912, 0.05537096872729442, -0.052857010145239205, -0.011571809259246309, 0.0010787402680121217, 0.08829083053131466, 0.0070620368966053115, 0.1863933819338496, -0.018787628651403772, -0.18510742861077006, -0.0668992655675637, 0.1297909333297668, 0.24523850779879805, 0.15394994132815207, 0.391339278702566, 0.34074886160554385, 0.4586279167692454, 0.3706364111948488, 0.24611817746980683, 0.20238395952655477, 0.13465092131817882, 0.26618617438694037, 0.05840574968131675, -0.20422020956892192, -0.06480395599469496, 0.058792078020712374, 0.026486151222966922, 0.035615767103069663, 0.043636556717447865, -0.03783273204785184, 0.028690425110747132, 0.02867669109954602, 0.08619998707042044, -0.08076505658303795, -0.07583746019616636, 0.009828470585769944, -0.25796120837523606, -0.09183858150089479, 0.15613862447090973, -0.048717112628187446, -0.07059181478732708, 0.24929269371937052, -0.028681720365925818, -0.0977229518509507, -0.06513441600958236, -0.10613990571461503, 0.17159149087751233, 0.2842074835495869, 0.11888144146710734, 0.0196987329017331, 0.1853148587182079, -0.014225572080848584, 0.05592834125160388, 0.2217723446673413, -0.07696579830297641, -0.02027982651849615, 0.01988668829504345, -0.02133690819132778, -0.025196541688863514, -0.05013128052478732, 0.004014449644266666, 0.05226577166472348, 0.03779252458083392, -0.025408837304451384, -0.03061457363737363, -0.3233678997621268, -0.2783795489261734, 0.009631226279392386, -0.2329422136139149, -0.2128115287870368, -0.011752476374353192, 0.035121642652520504, -0.2431953745876574, -0.2028102383122965, -0.0020152955720965527, 0.06889356454092359, -0.32806805897235264, 0.014670370264646708, -0.010736343465897996, 0.08354592839979602, 0.3577906944358716, 0.27219133632062464, -0.03691530937079288, -0.004822625666138078, -0.009354739294270659, -0.03505069700100531, -0.0695407413312342, -0.07595308530324749, -0.11961949361568178, -0.028345202203447824, 0.14360945042860623, -0.19930600152888697, -0.06552110135009108, 0.03204911847356765, 0.06554007736402633, -0.04767776364968992, -0.0622152264570238, 0.13764835200707745, -0.12393937210174244, -0.3032621751124673, 0.20496840868996882, -0.027694582003839313, -0.1719436312583096, 0.006734273691708519, -0.07178305207065626, 0.20159734563730916, 0.14795321224094202, 0.09661500902487692, 0.2455997621765014, 0.28106074522015406, 0.1621491170717228, 0.036216899581279355, -0.013953740995080479, -0.005417230084667758, -0.034616684847368843, -0.15581248764073746, 0.023506862214808244, 0.19574735692956885, 0.09993243405277236, 0.04738999149616146, 0.10233177081337165, -0.17543759075531126, -0.2295441871064046, -0.1602759199235645, -0.3923641787216947, -0.32220791164690227, -0.20669470482278765, -0.10174713521469302, 0.009438441239080624, -0.3117506427824056, -0.052505416983991735, -0.09552463472246668, 0.03884865766345384, 0.29954799784368347, 0.09244928182525067, 0.49166043165958023, 0.5079954295233063, 0.4279320129115976, 0.23812596684565057, -0.024547397494809952, -0.0068972339771445745, 0.008292847379925373, -0.088998749119806, -0.09653378307328539, 0.03335158368340858, 0.14357297839130803, -0.06303969316721321, -0.021241811225897564, -0.13596542822695956, -0.36685137243730426, -0.19172017048143125, 0.042285288316471895, -0.16078147447012467, -0.29802620027181315, 0.18874809720080074, -0.08249860864208428, 0.21366684184516285, 0.08450169360023732, -0.215388278007408, -0.0949415025990997, 0.17913596682802316, -0.21279557853933337, 0.03805762320208752, 0.6946219860278118, 0.6955314888131217, 0.5674721838080335, 0.15852092970399442, 0.0626748369807844, -0.02750872684466197, -0.038932835685705894, -0.002741675099706789, -0.06409275869954227, -0.03263447734045352, -0.07086712785787164, -0.3067092759098385, -0.3957373933598746, -0.26835472737056915, -0.30123814223704126, -0.06494013214259606, -0.31522007401236224, -0.1571306918051401, 0.47639828933956635, 0.26770536521909466, -0.6026740929798196, -0.540072381200707, -0.6110812931942892, -0.4382662332664114, -0.2304883493628757, -0.3083558954740087, -0.3230013819093047, -0.021610892196252358, 0.2565299123776033, 0.6608949410509176, 0.32687020659319155, 0.02922053972010691, 0.061685068385246476, -0.08230757420143187, 0.018731196442173834, -0.02332279113514319, -0.013886174876013813, -0.10227713804864787, -0.0737059880361461, -0.4889084685709426, -0.2926730516125489, -0.5193770530637912, -0.3553727206491412, -0.31721971067868043, -0.19560270707219352, -0.2358597607920866, 0.3959383675390914, 0.3738371907802645, -0.4158062344523584, -0.5076163268677688, -0.3794712761775737, -0.701104755218521, -0.22820570450332736, -0.2549787669051159, 0.10082370462832498, 0.08681522330817783, 0.39055837552171746, 0.578444800797837, 0.12908392542497593, 0.05843977845534882, 0.07381397857321251, -0.041190489039169505, -0.0458455586804683, -0.03760508784320824, 0.0052391559436987915, -0.3046707326751992, -0.3676072392935217, -0.43091845816483404, -0.22396238318200376, -0.17670483289224348, -0.08265590347264547, -0.24672179882293746, 0.01926597481597692, 0.2549056937040346, 0.7535611005395982, -0.14936489465028935, -0.4591454301122755, 0.07242421118475663, -0.3527366488952122, -0.010908388562021015, -0.06707911191983636, -0.349615394757913, -0.20270675091246973, 0.07369727989464772, 0.43528385590261537, 0.44662734942553656, 0.09104981341809046, 0.05736201550277154, 0.04849742681501123, 0.009637168594805559, -0.0030886104510914674, 0.026019637170941644, -0.08018549301443835, -0.2201011742887373, -0.20220732503536243, -0.06627932324120998, -0.005786317830000694, -0.05348412618043041, 0.0741025869274337, -0.12129490123455297, 0.11223017002268786, 0.28236807137713593, 0.2034300700871702, 0.06884006185411633, -0.37558233121024487, -0.3292067370009523, -0.7707005033014429, -0.3965756842442361, -0.4863942217522517, -0.6032546848466191, -0.2684178893079627, -0.32185915056647363, 0.09735420207982502, 0.31398134593141125, 0.026327484317983707, 0.055942073162293555, -0.018827761652576117, 0.04249772943311692, 0.03180693943290219, 0.023310100494269487, 0.02216148663405198, -0.07150396569634172, 0.08827771311562137, -0.10419650512285496, -0.01578250110884142, 0.02874927994545218, -0.04547111202770147, -0.14334082763686118, 0.13497273605905952, 0.3027069965342575, 0.38209797697751263, 0.09198174945320842, -0.3329936457907282, -0.3725579067217126, -0.6597662329615004, -0.2751484111373814, -0.2279377738137658, -0.1857022960304729, -0.2804377836722711, -0.29200879370674365, 0.061935469709453614, 0.22117055368536018, 0.12044626388243121, 2.0789812103382507e-05, -0.029161927949986323, 0.08435070960172335, 0.019683237601372926, -0.04674480148758218, 0.14918299988524614, 0.2181131187987186, 0.22953063810348365, -0.1463117523060173, -0.2609618312546611, -0.6390037430771587, 0.04008019871486762, 0.2008168571273546, 0.12592938609231205, 0.11124949700020016, 0.07918169792597043, -0.08782762558197277, -0.5016427842737645, -0.1478873017634419, -0.525625926835049, -0.30309646753984487, -0.008689005564039598, -0.1920065949925326, -0.2637695800670483, -0.1739166844578578, 0.05548072988141517, 0.2834244861974735, 0.26602121745436447, 0.011319313396676967, 0.009163171849335322, 0.030249446005295517, 0.004898414013945452, 0.04667193817422985, 0.22054725084458743, 0.3827441445168132, 0.36259754536441813, 0.10976082334828159, -0.3071358839761197, -0.4418669981548977, 0.002538649777976027, 0.3452065284355401, -0.002378063770002154, -0.1135364872430485, -0.24019557343741105, -0.27755998192643033, -0.5546367887229885, -0.07794799292266835, -0.3160691873215632, -0.2754654075960754, 0.31997788453703124, 0.15281732149517388, -0.1425649392733609, 0.24275450734225404, 0.04780169398925104, 0.21572553131623898, 0.21771510932352037, 0.0025721755374573363, -0.020820286128146515, 0.01750622099082839, 0.03550136906164162, -0.024448523958230346, 0.23213257523841754, 0.17939925781844174, 0.09153953353140513, 0.4809768595289965, 0.13958905275202285, -0.10650605727842977, -0.04721377863812117, 0.11786014090388697, -0.3086260195560242, -0.14368008582714917, -0.18258389772656877, -0.20866594870633734, -0.3590220019747172, 0.03730268230636064, 0.27136655280520966, 0.23700516712828623, 0.18193283641052477, -0.10735144316999508, 0.04780851621468405, 0.7663446359011973, 0.6171320175708114, 0.4315153311128048, 0.2314227093062339, -0.03368926831162423, -0.03162540434744881, -0.06562256247302357, -0.038230304252608566, -0.057334863064793656, 0.08330123930441259, 0.08931408698341556, 0.19321472839261605, 0.29768793505651414, 0.5179679914916611, 0.7347678611865601, 0.9970233447280001, 0.6754783604929123, 0.39499224827682455, 0.410074626971004, 0.5094950161457338, 0.14620110122819813, 0.2827544355228836, 0.4946871083606019, 0.54694971562647, 0.5940473676349676, 0.3151418869879054, 0.33901921849836414, 0.5405901824525958, 0.8842531961314213, 0.8135465312536173, 0.27425136746763407, 0.05529418406172289, -0.019039040731510644, -0.018503149517634303, 0.007830761447499822, -0.023777124169721397, 0.01697829289514765, 0.06699667324162698, 0.22609081725463687, 0.2999914172327236, 0.46759248315894886, 0.7168630209367949, 0.8687680054517556, 0.7679367793491823, 0.8751126628796648, 0.884643799407923, 0.668399951122656, 0.5387777790683809, 0.5395307760353566, 0.6396035714809559, 0.19466249458303625, 0.4027469518620196, 0.8380772135263584, 0.6693089431807895, 0.6722750198925822, 0.4191933532610166, 0.6215617138707317, 0.5349033206156589, 0.0698629200569843, -0.009623291348462393, -0.03636232852393438, -0.03982750516589208, 0.04732195687737022, 0.009046058726016253, 0.05119335613973346, 0.14273069930349777, 0.3287779583421973, 0.48130717658966604, 0.7887358950257053, 0.7237050786945488, 0.49567991059349537, 0.25683764668692005, 0.5729146646780282, 0.6896706661810712, 0.13868335022570163, 0.72190259374582, 0.5520420636700636, 0.6109701317306239, 0.08507969411184745, 0.4911674108432385, 0.6558354548292978, 0.4943923124833224, 0.4295115017815098, 0.40438405290219803, 0.48403181930101985, 0.3754048769874834, 0.07376027198159206, -0.08136011294872898, -0.04355570443120458, -0.02417456119606251, 0.02718061419357767, 0.04066795333625862, 0.03494413052982178, 0.10181204302765505, 0.31140428971709183, 0.36515619269953614, 0.4212298394840673, 0.4178786058748985, 0.004117517916275539, 0.11857288667746041, 0.23964117203648877, 0.21436891359526214, 0.179987161028477, 0.4870265477068773, 0.3969560665932767, 0.43130726950758996, 0.3128359388429535, 0.5021196199487069, 0.45228064367088655, 0.27039889037799847, 0.35151497085931677, 0.13126440815874246, 0.3213333607095015, 0.14851199793210748, 0.017657358841203872, -0.03928306696476135, 0.040401933109911324, 0.025440379009189502, -0.009060928566417886, 0.028572107432806273, 0.04602544554054777, 0.05997403341766153, 0.2104320457887354, 0.18564588475053262, 0.04947874018849272, -0.022617411441222042, 0.076179833842111, 0.32122552013905925, 0.1514294652203013, 0.3937107810184061, 0.4302214015715114, 0.1346503041408613, 0.08197887755028792, 0.48072737487682815, 0.5459418788506915, 0.2591405971211614, 0.21877337655816134, 0.2017453940534887, 0.29438154498312824, 0.12151157560057399, 0.16358114237304378, 0.16724324167963991, 0.07104434459387672, 0.04423229299562791, 0.004493945216106591, 0.04453824602673143, 0.03694573621950357, 0.0004305384241658798, 0.11269508451442241, -0.011587979876454975, -0.06879370479510771, -0.3900847402897974, -0.22945761283996344, 0.0798973916071227, 0.07430813484714284, 0.47535797222817777, -0.017622164730306488, 0.3777146001633969, 0.7189564403268337, 0.3834899017987623, 0.7296667615864316, 0.3791717934324038, 0.6593587845563603, 0.2889337970348425, 0.2582829231033949, 0.28343995332775085, 0.0018414793136278399, -0.006508362793408681, 0.09872687954253756, 0.0462667299515924, 0.04210171872697413, 0.04064118798882558, -0.012086057536419078, 0.05774006503167696, 0.009576061265785946, 0.006496524677989023, -0.002999710690459584, -0.07972541613906702, -0.11804136521754749, -0.38115173210279346, -0.08531440734492, -0.040211359392868386, -0.024025283994727406, 0.3021398109655882, 0.3750820431707098, 0.3413599759815353, 0.3099921582739102, 0.2936025716513302, 0.10461661422000045, 0.019537820648363822, 0.26262130029151465, 0.23679852673468357, 0.12028658984123371, 0.09357278523672165, -0.22152924242732044, -0.2200936728995092, -0.10628767899224217, -0.08093241130832939, -0.008477223835181883, 0.04821964551615684, 0.003363387307194932, 0.004139268332367079, 0.14537058378309423, 0.051763704183134154, -0.029546905444663714, 0.08209693905181982, -0.009459167083963632, -0.10416755992060871, -0.08754883909452296, -0.07703287817042631, -0.09297448390970003, -0.1709844774806263, -0.18370299889501637, -0.18900272069186974, -0.04737122674239414, -0.28918219513641563, -0.49099280106371707, -0.17973967271193791, 0.010291520596259563, -0.023653227490230393, -0.10349964165577316, -0.17616953944657024, -0.08055667256170561, -0.10554817130392959, -0.12573571364985373, 0.06025555174799344, -0.042443071564771465, 0.02876992138024453, -0.012560560468522579, -0.022866540468523277, 0.032000817139334926, 0.050895804341128434, 0.0011230005757299974, -0.0445248347769539, -0.03485492611266116, -0.011546316057159422, 0.003579949372630333, 0.024060951102080456, -0.07450507396352589, 0.06092469368163572, -0.058680318575879895, -0.07122937994281311, 0.031162910751365645, -0.014071678483722115, -0.044999434212462254, 0.03555410583155428, 0.013463579934947371, -0.05323996241127152, -0.014339617125848374, -0.0371706480058359, -0.018746264755181215, -0.006141637380843711, -0.009010663267818242, 0.012287581067606182, 0.06058482779243385, -0.01622945428272766, 0.05965180337729797, -0.07210522840382752], [-0.02950233251962564, 0.04351352879924109, 0.09853455490419176, -0.031939530669002014, 0.05721596669776358, 0.012380623241385632, -0.028355050432933748, -0.005777256854130557, -0.03401912746201528, -0.02382860339596509, 0.027465420858639237, -0.04387881849490193, 0.013339631212620584, -0.02173135741359277, -0.013841987750670044, -0.013135576749697796, 0.011029693251955838, 0.0009381819005601034, 0.027471886505540437, 0.06616626716409156, -0.030781283957175685, 0.008403243453509212, -0.04669776117308524, 0.07827872305695914, -0.048213202467019003, -0.038307967926789636, 0.005741202557601638, -0.014491777483073554, -0.01199204771146499, -0.06514340357402995, 0.009130115004932592, 0.01882328308446513, 0.018667944401124754, -0.029415557055904457, 0.039508819735309675, 0.04917727995332729, 0.11017715715434233, -0.015434374566317473, 0.096162480516236, 0.018637571287012027, 0.06250222514074584, 0.010245685984807445, 0.01109840808643529, -0.07685853666076681, 0.021121060452121695, 0.01672962242632236, -0.02799602800599939, 0.039463858631257814, 0.016105477990864894, -0.03161782993282118, 0.07255510211311149, -0.03486588723077286, -0.013133123015983563, 0.033321006053564896, 0.010336805415437595, -0.048764459082611226, -0.013796195524485673, -0.06311504101724695, -0.010998240305385107, 0.00614241803166772, 0.010118932934092386, 0.0057069942173035805, 0.0034815856121669124, 0.12232845997432266, 0.13398703731117584, 0.12278496157430319, 0.11730691057106143, 0.18331248895429966, 0.3267853589904139, 0.19872881407087234, 0.18326381849848294, 0.1342565387435111, 0.22517077415135572, 0.09441574620840867, 0.013411903254420902, 0.07778048938228176, -0.04198724831473505, 0.026096304934424497, 0.01346536745863768, 0.03554220861463932, 0.008516525708741233, -0.04656661532264305, 0.014337855789406124, 0.0037860172732533427, -0.006344156101625296, 0.020671464506846243, 0.04782658995988491, 0.04035248164435888, -0.011835425182365994, -0.012314880464675132, 0.05774889767510607, 0.10839021036269782, 0.16029190488273198, 0.30090744831130795, 0.3821457929341801, 0.3583294644428325, 0.4693429065060558, 0.5639724906179207, 0.49716601034980235, 0.37543202787015545, 0.23269589647325847, -0.10949507211118147, -0.05446957305807368, 0.09732150267584655, 0.06580709433244462, 0.11234559712528212, 0.1084678076604597, 0.03872671923982461, 0.05652343151386855, -0.018943532942867717, -0.013436962559783147, 0.023985284530072433, -0.015610540167317314, -0.027353521000233333, 0.025804500129788015, -0.008772454700613793, -0.024730208311846733, -0.12504233384726776, 0.014365087561027789, 0.09690522787938126, -0.016926695885000346, 0.1533102271401083, 0.10441868287748349, 0.022663238892734368, 0.25562380972023707, 0.2366643551317838, 0.17635174464121783, 0.3254773252518926, 0.3014871781025535, 0.3797624063662821, 0.13081807724642128, 0.20541794282343173, 0.24060211313733906, 0.029110489654682582, -0.17446205300010464, -0.15723412673810136, -0.10178495671039783, -0.031523997329873536, 0.023086249068820886, 0.07187499888320187, 0.03645634254375176, -0.012505731003101222, -0.01862028797707975, -0.10072466239921786, -0.055816970731565566, -0.02985114164821752, -0.04482281662022787, 0.23765059175909412, 0.42914497142454183, 0.261285396580828, 0.21569172723986843, -0.036540017584226, 0.14847701601402413, 0.17658800768566976, 0.12121351019598241, -0.005190159934158105, 0.0007839648660343428, 0.17567343516078288, 0.06839034933247139, -0.09760827677205165, 0.08732219793581933, 0.14864688686191516, -0.08962015432040635, -0.2527198677816074, -0.15165349439230566, -0.15716249240995664, -0.06504288235463272, 0.004753979573122663, -0.001094164683097547, 0.04930217079874249, -0.1114365038358186, -0.12837489728971438, -0.1841757770151969, -0.07724213504386788, 0.10631560036357274, 0.3349132271525893, 0.19482363338311698, 0.05053644924616365, -0.12055561453799271, -0.13171782943878674, -0.13401442062490465, -0.14954804369339678, 0.0035325166450642332, 0.03239131792708177, 0.07137541159091405, -0.2617453661253011, -0.3058106351571625, -0.25288751188678876, -0.2278213687141187, -0.01200615856872428, -0.3375233153277628, -0.4280601245021586, -0.42602488850966275, -0.23719809562785873, -0.12516037701159316, -0.027518069534968888, -0.06733516235301103, -0.03769769843598753, 0.010793524490373333, -0.08498957390531636, -0.005446145684264957, -0.1067763560858669, 0.20922252962987128, 0.23727074388199512, 0.2274713552784472, 0.22534235411129566, 0.03221737492355397, 0.15413080733368584, 0.12727112828911488, 0.1412237391166624, 0.24606030074348367, -0.1350565452341015, -0.0994460935567875, -0.131861722370925, -0.2678866827113987, -0.2776754983806486, -0.32557936668533, -0.17941348402983448, -0.2051132827806641, -0.4463403278965394, -0.4493548365547774, -0.2940336035737359, -0.1297808392061772, -0.01035931582880914, 0.06524750379597252, -0.021687915438321385, 0.10529741097991645, 0.044093517494149775, -0.029516529359419643, 0.029825580851996516, 0.14043298887719755, 0.2104496329688171, 0.06789597879768514, 0.07915741826111743, 0.19819962117269416, 0.3003604208643293, 0.23503943162766527, -0.04321265373176154, 0.1982729975308273, 0.10909377490884885, -0.19849943929308778, -0.32710686331324307, -0.47761533724125643, -0.3021918863267264, -0.2102457448438421, -0.29007076640013363, -0.24411020897541708, -0.16413622299538597, -0.5315515291318514, -0.4371283731342257, -0.17877808722737204, -0.016659132606746185, 0.06139602099511049, 0.022086452158188382, 0.07073110079100557, -0.046650538967467736, -0.07982122156598262, 0.0906381144914791, -0.16217222596646497, 0.03062505439090944, 0.004873628716330616, 0.15193822432349324, 0.24226806678634213, 0.16231384796592815, 0.2805244472130354, 0.21700919684840472, 0.3065723792050711, -0.1357582802884965, -0.5165392728928285, -0.30159123130452153, 0.01131884466535556, -0.27347706001498673, -0.36815128386872115, -0.4024777637615001, -0.3048441317115062, -0.09755001926931876, -0.38751443702729804, -0.35440049048645555, -0.10152605740456026, -0.0050680951123313975, -0.020441509663583324, 0.010885897138767742, -0.014788644643638313, -0.10790960045429684, -0.2170375751865302, 0.010886606360931172, -0.107164941602345, 0.12508122552502168, 0.3522883094802559, 0.1738690139255484, 0.08900072320066899, -0.19517867327168492, -0.2499249198117499, 0.07043848460108369, -0.06414911781457408, -0.25345323581847845, -0.10702270667849612, -0.15076109688637607, -0.11782810096634416, -0.31782617399107244, -0.14279045683445105, -0.27324842304314845, -0.3149439095678712, 0.14567298162387074, -0.03512244787546885, -0.23721066258890403, -0.020172636237079173, 0.03460033231686014, 0.015482513013024862, 0.0055372891438310095, -0.009146189818145056, -0.2194503384465152, -0.1354614799088548, 0.07124830396229848, 0.07948262105391239, -0.04162399909725317, -0.12630663338081063, -0.16749434231790242, -0.7009209104977145, -0.8856980010111595, -1.0627753659619643, -0.9931869793027094, -0.7044520281381645, -0.4072407700495959, -0.16181986385202243, -0.4521003876826272, -0.36862306492312724, -0.17880603460376518, -0.07365288111331234, -0.07002557698752954, 0.025616328510404008, 0.49374611281040326, 0.21428734426777657, -0.04684948279722999, -0.11841668241036583, -0.026171318569974684, 0.011530751627814098, -0.004982315465454928, 0.02010274317098493, -0.11369921070543677, -0.1553794764462522, -0.1951059269953923, -0.34887904321640795, -0.8107627254189921, -0.875316099508081, -0.8763341109001126, -1.201232648921984, -0.928824779598998, -0.8441204677548505, -0.8213057889841405, -0.8662574480430675, -0.4272947505938774, -0.3955962736834688, -0.39202880482865204, -0.22374621418539065, -0.21148008935566368, -0.14635148319259686, -0.1437116916634943, 0.24761946960806647, 0.5441537474410849, 0.3871806801177739, 0.06588442860044594, 0.0008553686916923773, 0.044771514235600884, -0.012341250282886075, 0.053032941448545465, -0.00822431642617324, -0.15627001700951282, -0.35061056003115226, -0.4159952419579349, -0.5841428155798338, -0.8086543023320356, -0.7671627626411914, -0.45089823144893243, -0.2307084797769322, 0.13862672360398426, -0.08131867008004323, -0.049236486548097, -0.23049158243196444, -0.14600930088735023, -0.13388572134259338, 0.045416934374382836, -0.3001570146228537, -0.09867445280740414, -0.10982647645614366, -0.07600559039794606, 0.20038197464677254, 0.7046704895073381, 0.540476803704812, 0.11175611194696532, 0.05458048429759769, 0.015370109192499197, -0.010599627376083057, -0.01116544550709905, -0.005773058026478783, -0.19592365874848608, -0.37234560789095333, -0.4185920247731569, -0.32299498127306836, -0.08899181694320994, -0.08438068716612314, 0.11126684427366573, 0.14786786444823097, 0.27172183986114934, -0.007261981606092547, -0.02606672509843494, -0.05065258635322884, -0.22871185691413415, -0.2192417079087487, -0.1492341705907182, 0.08309195603044603, 0.21095217847438605, 0.17827853086641612, 0.1677246477189595, 0.26458509318258877, 0.5202700731141147, 0.504056851922549, 0.22844330561280207, 0.08551383860235472, 0.003073911344457705, 0.02085165503606348, -0.035222035096704796, -0.040668247214179984, -0.14497573457531465, -0.2958388129557933, -0.10153872503626758, 0.006332985028907014, 0.20822989954058427, 0.09342302581930688, -0.107743896247404, 0.28349558490831195, 0.12759292632121905, -0.07184986357813321, -0.07053254454260037, 0.22329799849270493, 0.2901674937907685, -0.06301694532173376, -0.07419250735505031, -0.14138083675350144, -0.21297980050507398, -0.13943789996614617, 0.04001451576666628, 0.0874741818332994, 0.3453704317088931, 0.7559986789500817, 0.49039243766721535, 0.13448895914170347, 0.02202863049244903, 0.012744796907717784, -0.007629475322120561, -0.12822321376961632, -0.14525081401641055, -0.035935491625860044, 0.06600190995582793, 0.16077177940875187, 0.09656661517836565, -0.07644091378175333, 0.05335807335690667, 0.15624358147300174, 0.11895513294547601, -0.13373439612866525, 0.1770608106049972, 0.2107909459488649, 0.04883039559478468, 0.032611314563990954, 0.19915219573189263, -0.07507886386691628, 0.033476591088571095, -0.2563510864223485, 0.05279756052950743, 0.287228893307706, 0.4078239213748159, 0.6237145138396325, 0.643987975093043, 0.2668255618128988, 0.007439606887684499, 0.022894738709151895, -0.023403240276432143, -0.07022499246918261, -0.06532715131716019, 0.10751566291920801, 0.11005889662817352, -0.15976452938703983, 0.02479005998359489, -0.09275400944557687, 0.37188749871554855, 0.1571783823172008, 0.11545011261155509, 0.04692406690371953, 0.3530252753198462, 0.12182035889396481, 0.08390120215108479, -0.22230787742715535, -0.0840564623259335, -0.0813808175853408, -0.09741778962651339, -0.16416181862432735, -0.14252423096089348, 0.20769156030814165, 0.3932217827394498, 0.6465524352729418, 0.6186771489489592, 0.11246673010473514, 0.05728016785229522, 0.0041758251520417535, 0.012550343106483813, -0.012835427501660873, -0.12719219634314455, 0.11238143841507549, 0.02042674614576411, -0.2095091992698943, 0.334953370065498, 0.07306736614315801, 0.20430866642969087, 0.32509150812254756, -0.0353082256814961, 0.38363158458508095, 0.051916363442777856, 0.03478275707217417, -0.05642640477885226, -0.27061381686655417, -0.013619365294582256, 0.12551246603415306, -0.10334721920495754, -0.17068818611430564, -0.15549841797739636, 0.15994136945059456, 0.3375512020481642, 0.6690396425430074, 0.41004039649485025, 0.0696842704863598, 0.048799296658887326, -0.03670838190702143, 0.0017761171552241628, -0.008775074648741572, -0.158544082782301, -0.02869825550436763, -0.28274439676493096, -0.198374036699509, 0.23474946276068134, 0.12172132453256981, 0.19644443956857022, 0.13459381538144355, 0.4058110401615741, 0.654233372717192, 0.4204464359317154, 0.5761567009542887, 0.522571940803348, 0.06646855517866705, 0.0802654667610417, -0.010841677755598746, 0.0726704556652489, 0.04988711461069946, 0.03125234843055726, 0.1522545629817499, 0.3327328430802717, 0.4492770376033919, 0.200625123843847, 0.0032371578884008998, -0.018775053948784804, -0.014032418850643014, -0.03687440579415798, 0.09902940935291173, -0.004649328522555567, 0.1236680366310403, -0.2073601540737793, -0.05161009158588353, 0.13714125804467442, 0.06938225492334552, -0.02641267130597058, -0.04915285104330673, 0.5037520692173743, 0.5822050160997615, 0.7365042344119085, 0.5702073264659512, 0.18982475706671448, 0.040466433183637116, -0.061681783161528066, -0.003676176781773724, 0.13697631252077896, -0.12993808201737775, -0.12249503990042665, 0.14401286063028046, 0.43681495267386017, 0.2778299875794665, 0.08992042176935558, 0.03514434644684343, -0.0019379582642936328, -0.004685180703386094, -0.02519233502860735, 0.03764048664145475, 0.08855172415401737, -0.04302067263622864, -0.05513797038390924, -0.18467986924923716, -0.038005802353899706, -0.005217560265471655, 0.15778421525767142, 0.09310350754566704, 0.31263159102594007, 0.2363031609475776, 0.17212757622876107, 0.4048712805970917, 0.15331420772910687, 0.16598877318861996, 0.010137060516637026, -0.128337497374524, -0.06550496262003126, 0.081579221387049, 0.039678050842790746, 0.34200814451449674, 0.4462974656152137, 0.19476793524646005, 0.12709540929550014, 0.03585845355432695, -0.01608200750622671, 0.016034631932663117, -0.048724823979920735, 0.039009352002106173, 0.05406063342351682, 0.08658768901622946, 0.14387622741560457, -0.00964971196502494, 0.011741335591241783, -0.04421459133900968, 0.14312993672016447, 0.1270087273975911, -0.005910655577263207, 0.19303098403981295, 0.2136464141970739, 0.09886137950944972, 0.01950777048654519, 0.0663743185673082, -0.09011818095953823, -0.005684098227545749, 0.007682066500688256, 0.11023372656421926, 0.16663658950619514, 0.24235683907040145, 0.21625232516910733, 0.07671373315787115, 0.03507153593590815, -0.03806775985045427, -0.03242263891597608, -0.004057540476933277, 0.027329835706813497, -0.008680448757283877, -0.00562307493857929, -0.07350050628256341, -0.067712354453288, -0.057261311511117255, -0.1301828287247948, -0.1848633560042907, 0.057806289722805874, 0.03083298909624898, -0.1957740420150941, -0.13732045620485658, -0.2892927273680184, -0.28813326435911607, -0.05458518926056827, 0.023226054321381404, -0.44245225413286, -0.340547994123344, -0.06737675852661285, -0.012139790224676586, 0.08395013925741558, 0.16452282023395212, 0.12372715404167313, 0.05999408104754104, -0.007086834445014778, -0.018571309024293943, 0.010416673081758228, 0.01829630937609897, 0.0035570275942485934, 0.06926842617070575, -0.1105673665746216, -0.11993575279537652, -0.13888152581729646, -0.15089410152792634, -0.2097067486305143, -0.05091221116111484, -0.1883208238728057, -0.14144765374371074, -0.25935080348285566, 0.02983589724037126, 0.09965738025279543, 0.004252066516224126, 0.2632753239830751, 0.027265911100371788, 0.027765688638202772, -0.17408489407172806, -0.20758385764114895, -0.18625953123215294, -0.28015343088577405, -0.13739923333453843, -0.06155821849360435, 0.10664911688870388, 0.13529768973347825, -0.02322680855143219, 0.08440232786461688, -0.039043788060664546, -0.021482845428962026, 0.02347765702123276, -0.002415582118639874, -0.03470840302309267, 0.007429097600792197, -0.05064227548253489, 0.04501104429788991, 0.11015172968475333, -0.007070001488900203, 0.17070824196268983, 0.10871833603512421, 0.24135494919049244, 0.04397037301667994, 0.11511806790680423, 0.31875973326225077, 0.19338296955109413, 0.049689351880663736, -0.1571338392855738, -0.3156158698037032, -0.3010716600153754, -0.20337836882680987, -0.15204578533001092, -0.014311501093258926, 0.07615322174921665, 0.026197854252854817, 0.06308258363275457, 0.05133952648632985, -0.031403510368519606, -0.00556722040551187, 0.049210658314501284, 0.005678543067489848, -0.04611040561622223, 0.029603239961294756, -0.024774711804663015, 0.005253109535901436, 0.05150561693783065, -0.012160242384924821, 0.11373027967531421, 0.21528198422243916, 0.0781210771365342, 0.1168694249982493, 0.23010964940198697, 0.3152636220100708, 0.27266158454725836, 0.16710482490148645, 0.0837807389012578, -0.035213876452778, -0.1687474688266083, -0.09061837150617144, 0.06518887256427598, -0.06439343919619937, 0.015252730123717478, -0.03197819529046533, 0.011287638994361703, 0.011025104412926128, -0.02465549945347557, 0.006515757321135054, -0.03290361061421046, -0.018288120721516695, -0.02483817276579561, -0.0051906607259043225, -0.03100638691802845, 0.0896070071231003, 0.02480836766406124, 0.013271317448936334, 0.05927278167820704, 0.04640963270156633, 0.0031593271459182254, 0.09045091284196655, 0.05604165446326671, -0.02443176788030155, -0.04037612717990871, -0.03894000892821915, 0.007742329954494171, 0.014219635349160764, -0.06087003319334147, 0.004160453763855744, -0.06475555082771044, -0.04885256338144254, 0.02515943769548665, 0.027953862690934955, -0.05079546955568753, 0.03390158054130911], [-0.05726825247688199, -0.07302033455137001, 0.044227870582348915, -0.058338118087460415, -0.020923717084809022, -0.05338064049750737, 0.0009470301722245051, 0.01334642638689224, 0.019347071199114867, -0.06793558476350502, -0.023005127721485396, -0.0040632683264215045, -0.030317391390570728, 0.012748392519363152, 0.03060216476855657, 0.04816407628698762, 0.03632336621504471, -0.05553513715192969, 0.06568851401886219, 0.026881476693446742, 0.012530120391719772, 0.04938861325776075, -0.013644960308648117, -0.028648426923775953, 0.03615790811345761, -0.05027122654354177, 0.011747018812561596, 0.007483275160723659, -0.031810438625146646, -0.007616340213666856, -0.007153553374497782, -0.03442178583706088, -0.026503805377316496, -0.004658700055010499, 0.0012977759925203892, -0.003901387522315823, 0.07652115101784777, 0.04353804095608785, 0.0009241598319047192, 0.03147072818384457, -0.02229052052110283, 0.00522732375893501, -0.05611747470654713, -0.005584751105707785, 0.03328755423916767, -0.05068400187922583, -0.011800805571680763, 0.04313104458511117, 0.009413679620680232, -0.04469074141947151, 0.006859166424930839, 0.04549927874951441, 0.023582769810312064, 0.007682982865511204, -0.02916770918290052, -0.0037975651095973647, 0.0062116331259416185, -0.035848156269077246, -0.007495869229350293, 0.02013529606555531, 0.004092174855196055, -0.006422373616809653, -0.013852245759439094, 0.0014277278271592627, 0.003926194643309419, -0.001119930728526364, -0.0015690354896939667, 0.09663902595437668, 0.10311930161314949, -0.03372623139585345, -0.08159707911114579, -0.2312692073616252, -0.20589014820855472, -0.09880063410247414, -0.07071868206383751, -0.015756798547838267, -0.03905419129945571, 0.05727192226495102, 0.015474744392693154, -0.00861627788135818, 0.04315846294373273, 0.057029940271374376, 0.003901823330355344, 0.010819657860053922, 0.0022860046251172413, -0.03783759830924952, -0.0871319547820203, 0.01658911857882446, 0.06728111451152949, 0.010966448677334205, -0.04034508480990604, 0.0749170523912065, 0.08322905491914426, 0.1841369793429315, 0.3038883364512347, 0.3198125561446243, 0.3259898038571875, 0.16694769332506884, 0.10007508924621435, -0.06359631057540718, 0.006829402507657818, 0.05847565555516488, -0.1260013651948156, -0.16287538234727997, -0.12305282945753787, -0.1597043984966257, -0.13693327723134913, 0.008457405744835977, 0.06294489360401245, -0.027989405551358777, 0.016355268579887058, -0.005418651427357974, -0.026541695243771955, 0.0801648025548687, 0.018619371600173865, -0.026476172558493324, 0.00929156435184902, 0.004816889550160657, 0.08738367231016386, 0.1608932659483909, 0.3078391686784467, 0.4564956609629748, 0.40519575502129956, 0.5303454343285272, 0.43610369728144305, 0.26506838835239616, 0.04561386956128699, -0.22158992408059847, -0.3090774303073316, -0.3524349287161664, -0.21448292284265894, -0.3697423988510969, -0.4806357952424216, -0.46280482884128993, -0.30375193864279704, -0.208713082398042, 0.01897607979993048, 0.02795547391350165, -0.04804112913342073, -0.042729088077679056, 0.010013828936437385, 0.04538379276040034, 0.011108083062088617, 0.008348459231206579, 0.02797167514447533, 0.08459366304418965, 0.17010793914515393, 0.19700238676696866, 0.2886094534978312, 0.24352611479420735, 0.5424770202916248, 0.6387047419880931, 0.25797305517416375, 0.41583636386000333, 0.1450321904308723, -0.021147352745887228, 0.04832051827964723, -0.08621657912079997, -0.1577594574589897, -0.18246172909724287, -0.3416612710154113, -0.332464966326252, -0.3329597954189476, -0.31541770210710024, -0.182318315838959, 0.08526844334984697, -0.017989036166725245, -0.018332224580657853, 0.06706025171250136, -0.030164510679344603, -0.015110451027086327, 0.07106749984356002, 0.07546359775058178, 0.12558123846693675, 0.13992544515788047, 0.1588601621211498, 0.31476778505209785, 0.28308833051829724, 0.30447224466599526, 0.4052186239171126, 0.3641839753599678, 0.6830224293765569, 0.662280176284322, 0.5293851836220541, 0.5744778052373888, 0.6750283468747977, 0.40934116794148157, 0.18767188769618393, -0.0258807459316227, 0.03983132961202321, -0.33203845897637585, -0.580826811463698, -0.21285450540379858, -0.02734897287455485, -0.01818368240531506, -0.026403421959415363, 0.012542978820101422, 0.04116850123002026, 0.04685781084178291, -0.0044398984603768385, 0.08732276625072047, -0.0007257724603236725, 0.16093575481425346, 0.08453631014514258, 0.2672440929869041, 0.26172533508906104, 0.2824116365672315, 0.32754760206661565, 0.6822418208283604, 0.6971436030396825, 0.7189810973728843, 0.681510159896919, 0.784356866032935, 0.5958667348812511, 0.5085756503436859, 0.391079789294028, 0.5008663813713701, 0.5134131890523694, -0.13893983585370104, -0.3821429333885928, -0.1949220323093398, -0.018257481831739718, -0.009680256460946985, -0.047472391207396755, 0.014964394786050458, -0.028994465776934833, 0.02910136457113157, 0.015350905910181262, 0.0523299993828272, 0.04994188056669122, 0.05466053080070164, -0.048184084420876634, 0.29682362147138974, 0.0610182739391878, 0.2405951918226447, 0.489657694834976, 0.6829574653482964, 0.4592164252653796, 0.925095794500839, 0.7250087790213188, 1.2258340281709785, 0.5252465923762967, 0.5516224085502378, 0.607129736357209, 0.4089120056030118, 0.4275021416368616, 0.31661030426777687, 0.2512575250220429, 0.2648635724468728, -0.05766262853618282, -0.014832249581793161, -0.017686084482852242, -0.014350882971690291, 0.03230583578624796, 0.027573756770159673, 0.06480517565049658, 0.03199115206452771, -0.017400380071676227, 0.004723076756664464, 0.06301925800133132, -0.02755731076181701, 0.34761592374616856, 0.3626594283612571, 0.25632292320962, 0.1623532598067741, 0.3695124925641067, 0.5770580236982097, 0.5381107923143441, 0.3541581072966057, 0.5526911286289186, 0.4379573196976015, 0.3899816048285546, 0.28237374141549887, 0.04387206803294414, 0.3695864808204366, 0.39577311485871947, 0.22580830838858412, 0.09391353825374435, 0.019287049166209314, 0.052194797329188115, -0.002348026110811487, 0.0046475608242711386, 0.008900461720460832, 0.029908095390718675, -0.12339288028717602, -0.015071525354053891, -0.010570600984323981, -0.1044219630789113, -0.06833961699589629, 0.025912277614434744, -0.18593314637243935, -0.0036496375143100696, -0.07500743918700829, -0.11502887239864361, 0.38412713526151915, -0.11181911883794837, 0.15874726656501953, 0.13258437042973692, -0.05569094246747266, -0.17985857744852635, 0.08613782360182377, 0.08496196013170945, 0.255874862778386, 0.47971577973699675, 0.11314405852606407, 0.10882744667681354, 0.08045331450210644, 0.0634990812587686, -0.03734796162009282, -0.02966857495382861, -0.010113731322045554, -0.08859089252346342, -0.21300193847278284, -0.009418612675137114, -0.044150811613312496, -0.030525035474546772, 0.031616640622161976, -0.2822629861620265, -0.5121376730945693, 0.09538804928625405, -0.04404447527383758, 0.0067929006761142914, 0.050884468964091475, -0.26120471804056977, -0.27582079824799743, 0.22936310023903286, -0.018713217424733114, 0.2204445434590604, 0.4699911764397678, 0.1859931028978252, 0.29813344506540035, 0.30338250202693606, 0.26775750558902967, 0.17469543762364656, 0.044768776518220865, -0.05359823424622887, 0.014898729669411128, -0.04123751368977625, -0.005779337428771401, -0.1722638492915796, -0.06092779579436468, 0.10744893962014485, -0.12933047094566524, -0.2870199429810211, -0.22269270748854678, -0.23348481370152124, -0.020753985483683648, -0.32056653009400643, -0.504540188648412, -0.14658796311730513, -0.2153385983607256, -0.15862000718791708, -0.2053367485564198, 0.35536922345708466, 0.11815112225169772, 0.21912013963938462, 0.15411808365375057, 0.1080482195889986, 0.2558466950579946, 0.09804513281177726, -0.05686031224916279, -0.018421722925268138, 0.014737150177550597, 0.010130404076613154, -0.010266274679679247, 0.002022044147551152, 0.03930002083563215, -0.06315298109376905, -0.0005751376794179884, -0.14808992675632368, -0.43898459555233277, -0.2500559902948542, -0.08769992297281635, -0.20944338964902173, 0.2701853609938723, -0.10619441240685148, -0.3114092449076522, 0.3411806534443793, -0.01969925455128951, -0.28045323862657856, -0.1111488483956153, 0.0049888074797498445, -0.023703494558367812, -0.2512638312918684, -0.2288818135325633, -0.30729816858907677, -0.1756425561297225, -0.2902190237046289, -0.31836426523950795, -0.03650143248152603, 0.03439813288712113, 0.005879597874408911, 0.037933387718030745, -0.0236943230768043, -0.02850698026429145, -0.09844917989924196, -0.2025267167244228, -0.28767190182251584, -0.09577732986077113, -0.09926392366652806, -0.1989700659457268, -0.25178622878826534, 0.06883907333799186, -0.12991937814134175, -0.2309037595833351, 0.30074275272985757, -0.2860526866551105, -0.1669671380193639, -0.17092924563830708, 0.006155970626710964, -0.047173682518516676, -0.02262525737213621, -0.22262538285368225, -0.11185493393613052, -0.38266156169061866, -0.33868888274160014, -0.2758892619173908, 0.06205300921720889, 0.08412993320361987, -0.06775787283821781, 0.00010174731366536365, 0.04048510585088293, -0.0499554466324208, -0.10513755211512804, -0.060684069646534056, 0.09063515871017348, -0.14162935781595462, -0.13200055830587784, -0.08055832067984324, -0.10351821060118703, 0.3070268892851618, -0.07960304657388859, -0.5090164616802805, -0.09696525022814746, -0.5259087379757794, -0.07728386958362654, -0.3036736730663484, 0.0242963551707093, 0.1455696478643477, -0.1013900213402098, 0.058365868379207986, -0.17047936257702304, -0.26758548068663845, -0.16493781224312296, 0.03641583081149532, 0.10173725755934102, 0.13376862553409646, 0.05771593312190219, -0.042098167801714124, 0.03484378552008373, 0.04336862722438614, -0.017861986287154068, 0.2146018483467572, 0.17420397000642254, -0.04415720249905775, -0.05170869782738447, 0.11155906627303108, -0.048439406101066056, 0.2700790584839489, 0.031795041458910454, -0.19754571639730537, -0.3513572669229378, -0.781443430602975, -0.4182798250431839, -0.09428995289608365, -0.13703695568995083, 0.1158905762956008, -0.2227264273424194, -0.21449069506113064, -0.25724689676135803, -0.05230829852671874, -0.023218760030070035, 0.114452554507815, 0.07487141425551203, 0.16512661233684503, -0.03497049009852585, -0.0522362110088734, -0.0029284116212973774, 0.010782373079707704, 0.15137182673804875, 0.22028378159527406, 0.06149224830652402, 0.00029083476150138773, 0.1372888922943788, 0.10387518506931287, 0.1091665966498587, -0.188719328812197, -0.08466886218612593, 0.00985845409482556, -0.3410709523499272, -0.5954305920490593, -0.3110332850129171, 0.1530753463971381, -0.04559125727658808, -0.13173921449246065, -0.1401484635416575, -0.28129301181690486, -0.08805109889389334, 0.14064111465323575, 0.03933421456255615, 0.19777845887930898, 0.13812786231811067, 0.0315455451854891, 0.0013692479800499343, -0.030213191086510625, 0.038058449595254694, -0.05635323374031976, 0.04625031265454951, 0.23070577641376652, 0.09583681053684003, 0.504426382650627, 0.2765598532298822, -0.035277347080508156, -0.006055578340044456, 0.1113078433691627, 0.18395618791061005, -0.6550176694140264, -0.502213562932107, -0.3026960450104579, -0.09797379894233682, -0.1713380761736781, -0.07281260197890532, -0.04693543461630737, -0.0389519068480947, -0.19565464466404328, 0.04343464089921526, 0.4695928520751577, 0.1558691630835947, 0.2272353712471124, 0.10945322667299308, -0.0060702878671418155, -0.029408488529051313, -0.008975823144050135, -0.022181940328220007, -0.030109470154272927, 0.006267212102918254, 0.2925341726037267, 0.24493920444847353, 0.28837863323009794, 0.27623303664688154, 0.34670944394820424, -0.04822583549977922, 0.15811077042082058, -0.136593712095476, 0.11436583961662673, -0.1934271208795703, -0.10967610008331596, -0.5256802752311581, -0.29630948888682007, 0.04764864324762426, -0.03090021663801354, -0.017875554772865936, 0.05147531725824222, 0.305605860558155, 0.47774574303838724, 0.16596590651791654, 0.13938807454742852, 0.12426181275692458, -0.04683428981193891, -0.024480422082084518, 0.04109792834300458, 0.002149750524972155, -0.029767979514954232, 0.11224294902304623, 0.16699186857956996, 0.18873042955215327, -0.013186876992118969, 0.08202841981041636, -0.11209479844493159, -0.2535972099562781, -0.2988561754149471, -0.5530180390983488, -0.23016433922271728, 0.11997941816890476, -0.2712942564485734, -0.17510355507114528, -0.24678191437765273, -0.15250728135732208, -0.1866179470678111, 0.048056751590583265, -0.08659486211743989, 0.12220165481163865, 0.3386935941789428, 0.25498264512821806, 0.09464450035004224, 0.047800520426035664, -0.09653432203883701, -0.015761270205499323, -0.0004826064806044778, 0.04825865625974441, 0.0002841615818256569, 0.01662632816537844, 0.15035702014197558, 0.05338207162977208, 0.02790797746775763, 0.06717141773886394, -0.04335678096243969, -0.08404409148615336, -0.3884912351121517, -0.34135268316223827, -0.3654294253704123, -0.3888816911545077, -0.43701853780193695, -0.09677862036632429, -0.20387238632278143, -0.6881610706154362, -0.39697980516455855, -0.19718094848998616, -0.12467464877562254, -0.08946185009015334, 0.25263688647138716, 0.22050369286949661, 0.15538771272119253, 0.0729435653924847, 0.01945625532331382, -0.014307792693883796, 0.04118703374964233, 0.05397701960678207, 0.035935449494727954, -0.0015021543867641816, 0.06942686462571582, 0.006731489678531933, 0.13245901578167976, 0.15429053612131513, 0.28963742282385857, 0.10082833977150744, -0.056550674116062336, -0.12442933850560381, -0.20218482924965978, -0.20483379968398943, -0.10823662755095248, -0.33363997427580183, -0.34489239920168535, -0.3872657071754004, -0.33856803391795415, -0.3117239243806637, -0.23043854714388615, -0.0005983561845662095, 0.19908338633368505, 0.3342461987594481, 0.18443563336700317, -0.030119623468758367, -0.028550466809148203, 0.06350232382303209, -0.06374810847862773, -0.04197110420226575, -0.013889139115614924, 0.10825486710271512, 0.06891589355664421, -0.10163064507922091, -0.08455229330947961, 0.3325652111975829, 0.19639329489881985, -0.20503989343259169, -0.03008456959523578, 0.08151201602819247, -0.05111080916179848, -0.17082350785667477, -0.2828843903766824, -0.19422214647694255, -0.1545210597346278, -0.21774819027761602, -0.057266806496257254, 0.046177942225271044, -0.11408948925238177, 0.07417309776621996, 0.32945980805920844, 0.28852798371510896, 0.12286456459504587, 0.04119622364328769, -0.021589447069541138, 0.014370157427786768, -0.003948994857951271, 0.02934846531267318, 0.026535778733790902, 0.03770084380882221, 0.024431049348979647, -0.09655101653640605, 0.041647174793000084, 0.15811376542878153, 0.2652667978415956, -0.0690408538763574, 0.0343161133538356, 0.11696853522537763, 0.17262108305979887, 0.2911884951805264, -0.03213735960352659, 0.08556949503554574, 0.20591182067668046, 0.138768126196624, 0.21071854461772946, 0.10061657989569159, 0.14815505599641016, 0.05143334209729479, 0.14514633749914216, 0.10196965247751656, 0.01251922321504101, -0.06439106910224988, -0.02045890640926862, -0.007555003154321357, -0.01694087168619964, 0.032645811404169986, -0.008543793692415308, -0.02031747661879363, 0.037116327733540205, 0.11209259394151706, 0.1724156050321142, 0.31594624196289645, 0.4780703055324052, 0.353759683951959, 0.32460007816238884, 0.44684621952983145, 0.407724481611237, 0.2695603955951866, 0.16480633880953272, 0.24983081971235438, 0.46640595763380277, 0.39241712080705765, 0.4489573123761811, 0.5277869131889706, 0.26590675268930036, 0.10757169751083014, 0.018484844543988688, -0.0262157818604469, 0.02320616225791861, 0.017122091658890802, 0.03673579118706016, 0.03869219432163691, -0.005909600849820009, 0.04738256802264102, 0.05332633886246242, -0.025365002319819963, 0.0785187559363594, 0.004027781093624653, 0.09348391978953487, 0.15671021364789595, 0.27825617910756273, 0.428718647225825, 0.5468574460246302, 0.47574283112802923, 0.5170156247027241, 0.5934117131863089, 0.7817319872258027, 0.6227853267221903, 0.5340157054657793, 0.5147277627080536, 0.5969278614628286, 0.32388227075574294, 0.26362006571550717, 0.16434786783411062, 0.008233625807620217, -0.015828083347584194, -0.007112671200159146, 0.06085391199233589, 0.012185966811427602, 0.009177131531468744, 0.03560164643140545, -0.0730398860225839, 0.011554562604152243, 0.06680993842816299, 0.005074437168048552, -0.035005937870261995, 0.0391669764683631, 0.061419544363995174, 0.01527262468433005, 0.010470996911515137, 0.041249127845467845, 0.10492593968583751, 0.13007059619992187, 0.04900758062864753, 0.12777779904124334, 0.11926576252158783, 0.10445876765520852, 0.047705983323541194, 0.06639268012311557, 0.004097226069925826, -0.03603358217558177, -0.018070880892416912, -0.014155240614542635, -0.03293825952022439, 0.010063297274371505, 0.02473318305253631, -0.04035292055501695, 0.0012463849803005032], [0.012944321674924172, 0.020251070870751425, 0.061249528649671876, 0.01179371355082052, 0.07242955744174348, -0.044167997695178596, -0.03692436330522419, -0.03883465109594227, 0.004057077968326704, 0.015551808397595745, -0.013478443400633103, 0.056302165791331675, 0.016344454280307907, 0.0360860148652671, -0.027837216036266203, 0.0355159594195815, 0.04871808491061957, 0.020347394984547146, -0.009891684155650808, 0.025603967228055552, 0.0008016121388111482, -0.008743122215390068, 0.08739631741735669, 0.07473962034408939, 0.04957733747793457, 0.05450884689890838, 0.013993757482340344, -0.02966998281575323, 0.03310473179778369, -0.02279764368837729, -0.026897719200916936, 0.005429567511343493, -0.04049485496384742, -0.0507129677343371, -0.059867502818883075, -0.03078958413204099, 0.025853350439429483, 0.04879790651200653, 0.044832596611034996, -0.0510773418624998, -0.05868695693161934, 0.012231726794946749, -0.0206766954414644, 0.0053592258233071555, 0.022598662424430715, 0.013923332083522127, 0.002276959111914928, -0.00420964377796475, 0.028549359283817927, 0.01018970532712623, 0.023246299764778013, 0.07761853106806559, -0.008535072234506781, -0.04246706575250047, -0.04242618049702317, -0.058879634307186554, 0.029478340533891416, -0.0688575044149625, 0.0011633366390462713, -0.0033987559093312416, -0.006001462552331924, -0.10779458363479742, -0.043092219209860616, 0.03271713245739879, -0.027486928887599644, 0.05055586187806064, -0.005336604501300795, 0.05526510693033619, 0.05657169615726014, 0.15594577338481017, 0.05148191716796968, 0.10682968333234584, 0.008773568953103841, 0.02722038754796705, 0.07881841296094627, 0.035688872571863574, 0.055511374150569684, 0.10493958676073104, 0.0557473377918281, -0.030834384163529183, -0.05575077761536671, -0.01998668210735653, -0.01645261957208523, 0.034171948603549704, -0.015452166924539589, 0.06298165763090921, -0.025875603286638866, 0.010507248893105073, -0.04263811137604607, -0.014279527052974897, 0.04432056121636483, 0.022801929463006524, 0.02779898654033836, 0.06081663476721467, 0.2490816080921952, 0.3885724365091485, 0.5252533710452394, 0.6019827580495972, 0.6180670894275655, 0.47410111466740396, 0.4742261334624131, 0.44180187169495694, 0.5009525709903694, 0.3262935527192251, 0.23382515935194376, 0.1992795852142057, 0.0026604375422089187, 0.047771165123923126, 0.02343180525900231, 0.02274772192792903, -0.06404901636355756, -0.005252706886069966, -0.04882960706536011, 0.02422494610973404, 0.0020613886449442564, 0.010164102615619173, 0.07920402034568681, 0.17097473548657754, 0.21130073136052163, 0.19857236808175957, 0.3984593060269761, 0.3780860148816454, 0.35670239914310264, 0.3134053712987544, 0.3713157687071371, 0.6535361544701573, 0.45807911052179756, 0.12070229006657873, 0.05508054573487931, 0.11816630232474394, 0.3964993616484207, 0.16973011847608632, 0.1433089532828579, -0.006786261250845203, -0.24493009350669848, -0.2416485369483418, 0.000506599971873528, -0.07743828145902783, 0.02322527215226093, 0.004321961973308407, 0.018496395775191566, -0.03543539091715405, 0.050133178838920996, 0.07283749185629841, 0.16707293539621848, 0.38043264247578706, 0.444361883778799, 0.3039405561201304, 0.2136011631863424, 0.24738739519349404, 0.30092280024908696, -0.11980014587626575, -0.03505127680191842, 0.035711750209237995, -0.4996704542273279, -0.0997251119144741, -0.15217243205937198, -0.788923738282884, -0.3800706454818467, -0.14419540178284598, -0.3806448910524867, -0.06697753485819534, -0.1659144046054869, -0.021285344009632206, 0.13482273927219507, 0.006120796585874334, -0.007918587407388746, -0.0006461708503774167, -0.006266193272865221, -0.12487820838754059, 0.03871355768576958, 0.06359406994550024, 0.16386447086065498, 0.20198899666785927, 0.38051032746851815, 0.22745127731546058, 0.3015597072906143, 0.3210149703425703, 0.3322156785479593, 0.03617092179060131, -0.10490270569022961, 0.21098439662758287, -0.12317347989464415, 0.013849057499246774, 0.17464671586240138, -0.16396319023901104, 0.32186584557984405, -0.31813275379004335, -0.029667321983279635, -0.2233127968163918, -0.37484082793194595, -0.33310380569592546, -0.08923777716918942, -0.07241219181656659, 0.04237926748431338, 0.001312330028345992, 0.06663928147206045, -0.01024880530554409, -0.006195073107994495, 0.08086241121987471, 0.18903507175206571, 0.16551814576131182, 0.17445015700320987, 0.017014539618148413, -0.11474202102249137, -0.15277935919155092, -0.24507931343972386, 0.0003365828277704494, 0.19453884738896712, 0.13444085186383287, 0.2924086335511313, 0.4361791665201454, -0.07512875129179712, -0.2793085941856067, -0.15635547628091293, -0.059390744417315816, 0.08995925183375705, -0.23315026989739374, -0.2855101603189237, -0.5457020670238628, -0.5030166360638032, -0.17255630196231977, -0.011133995842493048, -0.026783364782981343, 0.013729536540421002, -0.08919169149438576, -0.08974102521013283, -0.1077872311223612, 0.1768650844167936, -0.010297078918549198, 0.031146527981827314, -0.1633061675463121, -0.337807400816743, -0.13361370758261273, 0.05536590762275051, -0.14183107015010238, -0.0490038175913563, 0.0168076135198676, 0.11075074287419229, -0.020959464658949375, -0.1167053422060205, 0.19234962611298953, -0.07897767395979666, -0.1004288985581825, -0.20984965523234858, -0.02299360042260853, -0.02266399560860897, -0.8869641857590873, -0.8609771688126386, -0.39794191008325647, -0.10174873894598147, -0.032136233352181846, -0.030634393787305716, -0.07018171442145303, -0.056271988888490346, -0.09652454808119926, 0.015448816310773088, -0.2147408734900874, -0.16973959107242456, -0.23064355601155034, -0.19055216854258522, -0.49880122634836327, -0.18985566329028494, -0.5066993378014049, -0.2969732209194878, 0.08745137470664069, 0.16395687883342114, 0.33779921945104624, -0.031582586444830946, -0.21789133684670461, -0.3338195444398932, -0.08614273080877463, 0.01894696337247504, -0.2731309793977562, -0.22027433916734823, -0.912996600844746, -0.9398636431993499, -0.5529767958139777, -0.13326180973078336, 0.03528910535297126, -0.06959341995792782, -0.03678987290937233, -0.1121138065067133, -0.1252389567154958, -0.17964600869242106, -0.43125514251080593, -0.1974280642565601, -0.436222659411937, -0.26847092986553456, -0.6327819710287467, -0.6372109374226881, -0.5991750155803097, -0.5760677411263981, -0.8955049047608238, -0.17060794010489017, 0.528475496203662, 0.2578703373951466, -0.04735448042818201, 0.16238709329813475, 0.030948132023037853, -0.017410985854455024, -0.22712901804488095, -0.39595777042725355, -0.7718881177422371, -0.7072249248793243, -0.45464966262932177, -0.17647763468269292, -0.05004834192734306, -0.014002344301872555, -0.028920999645110794, -0.1188801209329798, -0.05796269933108936, -0.2213328143222706, -0.3870455415116144, -0.5080849053241833, -0.6943952183890297, -0.27985996644191424, -0.2917076533675076, -0.40584531581156563, -0.09810221811678455, -0.12199545839607506, -0.8698496753725921, -0.19126129915494217, 0.6487070711356178, 0.033300361241147415, 0.20908694131205016, 0.007931631273581354, 0.10857004992061314, 0.1277486321177864, -0.016660761572464735, -0.2852516533378662, -0.3220784754595659, -0.38439432508133786, -0.29702498612955347, -0.11204738242814281, 0.029391851938844017, 0.020391522371558852, -0.025332193184055996, -0.11430553637740926, -0.12754028631911535, -0.04228110214624157, -0.06946113208384688, -0.348794504997208, -0.4327319160936322, -0.3868439258066832, -0.07129135385421449, 0.0878549545029041, -0.15665220303420127, -0.17702104026944032, -0.31121464906288343, 0.16090182984866805, 0.29812423265621235, 0.7293369245628919, 0.020373868379177245, 0.19462621983865186, 0.19282759436072916, -0.01623463968739773, -0.20156304804093947, -0.37232821769485325, -0.016786069859814984, -0.051965299354183245, -0.18807266134924921, -0.07046280486073986, 0.010722674181126823, -0.013910662524651979, -0.0183689210753629, -0.10532576384491378, -0.01607428610759037, 0.06757126286868768, -0.01761089742872883, -0.10247264942319782, 0.08312442536582584, 0.0070391076098456325, 0.09507160799202373, 0.0789755177862827, -0.535887403526702, -0.20825771338498125, 0.3421511836925357, 0.1994595127394791, 0.0720050621513694, 0.47298670288447686, 0.23859857983199081, 0.38795448216999895, 0.4458453069062381, 0.031797521101729516, 0.07682681839367307, -0.5321488895038688, -0.22168413114164331, 0.009043255359068119, -0.13533707865235686, -0.062381248950521745, 0.006058670314205772, 0.00491791529424974, -0.060331227399786864, -0.05996383406140076, 0.050088427238933836, 0.4215131430046857, 0.01720117305417374, 0.0792395381270374, 0.31344163953355886, 0.08122042055473062, 0.1806671851680588, -0.10903343455862917, -0.19217803327448624, 0.1552287904216307, 0.09306207576551397, 0.299751057670065, 0.3129101629365102, 0.06745783431785202, -0.02771182425220544, 0.48983606058714, 0.29236454284368746, 0.04333668115454487, 0.19971787482335124, -0.09413142210557988, -0.33323852419292166, -0.07589429224974023, 0.07103878421553804, 0.008804598729462373, -0.004142175333382084, 0.055832862943565535, 0.017764676905107184, -0.10780180949239217, 0.13076606016370795, 0.31289421633054226, 0.44965312118340234, 0.6220847457925954, -0.003819345041994571, 0.06637171827193, -0.2693288836395709, -0.2793855981831065, 0.20946900389715437, -0.5089553411752908, 0.31274855545752567, 0.3354297449248606, 0.4474926529650704, 0.6711595891431938, 0.4335889331159638, 0.1387169723724946, 0.36257533112043794, 0.1815216381023834, 0.11939864053524094, 0.2012439854603178, -0.33240444070511355, 0.020274458572234026, 0.1563895733384077, 0.0482548783065538, -0.03515700932548487, 0.046913167445234834, -0.03928737925020314, 0.0315691334497012, 0.10540890659672057, 0.3138178425565414, 0.6072289749645792, 0.648304345535341, 0.48019476139307654, 0.2314169732306582, 0.0469252892831688, 0.22406769860130255, 0.2967831664145973, -0.21630026937193647, 0.6513316402456804, 0.3782716604060865, 0.06875551426297731, 0.4009438188066337, 0.2698336560590337, 0.566046061706421, 0.17391538126418346, 0.13847755669195427, 0.022905232016735753, 0.22992029959830831, -0.19416884880484758, 0.13697707252013844, 0.1968786002052533, 0.0620866020140839, 0.013224853982156276, -0.016250602790659936, -0.037065135340835706, 0.06087513172200718, 0.14701725166476928, 0.2029846065348609, -0.21557219215806284, -0.17177244020968443, 0.2549739568121859, 0.2494680414485423, -0.12212978042413916, 0.02192779852575148, -0.05987831156169762, 0.1267399092484892, 0.35907438596978725, 0.0720843289975635, 0.28679896967780216, 0.09994519350668059, 0.016061380475642005, -0.004526936793109052, 0.21200920058647618, 0.0847106833073452, 0.08182257975234761, 0.07000449838324281, 0.012362066926996778, 0.023764202630469546, 0.15494429025499784, -0.0048666883013859805, 0.00342885642557497, 0.0011331227234427138, 0.04394256907494725, 0.0845027053949931, 0.3016754564600845, 0.037480133117962604, -0.16459356833060093, -0.24196319761275442, -0.24196355826126517, 0.0518237276477299, -0.13225034266452004, -0.051380688665536675, -0.0395092619222985, 0.1704506229331388, 0.11628938316715147, 0.4394010416873029, 0.37152267358711066, 0.16898542816801262, -0.17676532924289234, -0.006154902581076993, 0.2014670675399732, 0.10935360971122007, 0.2718179942984422, 0.014698799741407184, 0.12444204641015112, 0.08048761565010906, 0.1465610290540631, 0.02234239016306202, 0.02522521494621936, -0.03174588263807735, -0.05078375475076817, -0.008959739422425086, 0.45631705708195053, -0.03855961628972639, -0.19205880787546498, -0.033841995191456475, -0.057217526503070056, -0.380982700624188, -0.5218853876778555, -0.4218257570364384, -0.2462166560731887, -0.09752765770699258, 0.015108370494204682, 0.23602272572046892, 0.18830787035148536, 0.2208265022373956, 0.4022288739215046, 0.3391192059374923, 0.3964959357483262, 0.2927555742938518, 0.4351905520048669, -0.05411983924348589, 0.008131020109789708, 0.0810987212933516, 0.08160981675994204, 0.06429079109000127, -0.0250188055887651, 0.003918166816116143, 0.06346475540999265, 0.026955566667864573, 0.2716473586311729, 0.21070679531588912, -0.1100623993224532, 0.09784045580537441, 0.10766200299731482, -0.19888939787472754, 0.14248883138027943, -0.21290128497830701, -0.18591870670245503, -0.11685185125933541, -0.04768904289759122, 0.3983264877251889, 0.17467187900337264, 0.4487417188750098, 0.21341470150621258, 0.24379352998795006, 0.32695711021550533, 0.456779087288392, 0.24704465675519593, -0.131598506300835, 0.053259338746504126, 0.18351525753000822, 0.1114703613290107, 0.010315815144903734, -0.031056441471399816, -0.0013061165741106635, 0.02838348997337855, 0.08948791199228676, 0.07441599397104451, 0.0954163664470801, 0.014248608489146811, -0.22529593428663564, -0.13669176974189023, -0.0484094707356731, -0.20402461783936454, 0.1818397188609234, -0.35992295079563597, -0.14829313477262698, -0.43870456872626573, -0.010958518024177185, 0.13138424764511047, 0.3604100895313168, -0.006324223017627649, -0.09249393099223836, 0.04642531090031786, 0.00024984639921631617, -0.10918410820788757, -0.20330682975129014, -0.03726041510508414, 0.21027730841059525, 0.08941689263171843, 0.008716244589140273, 0.06794430198900839, 0.03383462610168633, 0.02877852502808648, 0.05282512301131166, 0.19775926799462784, 0.35205827648848437, 0.06970250221942027, -0.0007377493020160866, -0.09153988836352113, -0.1089137341027667, 0.03884935464789227, -0.07141465892047248, -0.11837825737194362, -0.4589364275114296, -0.41579160319741487, -0.41043603116421723, -0.31864833940620724, -0.09544049276642916, 0.06494067559095157, -0.13979598316865238, -0.08297659967713411, 0.1850802683531078, 0.03199732805541602, -0.08185133625112678, -0.001937460460339689, 0.08645134971428453, 0.029266437528863227, -0.02508679846705192, 0.0496005588824923, -0.011414139968357538, -0.006852277457744595, -0.02491483542140311, 0.135333606855041, 0.11991215093441551, 0.17491991534795867, 0.25749475226113017, 0.2664179087055011, -0.06016874156127237, -0.07625008355573887, -0.1313034682394238, -0.20529236465398953, -0.13810677146016564, -0.2519117403358849, -0.5542133635533807, -0.5244816222338061, -0.4682883261802745, -0.21859895037258895, 0.11220361916783239, 0.11161418263854547, -0.08094898431100313, 0.06139422691809881, 0.10395785932917487, -0.008961426852169116, 0.05864385613569651, 0.042064730993872784, 0.0441327117210139, -0.008931688700839461, 0.019453166907791367, 0.013509112993448641, -0.0321437817008116, 0.12337159108572278, 0.2539059980269341, 0.1572521857944394, 0.2227714588151309, 0.30692981345245335, 0.016796539622167848, 0.02747228694759551, 0.07195199479760316, 0.16132791409346142, -0.001000760126214635, -0.1166101725540112, -0.05257994022253974, -0.25108192766413784, -0.15383589119915164, -0.15949867173044482, -0.32215268629978, -0.5029426202456219, -0.050382541905298076, 0.14807241314547626, 0.09990901823405215, 0.02713966901349696, 0.038123481472259524, -0.010180922827622809, -0.009051247622715345, 0.06636139471682803, 0.07984222396046113, -0.08119661483589667, 0.05383974765862598, -0.08374039507483294, 0.06871196458797856, 0.20149642384329594, 0.2845633371141646, 0.31645699977576525, 0.550370889429617, 0.2837117224013899, 0.2739809167855871, 0.2557013187160684, 0.2678779187090917, 0.14818076300883629, 0.12158996683165485, -0.26279370554930503, 0.07294400162654986, -0.13062395242899597, -0.30586770463457974, -0.2893140959933644, 0.09431264280086302, -0.021720655551800246, -0.026050155600099413, -0.017450122720018467, 0.0065421937885120985, -0.004442995407799203, 0.03493066582731298, 0.06500829536578874, -0.04426488127683182, 0.09111689250574848, 0.0013081846198728607, -0.03290756770458229, 0.10302226412236072, -0.0014491375493184168, 0.03456192562086099, 0.0665814870621155, 0.049161182927981974, 0.07791990303626423, 0.2405105195951867, -0.007388886872209774, -0.022174661685219567, 0.04792568958783446, 0.18225262743668535, 0.11080992228094579, 0.030027131394147113, -0.025713984716736298, -0.12494175257452056, -0.08699813462649736, 0.04942122427862729, -0.043475453254495026, -0.007896174849505933, -0.021585956435097767, 0.05811808343220157, -0.008277419935365118, -0.05694313196385775, -0.000886999898570999, 0.025926153258297, 0.010380822369947673, -0.05743408281717509, 0.008673380494322456, -0.03668124057552492, 0.028415764289919085, -0.04089402775330961, -0.017667324278843127, 0.01776615426480067, -0.03003717283171794, 0.002686838805347786, -0.005569867704918335, 0.06795625727731372, -0.011205182563939098, 0.007977890609096669, 0.016494489986898127, 0.05566267928100936, 0.056047570447493415, 0.1106175794647398, 0.05279864301605883, -0.046779096346246406, -0.016866396312875575, 0.018891825522083308, 0.03978885555160566, -0.04179137273011437, -0.048971099122764906, -0.020113342117566206, -0.018273790337104055], [0.006742184155714378, 0.04196218029771898, 0.01631187831467182, -0.010533922927975073, -0.04943695277399557, -0.06406347092302156, -0.02379083326713544, -0.007968362330755338, -0.020334071661463837, -0.008302178158871543, -0.04152519434176936, 0.0036334659482501314, -0.026092110150572126, 0.04642589688138941, -0.012187876479246825, 0.026352339947593756, -0.025045107121971905, -0.008904814113990212, 0.038356824457279996, -0.01654486109416888, 0.021522724969512647, -0.03771414492163655, -0.027681752996231202, 0.04359907845840109, -0.00542862681472113, -0.004943399987422973, -0.011605756428584637, -0.05409347170274346, -0.003937942052522296, -0.018585394421943346, 0.03209882920225594, -0.010551515223343187, -0.030631465638615008, 0.017989545550170936, -0.017470421266029403, 0.013045217535773805, 0.0659537056575515, 0.013756360413962743, 0.006994663194866767, 0.05041526812550398, -0.022849651542263993, 0.00810108198314836, 0.02306975007209074, 0.04691065001536241, -0.012520281225886791, 0.025881155668588604, -0.06316357675711261, 0.029652355468258205, 0.04649066735528782, -0.028815643763145802, -0.022295405058440364, -0.040371415242952624, 0.035804997670085006, 0.003970729062311184, 0.022175231917376078, -0.03500828473518131, -0.029685515378985016, -0.01748693627872929, -0.0144034484656058, 0.053687836311331505, -0.006457923658490883, -0.025195667357493835, 0.01255097520694459, -0.041326058051978885, 0.04434641011815229, -0.030742499380522162, 0.06767694500471991, 0.05735095169717816, 0.00454872304085651, 0.012746323755557648, 0.07661240876272722, 0.12095426143496206, 0.1378623684444907, 0.11821646683635446, 0.053538243431679886, 0.009667185399840968, 0.05577699137157081, 0.05511328000254736, -0.009616240378611795, 0.013090786912258588, 0.002473466683079386, 0.03656652187471196, -0.00015664295826428432, -0.012460441321427124, -0.016617182417749125, 0.01513116848788182, 0.04750834497910202, -0.02576664462032172, 0.06623141534693613, 0.026764791926970573, -0.004475301292583105, -0.028130773394048222, 0.03160862493812324, -0.09027374075571117, -0.2639641549960024, -0.4181544510941087, -0.42326592679152863, -0.389226572873117, -0.1197873177042064, -0.04235615530223795, -0.11683451405998095, -0.15833095820489224, -0.05659922255241564, 0.07925251262585285, 0.026721587711810664, 0.19771860835135951, 0.16078801400313328, 0.022499907307808726, 0.029287180801919808, 0.004001199193471621, -0.05269880408668645, 0.013260534966203262, -0.012173621875749347, -0.016915090956543564, -0.025717948916885086, -0.011076588202838442, -0.06995497751161331, -0.17984431097805292, -0.1503527442719479, -0.09190723490229671, -0.421215834595456, -0.4533917411160888, -0.4806477936448331, -0.48482997253847476, -0.4161204759256497, -0.4300296767172309, -0.380544561209064, -0.5082185371301262, -0.35348460438743334, -0.39877377404140646, -0.3903277005899441, -0.2440004355332924, -0.1498706189238868, 0.15779651954197696, 0.4498683748601093, 0.3491026587165779, 0.02016808295628135, -0.03342779550925212, 0.06475139655298191, -0.026484059763955542, 0.036454414712507766, -0.045549232879322846, 0.025103576770034337, 0.007326845229041889, -0.15591713623969697, -0.34534627758601477, -0.4024295901453299, -0.3483128639462847, -0.34450699634501986, -0.3488529605307724, -0.23203778391153065, -0.2814180898861105, -0.1349877444477788, -0.26464804976549994, 0.06624217637928986, -0.361946033816238, -0.32177343378744, -0.05853551252735556, -0.23122433846356147, -0.025459097930786784, -0.052677920111548156, -0.06812744359589541, 0.2899121061161906, 0.4620166847156963, 0.18982314509500858, 0.004419917613056745, -0.027818765386026498, 0.06404329546888601, 0.04549204875962594, -0.08653248458625748, -0.02605027125462972, -0.11653783533602582, -0.2909024087849542, -0.5405525144757926, -0.5768084965515773, -0.30125468782210163, -0.40862140309754635, -0.33199120119785647, -0.29035548495383023, -0.527913687772812, -0.4569090263858318, -0.5826188708078796, 0.03107006442997358, 0.04867096747717977, -0.31004125807829463, 0.09067092289103693, -0.2312459820068056, 0.16121371313223778, -0.08447636116135372, -0.1674562996938783, 0.15820148199820708, 0.4622731265997399, 0.42432223427092636, 0.22208756934302396, 0.06989096140325644, -0.003909242576451918, 0.05903896693534216, -0.046045289287330426, -0.05642024948078028, -0.15158598354479957, -0.49605387386093, -0.6548490860276602, -0.6214959923367998, -0.2983675166015882, -0.14093554561666088, -0.3703236636646863, -0.07396372545315456, -0.2299500869000585, -0.4205312933929456, -0.31228271914900924, -0.16207295058431812, 0.060623582476391547, -0.17603403775557466, -0.1870108513369739, -0.06827376415673952, -0.05778227065890267, -0.18221812571660145, -0.09089948394714696, -0.04219413037036115, 0.4604839057792758, 0.7432772779485407, 0.3238436869349201, 0.08274894581227221, -0.07083552590558198, 0.009072887732146914, 0.011198471047996626, -0.10182245609033325, -0.23257457544711582, -0.7642350962139872, -0.7663693608149033, -0.4177917883800022, -0.33481455406999, -0.18098545413598702, 0.001052674434297927, -0.18720536835427742, -0.307728683865644, -0.26901406283454543, -0.16313055898881706, -0.3064916409494828, -0.37939520418681466, 0.05070954261176356, -0.14308572421181162, -0.3169063404412572, -0.22174231082060283, 0.07102309115087647, 0.15165653773396848, -0.199492602963419, 0.47647041839526255, 0.8059680637461555, 0.4114010323565117, 0.08901195488055806, 0.03887780938471622, -0.040255675661359576, 0.011246451160404165, -0.05690765233430903, -0.3669203957959466, -0.8586859007379571, -0.5702073056467581, -0.16936513200916029, -0.15355738728134183, -0.08355787739589263, -0.23133782687237361, -0.02981859173166943, 0.04945602538501292, -0.2616302529448005, -0.15209375444056833, -0.8317454361900553, -0.6376978603273036, -0.5961162735622835, -0.3104350011855718, -0.10323457562641071, -0.28638251193338743, -0.038246449980188016, -0.14353001437512342, -0.12269425384816211, 0.27903266851812414, 0.6248655974562296, 0.4326870300233097, 0.19444080740933284, 0.016728418224230802, 0.08138094605370468, 0.001261675095879358, -0.08444240572798407, -0.30840588181968875, -0.3796537253142557, 0.034305942793784565, 0.06695709318275603, 0.4699825376254352, 0.46084692943323996, 0.34396410143820383, 0.27912226222338477, 0.5421071349031156, 0.37851482034444156, -0.2861304136991121, -0.6391268134549316, -0.6604085108376393, -1.020598796526822, -1.0764575429029377, -0.500525346562023, -0.6159825110234548, -0.3401208905730106, -0.42259358054322327, -0.18479163049217598, 0.0800168626333303, 0.3417852838547241, 0.3713140751421522, 0.06996667229225483, -0.001937318990254944, -0.017986189115960772, 0.014323912915579797, -0.1750564210684893, -0.15029707576025667, 0.1051870985061355, 0.6653908374827933, 0.6853446227435142, 0.8677981528404205, 1.2248236452674328, 0.48157627119606455, 0.7619259291903459, 0.4167543981724733, 0.5009770551256799, 0.9575553345943937, 0.7284645698617535, -0.10101025965956816, -0.17121879337456378, -0.12528507374880832, -0.32584618937870125, -0.15909030016974063, -0.3972536732584739, -0.09401610902952136, -0.09511396723964786, 0.03655559180206124, 0.1241749166529148, 0.18368352101081847, 0.056395787396265336, -0.0036983026146969744, -0.02510459557625013, -0.058411735737437, -0.12425875746028772, 0.012327457769544924, 0.29075258371549545, 0.9326872347316992, 0.9577751338165998, 0.6538062647142737, 0.4982757766618259, 0.5291944133102601, 0.521635730403379, 0.24946678089288776, 0.404351977407431, 1.0157506538429526, 0.8680896464531792, 0.525332480726618, 0.08894354252553872, 0.11931360361561219, 0.2931641598287077, 0.3418309006498315, 0.371647434093773, 0.353482836124493, 0.014722075495257407, 0.09148436109472907, -0.07580887400622809, -0.01941906029075325, 0.024250760302355352, 0.03151120906346977, 0.041217679522006744, -0.03447679564746279, -0.09413952610339683, 0.12634222565021955, 0.34947549108075765, 0.797110986139673, 0.4306676897909183, 0.20014451213654885, 0.3819282835080774, 0.2694440966271976, 0.09840226510594334, 0.19622885911870794, 0.18328308630677181, 0.3516630612791564, 0.7390186243534128, 0.6539872431808375, -0.11726213412005031, 0.20804073664195885, 0.24967794420796613, 0.30791947666105834, 0.14499978347618875, 0.22755666721241774, 0.2611729364634335, 0.010669921161718067, -0.06743637157455185, -0.06284546244875082, -0.04036243085404349, 0.04859771095235541, 0.0012372748917696703, -0.023100516177419733, -0.04804697643209369, 0.10312929338690302, 0.03995176894975701, 0.07248433953844412, 0.2041063169014755, -0.16202742340073667, 0.2810409381840003, 0.2859495468462974, 0.22297040322382025, 0.3061768988073381, 0.29923242095060704, 0.11663853938477012, 0.5785467061562743, 0.44451598424821803, 0.02433561971142298, 0.20310608974116298, -0.20303644609185756, -0.19670444802813966, -0.14379438749983298, -0.047834103261948334, -0.056955732737791184, -0.12890956182835323, 0.021860816842874987, -0.10996629960678783, -0.13828575450120859, -0.00660698363213687, -0.00668784693957698, -0.05394134515569104, -0.06342462600288964, 0.03013033302830234, -0.24711745533692403, -0.06924037405331115, 0.02746285854623152, -0.00605653842709555, 0.3370026348425855, 0.2941726564268604, 0.10371934407749861, 0.22190055719200208, 0.24647495209015113, 0.5766237496294012, 0.7823734538737664, 0.23219035783499875, -0.11884952163483883, -0.24037466246984557, -0.24997112873184635, -0.07904371466854904, -0.2520111182318207, -0.2923892668344451, -0.23204485051131535, -0.19895152595884516, 0.062712902326725, -0.08383729409205048, -0.09867737353746753, -0.055923132181276355, 0.009459342655994853, 0.02421409289605479, -0.0037153548561169895, -0.029794379982768442, -0.3755596834765035, -0.32112486180276834, -0.2571352196444706, -0.1730518752903369, 0.3069956274842666, -0.07958808272427073, 0.03885726226122983, 0.26064641881832407, 0.038972826827085506, 0.19280123335837426, 0.6186846101094942, 0.3874707767986586, 0.18566697749825567, 0.0652666165965663, -0.04499298930118868, -0.05018867922287849, -0.4432944044378082, -0.29122900252494505, -0.06292939608499729, -0.04294616336830674, 0.010770036488398062, -0.12163979032712503, -0.06922282152815502, -0.045069298751700716, 0.08849164580513577, 0.050779394588158625, 0.011560298103765966, -0.1854591243171449, -0.4153982800258832, -0.38788800408076357, -0.15234889236563412, 0.0455784692570854, 0.16940094503610234, 0.2774435997203341, 0.4957331836971497, 0.43140262478783065, 0.3925688507381006, 0.21038262180738262, 0.3938993711785439, 0.1679275646340702, -0.08984727878115417, -0.32339958927013046, -0.04349717204767676, -0.05024774201416021, -0.07019994691031609, -0.013980541621854648, -0.04261638212758675, 0.1315094436407225, 0.10523857959165048, -0.158232695350457, -0.05274587167827836, -0.028658419627044154, -0.03288775900935971, -0.023761428258260203, 0.009373841362630024, -0.19554168482097392, -0.26050614502893205, -0.37805655507636987, -0.0006264411558148065, 0.17182754700761096, 0.27370903370250194, 0.27889576153867124, 0.47259620794187135, 0.5531554901324606, 0.42425621128993385, 0.45371191255069626, 0.34851957414091145, 0.07008037537778392, -0.17605967569306408, -0.11918933869214318, -0.3124169193237187, 0.029985833454972695, 0.08478819049406008, -0.466154665569986, -0.28764053640565584, -0.033448316012804284, -0.017913936669974713, -0.15820583242075947, -0.07025620137773388, -4.944900005892619e-06, 0.022875457267309367, 0.0007233313517283516, -0.02448854707711511, -0.16893308827431142, -0.2279176727009461, -0.26485238161073327, -0.03435663256564347, -0.09796192107503938, 0.2502343202941529, 0.35238034435517246, 0.1511310043252159, 0.34459149850031995, -0.03381962245068439, 0.03146391926205492, -0.21051200695497935, -0.0037195801437529042, -0.06527217841159781, -0.4938386204752345, -0.44727882633276383, -0.1788066639109418, -0.19947590904828794, -0.31984012870728756, -0.11304219357642202, -0.10716270060789132, -0.03285385647341812, -0.259132112195674, -0.05282164249968011, -0.06301188780817303, 0.06121845024005274, 0.06143979408865033, -0.09570720279844287, -0.2415557848836358, -0.36652778292669075, -0.2858886255891016, -0.04999280033755441, -0.30792709127437456, -0.30026602640107275, -0.1733663414842105, -0.19886715062045995, -0.06577999399996062, -0.3368454992255485, -0.29714516272862346, -0.07376791326184252, 0.08152855893435915, 0.3613443221699283, 0.22718079786219955, -0.007790399979879949, 0.12717769277590382, -0.21972571748872835, -0.19502640153415615, 0.0381032709002444, -0.043838546737223344, 0.006261097838766543, -0.13900077085374093, -0.015575511659827611, -0.002921746999935565, 0.06810776375556918, 0.06051865627375244, -0.019156796577939207, -0.11582995395080817, -0.2807400441523067, -0.21214434769145485, 0.07981123747012513, 0.012709610205331767, -0.3353011999641817, -0.15346285973278542, 0.0602696462900246, -0.058040396344630915, -0.2353566007229935, 0.08320403412074391, 0.17395447669776745, 0.13482924210911992, 0.04142012036720496, 0.1053270651484171, 0.00908136349834321, -0.026314146299599855, -0.034784844751279596, 0.13960893427208185, 0.16873751145588012, -0.03637172962854276, 0.01689435102290959, -0.11377485024398815, 0.022294625653484734, 0.042339598512317105, -0.013115885337236722, -0.0021609718875058126, 0.00026879961187703343, -0.14029904392009554, -0.18237775049333768, -0.2562063035243085, -0.14278358577364847, -0.1719141638584159, -0.19544878196363122, -0.170792235547338, -0.1443433378613447, -0.056684208980205375, -0.09362114627112575, -0.06005893179002447, -0.022234347715302905, -0.17857053738924933, -0.013480190018136076, 0.1377671603423239, 0.3053701346138735, 0.07343772623504002, 0.0893930691698836, 0.13811889478842015, 0.042701448993921164, 0.14900597028851542, 0.015779454460819367, -0.0490700852576053, -0.04510697983198517, -0.01830628733795102, 0.05181636573273623, 0.007414586139926287, -0.054285969276952714, -0.0580190876689652, -0.2140313994860775, -0.16991314787616604, -0.3025466455413886, -0.4354278160090649, 0.09057331632029833, -0.1454079817417036, -0.005735340359952599, -0.09430013334320561, 0.24177446907809602, -0.1500327860417124, -0.007586800929600724, -0.22623041765962468, 0.32631510893172083, 0.2496992855824294, -0.11945595822214092, 0.2810870525936658, 0.38264379434729645, 0.11523072172004499, 0.118010432109324, 0.19851524337195625, 0.02501512939075824, -0.09570118325589654, -0.05448794295088493, -0.004749630179695722, -0.054259849954714334, 0.013938515914061547, 0.04133182754648419, -0.09974850946422938, -0.24956984510107283, -0.47498437498901014, -0.3833318916398237, -0.3299221678981661, -0.14348625506822998, 0.1536690809384782, -0.16768121438122055, -0.08742992236241229, 0.02947545147197233, -0.3942484783391157, -0.4436966472709792, -0.2351860198870346, -0.13519383215396324, 0.035096885748786756, 0.3588964538750278, 0.7963211781248988, 0.5216689745608228, 0.3267334386866368, 0.16738646070003801, 0.16725010473874793, 0.014134842638635677, -0.014938786123396025, 0.03481978810898581, 0.03012766425435224, -0.013147297191297036, -0.011100220539269592, -0.06048665541244654, -0.004735399382667926, -0.2407784548463903, -0.13265029431258732, -0.16196198855181634, -0.30218777040057454, -0.6618530708500826, -0.6689192163092704, -0.42250779741865246, -0.5274372938439698, -0.6296907357274872, -0.3245224661668151, -0.22407843603685404, -0.2832521606396406, -0.038808954253788344, 0.15029784171703076, -0.00016549705453601987, 0.2849475035336091, 0.40452379552470363, 0.2937643933709301, 0.0315105670690274, 0.12594048030465277, -0.03443745209724018, 0.021851436307629472, -0.024050319421615667, -0.03741979594743087, 0.08610771054476359, -0.014800081775433507, -0.03158120291338052, 0.04283824698437214, 0.039337791958027994, -0.017612443315290233, -0.05053775488752393, -0.23775020436191355, -0.30051352737872106, -0.28229192022227473, -0.12228463534706276, 0.02212394591807764, 0.22876560031124807, 