{"weights": [[[0.007855172116283468, -0.06183280222764993, 0.012190533553568611, 0.0013522291131354196, 0.03624135578241073, -0.005884294979673989, -0.006396012681705665, 0.026312843967355146, 0.01297320035872136, 0.01974702521183517, 0.0871526435841448, 0.012367235575148993, -0.022115107233875584, -0.015630318569689574, -0.0327173171934185, -0.0040405198597139305, -0.09232023333227865, -0.038730374393056426, 0.007503819276588614, -0.0016753679481365956, 0.029950566052236446, 0.024308514305827773, -0.010319131974397275, -0.02742170218108142, 0.023336924851678785, 0.026420074138121634, -0.01303861900160931, 0.043877578495767976, 0.0025083317427360115, 0.035542742055969564, -0.0056581448115605865, 0.00962010831262708, -0.020452003063790043, -0.00822050295120976, -0.010727307738301493, 0.006928893408795526, -0.027148385976610144, -0.024062696963297513, -0.014280091810315611, 0.008262452078221577, 0.027526094504030988, -0.029059409942312486, -0.006667486301204832, 0.046400318080685655, 0.02978969218938024, -0.04085503035655097, -0.008171026712694653, -0.0497949608535417, -0.06136420376023433, -0.008717236565154177, 0.024788437882762814, -0.03388568710585949, -0.03843653384379596, 0.026671395681147025, -0.034804750997292494, 0.04259605837288249, 0.032768686313153175, -0.055835519675175735, -0.0014719661215656374, -0.019928832271168276, 0.019388011685071902, -0.002990163661835458, -0.026202200615944003, -0.028521363051511216, -0.059531619773769, -0.10817115264452799, -0.1566547524634802, -0.12835766358203235, -0.1651430902129759, -0.13063971362244345, -0.20162927112133053, -0.19502152528528782, -0.244212880656844, -0.1031697575172015, -0.11522723328016539, -0.09312337282315407, -0.08090069224604847, -0.08439359086013781, -0.04112342102841795, -0.060125946043136834, 0.03874026269723082, 0.014115670091213098, 0.05215803594819258, -0.007082127131883356, -0.03480511585430044, 0.020017086622550414, -0.05981543431635191, 0.01612489005953365, -0.024743725710421344, -0.026729870687867203, -0.024542994477211092, -0.06272339553426085, -0.12630198816009405, -0.2962126604483552, -0.4094115377053648, -0.43023030449168864, -0.6414138947188212, -0.7492453288585845, -0.6276378789008077, -0.7097546896437303, -0.6155316077134719, -0.5602005175680875, -0.3652451896589635, -0.32476804586191627, -0.26432651326330475, -0.2164040676340113, -0.10028374251777815, -0.026462363190541276, -0.13568560605060864, 0.03411354607843891, 0.02049350396911041, 0.010360947581226411, -0.006128773855405848, 0.026823851745801264, -0.06441735346696603, 0.012424679727777268, -0.09601347007464098, -0.1513985422671187, -0.19093761543333299, -0.18393579888523184, -0.34094765601152166, -0.586136080223131, -0.5190360405877699, -0.09199802338957348, -0.20097879328419074, -0.3894283838385795, -0.309056595253928, -0.08844068506690708, 0.12948912510511582, 0.04667665237311879, -0.11877254834260069, -0.16049666886965228, -0.0809905048510377, 0.0032125955240596554, -0.06896501981184129, 0.006500393905746282, 0.12690630154145058, 0.016658654569766552, 0.02961457725785679, -0.018324362870241303, 0.007729028704307962, 0.057030411517793214, -0.056155789335590345, -0.00934130588937135, -0.055420206897060335, -0.26024621384407703, -0.3286480407551287, -0.2428219065557353, -0.3510225090583001, -0.03187272130668542, -0.09442860949054295, 0.34977686495569227, 0.19657158355172671, 0.0744650392809224, 0.20050280560521813, 0.009693997030296022, 0.06618917621639309, 0.4210579384049143, 0.24745082598985937, 0.07801176749186464, 0.14888397354926308, 0.12823022138478327, 0.30108522853425557, 0.150817806341265, -0.0006101082540244431, 0.15457336628229756, 0.017540210414875735, 0.03377579786055676, 0.0026118534308572226, -0.041993162475893756, 0.008382010876591454, -0.03048401828746094, -0.22468929932585757, -0.2841958790676703, -0.3127919668924669, -0.19752421341471063, -0.055789887901240974, -0.14672973056249536, -0.18037645435173907, -0.15197076278444824, -0.04396555977004322, 0.05468193606753439, 0.08876242123081525, 0.10418007739736344, 0.12061072219004418, 0.24631530118202763, -0.003914014383457652, 0.4003457098754499, 0.1471196685337627, 0.033392911443372926, 0.28294306465310876, 0.33447040237769327, 0.39737964709305607, 0.2235856564519211, 0.0028652954618480233, -0.006490786385557603, 0.04254451274426291, -0.04629116831671895, -0.04678462981094888, -0.0560817970513711, -0.30448786575868025, -0.3008353969102082, -0.16689525258696067, 0.13077980938915493, 0.30775631762268424, 0.13131474626397172, 0.01273849545350186, -0.1387003517684549, -0.24420811303899168, 0.002392683845001618, -0.12391858502371325, 0.1516866178435343, 0.2002764612851704, 0.229602965115925, 0.235836634962103, 0.16652480233380643, 0.016129128739160444, 0.238654469200681, 0.16588173885755264, 0.5450026768704793, 0.6821601253995033, 0.25514631093222334, 0.015233668683655338, -0.004165810208664179, 0.01139729852543156, -0.024874503188676223, 0.035655646071182205, -0.11510808397353908, -0.3029523571619868, -0.1448373441182625, -0.033380758961775184, 0.1422156858039188, 0.1953560863440911, -0.010182419265268642, 0.013659707361508166, 0.03041802073592732, -0.03024974941202337, 0.005695452198326378, -0.4546479286775142, -0.2700600908553254, 0.19244191190271434, -0.04538578134226298, 0.20933721321259738, 0.21903115748646865, 0.16403573552835723, 0.26576372076257476, 0.31692925814699213, 0.9662879427458206, 0.8847049935624152, 0.33861329843180477, 0.06941213566880962, 0.07643066132898117, -0.011008734299943068, 0.047678904832672446, 0.04919456242583187, -7.98611445363835e-05, -0.3449124610765777, -0.14373244723396586, 0.0747991811191033, 0.0676882924143342, 0.21922904286772496, 0.1879205792823906, 0.5286966241449726, 0.6041988929241977, 0.34877599230195044, 0.17400086598122685, -0.5742667619572321, -0.47890640555980435, -0.039177729325195254, 0.1822494118615061, 0.1940322609790675, 0.19629547148128196, 0.13852476673612218, 0.1857590458319251, 0.2759577953525149, 0.7182743452262305, 0.8198963946487348, 0.413768264860318, 0.15797342701833936, -0.008056225808656642, -0.023067250887886796, 0.00135810016984081, -0.06372162878612703, -0.08103589667441496, -0.03837932974883221, 0.20361106903505885, 0.34470405386829633, 0.43725405317178123, 0.4809068093929406, 0.8479322807427504, 0.8931229155093964, 0.7941036019264102, 0.9223683303906096, 0.42226908176883754, -0.019357936495227806, -0.3637032878430399, -0.22505812329394073, 0.10048719021940941, 0.09732010049794985, 0.04364124993421827, 0.00902943372866092, 0.20238867026569332, 0.47412321786867323, 0.5091894651757268, 0.4820256929353599, 0.27220515362709014, 0.0875629231906859, 0.03888809394778148, -0.028262845851665993, -0.015216196058656449, -0.09455775934964156, -0.11591929503891912, 0.009895722561197818, 0.2728204204559138, 0.6695462776757733, 0.8767966700998244, 0.8909034453907834, 0.6439707120850237, 0.5232121895093174, 0.3667346628402177, 0.2820164564169418, 0.5011146365090827, -0.026344524660362537, -0.11763268447445599, 0.010899263069058775, 0.04692006262499993, 0.0258603457832611, 0.03297607001483006, -0.1348869387835992, 0.0699196957177081, 0.1860341551882738, 0.015989325810972326, 0.11352513765119203, 0.14674662678918066, 0.12368005161900941, -0.012768181308375828, 0.01752654873597904, -0.05739255013809803, -0.003402019580628223, 0.012731172946120814, 0.10082290870147505, 0.38356782768231096, 0.6639178095225554, 0.605524505443939, 0.5504862563003544, 0.17469494915132594, 0.2342929232328203, 0.1665020571354102, 0.1228116509900562, 0.5520266143941488, -0.21589923708710154, -0.036096241757307454, -0.23853477717096477, 0.06959220871673355, -0.0364358063818322, 0.21014667831084588, 0.18534832984030544, 0.3882843235096426, 0.16674301382599643, -0.10198542626378916, -0.2409166780351078, -0.11725452186675334, 0.06124602828014392, 0.044956775530648085, 0.008536441069995425, 0.026735603128332466, 0.03083962809738364, 0.016092067070278025, 0.13856838321459752, 0.2233360339446964, 0.18914324636871854, 0.38498187658658006, 0.10859557216822996, 0.05912144827720146, 0.01708282674168646, 0.352058559403005, 0.2840612635361555, 0.3093058615424293, -0.2392070241744086, 0.07371002224369078, -0.28465954581148895, -0.04264894900403376, 0.14892096443029487, 0.20955587125993758, 0.24682984779817332, 0.08313123685369447, 0.18371502641447912, -0.14214379407293337, -0.3674249495581707, -0.05565540487961408, -0.019944270967995163, 0.009463678028585555, 0.024460707616047978, -0.03251205565267311, -0.043386776871093775, -0.08362964856154663, 0.01258811068457962, 0.06579054255842756, -0.04425075081659155, 0.07961996753445547, -0.13882014196810832, -0.023371023088002003, 0.2839389989161359, 0.17439778180325252, 0.18566070906652468, 0.2962394123010316, -0.26308110786236094, -0.058315606709260434, -0.21609498540914612, 0.37837986755681735, -0.22874227527341676, -0.05492947199140654, 0.04511492640561801, -0.17996984245681394, -0.04326914938876295, -0.03601604478669575, -0.005699106606589946, -0.12146968119769011, 0.03128233402922032, 0.02958139706411676, 0.050350038269781384, -0.05912959485759439, -0.07856690325475171, -0.0776767130074865, -0.0754507354312605, -0.010415831228790593, -0.09665233799382035, -0.1622831171764924, -0.10079678507642455, 0.235267397352875, 0.08201806093444941, 0.04183859163195379, 0.34818129878904497, -0.20847973721086901, -0.3669281106125283, -0.18805587490865347, -0.08738254318548863, -0.018236429916537837, 0.05056133308381043, -0.15062011624341465, -0.20754693461336168, -0.338325117358788, -0.3359156040165201, -0.0010049048400029357, -0.0897521118773731, -0.2206385987237295, 0.015773648081975372, -0.03815605213758803, -0.03720416884235119, -0.0029664522793477486, -0.11523119864982544, -0.14906528274060832, -0.16766157035092336, -0.06585194304619878, -0.11090107699535084, -0.18910465824914274, 0.09242885900475921, -0.2364948107036437, -0.27310752010920114, -0.21188648558476664, -0.028383629227647592, -0.46035439829535224, -0.11369763163887088, 0.1833110611747571, -0.13647564651391403, -0.12199692900592275, -0.08189735448857749, -0.26616632030158055, -0.10313119411619656, -0.2230769813226085, -0.29595048561416154, -0.080559949663144, -0.20765271993802412, -0.2913225592811413, -0.08079689561956191, 0.06251712310052268, 0.029582519717459118, -0.005015909383462573, -0.05529658668543921, -0.13102497862596765, -0.13618247117552273, 0.08730908291123772, 0.00583961501560176, -0.19027670726997403, -0.12607575838518964, 0.10660139738422511, -0.09803806805035506, -0.14873931174885105, -0.16791543977604795, -0.030628992761072983, -0.24367371799177, 0.021492248948915254, 0.18796549265581236, -0.009605304045992445, -0.15581473898713694, -0.1290548014313191, 0.14742424059288617, -0.12836274381849266, -0.2923763404667837, -0.2045289655764838, -0.10577285471140514, -0.22531579775352567, -0.044561894098445874, 0.01917204565777816, 0.025943710868371488, -0.041939183130311884, -0.08021795112936624, -0.29234287604807857, -0.0816215215274279, 0.11584722044087828, 0.19519276560619372, -0.015895842240705244, -0.02461378073402265, -0.020867088174595295, -0.0956998486534965, -0.06133259337376791, -0.3212059984334032, 0.09361825361945286, -0.2787846325502652, -0.3153223394930999, -0.23675640779768733, -0.11820275573963185, -0.3246227742279075, -0.23118540326220532, -0.12509911323119569, -0.42307935402552677, -0.2686897441976416, -0.2549257911047728, -0.11099209024402411, -0.22466677437005816, -0.02032171840472814, 0.05404703099646523, -0.05674370449577166, -0.017908160271534333, 0.008585899006942219, -0.32798054881265987, -0.17241495907996335, 0.08471488539555877, 0.19876432420454376, 0.06149359020885943, 0.21413922729057816, -0.09107606733868483, -0.06437229110392978, -0.25913038588674986, -0.2025171669034113, -0.03244888638804589, 0.049657633977910356, -0.3867037428950803, -0.4007588124805379, -0.43926621280460804, -0.30234950117524045, -0.38950863618220116, -0.3467867304369827, -0.3017570573093272, -0.13683307207617174, -0.30567077422411093, -0.10923642735521691, -0.1356787531452198, -0.04136121101569863, -0.008527406483268883, 0.028856576346245017, -0.010458052129143702, 0.06947143112547305, -0.30181706409217407, -0.3162758201721909, -0.09817365997441739, 0.03485669554664532, -0.23035707579169457, 0.03962586485886009, -0.28913339052691406, -0.044688732618133324, -0.13344369663619787, -0.18038103024319715, 0.045739531801679265, -0.31145545860638907, -0.31841630465919696, -0.42332309424277254, -0.2330095175974859, -0.3166000069347919, -0.3502650391575129, -0.24761900356815125, -0.06983873541495064, 0.011282128689147386, -0.17173554729453394, -0.08403423554722231, 0.019241107605548983, -0.00866048484853031, 0.0030987455255851457, 0.03237609901632465, -0.08298763146423596, -0.012150965515814002, -0.229353721013117, -0.17141407593176028, -0.24169455001925938, -0.0014926419145582022, -0.15402272930983088, -0.2800450682287938, -0.056052567321437576, -0.29954333025869917, 0.06251123626889744, -0.11309045753434471, 0.08475453971602862, -0.11500648882283658, -0.26295782890956976, -0.1731086813326482, -0.12503380476037593, -0.342598121615346, -0.32623936850022384, -0.07234752958734818, 0.3228022975897058, 0.07064512663391784, -0.049118577207051727, -0.09872591719875744, -0.06027309422714135, 0.001383013173235974, -0.007435786308781431, -0.05757841008926889, 0.008203741653198282, -0.028005857944209296, -0.22726435387910435, -0.36286933060908116, -0.49212913413843107, -0.17781032452548814, -0.2692264550071646, 0.030565384829887774, -0.1722852974648104, -0.1771642019744692, -0.004337596414976583, 0.34434543357501796, 0.2768325909210966, 0.0032247956588123622, 0.037879758746154506, -0.07936317138674324, -0.29483893905148284, -0.17644170691007546, -0.2436234243623678, -0.12509703879293438, 0.1526928567023601, 0.06633138195507719, -0.056950397831045683, -0.06362960566298483, 0.02547848048893049, 0.007760378893491836, -0.025296583215538418, -0.003772656845460768, -0.0033830487311356295, -0.060103841017471904, -0.13446068629226768, -0.32398176505730614, -0.5769165346204533, -0.5007596653295998, -0.32756744181315034, -0.09246747687930332, -0.21092468259916405, -0.06616974308003111, 0.12651429492407001, -0.000771275203522433, -0.04855944644092748, 0.22014214378639055, 0.18070064479969491, 0.20743288990988243, 0.09168387180553993, -0.24692612454171345, -0.05426192601099753, 0.12906178738620472, 0.09568195458905093, -0.017485751989281713, 0.027767850951475978, -0.03126880667618572, 0.005340861979163207, -0.10495772819272202, -0.0032183738653096053, -0.01563337242623174, -0.03768803491952987, -0.023115755660423776, -0.06855571878065807, -0.2916941199945634, -0.3685595848764798, -0.4445339959093752, -0.44470567491566676, -0.19886785926670925, -0.12139149655891669, -0.22480643967085673, -0.20201442141642853, -0.007299575545244702, -0.16648520016447965, -0.2979832661533475, -0.02255777462643823, 0.10096235753145134, 0.00022972786112375728, 0.18444335828022207, 0.19596844006345696, -0.017087868880245334, 0.01672408974583832, -0.07359260634055527, -0.030021660153821607, -0.02043253485187364, 0.030435495454417632, 0.008666664806085952, 0.07952146262673512, 0.030723408006751243, 0.005756313872377193, 0.03557093823628868, -0.044129863872153195, -0.0876923995303093, -0.19535909829262701, -0.056970151265242075, -0.12384919486178243, -0.25961469372384677, -0.19110818496840948, -0.13029973779125156, -0.0927579522216722, -0.13653070921887134, -0.11814792789555505, -0.04144663931467096, 0.03545274462863833, -0.0471502402640826, 0.07170104784388451, 0.09928296044456837, -0.05346590226783433, 0.03612634410129441, -0.03622758394808984, 0.03474309569266861, -0.03251608182875809, 0.008401106805545322, 0.02833832845789629, 0.07096166158458021, -0.02024450828549112, 0.01742258034674243, -0.03499507987468979, -0.0069415903785119875, -0.03304423683926205, 0.011993284490658822, -0.034335053197357225, -0.008201931070322677, -0.01719115315172735, -0.04917937592617464, -0.027571929404298312, 0.08260696647992473, 0.06908799145780725, 0.08859670933078123, 0.04855879512325407, 0.01938468574313968, -0.012520624807320366, -0.02098073324392679, -0.06919907832004132, -0.051789703396636154, 0.024661824018803957, -0.016603028283650432, -0.0027912953302827717, -0.04520312063346356, -0.023688211492757936, 0.022260183528164952, -0.07997472502587, 0.04816193560341423, -0.01320477657063164, -0.04387012648154294, -0.04124962983108542, -0.03915318615463411, -0.0032857158986253332, 0.020835806715922847, 0.018675079798830128, 0.03712790800910705, -0.017301493705748173, -0.022933275649025173, 0.031168860535090062, -0.00356429394782835, -0.0006519527978513157, 0.03493235693975325, -0.04677973701513432, 0.03568011293193026, 0.02431329523725807, -0.01613984498673351, 0.0029330263918146, 0.017955053087151944, 0.011832531867224534, 0.0050531719302178615, 0.041342549713684486, -0.040365178620986354, -0.031153916387485464, 0.01570911538539185, -0.03016181652509931, -0.026149683729463108, 0.027335680511810765], [-0.033721719473080766, -0.025476856936921588, -0.00918697646302834, -0.032243364494037835, -0.003861022197261958, -0.06565149205335111, -0.0017551036323309767, -0.0041699413574081585, -0.07860374298588498, 0.007147173535885245, 0.0021955395293745262, -0.007212791401308638, 0.05952505852269379, 0.009181076289914575, 0.0040065534522831054, -0.04378296565310065, 0.020108890553760583, -0.0010414522129758388, 0.0012089316900741659, -0.04627712902887051, -0.043709719326194274, 0.01725851515825531, -0.015073759753638302, -0.012126495162029785, -0.007994329741231387, 0.05557343161922163, 0.003405704337814665, -0.042165468860529805, 0.02014140364494246, -0.046152464668574304, -0.045206989566024446, -0.03832196822787893, -0.028501307335536685, 0.015950463412228968, -0.044014498353581705, -0.08129277899961349, 0.021620250322379242, -0.05153574723176926, -0.022470326991250095, 0.008849758443255194, -0.029405152815080653, 0.017498528104356467, -0.014763308683016622, -0.050177451875654845, 0.021406503692746975, -0.03566989947576089, -0.045918594325857404, -0.05635735752315734, -0.026811894148748475, -0.0697655402598287, 0.0028541277975550005, 0.05494122180573917, 0.06408047871571806, 0.09180419384077147, -0.029071897339935177, -0.0033258825821802862, 0.02073253768525021, -0.057079912557838446, -0.005080607390667129, 0.0020332405259200783, -0.012740709289678534, -0.020263473008279912, -0.057614691017512425, -0.10848478053348835, -0.15083674792845, -0.19450473879825242, -0.16297818981779666, -0.23951068796217012, -0.17183916715789632, -0.16827701580853527, -0.17535154717484133, -0.09380885189047874, -0.18607759268925472, -0.08641001965052027, -0.12296074332233674, -0.13891673398234575, -0.08767363000413624, -0.18571141244420783, -0.09642464029132601, -0.0700452046136707, 0.03435577189717428, -0.01369173426476775, -0.06602103747071779, 0.014656141210230083, -0.03670039090535424, -0.03058838597985857, 0.01581022431055664, 0.04032241614967512, -0.0052912299862315415, -0.007526354100855307, -0.055223887161680134, -0.16328602395501546, -0.2617786117039105, -0.3866637123359923, -0.38870837259002416, -0.22951769938315145, -0.14772762993416652, -0.06647353263218891, -0.05122518548279053, 0.06325850141786561, 0.1304029857512879, 0.11305901856386265, 0.10941122301763952, 0.0023710873015978895, -0.16560286018842046, -0.21457017250401622, -0.2716758871495747, -0.20718998129583907, -0.13160350467674276, -0.016762268305631534, -0.06815131625985442, 0.031062556468808213, -0.03926630768916015, -0.0054982522699828385, -0.03793559757663523, -0.04780592291268138, 0.01716376273384307, -0.08015452603783312, -0.1751565442217385, -0.19320786520633776, -0.20077495800901224, -0.24723670856006466, -0.3645030837753255, -0.09681535998031668, -0.20736761367967385, -0.07435804079716855, -0.20990102286949647, -0.09111275181065008, -0.009658140362448935, -0.045414623611109796, -0.09318377650357405, -0.07228884660037474, -0.2082288533369474, -0.2988262733003202, -0.44537281853198246, -0.44246533372037916, -0.2176310284531839, -0.029537261954646583, -0.060273848134344776, 0.004430561380498601, -0.051218349289023364, -0.03808325230308524, -0.004934119464197484, 0.016913589908303456, 0.029332662366031697, -0.012189603096704112, -0.041763339029216875, -0.11378821154921859, -0.025156973301953205, -0.10667776982589353, -0.14306836655643154, 0.00369822110804882, -0.14375988733104386, -0.11272373237911695, 0.012163064768611918, -0.051890543838960565, 0.03879417387098822, -0.198608217733409, -0.09677329981783053, -0.31800091993448504, -0.44855346740512, -0.3248315212206639, -0.06006442555201072, -0.0025309545225483286, -0.07156451917723142, -0.03424032678252462, 0.02842812339530788, 0.009285399542606208, -0.0138005620660453, -0.03223793318195646, 0.07543226597470154, 0.006744209270800829, -0.0664222199910311, 0.04653902528322915, 0.08944846323568302, 0.052868864145683835, 0.105284992774968, 0.13163872174964578, 0.0971721937067604, 0.04547498257903009, -0.07392593454076044, -0.2290326575880947, -0.22296739907640262, -0.12375731510507039, -0.02590809222337864, -0.2074559153782311, 0.02612089890170833, 0.16937330089141425, 0.16538352558855474, 0.1338757626576783, 0.3785634057019829, 0.4235438851100191, 0.24957690029482804, 0.12865773537872927, 0.05931364087697723, 0.038733797888448995, 0.023085615742286014, -0.04939563754422837, -0.019481869347176575, 0.04096595479947394, 0.01015057105469727, 0.016006779411055858, 0.13868847257243816, 0.2162967657254938, 0.07329553463524112, 0.2598758895751729, 0.18230724922354166, 0.18580961316583836, 0.04837633852213089, 0.07566031088203751, -0.05969100249431715, -0.1756149720149065, 0.21315632990900157, 0.3513878972945886, 0.39334066703728343, 0.5622917066427988, 0.5539688971819758, 0.24724283251274837, 0.4001985013779372, 0.45338635719842807, 0.3870252680618318, 0.1523082156168376, -0.04559149666186099, 0.017719597705029896, -0.04949250776825284, -0.0002132784956622803, 0.008735923124919056, 0.08136731678973494, 0.07233460105673487, -0.03671249475115276, 0.026700830328224137, 0.09838055479899632, -0.0158051675529034, 0.09769062880051127, 0.1473622127164618, 0.2968431610943322, 0.1030806280391887, -0.14574997569653297, 0.09422685883492442, 0.47138006095136814, 0.3587172898560194, 0.19297044545201325, 0.42476662258448583, 0.27132865756954533, 0.5440063716683836, 0.4125491196290875, 0.45816989381233514, 0.5445673422821801, 0.39678104810478204, 0.13823591344792174, 0.10878686154430092, -0.08039710243140383, -0.008686276859976211, 0.015444133732857539, 0.009853949532689942, 0.07224101483075283, 0.08249861099567332, -0.06384728863028188, -0.13362777025536662, -0.11183411739037526, -0.09957801398046925, -0.006912069014307847, 0.03398955448641029, 0.14439438239656846, 0.23605338996369382, 0.1443379830900877, 0.04382843421353597, 0.46002574632365345, 0.5614357750182519, 0.22553568127337179, 0.38933725223306076, 0.30563351513072723, 0.055947263798240596, 0.22799473052943986, 0.4006126725405518, 0.12806447521787406, 0.23006520532641378, 0.09671814559520177, -0.01659197854572431, -0.03884130726682088, -0.016552548978291896, -0.0054650066475614165, 0.04089773628171929, 0.08792397290077174, 0.08229211509165238, -0.003462532070024532, -0.040947443001583594, -0.17496283173949853, -0.19316379741779788, -0.07220594745582445, -0.07021570320650711, 0.16278940851004295, 0.1945451466210417, -0.1422987841739146, -0.5570477448132793, 0.2733477612410712, 0.3106710765911264, 0.1477264061724913, 0.29914776400032417, 0.20685877971965402, 0.026738209292483446, 0.1861044721256224, 0.16762583673022813, -0.03373395075172373, -0.056759946204084526, 0.021371858718209073, 0.07821272472603283, -0.052492027218232644, -0.014102945217121491, -0.01570697894049672, 0.06722227746324513, 0.11847267806841352, 0.1385407797170873, -0.13977930648333353, -0.012115362257681454, -0.17187609355506814, -0.10373505588688664, -0.08863785208153158, -0.030386596765596054, -0.09311505758220044, -0.1052370146430886, -0.6251927666114846, -0.8484025659742154, -0.017348816139456318, 0.16031925932914842, -0.08894786141633514, -0.06887487760992915, 0.14800791199556923, 0.169782300152248, 0.20305217054613464, 0.005104742378234251, -0.1796162983143765, -0.3951182158223523, -0.08025697656522951, -0.08924328176859746, -0.0029381745222954096, -0.007514661223125492, -0.0014400994170547634, 0.11696761733985074, 0.014341575279999968, 0.2001330865816822, -0.11564170590195919, -0.04311669379365594, -0.22360983679891533, 0.09363751095234407, -0.21210596811411012, -0.1335399012803935, -0.07324189793098737, 0.200295995536097, -0.10934169003583048, -0.7513398759391683, -0.20571517353251573, -0.09534835100793841, -0.27309406057808017, -0.3158283052489989, 0.17912731846271623, 0.11039931343923187, -0.012446829194464878, 0.0337346723697057, -0.3519374354351719, -0.3287561444645894, -0.06587333123809919, -0.00961102784534572, -0.04154256193930792, -0.06281562964337653, 0.0069292283029812815, -0.06623925009844128, 0.0582764754156802, 0.22184023170991005, 0.09640760043541143, -0.054618504256446355, 0.134678542368999, -0.05887407843199009, -0.07123237919036197, -0.02924166310308093, -0.05067393216731963, 0.09824825097094783, -0.21933911228029856, -0.2683399260576817, -0.21287486316820609, -0.1205055317884054, -0.020618266171118255, -0.04173122936967689, -0.00234856016845861, -0.00016365822102019928, 0.033553751462440475, 0.09601676925608163, -0.09991783018729396, -0.16039151444508268, 0.12744904235245746, 0.01765224669810981, 0.030454163847605895, 0.02441930996002653, -0.01125510325205259, -0.06475786646789554, 0.04989518677119428, 0.2073271424143613, 0.30489710170622253, 0.20382140218322767, 0.3437139118045479, 0.17686653788577453, -0.035394406023135164, 0.1341259577524343, -0.05087253982503313, 0.06688386838673495, -0.1612873506198286, -0.265803736220485, 0.028948160601599465, -0.1529551760478121, 0.04411729448315383, 0.14268473811240273, 0.3248696889986188, 0.1478546408001513, -0.1258860206449758, 0.1086523791745408, 0.14955489915600237, 0.11193920432978112, 0.11619327534221781, 0.0468569465007125, 0.001325455925518747, -0.05364055642528456, -0.0851276725778977, -0.0012559592924874913, 0.02004289106481243, 0.2335815366963877, 0.3808180935117393, 0.22871706697865324, 0.20938295189808429, 0.2895428631046169, 0.0768934841181252, 0.2614812143151246, -0.07675384359072437, 0.027309077987793355, -0.4712099416142001, -0.4066092933568504, -0.13746947184194086, 0.028125352934700927, 0.16520101387961778, 0.15731604377515207, 0.12265759054165311, -0.08390874777157235, -0.03619610785144077, 0.05210105018075422, 0.13209563324270987, 0.07155770169912748, 0.11479254251020972, 0.025295611056554364, 0.057227492862892214, -0.04207586298402242, -0.09398947133945748, -0.01738076482609167, 0.01835960695110675, 0.1704211057365083, 0.28523122994585215, 0.004183761349438128, 0.03567726209181612, 0.2697156638236033, 0.06260967603802235, 0.15573193271754893, 0.11730989229223426, 0.2175305367731709, -0.14083479485274633, -0.09845061716529437, -0.12858140253986772, 0.025495442294138082, 0.28378611478919125, 0.09192550787322609, 0.0347011812476869, 0.10923551638946358, 0.2554967707971841, 0.08530045522717106, -0.006625269644284288, -0.03230025536860438, -0.017902878980265095, 0.055591987592508316, 0.07524903938240281, 0.040727670435941714, 0.028542179485360433, -0.0007800518929078945, -0.14040732847912563, 0.07824104019250831, 0.20713432602867393, 0.05722009646192284, 0.015981457584490894, 0.07621735735520307, 0.12351919426284784, 0.17511019317284374, 0.34023909130913804, 0.04111737604769225, -0.27436504151492885, 0.05673270611917704, 0.06816270147953708, 0.19607747611332824, 0.017086982073039488, -0.0033090880749834105, -0.04213141182292645, -0.04399168398846162, -0.18495241387714406, -0.09135384418185183, -0.1961980796388578, -0.11198246458701255, 0.061353130861343405, 0.0689371556438361, -0.011995930412106132, 0.01490852463749996, 0.041963953098471, 0.004468947256289723, -0.2658064310919248, 0.003946525871970059, 0.0669274045529402, -0.011968602485256913, -0.01974858538062702, -0.1797634819160178, -0.11032140967553287, -0.041361845496515705, -0.018097692690061836, -0.17634824316042486, -0.22032796116308578, -0.28338915921374863, -0.102263405395128, -0.16890932442779427, -0.18536983061809412, 0.019770572438325137, 0.10472436020150362, 0.010297662727062814, -0.06472913850976883, -0.17783492951230492, -0.24899524329050554, -0.1025837818404654, 0.04589654331857087, -0.030040040510396448, 0.01709039392209098, 0.048679872495626074, -0.014759827487109354, 0.0014531702562622154, -0.14384252890343693, -0.13824902659875005, -0.0912614644702328, -0.014193409446031846, -0.16142304444052605, -0.06629849433843084, -0.2773415478689837, -0.19040323734990042, -0.38507744747084965, -0.04800138452237487, -0.18034919352873513, -0.018342446355177695, -0.008222227544910856, -0.06970090186694484, -0.21301647044805436, 0.06136217176539863, 0.05675733774028814, 0.07373604756644804, -0.037940340981681184, -0.23394682769114397, -0.20099401883851356, 0.05908462805164585, 0.11155023136922698, 0.04972467271772362, -0.0014892849770054622, 0.004670717570713598, 0.0033506239050794537, 0.0010733532143835224, -0.11778158701003563, -0.029727806150710776, -0.003394977901974219, -0.08910460309432633, -0.213683731044929, -0.07341643186371964, -0.09113264960598294, -0.11882195506123772, 0.1130727144640459, -0.025097620157204903, -0.1299230795703795, -0.30175714783824914, -0.0777984722835716, -0.004966209017379163, -0.08935982764003135, -0.09374314586185789, -0.04946231571611858, -0.07194544336010072, 0.03345811669042394, -0.13535544427280907, -0.01008007997015152, 0.06527633587515896, -0.009023036217989134, 0.06813834475325352, 0.005082001610634865, -0.0614676032012293, 0.028406135766607835, 0.008301138833913474, -0.08402332799449139, 0.06461096897780932, -0.01274322703806049, -0.041741627412667175, -0.25552666032506266, -0.17538706564840958, -0.09062288894162723, -0.0988743391288237, -0.1416797696500215, -0.14318209585806727, -0.24105890630244284, -0.2123620572222677, 0.015549415897202526, 0.09042171976230493, -0.06377008124535585, -0.0730928370448252, 0.18070530832324055, 0.05603700500892757, 0.01941789582936662, 0.02669543523285838, 0.1561915761648387, 0.0841359436928803, 0.03875789885381255, 0.02223455936868059, 0.007193943850578919, -0.02234787550763712, -0.02072832662821968, -0.005209341952783769, -0.04737688416825857, 0.10759716281709637, 0.014911661363523577, -0.05754070800126352, 0.10385858807798401, 0.21075632447651224, 0.01488860995267367, 0.025824458355815868, 0.07189587497618188, 0.021635006112859376, -0.1027643752863207, -0.08578219981260807, -0.029212971560495207, -0.15570852103371058, -0.012835748673046299, 0.14698783454981978, 0.08976933962534141, -0.07038178060166743, 0.008124647922876262, 0.1360531154655549, 0.14121946112453107, 0.12299591509105726, 0.04296444360733663, -0.03223208870695953, 0.02854819283594108, -0.03417624634191889, -0.022600955844792613, -0.001380672684583478, -0.021254992059016622, -0.011519499019224598, -0.0777922776849759, -0.045717470232159226, 0.053330709461053734, 0.17262354334761928, 0.26432474774016773, 0.1726388349575078, 0.16995564365327853, 0.005599654974315442, -0.05158873113405134, 0.10543432922298207, -0.19802195156458077, -0.046366658349511536, 0.1927128441268954, -0.008314929198834841, -0.1240998037559858, -0.1398700141291846, -0.0005336852081456488, 0.1005802497667095, 0.07992718332978209, -0.01746502638164022, 0.019314219995047673, 0.025817039683974193, -0.004688984888920673, -0.02127106850581259, -0.0021802591462108706, -0.0476869644724098, -0.030679869291430142, 0.002345612385373085, -0.049272488143732085, -0.07314684577122511, -0.19330700712300655, -0.179752062821457, -0.12086866129364608, 0.08561387771403968, 0.16921866244807487, 0.2275267972591325, 0.348176086802717, 0.20549519814503994, -0.07012916495425868, -0.1334363353394836, -0.10865555303807276, -0.07261444139925667, -0.18504477753421547, -0.1006665981347655, 0.03434733942087782, 0.0010197450638845436, -0.0011027453119490257, 0.00299719946053049, -0.031697869570646665, -0.03493572752331311, -0.015765876731361945, 0.026320019047814256, -0.0853402033731661, 0.014606215654823904, 0.01468618994157693, 0.01716350939827681, 0.028914910735726686, -0.028234674695837566, 0.03528255687172209, 0.0040846818742767774, 0.08517963039698445, -0.10553814146149407, -0.0389877472128041, -0.0002185841494769869, 0.03330487154828072, 0.03338975661079755, 0.04664450765994757, -0.0411733800347424, -0.06985681734578306, 0.02956965136954899, -0.0018541447909342628, -0.04086893512443268, 0.03990303392922313, 0.02117192467458724, 0.049648488092429596, -0.01810011191770286, 0.002522519665838733, -0.008262672458079037, 0.028446744840739117, -0.03659646444187515, -0.05171120959288855, -0.01713907433012474, 0.019665092404785072, -0.004601685541890962, -0.003232667893470617, 0.07975107038720786, -0.04386767278607144, -0.05573538993029089, -0.07535560256896666, -0.05610548218507402, -0.018100852546948577, 0.014678948915949553, -0.027331396002962208, 0.04390182747407944, 0.09765902273511153, -0.024137073789619424, 0.012073382976893289, 0.01565455700917958, 0.046113614472518265, -0.007744190478925893, -0.03979463164728937, -0.046138357935626186, -0.04482478290569411, -0.008135369087239906, 0.012394585103047157, 0.029867061103550946, 0.013240546252180813, -0.020600424539912142, -0.00536384280801199, 0.01636812226203413, 0.0200142731458256, 0.01791175465896321, 0.026851293606604983, 0.0426737307937532, 0.037823249025807026, -0.005792650906587858, -0.018030900157087082, -0.015185881016306987, 0.021674660936952257, 0.03872201080006526, -0.05694788400433536, 0.015372132233178388, 0.008613713075068315, -0.01120148031140115, -0.04207782515297836, 0.0857277435870511, 0.02028144112401122, 0.07397886768391511, 0.07073078739512428, -0.027765210418636197, 0.017973207793581063, 0.034312033672011306, -0.03897361607052352, 0.03173706526077664, -0.016281874161478117], [0.026662798728843973, 0.0031669039538686473, -0.02196833694341674, 0.028239035834304347, 0.06633233553323417, 0.004539998630188727, 0.08870838153422933, 0.02995036824821629, -0.0022306484617129795, -0.022426860624881213, -0.06051610549083723, -0.003351416904043899, -0.00839832615888339, 0.017168787569858665, 0.05472525809558462, -0.028442881306237833, -0.06116679424274114, -0.03741608937534446, 0.027027600557856087, 0.05055709599274255, -0.07718888411109943, 0.003379640970116006, 0.05805667173028999, 0.010472251994503964, 0.0047301884282611945, -0.045206441007834684, -0.009288105098061068, -0.013931744089765715, -0.02212778547040754, 0.014653511390371226, -0.005743816179052961, -0.017355447031409243, -0.02164463118193745, 0.022459725128633323, 0.041890164948988694, -0.0025992073065006904, 0.012340445949038296, 0.048400755990295696, 0.06723155182429646, 0.013556315773879486, 0.025757702393034213, -0.06138395608892612, -0.005939087675758721, -0.046808778745897645, -0.07497804456361903, -0.007337151003716299, 0.007084442436507874, -0.04539256340407564, 0.0160163751951325, -0.010505728681694264, -0.0748096615193065, 0.014836775759517492, -0.01718018407377837, -0.007834363850820755, 0.013282858485608997, 0.013107824926115678, -0.001350555495788511, -0.05747759869516018, 0.07471342805200361, -0.01707579330523986, 0.002301512344741329, 0.08766834103286092, 0.0008605423566052525, -0.054513936815817045, -0.025816763785383858, 0.03847512404519202, -0.06744911291374969, -0.0510102260348202, -0.03395255048620449, -0.02209708013643924, 0.011928496544490044, 0.04275863937730027, 0.04926506278452417, -0.03959967427814764, 0.024114610377465952, -0.06956528304792614, -0.02071526122046369, -0.002817905410592723, 0.028273209747326184, 0.007151240356302619, -0.011127506027022081, 0.07714094444395404, -0.051031744192093095, 0.09586999902825065, -0.018556422011308308, 0.0880569515459143, -0.018849440516277294, 0.013102917332233545, 0.025095194557733787, -0.009756046735839448, 0.05939857278932155, -0.0038470455558529994, -0.015084821749411986, -0.12724552181664744, -0.22811542892378348, -0.14737827909211804, 0.02954016281312755, 0.07799717829599274, 0.02911535420510788, -0.06812869847406086, 0.1413272789175927, 0.08324541331323074, 0.03990613717994166, -0.10487301510835201, -0.15918945218331954, -0.21061101988402303, -0.14237866168554572, -0.11606750832025142, -0.03510057358773892, 0.031854517692128215, 0.01532434526707425, -0.03531278453506119, -0.019696581329000918, 0.04048096852161541, -0.02571574024360872, -0.02061596936466763, 0.03179309302844347, 0.11201791118931449, 0.14245389139272074, 0.17419404943414488, 0.08405603935986872, -0.1387503182253032, -0.03223838271093128, 0.12791926331422382, 0.029017580895635667, 0.03815070208638637, -0.11296356763712488, 0.11557800467247055, -0.008740874819654135, 0.003018755746247633, 0.26469606869992496, 0.14177577836524746, -0.14161830017477745, 0.030016615680627405, 0.08511431726537018, 0.05850789959048273, 0.10075251996367085, -0.010357844633775279, 0.07312792135945095, -0.012765238419066939, 0.02808020049270078, 0.06035372797948567, -0.08132886410388457, -0.010722905196879727, 0.017512360151378418, 0.1569115428847073, 0.095883084988369, 0.019455058976178077, 0.031649673984818306, -0.023260392698910178, 0.2736971518347646, 0.049555071559173304, 0.02342098906914895, 0.01352414036980582, -0.06494914629930812, 0.2230408010217325, 0.1772320171444948, -0.3208695796602562, 0.13958215134564375, 0.09052290749244511, 0.1533973342562465, 0.09800149622701547, 0.15783250018115602, 0.14153989916889428, 0.2041298503918715, 0.01419139734967856, 0.026446579092084536, 0.03804841426127223, -0.044943317084079795, 0.02505302986484852, 0.012420257335416669, 0.08604234247566091, 0.12264066174875493, 0.026473955198509747, 0.09372208802517067, -0.13376118857077554, 0.06965736189571597, 0.04140377795947366, 0.007301197347205301, 0.05968851453948373, -0.04223049044520389, 0.1797124113148463, 0.06421490070469368, -0.21918576850215532, 0.22186747639147292, 0.048830645845219865, -0.016693943715438014, -0.2638077768843642, 0.21166253191505835, -0.044339720410105865, 0.0018805562008449817, 0.09550939582566312, 0.28062958908684543, 0.11378794428581852, 0.10151596203786845, -0.00037714481240711027, -0.0328322615789928, 0.022876456761417804, -0.003581936038646706, 0.028854257651263936, -0.07613669801093922, 0.021164700391126452, 0.004100871904473422, -0.19275239958271073, -0.1473355666295885, -0.33234599280428934, -0.18495780019049918, -0.0635920048074911, 0.2002715062866897, 0.08174382790295345, 0.32096739773531063, 0.077893674285835, -0.03093742587438452, 0.1830799527368517, -0.13206265797415886, 0.1276421004184509, 0.1984316087683188, -0.09336915570304088, -0.028356034086507765, -0.12706350887216694, 0.10633734547220093, 0.18513565760834852, 0.032687811579103894, 0.01634472001319565, 0.05495767507969771, -0.012635354297280953, 0.006672251171924452, -0.08987636902743278, -0.09171309672090988, 0.08663334323079636, 0.06110506204495881, -0.12741240934635084, -0.07444665313595543, -0.09385217882776484, 0.06584069143948015, 0.0265048679095211, -0.0602345373627528, -0.22257291004808544, 0.18873788216649304, 0.12235954281312011, -0.11659181349166116, 0.10982992944356398, 0.0847004527541596, -0.14912842334107534, 0.04967640744444693, -0.03709653888837166, -0.010150686589414076, -0.22175817078121085, 0.197050094049328, 0.31448734001177325, 0.06937303605974837, 0.02242071543944968, 0.05643892888602914, -0.025955700974027225, -0.021591090691847305, -0.07087095036205221, 0.1281520888124851, -0.06555232834520643, 0.06935323390848278, -0.02889670174960921, 0.07849216910373544, -0.05214769879286555, 0.0031942150322796597, -0.0035634830709072177, -0.0034833094531645887, -0.20353712622102507, -0.015811355369281844, -0.052295855228851454, -0.10589729803086784, -0.14676476374577288, -0.049996296922590305, -0.2262085935634539, -0.2610317970980642, -0.09896461316699855, 0.17667771849694575, -0.0067339518103076874, 0.3908303646197651, 0.47643609296104894, 0.04243243425965166, 0.029086953168331674, -0.026000366097025846, -0.06021612956412639, -0.029919875532199353, 0.0299145218379586, -0.06342889752908444, -0.20078340421005855, -0.005926149628574941, 0.12198331660306293, 0.29217288360649557, -0.14947643399083888, -0.021642047703810775, -0.07558533027049513, -0.0228839495434683, -0.02001587206577074, 0.07010415470812854, 0.20865216717501836, -0.15951326447144307, -0.3124126562307981, -0.15482761331459863, -0.16499891253634577, -0.2159132826915568, -0.05552469952863197, 0.18168575417831723, -0.015896025938685304, 0.4559618213867811, 0.4751044278929813, 0.11560606086398727, 0.059557125718641454, 0.025579413788202877, 0.005617013986137229, -0.0496835222526951, -0.00258138373402479, -0.10921710259802045, -0.20896636893288117, -0.0014150868121237795, -0.031511388353251554, 0.18040412265577624, -0.2606552285064586, -0.14651111369091657, -0.007098354507586297, 0.33498043904458863, 0.2955631136946154, 0.48721402758427307, 0.3707420679256461, 0.08622043030579561, 0.08381844956005888, 0.001259867960131618, -0.21067832965459685, -0.11798894987022068, -0.1509339740036027, -0.4323111840028902, -0.18376613138090117, -0.0838256882310233, 0.21868159437143167, 0.07344772078573607, -0.0041055120021334796, 0.016047556931916347, -0.03239131319698534, -0.16366769904891737, -0.2450146600521857, -0.1094270869140622, -0.1982596098373296, -0.13992687326431402, 0.006155460980410482, -0.04235180570718781, -0.05509686527405595, 0.44378219715893114, 0.37033499604342085, 0.23089537095694726, 0.24369660986197036, 0.3847353500062359, 0.11012060691419616, 0.17502327891823052, 0.030384420659535786, 0.2160102445679218, -0.09305909070459188, 0.0010165747384366288, -0.370415593780281, -0.454395497889514, -0.4571834695105276, -0.3316758184326805, -0.004101088513627053, 0.00734515246061934, -0.04477236772841353, -0.009212337605098622, 0.021490227317490576, -0.12790361640669873, -0.10373705195959276, -0.11943275486581059, 0.04485577710506294, -0.14173714762087355, 0.052317946647769745, 0.17787471230195698, 0.25673911178100595, 0.2560404404735541, 0.15002326496485752, 0.03272133954841988, 0.32239030804966157, 0.5291697785067275, -0.06848616345976935, 0.0978254046265934, -0.020834315790963405, 0.22781173611951738, 0.01842945133629375, 0.061648213005581105, -0.0011750761380324277, -0.35230376502638266, -0.46073555991640464, -0.3335666458632347, -0.08319923292402621, -0.011277635546667103, 0.00209380603564848, -0.015376740816184313, 0.029405029725028998, -0.07629067668604476, -0.12843571064712075, -0.07231534751822605, -0.024034434925915643, 0.09007262069776603, -0.03830486874910406, 0.03739345762179567, 0.10836678485945041, 0.045806249159467134, -0.29463635702685864, 0.2105769401157434, 0.054591996071203915, 0.3369604976100571, 0.0990279629994467, 0.04669654138535097, -0.07719813286187541, 0.14657175869944816, -0.23223442238792474, -0.28323907576090673, -0.12409037351606818, -0.2530576872078256, -0.13341686679105452, -0.18304704063222402, -0.0862678159910103, -0.0758134261623335, 0.0009935425082241195, 0.04456558650085633, 0.08390284054928038, -0.022734732232772864, -0.11370588952419358, -0.21769486734299626, -0.2441595403238754, -0.42044107421158905, -0.5217363233476143, -0.3383935368948795, 0.1449806212593327, 0.12242238996073808, 0.3321548506077016, 0.47272902185578525, 0.2081407745743126, 0.14906745996341544, 0.044647915135818346, -0.0038429435936985805, -0.3062299896678293, 0.025031946953344805, -0.0416839286936741, -0.21043390722319474, -0.04539862715403423, -0.1751994520918449, 0.04146437861856285, 0.018114507913473816, -0.13772098771332075, 0.005329038813454442, -0.02395434214322594, -0.03234193581914206, 0.017293941839265716, 0.09253320467689274, -0.016089465126023824, -0.2760351197401838, -0.5213351282937652, -1.0144629232614872, -1.2908045824955565, -1.3297712365310843, -0.8013198515759693, -0.13936522338066093, 0.3236356454947539, 0.45679132609254347, 0.3861100885108648, 0.08683999139383984, -0.21783459220400134, -0.21195836109097638, -0.03927797923310425, -0.14368520101028043, 0.13009040143454223, -0.003548108706942689, 0.0050100672710252665, -0.012054406174457128, 0.0634807251954487, 0.05968312854242625, -0.14540898941420088, 0.007804051972142899, -0.09242947425873654, -0.009106141646322799, -0.014885523146352603, 0.08394533441100457, 0.18331746749464045, -0.11194001519832891, -0.5829412477602399, -0.7573991907177529, -1.2185205625967457, -1.9800962671117048, -2.221348895063323, -1.8113795272099475, -1.4944333920054353, -0.7851574250297108, -0.5394221442005404, -0.5084262689632499, -0.4780973048195444, -0.3449375688938546, -0.35629554074953595, -0.24858823636412822, -0.006307541310535658, 0.011209140315022782, -0.048310231980409186, 0.0012220974775518274, 0.043150909160451376, -0.08235881793398431, -0.08778927430927569, -0.01940046660115868, 0.01898469578619527, 0.04863645530750392, -0.023233843404522014, -0.001963348287014443, 0.31076930637765376, 0.11026283423141449, -0.16524106395774285, 0.034664653177450905, -0.334899423374006, -0.8068687768426485, -1.5667855039058294, -1.8948006406977587, -2.140394354521863, -1.6734452065998793, -1.0033415823120981, -0.5159590615116927, -0.31884355693423655, -0.1527918202638592, -0.030820018308566146, -0.14255218706800307, 0.1337943629729208, -0.008775539206930014, 0.04914755830844486, 0.12000750009024735, -0.08038574116352425, -0.1173002744101613, 0.0019947630553854676, 0.0169779436872929, -0.044309938277265475, -0.052237926473631124, -0.005949306042500041, -0.01301035301121893, 0.28672666070614966, 0.1478042915162637, 0.2658663821163393, 0.4115280466898952, 0.3608449197840279, 0.5359008074019835, 0.36176727886627685, 0.17758109593479027, -0.054771955007382585, -0.4024402871121906, -0.0937861178500054, -0.3649076059030586, -0.2297257960751159, -0.03710364088895584, -0.27440659568539644, -0.04873946983804421, 0.06584400503243186, -0.054821048793565856, 0.11574672054316286, -0.06544754916540126, 0.0019239518932352012, -0.09407645944507362, 0.04117337517755727, 0.04948911889061592, 0.023823276175455096, -0.011840403676860591, -0.060586475332496045, -0.013624287790967997, 0.167419224702234, 0.2348787782560156, 0.12151740283335008, 0.27772451994373565, 0.051286917978062514, 0.3615914283312944, 0.38293864160369123, 0.4956271963211629, 0.5329276639172122, -0.040763356151451255, 0.0053065251678038605, 0.09121771297158406, -0.12356272874737222, 0.08762948909119583, 0.04037470440136303, -0.11280434807291198, -0.09677769445716929, -0.0373884177324979, -0.026966971680526475, 0.10110656758610845, 0.034951592203164725, -0.04576977847245952, 0.03809580412277886, 0.03174935105734123, -0.052042066998745584, 0.016860544287996534, -0.049103418833208554, 0.05847266723107244, 0.10948201126896964, 0.29134250203672163, 0.048872810914994326, 0.16879361565767872, 0.09806857483508878, 0.17634373138223924, -0.12025472176385947, 0.2345479859430155, 0.26574032456261465, 0.10012884578076511, -0.005913754059346066, 0.11156516959940295, -0.018373199021662914, -0.1799413555523779, -0.15669770206448294, -0.004215088622708443, -0.20605726560969156, 0.027610302436071366, 0.04220001524958931, 0.12641276292050702, 0.05543721530283214, -0.10057203683723867, -0.046508197358388924, 0.006936518308960162, 0.05285204131845235, 0.010404986534946245, 0.036979963772659594, 0.03520279541021281, 0.0906811143566677, 0.18836885970203354, 0.20579158471017758, -0.04104485629758988, -0.09370926634672398, 0.1510522981105011, 0.1314381325156089, 0.37416030108841675, 0.04462970994667005, 0.14412612186728269, -0.04281736365992657, 0.06420308903343344, 0.013620004539780383, -0.043606062559918723, -0.006655416062317331, -0.2695034240167302, 0.12085448471954881, -0.055646261671799827, -0.11075697768716579, 0.11333504579203169, 0.04978709123500173, -0.11737635214192678, -0.030739364134149842, 0.07086294609130508, -0.0023836077404980455, 0.07449006733217818, 0.03368370211322498, -0.025807982950840535, 0.02897319842051253, 0.23067920081987658, 0.2786431333719724, 0.08687623450524307, -0.06184162168570866, 0.22559509385908044, 0.2205098099121753, 0.23378244494798495, -0.026606052033843187, 0.17109224136965612, 0.11827993500935059, -0.05947151626223312, 0.03939930729196777, 0.06892877970544423, 0.169927194297202, 0.05758088279448944, -0.11355106250644074, -0.24000025198834898, -0.03271969818707637, -0.09297300874545726, -0.0632674211753622, 0.018843704620010063, -0.0918290791724172, 0.041556294765436715, 0.0016467688927985968, 0.08997248280901145, 0.011460924459441186, 0.02436737818703557, 0.013865807108706637, 0.18135026430049542, 0.2864905523158228, 0.3333370963096533, 0.213079474440872, 0.0690443484011985, 0.23225260075266826, 0.42990006753069626, 0.07188373881633862, 0.08450078390311878, 0.08262869166451427, -0.02804121348512371, -0.054015783962633394, -0.04813925787751908, 0.1003046725761081, -0.36451176351629677, -0.34300232178101797, -0.024857553567835537, 0.04241680803522941, 0.034905645152026925, -0.03408880589721524, -0.03225858462025188, 0.034574580683705745, -0.05417360368413019, 0.020145882315421724, 0.005333363330819852, 0.036291455246576294, 0.02477392156024584, -0.030275008455578133, 0.04776437052867494, 0.19111012866501068, 0.07129910123074759, 0.1834714594459132, 0.2182520739319076, 0.08811753404935484, 0.15916547280831095, 0.13391461680982183, 0.08095171965664254, 0.06341312735314925, -0.07393673748874578, -0.07883219735785614, 0.04594264794422377, -0.008716524487970452, -0.10087706126377151, -0.07993626540751438, 0.040458074908829605, 0.06481741872302542, 0.05103994407369083, -0.010300958740250502, 0.006600873749644648, 0.05810353327035226, 0.002480302211058831, 0.023239829184467906, -0.016871859320332878, 0.03826844618905128, 0.020731960802230383, -0.04470705280377292, -0.005435317865640478, 0.02721330604182396, -0.02230666499313665, -0.002098056999808202, -0.012237530002117322, 0.04099730231046928, 0.009155750226330972, -0.09156787224620366, -0.1123134568054491, -0.024014618008854228, 0.04155051717220364, 0.00010132301577624712, -0.02987811466925517, -0.021004393140962453, -0.03605974678439194, -0.010559154392673088, 0.00444772342416296, 0.048393034519445086, 0.009626287625810285, -0.058583804366723446, 0.010473255826761927, 0.046880851925298964, -0.0032230814821411526, 0.03496840137346313, 0.03353137490922507, 0.029777167678517492, 0.04198682707225261, 0.010726012149218185, 0.024034548244529635, 0.03664729090277568, -0.038173003011215165, 0.00379258794681936, 0.0436527911633101, -0.07493701607578088, 0.02779502084507581, -0.03137155602304603, -0.02642583560776885, -0.014568986111033327, 0.05736498937671244, 0.02533107210722778, -0.059893872026929654, -0.04878021173755595, -0.004314169216615718, 0.014860298498297812, -0.009283915961719472, -0.004146051412562574, 0.009400298334085835, 0.01992187211311062, 0.047897109320372284, 0.009805170389615791, 0.030068845721304888, -0.06275947685500648], [-0.005169282316344135, -0.006553253592676123, -0.04373661640837525, -0.0061939869630195715, 0.05051238077154676, -0.012775681386341175, -0.024351560256576452, -0.029145153777631348, 0.0655484091505424, -0.008613329261081003, 0.04310152588250112, 0.03321051185990245, 0.016297420019639092, 0.07045559712115353, 0.0008767214468697636, 0.03997250699014898, 0.0063709333811264365, -0.003621774081685374, -0.007862335448363048, -0.0022167593034195148, 0.01801132695112761, 0.014174800701211406, -0.047511239511005485, -0.02444063017339954, -0.006544591564790142, -0.014686322433076151, -0.05865116564028903, 0.028107931850585167, -0.0008091440281615567, 0.02018217891943003, 0.033151294945158276, -0.011971581799288268, -0.0009132013048654088, 0.01730304662317191, 0.0345419426052494, 0.11023977372152959, -0.01000027716825346, 0.08950351523107153, 0.06528726981956269, 0.08657166705907238, 0.12533071775839183, 0.1505320905717648, 0.04649262633238988, -0.00021494979885450325, -0.01629717300853838, 0.006456312653529722, -0.010364170183018561, 0.056077105153189546, 0.045158440215655994, -0.026775576145685206, 0.025262431272736054, -0.04144567387445947, -0.05357215715469482, -0.036592529580090676, 0.04895192744641878, 0.04302760386932082, 0.014072847045641258, -0.03635979446403285, 0.03330850369096272, -0.08227895437248968, 0.030130482122127177, -0.0014010007111887397, 0.0027034142919364792, 0.16606244651721036, 0.19365530586699722, 0.1761661944333654, 0.17558774316005096, 0.257437211291657, 0.2689921977108679, 0.3255161248002679, 0.22600168947683988, 0.1272230836760941, 0.15401480813329985, 0.2335778791919123, 0.19333397016800066, 0.17696501737436138, 0.16868151168715725, 0.05378557408204258, 0.005574963596751871, -0.001824481252832804, 0.019184730404304632, -0.06105437476112264, -0.033545005689629405, -0.008545052857141347, 0.00605118181584782, 0.06358465976722164, 0.003143521790409252, 0.01939428958040764, -0.011073029216941994, -0.017469640168888367, 0.046632945310662484, 0.14519211356101458, 0.16185236309586248, 0.17044880831129008, 0.14497400721255813, 0.0715620520948498, 0.1280039700157434, 0.17078264766509305, 0.1932031039987484, 0.2716644520187608, 0.1312570707638411, 0.12311365035990049, 0.30213269439256946, 0.2638897769657674, 0.1797678155836068, 0.16702369740964634, -0.012940160891315694, 0.17192426351287793, 0.10132434633218289, 0.07916381389859041, 0.017324725784341015, 0.013708560346731045, 0.052293623022264625, -0.03748351794014477, -0.046994418148630236, 0.056640013730160796, 0.04346638816749983, -0.09148035623016727, -0.14112527515867393, 0.055894838832930824, -0.12788571445618283, -0.21571589385843304, -0.21063607227027314, -0.15591003233672057, -0.23908276765409328, -0.22101446783880066, -0.19267659295301914, 0.07042513837234637, 0.08444777946873644, 0.06137439355708432, -0.10181042278345798, -0.07242498739244221, -0.2465172599793417, -0.04441727287217392, 0.255903805440106, 0.29295688818338955, 0.1998719063474663, 0.08893255745651521, 0.0026703380654452876, -0.0003538919319242986, 0.027058337608064524, 0.028630015158249388, 0.038808218289405394, -0.05892575379335065, -0.1357853804539852, -0.4612691335532229, -0.4295137232173644, -0.31786292530793925, 0.00534585937605642, -0.09690441776565686, 0.018165353996630912, -0.3433381573361231, -0.41954657315853733, -0.2777112358561906, -0.39055033200196176, -0.3030263739177558, 0.1825226930450773, 0.3209629899887183, 0.1666767552601905, -0.14843396431446204, 0.08659884917515852, -0.013030099572742563, 0.12677700807653758, 0.22427890438530174, 0.06017712279160152, 0.03535082221426612, 0.009339375325994895, 0.06658411785688319, -0.028583467254880812, 0.011131086278036379, 0.00576209114388967, -0.09659790890230426, -0.2448163840408667, -0.3701482944566543, -0.37912694082451043, -0.06788049012123605, -0.004034507287715736, 0.04709052991227111, -0.17590565470902347, -0.34166003711377985, -0.1929945062776807, -0.11877116285926563, 0.20681330398527092, 0.10478468926577203, -0.07422499537262398, 0.1866970961321568, 0.15651636550316608, 0.28180657065395437, 0.009668462980312823, -0.22605840239820094, 0.07067018227348572, -0.027963116832864943, 0.032227959596972916, 0.0017449491472890696, 0.05727245742967014, -0.01602506328314547, -0.004007478371303139, -0.03102224074846439, -0.0860583464101017, -0.1641367602379208, -0.4236146827024396, -0.44564283145164396, -0.3340422835195632, -0.027953708974695363, -0.05561010946755083, -0.06042356292749524, -0.04328589095372635, -0.10557695693816466, 0.09471929205024164, -0.03389567637015232, 0.08905256021125289, -0.057953194689995324, -0.13051973864448915, 0.09334888542118723, 0.0795992395775814, -0.06080699991854776, 0.0006569068815133403, 0.12933457953544222, 0.06256914522558917, 0.3092194168306478, 0.36821139858802415, 0.15699889220524707, 0.016198278846300186, 0.028949074673778562, -0.014581200198232641, 0.0023527899907695017, 0.028072732694626727, -0.13411890799767434, -0.5124988528256581, -0.4170742290891288, -0.2749325920533079, -0.2130709534388524, 0.0032121178726348017, 0.06663956266424366, -0.05824171994009572, 0.05284905353915707, -0.17401423324212043, -0.34709886815881585, -0.3137475749645937, -0.19070649264109688, 0.006795200461090641, 0.0035397357475101953, -0.13182286741338167, -0.14676067217442668, 0.19619213938156085, -0.1923044664291972, -0.09050860119976352, 0.45436503165415354, 0.5671330872835769, 0.2477805442914632, 0.035349207200822734, -0.003801303651002435, 0.02165401710184224, 0.06997344653716402, 0.015014359000070848, -0.1683759248628089, -0.541081762887402, -0.3078624387635367, -0.159685065417868, 0.03904586265916843, 0.30363825790389626, 0.11989042247027631, 0.027168901591998796, 0.14276385822970777, 0.022227667474112773, -0.25473869385754316, -0.3364442954241732, -0.6133127627929048, -0.4422426841827327, -0.32071223322217773, -0.25063735249118546, -0.3240604520148606, -0.23676066795598805, -0.2437208416276283, 0.045198573880018494, 0.7508275654605825, 1.0970668075551446, 0.515193404745431, 0.02115196452317048, -0.016275170281427616, 0.027523090113913767, 0.0014274085615024108, 0.0026647751973054644, -0.12464625865459127, -0.2736767845836301, -0.0029504425440624376, 0.18306531702904674, 0.35952373514447233, 0.4517643925794697, 0.3666639000296495, 0.25128340938630767, 0.17411741618247767, 0.07348830410748354, -0.05806210417976998, -0.031120053269477147, -0.210381698827732, -0.4426514859617087, -0.5761788467592045, -0.5891041591190959, -0.47023959442720525, -0.4723363939897175, -0.4256161622024544, 0.11101780660925252, 1.109540991691334, 1.235629590984687, 0.5924538146939738, 0.11248248659326929, -0.008341727239814606, 0.06720304681569272, -0.051564915517977754, -0.0010685748392741745, -0.1517458854670236, 0.04269242736582639, 0.11293457484706432, 0.3716259086264179, 0.24468418554487864, 0.35282405283441665, 0.20656722769861802, 0.06939176142307579, -0.027999566818088614, -0.0961020646163215, 0.3456316831013731, 0.20031312834896298, -0.5715990137270478, -0.5282274652657863, -0.5413580429212367, -0.5728237841088798, -0.6142214064142957, -0.8515716080344398, -0.32114357196172716, 0.07774847129802592, 0.710897028845587, 0.668028215198153, 0.2951796197965091, 0.07409218126859002, -0.00450270728716927, 0.07387983989226732, 0.023738812967355236, -0.03250809011103735, -0.048802164144676974, 0.05715759684641174, 0.0645303820841578, 0.3692051041751324, 0.2501956147580606, 0.005215175812642232, -0.05685597719070558, 0.14765289690691877, 0.304961116113735, 0.12223712207589903, 0.3911400732843343, -0.25707053686483977, -0.5256473283274953, -0.6955209567362444, -0.6870276456550741, -0.5142725855920789, -0.6730992342112386, -0.34832770178179273, -0.010227721266959592, 0.4335176148615493, 0.47583956320420034, 0.3400167847441334, 0.03609676849615938, -0.044551575072463455, 0.032505725225948794, 0.007048150476082859, 0.08307956783520874, -0.0034313853839182543, -0.028640498446660296, -0.013300335240420744, 0.1210576924539947, 0.2584234710230482, 0.062415932019735665, -0.20719568847494824, -0.07933129442718592, 0.20832397790716015, 0.4001431032696688, 0.32566661689125814, 0.1415751378524616, -0.5381426909123183, -0.48296697451885556, -0.3937443254645479, -0.42699859882365787, -0.4347190122750237, -0.45907717345984217, -0.024773575431928936, 0.6339602039082983, 0.7518452445593863, 0.6393825681006683, 0.38829454057165064, -0.04847416006281312, -0.04453563787344589, 0.004286290356281271, 0.07782271461167115, -0.024834729864179495, -0.0031108797254190018, -0.05678650646346651, -0.1040118220394758, 0.15453146117594718, 0.22346931736946465, 0.15546633234809468, 0.27620731297778134, 0.415035095368517, 0.4704474552262776, 0.18907463083609063, 0.230673214659929, -0.2873323527808673, -0.35818941347228384, -0.1334237236361063, -0.2266285763664333, -0.4682055867109551, -0.5867662028456415, -0.6210465515519275, 0.6089827691829511, 0.5370617165181811, 0.6308950715934871, 0.5019239497331072, 0.19838124347701783, -0.060870912312590286, -0.012782553105916647, 0.05599711594130239, 0.022098973810299995, -0.01805650265662598, -0.010853447794598996, -0.1533849327994065, -0.2286852802900688, -0.009076726409316862, 0.1081178308087346, -0.00815830995201647, 0.226071602323708, 0.2720340072552091, 0.5960017457210867, 0.24759012053724028, -0.0356585998474233, -0.6040621063297572, -0.23516787471787517, -0.15202509277044973, -0.629003369598646, -0.5980176447978879, -0.028301895440014175, -0.11587643109137177, 0.5762965328187372, 0.4092639394402347, -0.05257455416628832, 0.23389327439929192, 0.12339073218339858, -0.13900327796051348, -0.04110136683847557, -0.03252998738201962, -0.02013739250756899, -0.030216989437114945, -0.0458904765547898, -0.07581910562427292, -0.2566883905264336, 0.0013633373682028452, 0.12520251293041254, -0.28944126732465314, -0.025726552912458595, 0.1175104129862077, 0.20045314500963843, 0.14465935280875075, -0.2159424600035774, -0.4549477347754313, -0.10240569514699545, -0.3971077328293549, -0.46792268249184715, -0.1238129646306616, -0.1813432224207209, 0.2788303242150734, 0.3555031075548814, -0.09443906287756738, -0.25241039813901056, -0.07880861832344027, -0.07224021801622453, -0.13710092281626274, -0.1537899389254366, -0.08270411670598923, 0.028690377086720037, -0.05385765542881776, 0.014061677893610545, -0.2041028202061434, -0.1555751741952919, 0.31582806105599376, 0.44160486340725785, 0.007056320109393893, 0.011380771458257676, 0.06038414142979306, 0.31276034895000837, 0.2154136787781443, -0.3298193723966535, -0.5031848762153757, -0.44541567461371817, -0.17767196471795071, 0.040191429837337686, 0.34377784604425127, 0.18337998083811202, 0.19978543726050377, 0.34105796753339196, -0.014538106702330451, -0.02427515347871789, -0.08111579443889877, -0.09380574430529498, -0.1646631357097757, -0.045458827097606576, 0.043828828688461184, 0.012969690459003777, -0.004766301848774097, 0.02366008991987786, -0.139441331077447, -0.027057684629335325, 0.1692469322328141, 0.32634538127495966, 0.2049038458145476, 0.016153590614147933, -0.13999533350795626, 0.10598867604892954, 0.05808323639295149, 0.09692828466111891, -0.2447191858749751, -0.23916548645517519, 0.04988800952094936, 0.2525823523808885, 0.40283514124417336, 0.14457682694357057, 0.04399604758386465, 0.03680171266155595, 0.02884050086703606, -0.018456025190360503, -0.04657909844536082, -0.08533384398643831, -0.11970724708962545, 0.04704229448937537, -0.008397139749389618, 0.00020324063471948583, 0.047779924235547326, 0.06474906632218752, -0.08609976051298236, 0.02367304488613957, 0.12394408374477917, 0.06971868599140649, 0.18467856043145753, 0.42614550912462307, 0.3527642262556945, 0.44544955623829274, 0.7155418299495039, 0.5803441061234309, 0.20158506530393847, 0.2589228326906148, 0.1670484544595089, -0.049624239464314504, -0.07915771391109333, 0.10549566167492477, -0.011781801105363386, -0.0065331719050006325, -0.020125721603319074, 0.06529724600576932, -0.028341512671322427, 0.033982557447520885, -0.06742265640117617, -0.011934000897043683, 0.006432090869352077, 0.019019411527750135, -0.04397140553132668, 0.036095300011648394, -0.0368829105258576, 0.09624354680196281, 0.13405391922747298, -0.06410616976360042, 0.031239147214864087, 0.09835550357185575, 0.27252175167945736, 0.352496216699673, 0.5796342985363883, 0.42027189140671456, 0.09472785768979211, 0.07140301384590048, 0.022486750062088227, -0.008920570348861831, 0.05189208537511081, 0.08561724360126902, 0.0039180912608702, -0.03066946341630181, 0.016138664369516994, 0.3063900592795315, 0.04103248051512456, -0.00036292900393493344, -0.0439256276918645, -0.042981141469351954, 0.00045581065078008413, 0.012717395454360526, -0.006509722926331972, -0.022857218989284278, -0.012972377778853208, 0.08192444738924576, 0.012240252041434783, 0.003953214461189919, 0.21408612511152866, 0.2190167676792419, 0.10206478932993299, 0.2527927784198104, 0.2025746210375477, 0.138930722353809, 0.37107746782671974, 0.09696735446327662, 0.1605087426345981, -0.12191205024794602, -0.06886527973851946, -0.044539343363603, 0.09758761607351853, 0.05226070353785596, 0.15415317292371677, 0.1250217853245646, 0.06763409940942272, -0.04246936460324677, -0.0324983533476922, 0.06491753802269729, -0.054738407073509486, -0.007392705623338426, -0.029596555561318558, -0.02896332118841712, -0.022843361594429425, 0.07282858006983993, 0.05386162178567407, 0.1059375152268702, -0.015495971397592961, 0.09656521305186819, 0.10292340166181124, 0.130881976058425, 0.17749119013943154, 0.42201015768131367, 0.1527526658426225, 0.07100778853430982, 0.2214495472519166, 0.035339708923349124, -0.08707696010892216, 0.02322413301976162, -0.025624339856271827, -0.12586439707703106, 0.040336815676756115, 0.09235043019705383, -0.044752235538571175, -0.06548999784537309, -0.007198181274259856, -0.014134262534258814, -0.04653852587421481, -0.04092432075838837, 0.045136441529167494, 0.038079528999726574, -0.033372410482984394, -0.004476100515561023, 0.19042827544811447, 0.13137792482455454, 0.06626277367934069, 0.12251896876016112, 0.1209878477488421, 0.20419265543543255, 0.10443981023479658, 0.06739325323187059, -0.12913776187263143, 0.14627563883158629, 0.22000661081498415, 0.12415481674158468, -0.04690891159341198, -0.11481822022713359, -0.06790809092167735, 0.005975555663931784, -0.008619930976925372, 0.10316245738188241, -0.05821845802273909, -0.03761598219485357, -0.01915808728751236, -0.09135629932981196, 0.00738902922982129, -0.06624118316565428, 0.04533940781346768, -0.04711275559366425, 0.05593222557333996, -0.05294067552778327, -0.03666202674844937, -0.10180867026645495, 0.02691663964270705, 0.15340320603938679, 0.3486531887865912, 0.08046392324022575, 0.018942144177013787, 0.2722493530507572, 0.07649475973637894, 0.023276879159587788, -0.04762143158248779, 0.04903116052162572, 0.13570315345685818, 0.2170181283869399, 0.04552275549381614, -0.003591223392332679, -0.0474608496702938, -0.12698993872368486, -0.03306378899656296, 0.03994530401541437, -0.05444128001191441, -0.036675523612745606, -0.026949650596532447, 0.003382311822845094, -0.03146946563830862, -0.030921016122227828, 0.058436951888326795, -0.059553309864429894, -0.054794305821816366, -0.06937972167103452, -0.11995227873107052, -0.1538074113477043, -0.11477663100164646, -0.1524596101164599, 0.010691694220550557, 0.11607532208880486, 0.14034307841916813, -0.04045198548177004, 0.21724292611443494, 0.2544626848058365, 0.29761288458785634, 0.20679648600205133, 0.02753085489882275, -0.07863815010864514, -0.07098975334692965, 0.021546429649420995, 0.023791215701772145, 0.007589939748150053, -0.03979560451181636, 0.0435332831331229, 0.031147174689669876, 0.03288355324985322, 0.06815526159616454, 0.011617676580689655, 0.05390210178327414, 0.0029797319687640588, -0.007714766337211468, -0.07517975041545717, -0.07642842440228494, -0.07938466775653766, -0.10579873561100543, -0.1306062826951363, 0.018642932814624313, -0.02973915172057734, -0.07711742704587429, -0.011161802378667556, 0.06077492646570321, 0.12085170578228469, -0.02014807860838921, -0.11092561800072431, -0.037363179420054675, 0.029355857751898466, 0.01676664955877265, -0.02689550430697687, 0.06119414504165007, -0.014044871900616695, 0.013293237859024563, -0.041229019082384404, 0.0517087660306244, 0.00447432337153743, 0.028875369025173382, 0.06248882454371816, -0.003826874057372046, -0.0274394968749353, 0.05641551651889326, 0.003539276616500539, 0.005044544387615356, -0.04189477036470769, 0.024647527924124255, 0.02465356665101563, -0.04892033914780348, 0.007940965312399092, 0.005090853548992243, -0.017664110216072938, 0.009987020095849846, -0.04791142802705224, -0.024758800891634486, 0.017302978093286025, 0.062452475037482684, -0.042259640482044045, 0.0530866896918975, -0.09536770008350717, 0.0776217273050863, 0.008299249037043094, 0.015962938925059095, -0.01849609333862583, 0.0629483528956405], [0.005855806840696487, 0.01346478293567797, -0.006724154739287255, -4.7773368426207685e-05, 0.05318434393650736, -0.04391861457359977, -0.04327033403859957, -0.03618500392763777, 0.02157958869397991, 0.01865605530144255, 0.02876497050467763, -0.024544812639346606, -0.011537457269752032, -0.014985771396368974, 0.03408156734393208, 0.019534272918953325, 0.00968072738740178, 0.062060462502417355, -0.051781435533553966, -0.014890538283380219, 0.02248573837176188, -0.017956440318897208, -0.02017169799585723, -0.00770274550576551, -0.016761846268871627, 0.023735676273359922, -0.02541960038502557, -0.021222903061394342, 0.010089325909885255, 0.04250559199189324, 0.007945961914051463, -0.02118598862307355, -0.03520326816987688, -0.0038267363047446348, 0.022180865803754057, 0.006169380660557366, -0.045512687892448535, -0.008917280824546637, 0.06270705618625425, -0.03832797128816933, 0.02961705852053226, 0.042251615470936206, -0.004319698624268289, 0.0057367560654309905, 0.046653123009531706, 0.019407902592222286, 0.021970932278308285, -0.06304094904723669, -0.04029403057548231, -0.004021436211714456, -0.024906409398446686, 0.008348600721534236, -0.049867011399537906, -0.055259402461909364, 0.03158827491914532, -0.012455877186747944, 0.0709163021040885, 0.01035443115555125, -0.011233280175026672, -0.012337579252507808, 0.05659965936870266, -0.011613507025601441, -0.001790266963612467, -0.015027728661085924, 0.04850469071311606, 0.08353019355326202, 0.09704727392255565, 0.03835628441333416, 0.08927770877643293, 0.0403211038844863, 0.056473170604432944, 0.023732641867272752, 0.04324817921900438, 0.018971823932872306, 0.04309536546054665, -0.0056091058783623695, 0.059250339194632205, -0.01378174685175445, -0.030163619967120893, 0.04381585268383548, -0.005841574162295781, -0.010310413884506481, -0.03897636825023474, 0.06004092220010491, 0.042372123359708705, -0.02437928863142389, 0.05706049057792306, -0.0036145846808283513, -0.02683593758974819, -0.09761321831783337, 0.016140787370867375, 0.032851867102514073, 0.09124911410737031, 0.16132156983494467, 0.16703366939980943, 0.19307785477076653, 0.13320475551043995, 0.15944676601739535, 0.11996533311336363, 0.009681435205825527, -0.01444730219584447, -0.07732438804227763, 0.019452326142891618, 0.047367030349121216, 0.0648125802376593, 0.12736484579477056, 0.07575182841536568, 0.12003322815762153, 0.08275127956038153, -0.01989076753294737, 0.01966765292823038, -0.05856799725586961, 0.013877212202089397, -0.011366346462798382, 0.01909935894223097, -0.06713911088675724, -0.021236696842050897, -0.05630311311980578, -0.00791276567334179, 0.07073900999332763, 0.09717133466498455, 0.15131582997692553, 0.05367489142638769, -0.015584205525243854, -0.009838268308988242, 0.005614371040123386, -0.049500926206607586, -0.19705709163339957, -0.08831344153098018, -0.12464334824218941, -0.12052678849284773, 0.14097609224116442, 0.20007543013095783, 0.2561945560564385, 0.23238715233747845, 0.20459369690713328, -0.0848953362862625, -0.02806841279218921, -0.060961532576918664, 0.02178766124183314, 0.020880989452242, 0.04371304687330214, -0.00580084237763171, -0.024702425041568398, 0.010596170843168171, -0.05798138216738585, -0.011698512090709691, 0.06956625570349001, 0.21441606854211437, 0.08871470614695168, 0.015702870030392387, -0.30684498192453336, -0.3949162141287728, -0.4811987564322049, -0.3967035262549705, -0.19881561616038665, -0.3791307331799119, -0.16207988738935106, -0.0658590678529182, -0.14670772911702185, -0.23516434240910414, -0.06286021614551206, 0.1053817195483972, 0.1789673046785679, 0.07764389560216624, -0.1227636153994063, -0.008379999610107129, 0.006851365625398533, 0.0058001913333468975, 0.03901621566485804, 0.015982152622936237, -0.010722085541632514, -0.046645801249226744, -0.07287216970958005, -0.10550433626819876, -0.022814643068245783, -0.10365046120806096, -0.20608756116413646, -0.2613668651026964, -0.2504427223814828, -0.28980567062018303, -0.29059451794381785, -0.11239605179733068, -0.19876329882374996, -0.11927957494159919, -0.07401986001894023, 0.059647383621719334, -0.23098855847411856, -0.24758915063075462, -0.19907901776892528, -0.20423316187493584, -0.1617725504234551, -0.04033312551061295, -0.18240271060308375, 0.005485778396469935, 0.017197136649016155, -0.013383230952368062, -0.020457584020883327, 0.016250992576870838, 0.0008142154817777005, -0.13945757847819887, -0.21430267363597164, -0.3783332162852579, -0.347407536178777, -0.331175517488565, -0.3234806362086685, -0.30414554661188814, -0.061464252621634644, -0.2220382030903538, -0.03730667827557806, 0.09175039723875728, -0.08139041721066984, -0.13965263287242308, -0.11875465664330351, -0.11827713853835566, -0.13198952089318608, -0.06491419570368444, -0.2624736439425227, -0.14842146037708456, -0.14620797737423, -0.12179949859685428, -0.1894461109459993, -0.0963101337684599, 0.01780110040406385, -0.06821082320646857, -0.020107303008590965, 0.011325168636899346, -0.13815074923156223, -0.1395502655430727, -0.34676948258330703, -0.38817557076045817, -0.5130271598352117, -0.45266194910072916, -0.31194873456371763, -0.2926882185083321, -0.16369256511393604, -0.25375158641048495, -0.22713243770790986, -0.2437296599407099, -0.047777742687688377, -0.23736364459955855, -0.18644913116665598, -0.20434397018025272, -0.03953172792196271, -0.07909335550526388, -0.20794329550929144, -0.13830571383195553, -0.2641088257709991, -0.1849644566117688, -0.0688907697585776, -0.11276665418688553, -0.027594674378074092, 0.016332009200695417, -0.08227367909255924, -0.11241360738634121, -0.0768828754539946, -0.29914014251243143, -0.26277456980796793, -0.342980027371817, -0.23018048380770978, -0.26157581203847213, -0.19427905003918877, -0.03045209714650653, -0.13903234771574535, 0.019426364795578077, -0.07323658415024005, -0.2444866908020682, -0.013084142994510793, -0.14103450292945097, -0.26223540233472076, -0.12223352207661088, -0.052457802556635166, -0.11580210701275608, -0.3518174746748092, -0.35149367167221324, -0.6661682407418786, -0.5417944830050303, -0.3760826668426137, -0.11588068351721334, -0.06473685914774573, -0.012589117243317958, -0.0663558521466277, -0.06036509759893236, -0.0519658227887695, -0.21044971661337036, -0.2190669241056415, -0.1611268783918077, 0.025234982135251195, -0.0587121908598218, -0.08050880786689399, 0.009222386640102597, -0.12744239121947473, -0.039438194158938254, -0.4742323418685131, -0.48956639078373787, -0.13594151878348293, -0.10665607413291968, -0.16825057834356413, -0.24795301638537537, -0.1100291163708559, -0.2437881192863517, -0.2713856505849865, -0.33429211999684927, -0.6435251951671968, -0.5864552900428549, -0.3221252570213693, -0.17727114828682652, -0.04814244836782129, -0.014976932786244108, -0.05264962399223764, -0.011417163503277908, -0.16719165140006823, -0.12866865684765422, -0.11635778456973743, -0.09940334844340783, -0.1006894211416545, 0.031049062412009398, -0.04448344763759319, -0.2464621685381382, -0.3645144924924711, -0.17156908333037896, -0.301333553980688, -0.18460394542220307, 0.27041123428991365, 0.2672485842057225, 0.10702536651166557, -0.12558257666199768, 0.008327368262795648, 0.11003323617461203, 0.21855680816549922, -0.22207862285572127, -0.45157203587617706, -0.49363522431196294, -0.3285095266057768, -0.042379080703978576, -0.047872054557651464, 0.09349291796779906, -0.0659096053652342, -0.06895102911735206, -0.038194875966075695, -0.008970476043414348, -0.09919492630943429, 0.06326255637408924, -0.019452430806553216, -0.11514074825505059, -0.0675247482922754, -0.056127158347689436, -0.08301668013735858, -0.016959994714664854, 0.458773631371155, 0.30621940897121014, 0.42920388775928536, 0.16428170113484294, -0.00503674500154088, 0.13627736188754225, 0.24748761594881605, 0.11036507270274704, -0.044712513932173126, -0.22864054397259803, -0.32112474600655105, -0.18276924500688727, -0.07102469703854246, -0.06363930626118952, -0.09484809006952938, 0.03197172588768732, -0.0020676818803241023, -0.09813120927104886, -0.020125902217120795, 0.10008164142898596, 0.11384616106351209, 0.23739577439159806, 0.25076011052707875, 0.047480629805044645, 0.033345919711210655, 0.16368885758274626, 0.2835079939596246, 0.5482059539097299, 0.8054241966151162, 0.39093335392861656, 0.45952778954218604, 0.4600900225046568, 0.26313782931475554, 0.13929725280651722, 0.3267812864095533, 0.04348287166231019, 0.20968300385756056, -0.23856811438640393, -0.14850614126707684, 0.040091390397620066, 0.01028964211677975, -0.023050681112789243, -0.005761864697862711, 0.01256080911864166, 0.010743170086970925, -0.0573935923039832, 0.05678948363260487, 0.17766366979621956, 0.17416813918336677, 0.47060662857195956, 0.4422438178208387, 0.359019522182835, 0.26007235654351846, 0.2266852538712152, 0.372600692652149, 0.7466630558708902, 0.41781592064455225, 0.11751581158726612, 0.41254726382725043, 0.5181307136650413, 0.026503794481716282, 0.16867391725817948, 0.35874250471687436, 0.379058397780497, 0.23879499949106806, -0.05423237799973409, -0.24526923042047857, 0.012632022227331237, 0.07871739421263334, -0.006710462232918647, 0.03730600762234656, 0.0051172062661485555, 0.06385456861669914, -0.05865817845020853, 0.14324074175690918, 0.08556133770733085, 0.23871068618543176, 0.5039586823402056, 0.35520575170561863, 0.4772761829580042, 0.33240897206487324, 0.3322778276608415, 0.39894201385630795, 0.218823897439788, 0.1712961194868935, 0.13271481466266555, 0.2368232598865622, 0.3817761982161745, 0.403093798737105, 0.2379355547125662, 0.2443806996396315, 0.3091762562385112, 0.09206493585104202, -0.08169731985609334, -0.13152083440344542, 0.0606442801850548, 0.006375480603380465, -0.04135978985016903, 0.0069345100618568465, -0.020735790130313493, 0.04239781076778359, -0.034234574099654184, 0.060641267512098446, 0.08298754918722911, 0.18536936357251457, 0.4347980572258503, 0.3222905451459674, 0.22073851674112205, 0.19618450854299213, 0.4384541969853875, 0.4939229147735426, 0.023836459033460506, 0.2582076896005728, 0.41676834192401024, 0.06598430721917292, 0.18826897096373457, 0.1982833424258178, 0.38503460531106254, 0.1748514987021213, 0.20467671282022734, 0.039854562047842636, -0.02820239133116923, -0.08278600695775938, 0.07222574537336522, -0.019386956947737205, 0.026439328633415655, 0.016720525373958222, -0.006186059874809251, 0.006406440226975427, -0.07860119782452772, -0.03422466680790736, 0.038939107398416856, 0.00010426080752916772, 0.14345709910786864, 0.34560537866086594, 0.38440631704106043, 0.1936447427991909, 0.33688497609580215, 0.20917682034418852, 0.2248176714099519, 0.29145264698705936, 0.46501068005857105, 0.47499614544819274, 0.14379418061371804, -0.027830476346147846, 0.1305688934325639, 0.010834564424246466, -0.10605195199013438, -0.04375019988320079, -0.1941660241302188, -0.1099862183267716, -0.027754138206008354, -0.008187424204147654, 0.019752187674521762, -0.04740245054542539, 0.03284551375941354, -0.009619158010027974, 0.04537884746252467, 0.08433870268394049, 0.05612280826069732, -0.19037540631700572, -0.3034857011316553, -0.14338122642238207, 0.25827581577445874, 0.2851730694771639, 0.20764684367672154, 0.23746680321992628, 0.38831479291080456, 0.3404604083603954, 0.5982349556752159, 0.4044071356899987, 0.24188346373302816, -0.06823812739774768, -0.023063867151557407, 0.03543291065747266, 0.045715411253779745, -0.01651414234558731, -0.11928078982912504, -0.1038023361075598, -0.0038831537885935974, 0.014030698537719283, -0.00898413341389872, -0.036856041675295964, -0.051650385093753304, 0.021256860233540377, -0.05000627851483893, 0.05691193652240911, -0.07795398988275846, -0.31187821388229214, -0.42277034333985913, -0.46820950059770705, -0.28663103272033963, 0.0512563491972891, 0.19067926545274308, 0.5354057277141961, 0.16412602148597802, 0.35002816480863036, 0.11032306074290282, 0.024506076524040982, 0.09327456411180891, -0.07915568736856288, -0.012949389797292415, 0.08076885949311864, -0.054685059191533686, -0.04405044529719549, -0.2195948401629116, -0.17248879471530126, 0.10126025748104078, 0.058048695518570115, -0.02305174022403527, 0.06243094164929438, 0.005657764042865406, 0.016986807782809518, 0.0004484546200824158, 0.03150028189213749, -0.06691878926950062, -0.32468351725411976, -0.5647215108118496, -0.6226418631108482, -0.5254612791441042, -0.3776996158305351, -0.350902138454706, 0.005423883093470359, -0.15978689391845427, -0.14003598855011956, -0.01893579528755952, -0.19909822641046895, 0.1556188162789196, 0.042191725452035214, 0.12344293831306763, 0.0033209370712537285, -0.3289392509228826, -0.12283366554678658, -0.19138162550781368, -0.10761998468278114, 0.08038017934551007, 0.042259392243198836, -0.014824994448261795, 0.054264210399366825, -0.009540821249759177, 0.04607598829853195, 0.05068639212410313, 0.025754834261980532, -0.07783800764188446, -0.18670183919069222, -0.693570987991811, -0.5812163636416013, -0.6258069184860148, -0.6006595764444501, -0.4217964032183409, -0.3960375895931957, -0.24477850622291267, -0.16698079424922635, -0.21854998977929932, -0.24296159744173002, -0.1545778375935432, -0.30299063118190145, -0.09484053933014955, -0.26588143353972205, -0.3441555635264303, -0.3081711832534429, -0.2753510443633816, -0.0957965121858809, 0.04553533676198035, 0.060803410146158615, -0.024393983376276473, -0.02314592677265088, 0.036745217048723716, -0.02147191224594501, -0.01319713671979596, 0.038418525022694106, 0.02717969264203795, -0.04657467887005119, -0.3763916537371505, -0.407409666541776, -0.31833210579695037, -0.5484949561157979, -0.5081179667419239, -0.7815575931756881, -0.5456379424825725, -0.399290596208152, -0.6364987962373695, -0.45587806323165364, -0.3061505680943567, -0.5351857712492573, -0.34631064023547653, -0.40232308045301807, -0.20538157108753405, -0.11422320899654113, -0.031164296119052172, 0.008658404988730618, 0.020381021960100706, -0.033533037125202204, -0.048422915828418865, 0.01899644446349421, -0.034978752458501725, -0.002303414109644326, -0.00989362042201273, -0.031748422565410314, -0.05351087468795927, 0.01751289505852785, -0.010169136187217442, -0.021960670817264376, -0.029058226393129202, -0.28871486711332967, -0.45322594866169624, -0.5335897372267128, -0.46284695430568573, -0.4290450693238888, -0.5151483484016902, -0.4509108182322094, -0.6211826481627183, -0.3402163396099414, -0.25671102280515634, -0.031635832180642885, -0.07615475229631441, 0.036132716195478115, 0.10056721878393857, 0.012965691726636535, 0.01563443263430095, 0.026351248632337336, 0.05174825804306398, -0.023232982798710642, -0.015122324412775914, -0.008536679018100537, 0.0018233836801479534, 0.031109296271986935, 0.06632287272410907, 0.1503774314991881, 0.10406147972414305, 0.12462559829176866, 0.11179727663504728, -0.04410747128875884, -0.013746787637488966, -0.22494300737927284, -0.3796571108120238, -0.4348268563018491, -0.44520676534593423, -0.4760975897417413, -0.35245263169436924, -0.19416028597605384, -0.2031110213385154, -0.07980173254094601, 0.16528033672994272, 0.18325876887703027, 0.07141088337841797, 0.07146147860049093, -0.0005823028112196847, -0.0008949924844271705, -0.048327695012323334, 0.04207742692168078, -0.03091861739706696, -0.08788050310675198, -0.006768752395565384, 0.03482360495155743, 0.03509834181309996, 0.0757741981052445, 0.08548418482985966, 0.147744271168018, 0.26389238311859153, 0.008849009927209927, 0.03232023848311296, 0.01266609615373943, -0.08066887002529805, 0.003567138243538094, 0.04381201602040589, -0.04199489749051903, 0.08697855456556144, -0.05167781823356696, -0.08294346565046568, -0.01552021970137747, 0.11225559671339748, 0.08183346060815333, 0.03008218744927684, 0.03793365590744098, -0.023310939920836028, -0.06475084668463157, 0.04020986865666265, 0.012742306201037746, 0.004340902506041489, 0.011611860837854513, -0.016246842243353776, -0.060989794679189066, 0.07814396372642107, 0.0011278106255230432, 0.01072297680250565, 0.08735259136174495, 0.024833193906277758, 0.10301871139842729, 0.032423272789920216, 0.014522368763807051, 0.09760374093728454, 0.16319803201236233, 0.1159389782207406, -0.0028519050922577896, -0.013970798611577809, -0.050998794008273375, 0.00463178556331128, 0.01694772799963622, 0.0645262594695033, 0.05447155231169593, 0.027510037038875695, 0.03783564983295504, -0.0329138766523923, 0.026291608038901803, -0.03748977185333236, 0.06021315111727932, 0.05274302869543634, 0.026065713368454486, 0.009952876230614008, 0.018322670729123285, -0.011557537922093014, 0.008182779096888729, 0.03001618724486542, -0.002106871423069295, -0.014299089563750943, 0.015349060728533816, 0.08107682403807635, 0.07679730102553646, 0.05814791188332322, 0.006560303251684644, 0.0141896552934999, 0.0031210417539894275, 0.02159357355089802, -0.020969817251757103, -0.008871894837926114, 0.006112808039386107, 0.07040886610263844, -0.0008412762946294702, 0.021502066393834594, 0.04062713767177933, 0.007840510569172707, -0.010375147642863137, 0.018374343772909335, 0.04557126138417337], [0.02556297620746525, -0.03057019900127646, -0.04214586013210892, -0.0038080129880597264, 0.004563348835269288, 0.023386416640436617, 0.00840493921110831, -0.09707159970017142, 0.0468140897510726, 0.05527671454199739, 0.02543542778753084, -0.021441172283377215, -0.027232229212328356, 0.00652699437233293, 0.016517382689961772, 0.03210216501427971, -0.03137307271059171, 0.0010079405681481294, 0.03998785972129282, 0.03843016580626312, 0.0074034839934808945, 0.00841331104000038, -0.021097716324946475, 0.005294825197103331, 0.005620028798592185, 0.03345109598721826, 0.003930645115459623, -0.04049275177060897, -0.03821356567980006, 0.02382322287485994, 0.023852116784298726, 0.018790408479768848, -0.025226743865407655, -0.039715506171397894, 0.031954693071740335, -0.014247897153053716, -0.03397045908370832, -0.05184696034354443, -0.007420671541782439, -0.017567794241787147, -0.011370082080573024, 0.07636748492417211, 0.008040618386177319, 0.05161425593177719, 0.01903975178582518, 0.03677538965622715, 0.01746536167353507, 0.025599597314950533, -0.009018145115041854, 0.06768713817531212, -0.053469208080116265, -0.08620135802797858, -0.0675338009012865, -0.0765972442742211, -0.03363779522748915, -0.01857544955660212, 0.01556475188489066, 0.039709955218201025, 0.010795245892081856, 0.03034704963656553, -0.014694805255151329, 0.057523947793604126, -0.002868224449218076, -0.012444535556471176, -0.022530733749592875, -0.028151014675088633, 0.01102286694974413, 0.08654760601897371, 0.09330256862751524, 0.07736505670269585, 0.12504343558139352, 0.0796462061414349, 0.05868029772920357, 0.07129732098367378, 0.19011869332753617, 0.10953285072548406, 0.11250213147831124, 0.0741139731160604, 0.05533564587974222, 0.04352449436918456, -0.002342359366174434, -0.03310519225320625, -0.015283018013753471, -0.0440713358210718, -0.04698659018038998, 0.06436862710702068, 0.029768915201337835, 0.01648241714895418, -0.006326434345699072, -0.029449885771283303, -0.007077139034990253, 0.038190557240819926, -0.047028454538514286, -0.23820978426626194, -0.14589171336862494, -0.2900197263539978, -0.21154621942288357, -0.2776160772901003, -0.20154552664976663, -0.12461713215701627, -0.1768449122038043, -0.031304703458284046, 0.18214931305904744, 0.114987534625517, 0.15939287610593042, 0.13638383033848422, 0.15856526639579951, 0.13028186768946684, 0.061062657529002785, -0.005428560832221944, -0.010974703148044902, -0.01103066199901538, 0.004219117231086947, -0.03527044678507286, 0.025558453157727406, -0.012820170252954035, 0.09659113220434204, 0.0030520308986069222, -0.0429635142529567, -0.12470067798894396, -0.08911145091387664, -0.19094401322503926, -0.22211110566362213, -0.1726860877966457, -0.005078431059366239, 0.04807996758116574, -0.004665804815971243, 0.05280387599729063, 0.007196727936375314, -0.035545464736534846, -0.057127171541477735, -0.03682319899594837, 0.024054070189012, 0.15854278513472286, 0.22162948317436967, 0.2428794560806388, 0.11122103257132868, 0.02858135627737228, 0.01013446153255944, -0.011039088545228986, 0.0027918475056541115, 0.03701132682568864, -0.056649574401761625, -0.0016851807964185755, 0.02389689963870892, -0.014249276053338982, -0.03647180498045156, -0.020299505096183543, 0.004439056810932304, 0.033420740602997684, -0.12143081099174002, -0.15452842305210476, 0.08603483009540303, 0.13762582217452596, 0.22197850954777995, 0.15869230925505043, -0.06222220327168114, 0.020176228846663036, -0.012975605475780302, 0.19668878297648895, 0.05014261603302124, 0.1237839099567613, 0.17738802779899757, 0.2714231537582485, 0.1682063691193368, 0.08638770384209438, -0.014579245418393585, -0.027897427785712785, -0.030262247578420897, -0.0023369098178929078, 0.006829828003887314, -0.038649600059115365, 0.022938943935097097, -0.03993757511427967, -0.16851823102328578, -0.08151014802017567, -0.019856114988088536, -0.21557681735494624, -0.2297728147663018, -0.163306432606845, -0.08283907855609782, -0.03348666743998437, -0.07097695797119714, -0.13808138842777457, -0.10985707082879265, 0.13043720407908935, 0.04998336128956002, 0.14421909069118835, 0.10746707649201098, 0.11025680463128633, 0.0787599264180413, 0.23016934529395647, 0.15219233759991788, 0.040676670622816866, -0.07338185408436876, 0.007085698282042584, 0.06156148365156636, -0.05702041778108981, -0.07046006661253384, -0.02926100730920943, -0.10197457630873778, -0.10481690334136007, -0.2198182329819675, -0.12379994531706831, -0.1829675277301075, -0.11156097773051696, -0.11183581321689717, -0.09835891234518936, 0.002986342517512195, -0.3048308760172326, -0.2038568628093476, 0.06798492261591799, -0.1240371391639934, -0.1298238124066583, 0.05366612745854246, -0.2359635267444085, -0.20359369722595877, -0.0486565779019575, -0.20564699447434898, 0.22239403215553888, 0.20289450797341171, 0.11635190262316723, -0.010960188879271509, 0.04088226768990365, 0.07217133776948373, 0.07011547253512933, -0.02896710117218727, -0.032903917081632816, -0.12338722874917746, -0.09756235508824651, -0.20645127888952988, -0.32263216462236377, -0.30108925551115995, -0.07940694337222015, -0.3537906337548577, -0.4857489063482107, -0.23709242192819124, -0.12114495908865223, -0.3108612078855826, 0.03377089002104664, 0.2111481242372459, 0.018970026713812052, 0.03893807592471685, 0.0042480683541964055, -0.12437001203314707, 0.09079018234583945, -0.16496956866329385, 0.12033709264198587, 0.1881295424578108, 0.1017141226348682, 0.021921325941037594, 0.0021223574669225606, 0.012185247349734432, -0.026531028727974304, -0.04450080885956341, -0.043180168181788506, -0.1173582085994113, -0.11929983253837367, -0.11879841756859669, -0.1419752902490972, -0.17781904506267954, -0.3784805446333143, -0.24896118607931594, -0.33084385196002386, -0.424214337416817, -0.021666085121287544, -0.006926152815321072, -0.14753524333861903, -0.059525284258310315, -0.010799943591243361, -0.057360460306654676, 0.0698708555210881, 0.024390787880415557, -0.02567179996467839, -0.09371438213586183, 0.040453437763216284, 0.1555472314293291, 0.014930997423638721, 0.02132162535992544, -0.05607153841122883, -0.013274454141550403, 0.06711642488783656, 0.007175661519366405, -0.006583747221019175, -0.055025063024939085, 0.008110586287585821, 0.02102509483548779, -0.04911177508240575, -0.23481108435828224, -0.14883041533328323, -0.06097826162635882, 0.33988878163248365, 0.5073100276697816, 0.6448059720182797, 0.46980223264607274, 0.33876104320706346, -0.007895564762626775, -0.24331146593207706, -0.0421710579788785, 0.14534943703768308, 0.041406463259653116, -0.03762863529988029, 0.11993925801491954, 0.21870613492025026, 0.12650254587300797, 0.02364312952633571, -0.038923276823689276, 0.04012578684996014, -0.02059213065024687, -0.027761492887342618, -0.005474395305008302, 0.0873945281556486, 0.3145288274193726, 0.306088821394544, 0.3437265715160573, 0.45799031185974554, 0.6109155717336417, 0.849978685276478, 1.0311493684065194, 1.0063471672171267, 1.0676387358875268, 1.0465967676115084, 0.7093034523448746, 0.3816846060167537, 0.09535826776611137, 0.14718975421655697, 0.13862552480377463, 0.08237718870941425, 0.15608553999846717, 0.2034084575846287, 0.3404843798511117, 0.27320969042069576, 0.12177845303904841, -0.07635687067032242, 0.009203288098589916, 0.05486797451647802, 0.019330147484596466, -0.0135292530671746, -0.09214451284998694, 0.1759383547631382, 0.46046732556261505, 0.7778957596390049, 1.0362771218332063, 1.205254248357511, 1.405709648512965, 1.643413668535217, 1.3409745764435195, 0.9307033847077338, 0.6396321849986097, 0.3739917312355045, 0.4454836355448642, 0.19973841388370064, 0.09925965613549406, 0.29243516218976384, 0.13857354741779132, 0.2082524279562744, 0.11290196877202903, 0.2652913439138028, 0.3999381392552997, 0.30198172512601074, 0.03738128605306044, -0.14051476648426306, 0.007007523926515432, -0.03898150700994818, -0.08487256592881333, -0.017992170425083158, -0.024583452678833228, 0.25894631240729726, 0.5764475937497702, 1.0417662868881854, 1.2363354297046196, 1.1961351225715624, 1.1012367258775266, 0.686748730390239, 0.10612742836354463, 0.03419593369796493, -0.2593619102280693, -0.17805767645389464, 0.00610658351612123, 0.1909984924366108, 0.14237718675566982, 0.14386532086189463, 0.14076919460166587, 0.1402432748672947, -0.10487388325241478, 0.0029358567894409962, 0.3465484391415638, 0.13093798800666728, -0.19326338927438722, -0.16081496344585333, -0.034516976801371564, -0.055321357360611806, -5.676595190995748e-05, -0.005259032433301201, 0.0168511995790876, 0.24013539785941668, 0.37095838865171393, 0.7446123242776871, 0.5146415724584066, 0.24549259205526947, 0.16413774896678252, -0.29436316367709375, -0.28018809876893996, -0.007029464330007658, -0.1980808639026736, -0.26657617046873544, -0.18790386419365257, 0.0695680600038929, -0.11210770638526653, 0.04795994301423567, -0.21643279065444887, -0.018214123495598818, 0.0032584405125269606, -0.0100203579409993, 0.1816317222273482, 0.15736058591740235, -0.04615222557225516, -0.14813370477855417, -0.13655654580916485, 0.03445059990259468, 0.04004354754916893, 0.03247980875305911, -0.08075274095984855, 0.16384976601867252, 0.23064096109814403, 0.17523098342933993, -0.05809081208372342, -0.1710942565493412, 0.028151019462016622, -0.15790541889764143, -0.13027560418757522, -0.006864135036208018, 0.019279115781058852, -0.11964668814836632, -0.1485655579144189, -0.049527285795309066, -0.030682391988180565, 0.03986942640800988, 0.09985326757534897, -0.04989557527200375, 0.04002212486929276, -0.05915401992221974, 0.18995956515530113, 0.09481562406882404, -0.23402994603108798, -0.3651625202823957, -0.13749039269155805, -0.03166376895953799, -0.023977212252956695, 0.02647861299367032, -0.01542316503839348, -0.05101790281986808, -0.0836743041957434, 0.057663729862818695, -0.20422586827775804, -0.09942479015649427, 0.09200108167232222, 0.10669376204675274, -0.008548947310719092, 0.10771338359295965, -0.3730998449815021, -0.2771507894957457, -0.057932701668730296, 0.1667028172778665, 0.029320158697390283, -0.11295773542438348, -0.18823259636216894, -0.21337131697455192, 0.0054870239450810375, -0.3043287998188281, -0.15751021347281527, -0.1961081796053648, -0.37868723614627403, -0.5177189017193145, -0.21036841535435669, -0.016964354669401542, 0.024568279410210718, -0.04130275877420965, 0.03144825470801144, -0.12802823837043042, -0.4264183751372497, -0.17260880108035792, -0.07321428621272709, 0.03128324357596364, -0.02189381738864678, 0.009953737716658874, -0.0268351753911622, 0.002814040816184647, -0.13461079905975382, -0.20499370502070247, -0.12347467132657816, -0.1455518822201306, 0.028338592071251056, -0.09503842244424675, -0.30585591823542607, -0.085418252186249, 0.15674462598078828, 0.05734479632283549, 0.05073641796645073, -0.10250608454115734, -0.21245654035688935, -0.4495657808042409, -0.11097257254775061, 0.02409041056870405, -0.04153830395922667, -0.01532643179830718, 0.04069143467037124, -0.20213409839075808, -0.6273084446615814, -0.41996816200951353, -0.16462256077350823, -0.20434692059250528, 0.006763121930027692, -0.10215987618172427, -0.08364164498602134, 0.312107788990264, -0.10184074569868995, -0.07303578265003774, -0.07936183136876804, -0.11292886466155336, -0.3133344205374511, -0.1618496851726758, -0.12039546705264711, -0.019328090615687115, 0.026089724407493388, 0.05446259163385403, 0.007526820390487106, 0.009794499983860377, -0.23180511472220305, -0.3579617240840901, -0.06332157104270618, -0.08875616591046397, -0.04696276495885194, -0.010266192218109756, 0.01563662752583401, -0.21837369972856227, -0.5533215752794767, -0.333690896064249, -0.15882256831951036, -0.1928085439476968, -0.02055225513248002, -0.06117993976311385, -0.11756572115541811, 0.0003185692318806319, 0.13842874382530063, -0.07786594099229135, -0.19620456515932055, -0.20373837511309603, 0.005188880050416125, -0.07768368784216506, -0.00658641114440681, 0.09327855149367156, -0.1180326310168095, -0.14925790060520525, -0.002000683122769232, 0.06307228852341482, -0.26527461674635566, -0.2852703539400705, -0.0852971218706151, -0.017312377590759754, -0.02778137662435845, -0.03627147014044072, -0.0014173288924815362, -0.28493145772281464, -0.5398359107973227, -0.3456303589297519, -0.13467769282093786, -0.08089196069164432, -0.13289930915747916, -0.2444964777052044, 0.0879635980709435, -0.1604570862616491, -0.016836554891065187, -0.10868450306740919, -0.07697026059644746, 0.0289502479197085, 0.04015461485245117, 0.08079475817674649, -0.0042024868934952535, -0.03706190976546746, -0.015383392127851203, 0.19389854207784513, 0.06492253104049138, 0.019581179085960118, -0.04278653655644585, -0.1491803856478809, -0.009020533481778625, -0.0008610504836547985, 0.03180968729578599, 0.05232819884845785, -0.010721191038857417, -0.10631799411108837, -0.37633697503913355, -0.19677655572310926, 0.09524547993593882, 0.030534294111700867, 0.08710621931270292, 0.06667960326416258, 0.18952163372548714, 0.042531802253438715, -0.04705577211507091, -0.11571150700039666, 0.04431283850053275, 0.16590342405898958, -5.169979295718205e-05, -0.16108828989350565, -0.06923798919282684, -0.09337607773645765, 0.010319010182663579, 0.11579922584289233, -0.023004170373763202, -0.14945858407601648, -0.07001063174299081, -0.1074539721159917, 0.045724275164712114, 0.04721099866586692, -0.006246109589256294, -0.03635744897526749, 0.028564571198302528, -0.05051442951461005, -0.28057167036417585, -0.2188387233514215, 0.08700293999152357, -0.025587690224128042, 0.03579413757866793, 0.06083835204353781, -0.042075869752699245, -0.16499787024265095, -0.0063348796136319585, 0.0015502606209711355, -0.023298307714766743, 0.04364423217821329, -0.0353683865402079, 0.015008668273137685, -0.13664873091741503, -0.2628779175663627, -0.07619256324729187, -0.00586784935097467, -0.22735044240642963, -0.2122078277019915, -0.05530121692298313, -0.09701147215303572, 0.05042028532513463, -0.044276597755559734, -0.042852160847558975, -0.0011055843754376653, 0.012755316460946315, -0.0321230648281232, -0.09642268433907929, -0.22110131807436037, -0.1291253902617615, -0.0286057811750838, 0.1646448751301361, 0.1343200345838272, 0.022310978630122727, -0.03189390610892286, 0.12623267889652298, -0.04360071683226657, -0.08367621346933074, -0.04053077769217539, 0.029836027134991765, 0.02854686735974811, -0.20495648725102794, -0.1069811260008218, -0.020143254862549014, -0.0025757583054871747, 0.015605162432194251, -0.12836273301150772, -0.1956261688219381, -0.05120427270327881, -0.02372480732707401, 0.042620856575943576, 0.01090301970899546, 0.0020433897244508457, 0.03799341588782452, -0.033672720754984654, -0.01123167835804525, -0.1586008820959649, -0.11110245107106403, -0.04404012648761688, 0.023125966667287463, 0.07115087535088245, 0.033308983652732146, 0.01173355172273969, 0.07916229678463506, -0.12621384703527522, -0.10482969679714267, -0.10838352843607253, 0.0712335664092677, 0.12678514966887694, 0.26720022476432476, 0.19350495934807552, 0.17839692158666634, 0.1606204451630871, 0.10437401443050817, -0.023311311782389533, -0.04687771808462305, -0.10063976398790318, 0.02588141307949984, -0.010945626839892303, -0.012209276238016828, 0.03293045568308481, -0.01742228490654981, -0.004852142738563597, -0.014848744779682552, 