{"weights": [[[0.03941219504658255, 0.052845974816746834, 0.008880364980398658, -0.03345986077374328, 0.06028266055066995, -0.03563116483374825, -0.0176569488234242, -0.0008597757959207394, -0.024368949546751846, 0.04208469696819389, -0.012216449249647904, 0.05884447588025688, 0.058229868694241425, -0.07004838956718008, 0.01586972522918211, -0.06700952681206283, -0.06165666281105692, -0.044930178693227726, -0.0321068348795762, -0.04064536793881712, -0.047772325094951724, 0.064142199936834, -0.016280858139039508, 0.021238216641923165, 0.00644091689811568, 0.0542568809143757, 0.0037573178178883946, -0.02457702153956431, 0.010723462704438051, -0.023736470615933775, 0.06333449395204756, 0.009735390661236382, -0.0351128416448146, -0.02625927156386904, 0.025301553691294783, 0.01417730828206846, 0.0205162649674321, -0.019491046106710028, 0.008919367690057304, 0.0007847707516237071, 0.03327089042433907, 0.08901597274877644, 0.0929841543404052, 0.06260258881361662, 0.02652317524571904, -0.00638639241587379, 0.02769750773182602, 0.03766902045226079, -0.05951693675837844, 0.02152941006117275, -0.09617005179191306, 0.008169093938509541, -0.028611286589925924, 0.008766949292439234, 0.02288922779372096, -0.0889381296780436, -0.021654168854602224, -0.0025033469934728947, 0.014949352587197621, 0.04154596204401784, -0.02579436484536885, -0.013669514935153905, -0.03887834275358427, 0.0653868181296217, 0.05993288938475839, 0.11827060011653157, 0.030281692850996047, 0.05722886355032627, 0.164634833052821, 0.2533470679667654, 0.21129443178029172, 0.22843496190922633, 0.34677723671405875, 0.26292502243385296, 0.09976204464142242, 0.14596067287469047, 0.0876868852345348, 0.05763712176327902, -0.008862462588257252, 0.07182055256473267, 0.019875701003800924, -0.05600156689634293, -0.01625503187213759, -0.04990199288668374, -0.03160913303312766, 0.12622973012265454, 0.02407823177298948, -0.023982091926974113, -0.04520429265971115, -0.055934537067820485, 0.04395415561603794, -0.03637596372402214, -0.006023550855980336, -0.01802530981285118, -0.03290699721898784, -0.00549651837334223, 0.1981102497607544, 0.20468278120803066, 0.06556983090359514, 0.17637686700622598, 0.34289197841380065, 0.14866137546944483, 0.06846743843131868, 0.20571265632371294, 0.18299691992345327, 0.08366292322214468, 0.0070722348183474126, 0.01119951559940127, 0.03662578957959164, 0.03043769585244447, 0.001853981947947044, 0.023367583636698223, -0.05582336932628941, -0.0248315074264353, -0.00846091037915588, -0.07595590542090645, 0.0034209026632493218, -0.04378482547599354, -0.04519648831913564, -0.05640108798747297, 0.11301043729715793, 0.033123161927218585, -0.08021522624277892, -0.13502820597349582, -0.03573463137526194, 0.1700908603936714, 0.004426591153764077, 0.45244065688467733, -0.22484113072896267, -0.2785307408254254, 0.09004194699650113, 0.12082402305515816, 0.14675539621569322, 0.2658082671958692, -0.060251957351040934, 0.009730316938622124, -0.10574970901131713, -0.040748210117285286, -0.019619936500788016, -0.0921439968845565, -0.017336127055401124, -0.02107617733739085, -0.008553998084670809, 0.016477280579765455, -0.10778298193272595, -0.0704787910393073, -0.007713074023843457, 0.2273120424045145, 0.2670081755238339, 0.15802637861187427, 0.2766844668205729, 0.08569178571510287, -0.20122112122910327, -0.04712513476245974, 0.1007749097856693, 0.29565408324891923, 0.19338058328089408, 0.15341491968694243, -0.21187145122254097, -0.27990061241815745, -0.17343339983211295, 0.015085324351232783, 0.04762647745377627, 0.2882732679888285, 0.04111666998345708, -0.02275018009489003, -0.003263886311105487, -0.021124132865345122, -0.003118901795160667, 0.04269317021912829, 0.018979183924154992, -0.061324468329899504, -0.040897821357506095, 0.07242572112618421, 0.005196905158872016, 0.07800849053821461, -0.08186748370598804, -0.012051471666784422, 0.1750878240389209, 0.07020668962447713, 0.18613081169411375, 0.16558038205762182, 0.25930432323585734, 0.2706975822973955, 0.15851130737911184, -0.39940755172946246, -0.378166609487776, -0.022715307346153932, -0.09865436605688471, 0.037096006223226854, 0.16674054834742344, 0.20481923577277591, 0.23539947462303756, 0.1348488187989431, -0.058080171579251966, -0.06353173594791815, 0.030757526429415694, 0.02012764266206267, 0.06434745411918974, -0.05549111060148845, -0.08833457635878864, -0.03462765535665764, -0.19983086018341062, -0.09119477478543804, -0.40327827057816434, -0.12901034490575464, 0.09316660758075997, 0.24727548783893744, 0.014186631158447054, 0.1737787676094584, 0.40327948800005414, 0.31813030540335374, -0.045121512512310086, -0.4152206210706357, -0.3599855428362375, -0.37877396082960696, 0.05479375734267361, -0.06043594715960716, -0.05328703115680916, 0.15723224633898505, 0.26438573603154647, 0.2177686733196211, 0.010764960270823984, -0.051137506696817284, 0.009474122078810173, -0.008473606762476474, -0.008732437504999161, 0.024166546161393233, -0.06296177757214143, -0.20862807815235232, -0.4633597455076667, -0.306308173820187, -0.44805598083767656, -0.11111042642434692, 0.07942844943080996, 0.022016354632587797, 0.19865322921295384, 0.2535086498735836, 0.5975589039527403, 0.4493213871689511, -0.041482953161340375, -0.39620502918203515, -0.273664687063676, -0.37944513915926503, 0.17688567012237094, -0.21120026147413076, -0.11908959830063318, 0.2659476719971833, 0.39021656307811975, 0.2692093119510979, -0.1100146209968343, -0.05217073069212322, -0.049954228933347576, 0.03565633015487313, 0.021928701578726627, -0.04891376885505874, -0.1513614674726623, -0.2691681259668939, 0.10723994739491567, 0.17284293076673662, -0.15215636040896424, 0.006342372757878447, -0.17679118888286902, -0.05948257165118302, 0.1971574511765759, 0.3145291753525378, 1.2135904502130594, 0.6249129311926779, -0.175327881920852, -0.6439003817535793, -0.2680142643110757, -0.320579859037382, -0.38921740285429457, -0.41147409208483454, -0.31022630389758243, 0.1357070226837382, 0.44677291078285314, 0.3375317069860169, -0.05261729223593122, 0.002167206925070692, 0.007598040123143989, 0.03394665554642921, -0.012989232453619548, -0.051328654131674034, -0.002857949205291626, -0.14584194082969182, 0.19934843792976198, 0.00726079544412639, -0.1866952782222564, -0.17521439745516812, 0.07131098215266472, 0.16041231568525047, 0.5858049308294988, 1.1705796853480528, 0.9452057389124853, -0.29808409294165517, -0.807010446743793, -0.6897672727958536, -0.492595633654145, -0.5256974649982803, -0.3993642774365735, -0.26513878350880227, -0.3129058421256151, 0.06663797688626669, 0.47767881270756457, 0.37568781977090376, 0.016625311754221297, 0.06389903735188346, 0.03134605928170003, -0.010075156837283415, 0.03264892388914106, -0.07232465390417607, -0.07103019363587403, -0.24064850714559846, -0.04457332906526142, -0.2594596466161372, -0.11506854044875331, -0.0674660138985514, 0.14334085030404226, 0.3663760796454284, 0.43278529941307076, 0.6454573138160988, -0.38074065874306046, -0.480880600014307, -0.43624579091255644, -0.32307845912983113, -0.29761720222861426, -0.11787426089449665, -0.5514647639393233, -0.21525216183431714, -0.43134597295655147, 0.08136357593905404, 0.22012670640548315, 0.028467531605618816, 0.06580773337003051, -0.012306643285455504, 0.022907767779800133, -0.09603845061054903, 0.013891986500332748, -0.08057014725826776, -0.19509162519146525, -0.3971887690403957, 0.21754662210289885, -0.09544643193930355, 0.25758418131967065, 0.5206229839935324, 0.33171175926234886, 0.6415182326808397, 0.3519502531492041, 0.36219810190788454, -0.2545565524115728, -0.15526206059435693, -0.46567044837926874, -0.6714630499158604, -0.1859707066074888, -0.030980179174872575, -0.34661204482596525, -0.723286061102486, -0.49942732236766996, -0.17109998160176673, -0.17692752936524161, -0.036540648602740776, -0.03752737640465184, -0.04294460696703377, -0.04306145094169786, -0.0262350452310081, 0.04559412340575163, 0.03144398471296839, -0.19652290332890018, -0.0744759620733977, 0.1608468112939667, -0.06442081171646367, 0.3178045464642691, 0.16700229761262986, 0.3989043854713911, 0.25119788994120645, 0.14883128916281785, -0.14843977485660892, -0.380508660273768, -0.17696654951879695, -0.25097597479172556, -0.2592394262312785, -0.19989139180259027, 0.029170018107168162, -0.5287847119465131, -0.5183129727464734, 0.07327973250131652, 0.1542759257024841, -0.2044041712127538, -0.23374649558882699, -0.15797789809404286, -0.05918935850664892, 0.04600109782424061, 0.046293926191160774, -0.051096953380344666, 0.02280827033041309, -0.030919317298569452, 0.3309729041482695, 0.31533329158690937, 0.1016583922458865, 0.21168369381917776, 0.2196586811787966, 0.19306534670818526, 0.18996016801497836, -0.020736375422153275, -0.36393086166162014, -0.39433399164747035, -0.3755254027172464, -0.3721277889192717, -0.4879826788586144, -0.3422541699986206, -0.25515239599337536, -0.23532568624920036, -0.19658149428426203, 0.40242476402224814, 0.30864866566268256, -0.00482361777043507, -0.24978929512439288, -0.07424186206905692, -0.0898210974976433, -0.02046771989566964, 0.04361634676668159, 0.011210965230475598, 0.008786270093789935, 0.23862675962531527, 0.3552711592738727, 0.2604057217060642, 0.23039909070366174, -0.10567713511849598, -0.005750531007871221, 0.17527076419060725, -0.11784101496452463, 0.14852756210779064, -0.2521111144883998, -0.14613202298262234, -0.43514053119266477, -0.2959417851260316, 0.17539306766652846, 0.04541357079791863, -0.13817185859048156, -0.043906138886729985, -0.09171064420770655, 0.29544537860737746, 0.3985314780953117, 0.24596396547333127, -0.10607414103792417, -0.08708769827646129, 0.02095954337387087, -0.06369713804546177, -0.05849473316531218, -0.0067407860250544085, 0.0035295779875680494, 0.4071611079089896, 0.07562725798094315, -0.039511225085305114, -0.18716131719950055, 0.23092214502945577, 0.08344651556949201, 0.10397637010879711, -0.18980568961924402, -0.5220845897680075, -0.42073766813351127, 0.12828552522530456, -0.26112113443422547, -0.4248331034901984, 0.17185583022985856, -0.07207752923509055, -0.07813649769644276, 0.28950973864543394, -0.18528326775026502, 0.06385171934100115, 0.2610272428653062, 0.11792356194627955, -0.11406913844176325, -0.01914225730049038, -0.016169760837899127, -0.026571268025837275, 0.03464791645807143, 0.029053837046401357, 0.16318291622507825, 0.20599921664443843, -0.11179926966708681, -0.2013839300834247, -0.38388809331778645, -0.37848115528334536, 0.0003057848232672485, 0.27848695039617155, -0.16872505179445865, -0.3407220925692765, -0.40139436825240715, -0.0772884124902927, -0.47521713474211336, -0.379552211445419, 0.0812762976185235, -0.005117025187100162, -0.04583828843849397, 0.26181138151671784, -0.07662702732709326, 0.14703837889123564, 0.27096411638420204, -0.1321983334362203, -0.12040884378490795, 0.014163836790741107, 0.0461156771254, 0.017685468453161837, -0.030256540511696555, 0.019298119341971443, 0.23305195953460298, 0.28448031777920574, 0.05401173016950323, 0.049891079704244626, 0.024712599626150633, -0.07523402479057344, -0.10416706142726817, 0.003678445289535336, -0.3927214173070839, -0.29795221832010355, -0.5788379169349267, -0.38232360801281406, -0.22461735153561632, -0.11253029706128585, -0.05657455005939716, 0.02056450315707746, 0.15115021078294488, 0.3536273001210542, 0.30345204283669686, 0.4152755045133948, 0.1712856329885179, -0.07927087841429675, -0.06743348833036318, 0.04211130896706491, -0.0011724010201590903, 0.018969286199928437, 0.0055063579551897415, 0.04045150659358486, 0.11081384911190088, 0.2814431633758041, 0.295392168579777, 0.25140258790835857, 0.21246969792906345, 0.16956008654490426, -0.17323274278227382, -0.04921195873062912, 0.22937355827282072, 0.06420898502207065, -0.006011523689420898, 0.29997062303088623, -0.024953862312494954, -0.08087987098449172, -0.1793076572604389, -0.030493827123365257, 0.13091236112029425, 0.28083507558770077, 0.159603134631403, 0.25742770679621885, 0.13814155833534134, 0.0431069508183145, 0.04434533157303529, 0.04061949665910955, 0.004791427215574003, 0.05927717013375035, -0.02015621376105679, 0.03070799035800233, 0.08328597973402026, 0.1152369721153244, 0.24959787568164954, -0.027243515644184733, -0.08460733790445253, -0.03771867768058689, 0.18449254744234578, 0.10850164223398243, 0.23843305438659215, 0.18924857447529644, 0.07558883258819928, 0.42070116270353797, -0.04916491076421138, 0.2262900986905559, 0.21698144143736148, -0.032667917129826536, -0.0898907245926371, -0.0315250372891296, -0.08192446500989733, 0.17764749181219852, 0.14621857987437026, 0.02097878221217314, -0.0318524675696058, -0.010153217954832787, 0.004912266637544566, -0.10214144585189648, 0.011105702977030707, -0.059747972628474554, 0.04977791286814887, 0.14496107501118738, 0.09303960904132842, -0.23612375305164363, -0.2803629616013834, 0.034447760283385725, -0.07989404054250276, 0.07962026293453035, 0.051540185177958345, 0.17454061332149887, -0.35625588176349215, -0.15773775568073206, 0.383214747461191, 0.013033141652532667, -0.0012227484479581702, 0.2754280032105515, 0.2005049259457499, 0.22182206467279633, 0.22458232456279903, 0.05508207221059643, 0.12412644059883772, -0.028031232640537345, -0.0494461544628228, -0.008359741424265514, -0.03577057205147769, 0.03108749371944071, 0.024288636494329684, -0.024802747474748508, -0.0997647544734515, -0.019760271008559722, 0.16632850447962563, -0.20023345455005645, -0.0011734566594667705, 0.12389619572506831, -0.02894816839850195, -0.04453717036078201, 0.05444953887914443, 0.18906095152991, 0.005821370733049787, 0.032605318353578154, -0.17433531270024255, -0.04965351688135509, 0.34640835882505955, 0.3282296030799622, -0.08096448898553327, 0.1257178374354036, 0.16072370778503073, -0.03493480118763076, -0.06954706885359485, -0.1049846846408165, -0.08979841216064516, -0.027562587043550836, 0.02881627230444734, -0.01868499990644462, -0.07653022962140153, 0.017343079127284795, -0.04008475371428331, -0.06154143947244935, -0.055783517521542085, 0.09775563835388729, -0.25999986314324586, -0.05094225089746332, 0.23725439057342926, 0.32540741008370017, 0.046934403194671494, -0.0024400459930522416, -0.061839682923261766, 0.21937547543110653, 0.10677810798081568, 0.01771844818585616, 0.18562337123744682, -0.31460457643624035, -0.027384450262526554, 0.360692838550654, 0.17470827398368907, -0.008625776652184588, -0.1517869365508206, -0.12431487501879124, -0.12299696793195446, 0.03913162980547082, 0.029022710157408295, 0.039501982598138044, 0.048170626058213505, 0.006938164570577318, -0.020234162559183196, -0.07417430104055053, -0.09344743252188813, 0.02553251862216132, 0.17364789674614828, 0.27680035157080735, 0.34235382823769955, 0.13059720597185687, -0.03507611773901541, -0.00014230075558834817, 0.10514227814016529, 0.18880556419359437, -0.08590698923632097, 0.02800773302197862, 0.3173422793072806, -0.0659665330994783, -0.028792908939146964, 0.16008909827830461, 0.15083501500858096, 0.042785879198471294, -0.12880786005254372, 0.018438757075433486, -0.01587282165445444, -0.030203270767656498, 0.017561538289187623, 0.027569996903803386, 0.029013560229296048, -0.03863576960690841, -0.06193338531455531, 0.004189816576214223, 0.0010927536491164886, -0.1679624299334628, -0.05391837655048391, 0.07509263351321113, 0.24302925064403091, 0.10501497408489338, 0.12641207354370762, 0.10377373770115077, 0.19546104968425398, -0.12450119774884506, -0.14163047483132996, 0.22937134448514312, 0.40923177363518876, 0.266161207463179, 0.09330311322516241, 0.0783573353062413, 0.14074520624512535, 0.08777516222441707, 0.014798479164309729, 0.11613214249292705, -0.025255969713924967, 0.0591967912500019, -0.028650000923552243, 0.01291813923259858, 0.023321043140891857, 0.02478372262576586, -0.05119184961719889, -0.04971422416446843, -0.005806180924610503, -0.0735526085589211, -0.11894776175896657, -0.06795564680012721, 0.05227356294871009, 0.017153088321389724, 0.08865637094883382, 0.06350457060073138, 0.009136188584986882, -0.18405591765130033, -0.14547905931623642, -0.04237411862486446, 0.004670931981474751, 0.16032573690128962, 0.07595456297384696, -0.10654649859381683, -0.07600224925169378, 0.057301192879428364, 0.0003452709468931356, -0.012083879099820154, -0.04070988002178222, 0.0037775847874561516, 0.023391127285564115, 0.03378749879725688, -0.07606063993609256, 0.06605641396644192, 0.01533215382350572, -0.015390973177688894, 0.03865744439304334, -0.02758985634890611, -0.0841367251981706, -0.02923602028840315, 0.016170922470858207, -0.04119179771726907, -0.0010493489752592452, 0.05422100886107873, 0.02429856359444956, -0.020091080357810487, -0.08518675909230393, -0.06244487714457648, -0.053845478419597956, -0.0215483244715779, -0.017722655758867653, -0.0006287448822007431, -0.0019356661585335773, -0.01588798170781271, 0.006392202867239886, -0.003445029703566247, 0.028369048354361236, 0.012145352650411154, 0.017860091533023915], [0.033533911056617835, -0.06120738368630129, -0.004969847817515719, 0.01150196738543716, -0.00226232485861437, 0.039269960900777286, 0.026904726059183735, -0.03568999219848446, -0.03663599338915325, -0.034360274102202444, 0.032367981534997814, 0.06858300870164051, 0.025439665259558288, -0.007864746108605377, 0.024132031608215806, -0.01764865957362639, 0.07524909541520872, 0.004540885441321265, 0.04243364820450597, -0.046720137463074914, 0.002480053760515678, 0.02078742462255911, 0.0004811585317051376, 0.07576431530692875, 0.001768552320180893, 0.08320188011261363, -0.01489453905697921, 0.03896435705441316, 0.03905996402020461, -0.016887275596398906, -0.003987713154466408, -0.003060271623006825, 0.013543315978392683, -0.03404139525868636, -0.008655984443207422, -0.042556544623861436, -0.02515425291155704, -0.04708405184740586, 0.0026350144282687, 0.0044899025730807335, -0.02702985575360146, -0.0828479751359955, -0.05148259063432122, -0.026583295844328954, -0.005429349678371996, -0.039243749835060175, 0.014584167912214355, -0.05146008704929127, -0.02592324851116201, 0.003468098887312659, -0.042179861169741685, -0.014117016897434309, -0.012887541421476948, 0.02874226678101825, 0.0240362706287079, 0.055445396381892255, -0.03623371173236322, -0.044942259222115956, 0.023582901158036858, 0.004538588408765404, -0.0011331265044811684, 0.025013832975880706, -0.06444841949916172, 0.030218295973966046, 0.0683949146798892, 0.03331159744153321, 0.03131654967923031, -0.007883489422081846, -0.03719084416291832, -0.08809136471272691, -0.1954483101765636, -0.2424935430223629, -0.14893660295909347, -0.033580872840616345, -0.01475375823564622, -0.0030522011130828925, 0.023603647744448994, -0.03048494194230537, 0.007717983226054845, 0.0073423992537007205, -0.0010344200325214613, 0.050602027505361656, -0.010559046693889322, -0.010054947108596047, 0.008227218456149236, -0.02659643855003237, -0.0850927039215003, 0.13374328445852918, -0.007123820959697985, -0.02421017677298338, -0.026249358145135106, -0.04534565113940985, 0.1176576560364863, -0.001314270667633299, 0.11356912733566966, 0.2576070988549786, 0.10314478317849718, -0.07473098643887885, -0.0797379648595952, -0.06182700455362924, -0.15186695823214327, -0.029455880352583425, 0.12172919346627381, 0.048390218865949124, 0.0946799013028482, 0.07104145230006696, 0.09788729159436972, 0.020990306740424597, -0.04520963067776256, 0.0126956700925689, -0.06016047000126087, -0.0013373198196747777, -0.019738476833097506, -0.02009514539908395, -0.06498248132138934, 0.05354963897706085, -0.0703548644597909, -0.036100527504400015, 0.0038306359480172513, 0.08456120020109045, 0.18366931864165315, 0.2152713312301702, 0.3020620135783684, 0.2991769996162738, 0.19344685720990537, 0.109257267711666, 0.12870335869073093, -0.06349190701301886, -0.03765577599129657, 0.06386083169985303, 0.005495847938050256, 0.009483951546776033, 0.04035533110583178, 0.112093587979109, 0.10666959993454464, 0.09200055332063042, 0.0987297610064192, 0.044579695540214646, -0.02884876437625462, -0.007514050187094649, -0.00469678679418649, 0.027811282391245366, 0.005145118857888135, -0.002915844868229231, 0.030559635589272896, 0.008298985712693293, 0.13130069004114653, 0.2151817222328079, 0.10644718243500893, 0.26657474227230166, 0.2940419032219622, 0.042240361884668065, 0.15335985004246402, -0.04601903955642999, -0.20792105582447334, -0.1704303964995187, 0.18805760418170506, 0.24180629816518703, 0.1819298583992064, 0.04624265232869166, -0.03857556213837113, -0.11771924431398127, 0.13412538571383634, 0.09546516268240554, 0.06523366287603828, 0.046895917300634554, -0.0013891041415004751, -0.006396065998226534, 0.0652691931911732, -0.029195277148732348, 0.007627828578891553, 0.0683903836831131, -0.07567211061447247, 0.12929785172642325, 0.24680922794297824, 0.2248004969684031, 0.11915640903367666, 0.048149920679700316, 0.03303710213255069, -0.2396697038670067, -0.13273570680131028, -0.047995344085689645, 0.10293759261856916, -0.07126372947518592, 0.16551228732681997, 0.13011189036578538, 0.03471537346684264, 0.16657630624908373, -0.15549230202296166, -0.3814537931721246, -0.10884722758914106, 0.10778799601938097, 0.12868078249062698, 0.08921791096798583, 0.005575825853506527, -0.05477406150394794, -0.019585874481926408, -0.06458329828986663, 0.02970987752234265, -0.0358362615298751, -0.015052439808353267, 0.08428119966145335, 0.12823556893077234, -0.014393861814433572, 0.16349741436301335, 0.2939553750608613, 0.02620031042974107, -0.29999890601740065, -0.18340613492301572, 0.06313861074848345, -0.034320000461329714, 0.03980921503137265, 0.030962793656143812, 0.003912674984937303, -0.2600738242485435, -0.00545861715452819, -0.17338815051246262, -0.22075004151108774, -0.2794795896214008, -0.06576228878246972, 0.08256433124123018, 0.12509285437255588, 0.03786566611791102, 0.03168721516460647, 0.05697909489144646, 0.012271503173831376, 0.009481716390901581, -0.0008218880138981183, -0.15746242140576305, 0.03426262347170722, 0.03386287639863058, -0.20405137341178012, 0.1687818397682851, 0.222192105432956, -0.15125340690417743, -0.19962196188092463, -0.012859206594154224, -0.03689997236837811, -0.39082686443249204, -0.17547919500235673, 0.17814711608807618, -0.013724878362087802, -0.1535104648599785, -0.055866375898452815, -0.23258938182141983, -0.19131608610777992, -0.28659713416966476, -0.18206047864405658, 0.005114892299438709, -0.0025179410748452356, 0.07758414276441576, 0.026345311852252123, -0.03124132278344038, -0.006857412624520339, -0.06550616800302803, -0.13034757738200994, -0.12227904713460293, -0.09855429167974496, -0.10416074574737776, -0.3220580798718564, -0.10053690258356336, 0.2512536414619405, -0.14414525967213082, -0.3000850713388327, -0.035334015213563136, -0.5642321502207598, -0.5948510316693224, -0.3989765016532826, 0.1541826592480415, 0.11009917483970194, -0.22686226614893656, 0.03205041878790162, -0.05457572111131651, -0.044592650179554806, -0.1289447763229885, -0.14410210895948092, 0.1611887139952502, 0.09831396405803017, 0.07501327460881455, -0.0391571876787961, -0.0002804509883004924, 0.03355886742387293, -0.06793122768119787, 0.04450214048805584, -0.08993516154222075, -0.002464685716897506, -0.2566839188268091, -0.35055518103045136, -0.24601780771375872, 0.1166110065898605, -0.24711649007020844, -0.20066474986229832, -0.39462206810296685, -0.6401646050607086, -0.10011432174561923, 0.11214700086772066, 0.17056509455475716, -0.1381082670357622, 0.016398970446191076, -0.2585041816460277, -0.048753044927684334, -0.14308298633038838, 0.08492239858122783, 0.04696990974807994, 0.18353266752668934, 0.057927241278735275, 0.047506572089316454, -0.03829889949317042, 0.03366073203925376, -0.006149395777156206, 0.018374344790380547, 0.024260899064358604, -0.02890390854357217, -0.15692383286597839, -0.2300965827882051, -0.19898534803839923, 0.056681720498240676, -0.09748621727377108, -0.09004929770709064, -0.15706712970582504, 0.0762340479173537, 0.42740171205450866, 0.5400915609509258, 0.35706416463904683, -0.018334945961736872, 0.0861050024261822, 0.07048482170449838, -0.21639028603431198, -0.2514198411366622, -0.10339317351409441, 0.26630816052919265, 0.24770134958897305, 0.1852057961633973, 0.04192580559392397, 0.0372185579825932, 0.019762712651603235, -0.02846584150278761, -0.019979448722966628, -0.021707795574369936, 0.12796749494839812, 0.005584984033121729, -0.01810903104792718, -0.2250482680801007, -0.3164196712063919, -0.10122019725663159, -0.10496106703333657, 0.23471419635074312, 0.21691051519724575, 0.29689096360190415, 0.7703925172134181, 0.629869700392975, 0.4207276821434126, 0.03053489995060484, 0.1039383383762163, 0.17331913891555056, 0.06009796185118162, 0.009105121004641694, 0.055602900742684334, 0.18677443702687507, 0.22345530363052787, 0.07485003100378976, 0.0032481424148278087, 0.04448782138431687, 0.04713495981097425, -0.018936554155189307, 0.026773204157671426, -0.01349894105439537, 0.084565961007022, 0.18458315740138537, 0.02580686241355178, -0.1066146768225406, 0.07142909120732421, 0.12964797685018353, -0.1431535168465986, 0.05300899009951764, 0.479727411763426, 0.5552395428681015, 0.7537553535755798, 0.47141903729475326, 0.424684343977489, 0.2838823519543411, 0.08367671675290397, 0.23249267546829527, 0.26094397296130745, 0.15216352166413274, 0.24985260375617596, 0.24555019732011385, 0.18610922754466067, 0.1030027522264186, 0.043839991282999216, -0.023886210326777794, 0.006001686018301857, -0.031534580268075374, 0.01466663871449803, 0.07794268398568424, 0.13679740996787745, 0.17960834473875897, 0.2091048225160742, 0.1295314575507188, 0.17299961243578402, 0.043992662260397476, 0.1380669370821978, 0.14156940427420014, 0.45860044577292763, 0.690927761474335, 0.652629454296182, 0.10148474021024742, 0.04634410050839101, 0.22849320324985817, 0.34100007195456833, 0.1999389546299983, 0.117564440711621, 0.32952622344892, 0.31165589505226243, 0.060132325140832325, 0.17517643396375987, 0.15269180381783407, 0.004114971827270778, 0.027165187498739203, 0.014471944480762597, 0.06826456590924776, 0.0020456700556188163, -0.025101236415850728, 0.048341923630319215, 0.2302676246946843, 0.34778720050978723, 0.2750782904007719, 0.19873849998921442, 0.2776088409257396, 0.2931082869615542, 0.5899140802003143, 0.6536993477802002, 0.5491003509132552, 0.15076911809655538, -0.2946138962655585, -0.09249367966243766, 0.33194481100947326, 0.3503056220318084, 0.1147106244813467, 0.2676337398208179, 0.23925711340235675, 0.08600618992862037, 0.04321302592705524, 0.2060980643362615, 0.1996032628185586, 0.00904155910810521, -0.006396593067345317, 0.0753743655629847, 0.012243080942650015, -0.01426135949199489, 0.05991831586761732, 0.10762420412240205, 0.238445933124934, 0.37315398484488255, 0.3812052835526915, 0.2532361469969317, 0.2916493264659474, 0.33250714197108455, 0.5346274715011735, 0.9221199745033084, 0.37645807857733155, 0.0951347830543138, -0.44591777830931106, -0.10353538320000852, 0.013780000739082704, 0.31271342080438974, 0.3253561253496288, 0.18991982010538588, 0.17753332709148908, 0.0026473278614336554, 0.12593275194029652, 0.14016610677856228, 0.1277964832257032, 0.04118924240732963, 0.009404945012149432, -0.01935823607789789, 0.002438245700077492, -0.013900167115465096, 0.00694751624198067, 0.14476675405497003, 0.277600573646539, 0.3716084613432292, 0.4957650951540187, 0.4562969634800592, 0.41304906758516463, 0.5032904538799503, 0.20313884173062746, 0.30105871045734456, -0.015336434013050189, -0.26503862881922935, -0.5708075081533894, -0.3412106716271969, -0.09396556327082836, 0.17184549836103583, 0.19721360084258197, 0.14588930422673932, 0.08489724361136854, 0.011897616077909595, 0.19279161956183946, 0.20529529321044004, 0.19814095847189872, 0.043382893526562126, 0.0012242063582887834, -0.10896709843342937, 0.030758436654164962, 0.025799600571114634, 0.02513386271030903, 0.1510316509573615, 0.1340460890552273, 0.19921547549739638, 0.34907681743359636, 0.29720983404240503, 0.3808794961009264, 0.10260512145674078, 0.13399104175741158, 0.28837391835591447, 0.19330164005610062, -0.0784470873512118, -0.32567068910966146, -0.3948232505140761, 0.06807830008125709, -0.00010176440974400238, -0.09112434785340345, 0.015970668317041276, -0.05119554606029521, 0.061106697823466775, 0.2598949914655793, 0.283813990846169, 0.11703210802945781, -0.058965222553324016, -0.030744809062766366, 0.02060388628406656, 0.036398455571362884, 0.03883336323528511, 0.05037152375536109, 0.09644169929309807, 0.019268970545587717, 0.1122125675260266, 0.09195688982720489, 0.10239588698589219, 0.07357307801103576, 0.004554886040953921, 0.21144396083877828, 0.33306981008852554, 0.5296949714709628, -0.2562655075100548, -0.4745946765255602, -0.25112694785453793, -0.2874569337586209, -0.09024731747670478, -0.07276519756538892, 0.16347590728099362, -0.09061702872635258, 0.14036322760887662, 0.20632059690265067, 0.10575170064461181, -0.06387795255322144, 0.014655568384272266, 0.012405542889387272, -0.018216602418071413, 0.026431771707937365, 0.022873285148780863, -0.021671695497838483, -0.0813521132066101, 0.005058734786393486, 0.16679541003508544, 0.09533257663671196, 0.02368253526476112, 0.04118478269126755, -0.08523553715041929, -0.0547230318642537, 0.15026903213200543, 0.002865219601488141, -0.08512460498678377, -0.5135858276914668, -0.2814649839382422, -0.27000187972597706, -0.11791420158457827, -0.2776487933834376, -0.09438787561414613, -0.01767683568947199, -0.04249355858974625, -0.028195742044312886, -0.05865093061141234, -0.042602439112038086, -0.06888093453252497, -0.005171751666157418, 0.045432095452719014, 0.003665542208897785, -0.046637381723047426, -0.07741423280669488, 0.004863475031501202, -0.17954883550680345, 0.05333160902256743, 0.15651850580407597, 0.23776486607596334, -0.18713282935826367, -0.1744873659484691, -0.3467245858125347, -0.0383579196099621, 0.18959576570654435, -0.09639320935007488, -0.2688223591899202, -0.4220641280562429, -0.20900595664912477, -0.17895443176774972, -0.4122025971591874, -0.2359348551768022, -0.17787445751034503, -0.11283940642879017, -0.08838020182435188, -0.11033689330795697, 0.002195922810164421, -0.015017561166430075, -0.004779519385894385, 0.0252067180922143, -0.03390652965589914, -0.03411708077184499, -0.024732672206071657, 0.011304970516660351, -0.1677972252621757, -0.28028767633842394, -0.0973677895204774, -0.09295595847202577, -0.29684966837373056, -0.27819957320988414, 0.014009216922753092, 0.137384468972402, -0.015696671672606882, 0.10921372939113327, -0.19209005293477333, -0.2645429367346379, -0.0352515611832578, -0.3993218458023479, -0.46986553284122096, -0.2995090252877683, -0.17850009621420257, -0.07057017163947261, -0.016320926345794018, -0.0059179341182588685, -0.0022058935677597576, -0.025944302226653747, -0.04457033998070082, -0.012096365001183934, -0.0930893921421377, 0.04747703450571648, -0.03248471081957253, -0.01059076302773711, -0.1342797689255778, -0.17439030714896311, -0.22151008337483025, -0.209944403515728, 0.10216242732150754, -0.04696041486633756, 0.11623751130148961, 0.2086593958748944, 0.0004408237473794367, 0.03718246938032341, -0.0334914389604257, -0.0061961189022267365, -0.08273742085907157, -0.35847191681564883, -0.27045061926141956, -0.18303005980805898, -0.1185207863070154, -0.0694915916987354, 0.03431323675212478, 0.0012297774122439653, 0.0547453510969226, 0.006751837666651492, -0.03652544053642204, 0.002857412099762728, 0.01668413043481855, 0.015477013989712197, 0.11850156996591364, -0.02174719813482054, 0.0014182850597762328, -0.05457617706184165, -0.08165356760738118, -0.13469524486953782, -0.08973181970774033, -0.10477171181951189, -0.010107294054484033, 0.05936469215015195, 0.2255623395101339, -0.055610472778532365, -0.22606631993210338, -0.023863498857409012, 0.1390885315788596, -0.1686166514335335, -0.2582345689996897, -0.13095269084349803, -0.027538968426872673, -0.08824601046066281, -0.011858547458400976, 0.006652857723023553, 0.03758464949934582, -0.01676166196137631, -0.03149188660466241, 0.024331630283538446, 0.002460189144603091, 0.06002740985623695, 0.029039614920704324, -0.01362010795968875, 0.0002768205535942021, 0.010966901345452664, 0.0304259566464549, -0.05883453216062191, -0.1560926377460653, -0.11658915723759332, 0.015986078197833913, -0.028813157232692822, 0.1610388818753723, 0.018139997182483145, 0.04463816993163734, 0.30105364085389225, 0.26664455073678894, 0.08772338966424734, -0.13792599892645985, 0.04283402390001051, 0.05760384455211139, -0.0004012857886107901, 0.02197061943798559, 0.015925468665160168, -0.043201070446394096, 0.006461687324289426, 0.05288694806340523, 0.025319902613612395, -0.03238363778852959, -0.02986783311510019, -0.041403401512693165, 0.004396657436850521, 0.013626679321990534, 0.050014043293841536, 0.06311236516257916, 0.025063732338942598, -0.00206502796229202, 0.003887251039677, -0.015473028222108024, -0.0930553285731925, 0.04955202377814519, 0.07640146904122239, 0.21755399926710745, 0.19468986945199193, 0.15645638040006327, 0.0933101968148789, -0.08485506322665107, -0.14402433961663755, 0.04616167781326702, 0.0856978069908078, 0.05565200920943718, -0.04914410815775639, 0.032844851583542334, 0.0016795659215850277, -0.01621727605195892, -0.038818662818297364, 0.004070102710935222, -0.05364945276927048, 0.043175857849012414, 0.03012992785960717, 0.025139112025079048, -0.024938035269168886, 0.012165617160339301, 0.002106749736612629, 0.03412373916216804, 0.016100066332200243, -0.11146732448555213, 0.034341797148358694, 0.06160133831639486, 0.02219295802077582, 0.02758473439299271, 0.08901002177659689, 0.002096502383160762, 0.0005269262811318175, -0.024789950987749332, -0.009547818308324487, -0.0716732089977783, -0.05175808989081231, 0.05964847476935602, 0.035755530955647076, -0.024942417508588978, 0.01770837345775859, 0.03525115864912766, 0.017171360426541573], [-0.047096671633862774, -0.04642433598272657, -0.004528214884215927, -0.0033659240845008965, 0.003417773368755199, -0.02269967381019133, 0.03133404919426629, 0.025714227606182215, -0.021258654437502706, 0.07234942944014225, 0.011599757776432273, -0.003893224239686805, -0.0773868355339267, -0.00595464847441468, -0.033527008055178616, -0.02368778066966154, -0.02032472858065021, -0.020271621539578264, 0.02305542795040371, -0.006557614959727744, -0.030841554990832604, 0.03325443265628875, 0.00419852884325733, 0.029874779300817396, 0.035047302952922556, -0.004562887715679807, -0.04071515441544583, -0.047538394718002315, -0.020231625283993426, -0.0027938246096415736, 0.018581002203785862, -0.012965968812638682, -0.01570605073047579, 0.003977603276748235, -0.08239794939480324, -0.0942191181753952, -0.10713450990729372, -0.06972269201301756, -0.009531220421664639, -0.0774525950134236, -0.05360908723031418, -0.025593196456848752, -0.0647882003289477, -0.013952093621955515, -0.027463765543227363, 0.05098843371172035, -0.0010057036344171216, -0.04369650596712402, -0.0038863391636698654, -0.05451108363489698, -0.055150990771545894, -0.06009566343549291, 0.008976864848531023, 0.025478265169570406, -0.035026251005555585, -0.004045286666002493, -0.012871271994522598, -0.011046413594220653, -0.010220052865459416, -0.014037723881506998, 0.009415396136403329, 0.024698328768786942, -0.02880431184802792, -0.11315635489019692, -0.18181933548222445, -0.07016154304093918, -0.07818150348517934, -0.1360747663616684, -0.20987487215984474, -0.20108525853645323, -0.015590213050998359, 0.029319704299183135, -0.003295587774076033, -0.06889413204330086, -0.06376058493673324, 0.012340150875955337, 0.00976731715745022, -0.0113973493972293, -0.0633402311500089, -0.05506640026368381, -0.005885959279395442, -0.0523343979478359, -0.017608534374425437, 0.021930254234215657, 0.0706779714037998, 0.08360702132808281, 0.03678505032669413, -0.04118137497430637, -0.00595135483101011, -0.05895077471202461, -0.12275102330559086, -0.1775142971907164, -0.22845904916410362, -0.21896338685972677, -0.23836552390822985, -0.3514109446237515, -0.41818272072883556, -0.3854375168432676, -0.2579040410376223, -0.14362450538807736, -0.01304294330432299, -0.04738506266659233, 0.012457151710054834, 0.12018263542365895, -0.016879196860779468, 0.052044867204718986, 0.06822451894978926, -0.023031994795007664, -0.011561275837518679, -0.04599604001939755, 0.02314697093569691, 0.017907679094291386, 0.047415097129765736, 0.014282496614676631, -0.02985665694391674, 0.059303543001150635, -0.027837971074858723, -0.03170073540855211, -0.1384919480351382, -0.20065228804148988, -0.18512426483275365, -0.10442902426996736, -0.2975097632219126, -0.28840794072014836, -0.6235007422391886, -0.511167361967552, -0.5376188495335098, -0.17222158775144789, -0.11947539554516953, -0.16914336803703156, 0.09827739606156032, 0.29237100377065534, 0.12239819146153932, 0.32773821727900104, 0.3131771090280718, 0.1311629633764358, 0.08274798227812027, -0.015128446327212114, 0.03110785407603249, 0.03879742987550578, -0.06924226146158245, -0.044133095187948265, 0.05116316391433779, 0.05722023792117611, -0.049268230780035685, -0.1006679413983186, -0.26018905650135604, -0.27152542923494266, -0.20376721364413403, -0.1394497192751655, 0.09126206459510793, 0.014371862352922756, -0.06322928636068549, -0.13348940914811425, -0.24118467029320662, 0.3743664112552382, -0.11554051368814962, -0.3197018420838436, -0.07308083681874698, -0.08894929096670925, 0.06304033767566583, -0.05815809664575877, 0.11300679567238074, 0.22115660544413618, 0.090013628490647, -0.04551799596439492, -0.0007856064518399317, -0.04921397710834317, -0.017657119819005897, 0.04353757160595639, -0.019709111000547976, 0.021147790677389953, 0.0012826086109694206, -0.0072979320641338415, -0.16229086149371746, -0.16995549085087322, -0.008133163464334946, -0.20210880484671356, 0.1203680008038263, -0.08352066723481522, -0.10691666626263725, -0.10966680871413255, 0.020509099777686623, -0.22277982404741126, -0.19256092132338018, -0.1313188966255164, -0.05242031125225402, 0.06389907788839938, -0.1447039086417831, -0.16117335038841285, 0.1608032099325401, 0.10432946742815445, 0.08390740043906403, 0.19379476239963767, 0.0347686225997975, 0.004028417383203395, 0.06720935503075955, 0.017922323951974704, 0.005120301116729908, 0.10546636697931516, -0.00644382400311455, 0.07400393320883704, -0.06271751067273104, 0.10527040625989223, 0.17432544792177748, 0.27142234929031905, 0.3500795276042037, 0.21998067672223953, -0.06271561142894196, -0.006318729190138543, 0.10270870206947448, -0.17722146167219643, -0.09877172861727691, 0.10934768924201684, -0.028842862576474216, 0.18876473795547866, 0.0924403212954526, -0.1918672145493917, -0.08129321662461333, 0.16215427759260437, 0.07826918134935772, 0.04108095172430549, 0.015472235769100189, -0.03194661085153683, -0.016055813897373167, 0.025638451723822325, 0.04781007742598683, 0.07147183121817395, -0.12098404567979075, -0.04028161050086036, -0.08363206604147166, 0.12663900160535052, 0.24228197386428765, 0.2750950636629966, 0.3770439124887334, 0.25414329111420353, -0.13287197840505008, -0.30456711858162566, 0.005655260750786381, 0.41828067339318886, 0.07297073058259392, 0.19706667496254957, 0.3478470947112197, 0.17439385069969485, 0.16211784381527952, 0.038237545135611034, 0.08147045977615265, 0.14262256600630982, 0.1579143440815569, 0.09776740773717449, 0.033040160228405675, -0.052443434681257714, 0.02187601077664618, -0.027279144388329547, 0.08610366370198173, 0.017325406274395185, -0.2132051654282743, -0.15851031542547414, 0.03302086841175189, 0.07252909441682466, 0.19667226883672745, 0.22433182217975967, 0.4401643920003088, 0.43921830325223465, 0.3367646650155339, -0.3764049079051785, -0.27515480267469816, 0.27785255867380815, 0.3413177555070632, 0.06022672245213427, -0.012491433478856954, -0.2674951818680317, 0.22721797370196448, -0.023662574025058464, 0.10770059432067926, -0.28318758124985194, -0.05327359509812306, 0.016484032051003995, -0.01517529325650495, -0.012742988505158964, 0.08643337703303625, 0.027256419041745288, 0.006820060644639427, 0.08893023681161863, -0.15774534240226537, -0.06632553886119805, 0.010342198246185229, 0.1256453920313678, -0.09132664825688168, -0.0852592267882103, 0.17110358823413674, 0.17313826239233504, 0.09534968525384802, -0.47256076585262546, -0.4498721367838625, -0.3233654907358325, 0.14223053830475316, -0.21348330165876983, 0.0065586646277206, -0.21229208080450607, 0.2863612690889693, 0.202042458911653, -0.056512569984025506, -0.5506659324824161, -0.24746891089720344, 0.03573851084863587, 0.03909150365182036, 0.03848992568297085, 0.036326076418589856, 0.04775634330782758, 0.0063940142116488885, 0.05045726122243685, -0.20580870105379478, -0.20555367634975563, 0.28076984101445124, 0.007181123891790251, -0.07590644829071234, -0.18521317910884014, 0.40703474179619675, 0.39883978470631726, -0.11732938125865182, -0.5425842725691058, -0.5211051831793888, 0.3063893288133846, 0.5224905832576215, 0.30905154772321275, 0.09258290838067805, -0.12434353713349605, 0.1006099395181878, -0.16577599212400376, -0.39535392867813407, -0.5133453175991939, -0.408758006797001, -0.12638101592700568, 0.021266487928954345, -0.0006552808976063711, 0.015951584991498628, 0.031832415400968955, 0.03966828628669897, -0.008540496239924504, 0.012761464525985502, -0.14501506867277686, 0.21142894139106155, 0.20482678989960768, 0.06277053158666472, 0.054130154914900586, 0.45512514327178083, 0.13035106433150231, -0.37450370330910543, -0.7685863511787799, -0.7525961828485457, -0.00735315436257526, 0.025871065263934883, 0.009918247079737853, -0.10745557238019425, 0.13695936539183023, 0.2271316696074405, -0.08982873844601307, -0.01866611367828843, -0.40068819867056044, -0.507305630725106, -0.2339731674757483, -0.027605202766486297, 0.03669560678337804, 0.011067737329617567, -0.036814330501180284, -0.07588572410548418, 0.0774077413794123, 0.3190929161350156, -0.16040426547675907, 0.00659745681234178, 0.36325755697191736, 0.1318512474624513, 0.14460465271393144, 0.008413385264519383, -0.2617729823450825, -0.001338971258134886, -0.4466889274197128, -0.32050524212288223, -0.3798541285979887, -0.09436941131139681, 0.02001530892844816, -0.15728389337319867, 0.3570518022566478, 0.02114965839748047, -0.15166440511159895, 0.07518640545877577, -0.32233395473136645, -0.5254336017774207, -0.16269312735354557, -0.07308704490430332, -0.10928208429470046, -0.01892097156932919, 0.0362674901627893, 0.07796768602237805, 0.12593705179371348, 0.3514508555942388, 0.08132080881504195, 0.30647701177394, 0.32607767190381326, 0.24300199479476697, 0.13237216195942078, -0.026659843597601266, -0.3041687557440939, -0.097003755477978, -0.3596864846595582, -0.5988945738042938, -0.28359284947931057, 0.2193020718992668, 0.16854967972915857, -0.0844884931879074, 0.20223176063102116, -0.061717441502470057, 0.030609400598334335, 0.10371648586247295, -0.23725678590151855, -0.27066243155169606, -0.1795028209648729, -0.02307315592516654, -0.02494421680263281, 0.040963804878703526, -0.021044600874179115, -0.01206358776137625, 0.024894757384870857, 0.18951365992430946, 0.1818517630886385, 0.20137404188230637, 0.20998984569649834, -0.05526673843875669, -0.17243851996542114, 0.31983353153896676, 0.01852667000002013, -0.06528252180246924, -0.561088859640935, -0.8373888869703462, -0.40374493766823855, 0.10200967177283435, 0.1872930735953231, -0.24509708472165756, 0.037857949204924364, -0.06589469266699807, 0.32679693353033684, 0.19237882945488244, -0.10100827729930666, -0.20491198382089182, -0.2879526527689299, 0.0482145436131414, -0.008330453254475954, -0.0051734005937003206, -0.019536709562272624, -0.015930611525175522, -0.025426103541913422, -0.19118260689133681, 0.04997785133296056, -0.07321994068048056, 0.3965917388248185, 0.35471232858801643, -0.014865461405737737, 0.3158302061062427, 0.027321652752542232, -0.13271487520331074, -0.30354532453144967, -0.6950103003991501, -0.43692547257938763, 0.08460711197204568, -0.04764459284801753, -0.08197782130166592, -0.04674332723301476, -0.08135350524812444, 0.20715979888004132, -0.0093786665439727, -0.12852061113461288, -0.12560924447207855, -0.24738855080288633, -0.042425667529854855, -0.007449053755090371, 0.03326909256034994, 0.06287405477803502, -0.053620274693239656, -0.15052777913439913, -0.22395080914266086, -0.1547705515028335, -0.03504340347302808, 0.3329446576921887, 0.0321052092174764, 0.0802478948309846, 0.16916554976622586, -0.050728599670395766, -0.1270667354706464, -0.43227390104437363, -0.4010146071855017, -0.17914475790380022, 0.21056924197880017, 0.3311191702220797, 0.43825481310151143, -0.045237990065466346, 0.04428422119369185, 0.0025536435407616386, -0.05231889803610359, -0.1632026349537574, 0.013895406203462787, -0.1838506685757123, -0.17114611849816763, -0.07884257886732621, 0.015548407100994605, -0.033399721980066265, 0.019603105032150462, -0.16088950903833737, -0.25913851586666137, -0.28673142578516336, -0.08296785589568088, 0.11365004407808456, -0.22355785435831407, -0.18382629630604946, 0.047713745603720395, 0.17975624536197057, -0.018542564922652344, -0.39351587989367875, -0.08592681925991578, 0.06616984879543256, 0.37113031926258444, 0.22222113278869615, 0.1505876970397377, 0.10829762427894657, 0.37669987679157696, -0.006545529118461594, -0.20083021621277947, -0.10108047742720655, -0.16376681754693648, -0.2933925375207358, -0.0712122951449385, -0.10305140717785687, -0.028217963838026213, -0.042641422456115526, -0.03597583860212148, -0.07415981489228185, -0.05568417084108065, -0.153926246657463, -0.18411680486882648, 0.18052597666525722, -0.06856358609969436, 0.10410477115338466, -0.03995380123635384, -0.19175015461913777, -0.25085327181652195, -0.48420128283759484, -0.15840978510010534, 0.02173372942478273, 0.2272072136814479, -0.19932790914819917, 0.2083105466236892, -0.02695022617684389, 0.08142939498360485, -0.22515204624618101, -0.2709206697360588, 0.027430204924830892, 0.008291500538067563, -0.13960655245907896, -0.05047320877603453, 0.07701158798833443, -0.011147001141534248, -0.027547614734991812, 0.053217127173445476, 0.0017157773114678523, 0.0839516864135153, 0.1507151215915522, -0.29192309579790393, -0.14498261664272163, -0.04956416073786555, -0.3475729071939675, -0.6844139046858027, -0.7940651126557957, -0.5638361776277233, -0.4808591285482129, 0.12683973074691887, 0.10727796388835194, 0.090456997651274, 0.012337252352728815, 0.02318516639867037, 0.2386529464372121, -0.24317504921699717, -0.21799829687919178, -0.145006955721064, -0.059353035056769254, 0.24183260723703348, -0.05901399414251194, -0.06543533604541019, -0.002303341311581428, 0.027417657087248436, -0.044419572230845195, 0.06066360356499756, 0.005993929295889777, 0.11945401643491108, 0.21386781727951615, 0.07023394052260852, -0.09564943042513287, -0.04936652685846841, -0.35469955888072846, -0.26723365740789956, -0.2746717381897656, -0.4846196082968343, -0.6492167872764287, 0.26366878765035917, 0.21728544365334226, 0.16060177371076098, -0.2501895377887634, -0.030795028849276585, 0.15452481120537181, -0.038624484736158544, -0.011754045702078778, -0.02703589913974068, 0.09061558820604103, 0.22919182592911988, -0.005251212221319165, -0.0281616767289922, 0.011935151658320065, 0.09531589155204424, -0.08806094608403855, 0.04766297889198457, -0.049420105538473535, -0.09699017339138045, 0.03157140211401282, -0.07565582014579234, -0.24112438755432772, -0.2664424289520991, -0.42086659745350957, 0.09031772958076198, 0.1401340897346543, -0.09802746327273741, 0.15280561346369825, 0.3574732668315176, 0.215677054398342, 0.08455567161411234, 0.06157349257126065, 0.10096502287299894, 0.08369868449989196, 0.09859509194927801, 0.15094424239275686, 0.24645922246311425, 0.042635974556684136, 0.008635570519714347, 0.026248513327737574, 0.0035537937880933753, 0.010433436861180421, 0.031172000439911123, 0.030433780708221825, 0.002974368117507945, 0.020368959356282003, -0.19639410221150827, -0.08743330392332009, -0.04315500574830074, -0.3354735931488292, -0.27511142460567833, -0.27998357941386387, -0.01957278885625643, -0.09782034257322393, 0.05863650490063848, 0.2516856504545325, 0.5497384228584095, 0.19938832332976816, 0.13601445764236256, 0.3294635096967711, 0.1658571067934039, -0.16652426958279623, 0.2735786339298229, 0.24840032636654144, 0.06995402082020061, 0.02455713595698502, 0.09659456727146074, 0.021555638278600995, -0.0005739704441299078, 0.0427409346047755, 0.031113819001234392, -0.022923351069039758, 0.007177949651059486, -0.0321092985337684, -0.11954423474286675, -0.03918911647991442, -0.18037098724655473, -0.2517789651220803, -0.28224994861896086, -0.10500361000332814, 0.008721232956644571, -0.09363989323975233, -0.18239697862483645, 0.014047327087491708, -0.3001307808371283, 0.2412497041433024, 0.24235108444448208, 0.2813485204012854, 0.09616038147959165, -0.229190522318095, 0.04255211722986033, -0.16964453153747974, 0.013597291094246216, -0.03933345677229273, -0.1012574204850029, -0.12110413796569315, 0.0028289051382415827, -0.0377235882266167, 0.002267532342259134, -0.02073513190555467, -0.03590427303139655, -0.02022175197349501, 0.033366370129894365, -0.07869395647030936, -0.04438215230997508, -0.10602759088190374, -0.1202012559974531, 0.04399227956117542, 0.060176190785664045, 0.21196521650254904, 0.21321587159900598, 0.2155299213518388, 0.08801100440170591, 0.011714575647104023, -0.292830408953462, -0.31394126381504545, -0.12601548668501744, -0.028119039828031104, 0.11728512303242908, 0.003413077144855574, -0.012151256263178825, -0.05798423836170435, -0.029856224557180344, -0.01366573196604737, -0.03909929072069063, 0.08408934723938095, 0.030323268485776936, 0.034498838573440806, 0.020377590083100465, 0.03196017459164659, 0.0770690177199819, 0.07850794347603297, 0.011218417767025646, -0.03981436696827609, 0.11514932687707073, 0.2402147739366095, 0.24291065939492693, 0.19575952159543722, 0.22083774052484764, 0.1461954444945393, 0.10473111532526404, 0.2225495564927938, 0.11894024866352712, 0.10165946683884423, 0.10185062628283785, -0.04533938720157769, 0.13601599687019178, 0.13383228385168777, 0.029273663395425493, -0.009995816176855687, 0.02969580071322697, -0.0258652442179917, 0.0009828570958401188, 0.06390516585466517, 0.02817179222709942, -0.08306889185926598, 0.041437119970425165, -0.060201464766078454, -0.0880420309049391, 0.046901341870809736, -0.027363817101547498, -0.02561403936437069, -0.022847199149123986, 0.009933769883985248, 0.0679234248297409, 0.03130896722166609, 0.01848791046554137, -0.0017064879579286266, 0.006332764903254502, -0.031217650776429115, -0.012115749249424922, 0.019637706264353176, 0.016613635910252583, -0.0003960573834439553, 0.03296818560800093, -0.018632544148749694, 0.019050791379209654, 0.00844677355173224, 0.007700233449532162, 0.008297094463325947, 0.015387503026465599, 0.09061771432541256], [0.006900296994517196, 0.015536286198090828, -0.004121774420630991, -0.010525820020407155, 0.049828148190874576, -0.035760755675603585, -0.025451217470729252, -0.010612607309023163, 0.02499726772000518, -0.02805669133472032, -0.051657150049200795, -0.01346316125980772, 0.046726986569454405, 0.014688913370531987, 0.0706199022098862, -0.04938941135467863, 0.01713277221799843, -0.009995904515507076, 0.015100332806260492, -0.03507587109792858, 0.024033982377170405, -0.004100461727315292, 0.008883742111990006, 0.024885378111787152, 0.03748589720589164, 0.0173947173380893, -0.0280494896391209, -0.0477394391368721, 0.01993357582897672, -0.009995071744273571, -0.02590151633883959, 0.01687832726619143, 0.03161819831350694, 0.02065151430429129, 0.01488854905184471, -0.02646086463313752, -0.028208570601259367, 0.0537472180547604, 0.03604887136481124, 0.0010313733411013218, -0.051661187047298725, 0.022119932203514273, -0.08847221362566654, -0.12505526801045036, 0.09171949380772525, -0.009371760441733674, 0.022547546496596963, 0.0006390111904130477, 0.017781264889794108, -0.025802495110546556, 0.03859627166901538, 0.005769177255019236, -0.03372542497290285, -0.03067012677731718, -0.008593963479688308, -0.013660970279551468, 0.07387515403870244, -0.03919777011757262, -0.05998550433673455, 0.02340665305557549, -0.048318061267750116, 0.06285745373577523, -0.015268528988474498, 0.005313763731740853, 0.031196740565417595, 0.12434804982135379, 0.05761491849745662, -0.008292503224850247, -0.02238900526222144, 0.13520566930785077, 0.03428308220244393, -0.22432466502358614, -0.07933692416087966, -0.0010908355091942875, -0.10203503301667852, -0.13694467038061894, 0.0020616722824094032, 0.02118563957849927, -0.04652895889388683, -0.07219446684669988, -0.03469828391661201, 0.04351196116583237, 0.028104068564323022, 0.03640058781845259, 0.049220000466770546, 0.03182110471988402, 0.011964739984666328, -0.04322197787700275, -0.0791126390766699, -0.018090469658122138, -0.020279306853321563, 0.007735878959418783, 0.06111112427492071, 0.16256895494110063, 0.12630866003328456, 0.1546760839810916, 0.0932471202366193, 0.2843076624631725, 0.11944659182034204, 0.06340082584779537, 0.29651488067465254, 0.29558259064035736, -0.010762080372654212, -0.09113479519632159, -0.004147176071511658, 0.0410888403964581, -0.0014058723600891376, 0.014892840796087737, 0.01455282693918609, -0.10811354874509903, 0.016193965700311487, 0.005420005532862054, -0.01852591463828584, -0.061651569255007664, 0.03745839936627088, -0.05633270919611192, -0.012989936461908012, -0.016407325776563557, 0.02140539385116575, 0.046430588029983476, 0.2130659315841402, 0.31826908154303624, 0.5059924813057426, 0.3176257905223879, 0.17420774924568724, 0.24194798881937898, 0.07269630472753295, 0.06255894815280062, 0.27920612686231816, 0.31577870306651473, 0.1813362060132017, 0.3184551268387132, 0.33956528037579364, 0.10569713939642374, 0.13051258619952585, -0.183389674511046, -0.0224662759101462, -0.19462221272433872, -0.01684294815886673, 0.0018289539567706062, -0.05204123222153769, -0.004504634790553498, -0.02769516929185996, -0.016428952140402898, -0.002372917978826501, -0.024145089695755552, -0.00028795519782726006, 0.2103978170603147, 0.3387672669421808, 0.11817544296096208, 0.15813332092931978, -0.13239520129704022, -0.2554532888647711, -0.11964517707175917, -0.13613992291968266, 0.034752088310252706, 0.24878844119966548, -0.04544689800262517, 0.43184087967958074, 0.2500629424489409, 0.2190449773234107, 0.08370904469915248, -0.2278317816446552, -0.22821518501467022, -0.05952335826253623, 0.00502590426723653, 0.030721812963537414, 0.012655128037279535, -0.06948814576374528, -0.0567090231581029, -0.029342321290484, 0.02069244055583781, -0.0641967560243088, -0.0444904706422298, 0.065361563390492, 0.3257026564223835, 0.17175010276648459, 0.2857020567916206, 0.18669576268270732, -0.13614132602733617, -0.04089869818432051, -0.014495264105047402, -0.012461224966798193, 0.21665057925757322, 0.4363129236638471, 0.23344568649451164, 0.24317632691857702, -0.15856911265089635, -0.28819423052427334, -0.023860224184656307, -0.19404585681625797, -0.17360592100310962, -0.1808794960192281, -0.18410626295838206, -0.05019751937819758, 0.02398897621091185, -0.04013845908516104, 0.016313599134496194, -0.06417701050295777, 0.003883295976331869, -0.04479896365059002, 0.0324262615981482, 0.10881857732491082, 0.09126387226177184, 0.28480068845648954, 0.130642956222959, -0.27412703860343546, -0.2830864257021415, -0.1414200682353852, -0.13266673893739658, 0.061646698437762944, 0.19896980275318105, 0.11410573928291341, 0.0085331792627047, -0.012148658093329831, -0.2160187767640923, -0.2130389235932438, -0.13836423357005717, 0.124212851191761, -0.18904428882169655, -0.2343424466554436, -0.21974116061502644, -0.07539915883411863, -0.03670478966118485, -0.007624458249059934, -0.030013586803443754, -0.0021410784837441917, -0.04450214123229495, 0.043449399841873265, 0.15459265949342008, -0.07749778832862671, -0.11261469265231619, 0.30943803917978846, 0.33023721988465937, 0.16822565547327442, -0.37417149840904673, -0.2909078003543654, -0.10865889516121423, -0.0904083850483927, 0.15995964236702714, 0.20808022121751177, 0.14449529107308762, -0.10928361305485226, -0.18742291628504057, 0.05652958132297807, -0.28185540116975805, 0.01112183615686086, 0.01681369915462595, -0.42639403585639435, -0.15506127059711405, -0.07348936246829138, 0.02574528286013709, -0.030431398604891007, 0.08537288515030397, -0.05536368526972186, 0.027672730720448166, 0.1646876127390724, 0.06370661520543945, 0.03713132996033171, 0.1777967781204769, 0.45125234500480743, 0.1517923877447624, 0.13993562317939537, -0.08893084132414214, -0.15999897604528426, -0.1393524606207334, 0.022593712621240165, 0.18501488696823873, -0.06024626439055336, 0.01255902529139048, 0.029871842918757427, -0.31249129886915183, 0.06607926376332868, -0.1614732782517262, -0.10756509139706986, 0.17690057529643324, -0.34196507260762277, -0.3290581873350766, -0.16958076730040353, -0.02381729853562378, -0.012792598656057792, 0.0006593191159076608, -0.0024882143210982885, -0.0027731725148970004, 0.04343932894053661, 0.15870892622053318, 0.27486369612428524, 0.41312812779914043, 0.4509020135221474, 0.27428725595617043, 0.16899023124071721, -0.0552391155937496, -0.13476841069609974, -0.0820725855376181, 0.01282471800854562, 0.09902990495503113, -0.07501271321206897, 0.3183545027633924, 0.2652005639958497, -0.27329645508827566, -0.21169665716504382, -0.11255608868661887, -0.08894244755266553, -0.15763280729078463, -0.5141175833503704, -0.5839736176457896, -0.2630794985770151, -0.008787068256646274, -0.02863580766151623, 0.012196917041885882, -0.020500136000147152, 0.04678371263327712, 0.05002243528153457, 0.08321921138618948, 0.2397637404331438, 0.2821973760145161, 0.22173938427555828, 0.32503192801136604, 0.5006913468285195, 0.32501483566202516, 0.3614705254920196, 0.08275645267038985, 0.1599492838930616, 0.20894569105548386, -0.4092448277701876, -0.12601016842735824, -0.05243546993519635, 0.22686514506168817, 0.2910978021492614, -0.05644475282685667, -0.02606084004119474, -0.4325681684764439, -0.3302864721704218, -0.3288446354214788, -0.1930694116630568, -0.0023151025755832524, -0.008599263999073334, -0.0013300919411184684, -0.05665734241782347, 0.08241333585528061, 0.026201220611427118, 0.19765733846587322, 0.24184859460797883, 0.20988237738276538, 0.2855365505923254, 0.17661666647708657, 0.12135773047809707, 0.08979287860642444, -0.18692835057449006, -0.3405409424228077, -0.2784141412598155, 0.2143328453441146, 0.008585504281612364, 0.09740084893733104, 0.038355859122359726, 0.2130008705821001, 0.45417790027813004, 0.3977626099111429, 0.22783453515027086, 0.10881060319337428, 0.060922359277649774, 0.0020946408242243936, -0.03179799766839451, -0.014654087170593312, -0.02016515743028431, 0.008406765766236135, 0.02091488689080323, -0.011626446449471535, 0.14144738230543202, 0.29980839141349314, 0.2246113280595864, -0.05014415490527217, 0.07517418417740467, 0.07515114426172526, 0.22161298819500416, 0.23177203669120408, -0.4207013467508701, -0.09561073476074547, -0.21768134780578918, -0.12895706456408182, 0.18867409800310503, 0.08558360749502912, 0.09220598235954382, 0.4053727062343479, 0.48346229598620694, 0.41146738384100956, 0.477884610698463, 0.39531423071187954, 0.16381156597804705, -0.02073264165440067, -0.06535070869472391, 0.009768064819166228, 0.03817113727868315, 0.02294484237197476, 0.009943363213138021, -0.04085793791210996, 0.06785775707227139, 0.2501258353871787, 0.15872843129609512, 0.005879913578524063, 0.3086095622639866, 0.15019765542451108, 0.08124823885327678, 0.10346817635245856, -0.0165069750309094, -0.09295073356184262, -0.2881579906739539, -0.1942486123994003, 0.19003208966053634, 0.049105532854548495, -0.04630885700074683, 0.32758609602828914, 0.0563178660586733, 0.19541286346748232, 0.346195212872611, 0.30043054574843264, 0.036915225207169576, 0.0113150560995286, 0.05615903584519723, -0.05276798196850225, -0.013822847843626902, -0.037593934412544786, -0.01700175868129957, 0.06383884252308444, 0.160659791992321, 0.09980362491644292, -0.16008029048898073, -0.028316660941427638, 0.061365017186174646, 0.06175574460829344, 0.05952456845773915, 0.21712544297432096, -0.09938232007358987, -0.11176632071438508, -0.31715700609050335, 0.14000699019866117, 0.1829076015467868, 0.12080353338951343, -0.23885178361611256, 0.048828594937947355, 0.019835599515244218, 0.17964699042094268, 0.34119239887993497, 0.2788870725124029, 0.13218692602155876, 0.11174818810511966, 0.09550530136337784, -0.0007119136870426104, 0.020305116147712098, 0.041232536570873314, 0.034660610673791274, 0.05489066351219054, -0.061991593006410946, -0.1195789183140636, 0.026620604849857274, 0.21357423238464895, 0.039372235203653475, 0.07512986556991297, -0.04504178740597973, 0.013453284793165675, -0.025004014615593387, -0.1367782756317814, -0.2699017333546947, -0.047435451883351853, -0.13046638980748335, -0.0843182161241487, -0.15268786998176578, 0.200373580205836, 0.2157902172486247, 0.35484007579475835, 0.5207783837839446, 0.2978653657798493, 0.15233136648919715, 0.1926522284709833, 0.10760002364015582, -0.022609548352182443, -0.022139641933056838, -0.07771060865526372, 0.06549147616123317, 0.08600424121198576, 0.0009479123222474098, -0.13897260431945302, 0.1650135113550294, 0.1559203227679742, 0.07212914189462712, -0.2475234581497976, -0.12637672470540498, -0.03773331690052637, 0.2580331512407309, -0.132667198090721, -0.5194762857293637, -0.31081032886067445, -0.018837351840138697, -0.15366978853322738, -0.3229520288943177, 0.1391106038802458, 0.0653099794871661, 0.4330200030601677, 0.46850151039175447, 0.34932165292677186, 0.2535174221948303, 0.11552466512283505, -0.0166706544926491, 0.0043727772580009015, -0.0019906402656364335, -0.003660158243186236, -0.012429648310284879, 0.12836266185223005, 0.012632880179888204, -0.03438123779187703, 0.008331595294564344, -0.046858167886642585, -0.03621927822642283, 0.1788638793044827, 0.13677549134401534, 0.20157634308629058, 0.10070601603709682, -0.21306949989652949, -0.42956996954299986, -0.1824932108868132, 0.22760680624704252, -0.10813476857206533, 0.007339991982376115, 0.18455715165960443, 0.4139982680775069, 0.5292555006577528, 0.6716680686533749, 0.36195871366170906, 0.17468658726036979, 0.043688791717795224, -0.044225997694555846, 0.027985143817058175, -0.00973735801799678, -0.018379467698657573, -0.05949037660086768, 0.23048745832743084, 0.09646020831780018, -0.0634670467690313, 0.035933440500615574, -0.20578195633177146, -0.42126107280009867, -0.050524010333002425, 0.2198191328346322, 0.08363778791206702, 0.1327835554627561, -0.3543283815927616, -0.13163392895327033, -0.05824194206506098, -0.24786203690882758, -0.1385971530087597, -0.11908340905452355, 0.20846947562360657, 0.4243606827343819, 0.6055439753091509, 0.47993106837250266, 0.23699731573954455, 0.03937744224196417, -0.04525118536323095, 0.02917483180318526, -0.03666398386359432, -0.005014405920448747, 0.01794863538044003, 0.0509907854750379, 0.21844417254477683, 0.280227864732751, 0.08339133568009635, -0.025893472376077697, 0.04052939084034601, -0.16339564661075923, -0.11304398866426192, 0.20621887911622433, 0.14739139849741528, 0.1665695889776401, 0.20101219238654633, -0.09077874052123852, 0.0743134704802384, -0.13611117283154273, -0.3385785216460574, -0.1291919927219377, 0.017145529518303025, 0.5628792376153908, 0.6569609845153862, 0.33112232095795396, 0.20644677092850366, 0.08226489965124224, 0.03741972458401768, -0.019930997762183683, -0.0282192528847751, 0.10325244081097859, 0.024685252378850275, 0.06648628252426105, 0.039941801324512624, 0.1686592192490307, 0.18341194241556888, -0.07950532171135057, -0.2520572725740033, 0.02618691894817909, 0.1510602552263697, 0.17309368224385707, -0.03379417511098406, -0.1284962852466623, -0.3080681990280862, 0.05441186964011494, -0.09442371709262072, -0.29113278074258137, 0.08200308913638651, 0.15186625757050476, 0.46150237180400244, 0.555074623109275, 0.5705224688546814, 0.2975416196604858, 0.13851368855692786, 0.021104576383284324, 0.055653949716152645, 0.04855984511095293, -0.02630556237540824, 0.02287515819000401, 0.001516081092883911, 0.033787218543954875, -0.009610381041121045, 0.07703670209808085, 0.08500792137445833, -0.04481331253823429, -0.34719711762508937, 0.09032445213211034, -0.119207595546085, -0.19364087074030978, -0.08918510613650452, -0.28399611311606904, -0.253967827745379, 0.17183764409840976, 0.27334410832031003, -0.18838289503822642, 0.022920128721260705, 0.33745708922993123, 0.4586749573153774, 0.5362281505577827, 0.48744259023380676, 0.22918571822695102, 0.14725243131448057, 0.03188733693151785, -0.009215413499700748, -0.01095826478680661, 0.01293642918013944, -0.007672962387389772, -0.03202091208675664, -0.0009854150718065402, 0.05712068409971792, -0.03301219170649785, -0.1525219080805121, -0.26007505322070684, 0.1173011628574373, 0.01276957139978652, 0.05225461808000933, -0.07517324319212618, 0.014081082697692237, -0.4157472104363593, -0.2715246629071982, -0.2690460724908386, -0.06322458360918298, -0.14393670676666093, 0.29038445278015873, 0.6447100844224539, 0.556107417703207, 0.38142622281775573, 0.2669663065147773, 0.18333330369575496, 0.10667055775543172, 0.07943463509473166, 0.011523516801003575, 0.004730707792581474, 0.009828412241740267, 0.005883172123029285, 0.02161594423135101, 0.01148924705672926, -0.07001768221321598, 0.07238685279301328, -0.08801254439704415, 0.011997771083900068, -0.045568085292761296, -0.026552326406087356, -0.12087204821195378, 0.02511858586802469, 0.10378524670233477, -0.054915774884213925, -0.17613893744056142, -0.09238082096956989, 0.037643182323579716, 0.18730553637313846, 0.3824446904488673, 0.3936519198494936, 0.28893292165237466, 0.17477933984660177, 0.17415279389869423, 0.05637365985042143, 0.0499095535626839, 0.03607146888566653, -0.013805336741639338, 0.010057222645587423, 0.014588994273987256, -0.02415500142918844, 0.03769310444238213, -0.028719130613021733, -0.0005914426775152622, 0.03400969049484211, 0.05325057702060452, 0.08569367170581606, 0.1009422598837971, 0.07694526309080003, -0.008240417251068373, 0.2636049446334764, 0.10566831650813448, 0.07006723649165898, -0.10306787244106722, 0.20769365344605575, 0.5518535178787116, 0.5914919581350577, 0.38261089428465, 0.0947662343780538, 0.021576387954097827, 0.10085520216880509, -0.02823665974066477, -0.0147281525352614, 0.028737419116743695, -0.004020015258200237, -0.024517473739730043, -0.02547434385946361, -0.024275199302793614, -0.03705919490375636, -0.03863606964313032, 0.03755782922156682, -0.05269405845864228, 0.003990739465750022, 0.06169471500279436, 0.07844971770007915, 0.10003006890926272, 0.07815101645809719, 0.02196983121028064, 0.19822403277526854, 0.09589413713159858, -0.06605872065994833, -0.10659975225716291, 0.08577613525536552, 0.21337629492336208, -0.040168447420871924, 0.018145933636755224, 0.01258335784690879, 0.04136924769550232, 0.015084046430920766, -0.014258878522329974, 0.016693282994317334, -0.05435593708665944, 0.03368982150525112, 0.02204301789356846, -0.06831760068182356, -0.02950519684476497, -0.04023211098260842, 0.03855150725122041, 0.0037486190260995374, 0.020071005500291405, -0.016373264391574376, 0.03764798309312174, -0.03364705208678496, 0.012587079221357978, 0.036184321980883775, -0.011700924069038882, 0.03265209455339969, 0.008065765789453075, -0.01983207651499001, 0.0023449741509279738, 0.05130789695815989, 0.03460103835085125, 0.009280563408936104, 0.022274405754613986, 0.04286805828190037, -0.0037707917187143583, -0.020368040850216682, 0.023895164280146285, -0.04956422540557854, -0.01411150344327679, -0.01813499699552574, 0.011399223293127802, 0.020176268374943702, -0.06021601086360024], [0.001661731906599181, -0.026236710700168104, -0.013259021700269194, 0.012313559819733174, -0.0007114356215141207, 0.0279788738697478, -0.025731107979442083, 0.030077816398614683, -0.028871974386677594, 0.042814015148409615, 0.011254181631633905, 0.012868273546453821, -0.08530552485262426, 0.031019071917826557, -0.017396547740305877, 0.031309607551156846, -0.05048932247302706, -0.028947582684990685, -0.04313130227350666, -0.015404325542360741, -0.08508272293009954, -0.002583445319162279, -0.004204608608713349, -0.004553928233611217, -0.06510424603413725, -0.09148715275951999, -0.03656117216368306, -0.011071513555117308, -0.02772344171393112, -0.04322446534180382, -0.03091154088719525, -0.03110230897947891, 0.015415127698339913, -0.022931507764703898, -0.10255254812865087, -0.053636597005978025, -0.14705471913551438, -0.0872276496121455, 0.015006511372704373, -0.00605377682717319, -0.09313071655596976, -0.00955837361770211, -0.08774001222980574, -0.05770247163173592, 0.03129969541749766, -0.0031200891970270305, -0.005539887392889772, -0.035638670905264715, -0.03217867920072923, -0.04539827511784397, -0.0659698668455572, -0.02445265206286124, -0.021327153750180246, 0.02785906722400865, 0.00018513137903187967, -0.015615282960689994, 0.032730601819988485, 0.011465065342096957, 0.03539401278034545, -0.030609086722571087, 0.004327692946763158, -0.010418325282449853, 0.010101913117740615, -0.06203410663574151, -0.08537812674197028, -0.12339604917984182, -0.1478264166326453, -0.19286481067457562, -0.3449142687604919, -0.3375871308447535, -0.3057503939642063, -0.41133237190773636, -0.22820961576684393, -0.19542107864140548, -0.12816828144831385, -0.11433799618058563, -0.15064512366580787, -0.0820027813895421, -0.03186468208389037, -0.03878947661577117, -0.011979645244005986, 0.012280504104464848, 0.030680736908504543, 0.0017455479975169066, 0.050969851795707975, 0.07198933271243287, 0.013245917728135584, -0.053159688183474184, 0.0209972627790329, -0.07163880354352488, -0.15464588177019892, -0.07403365631109347, -0.11618984433518306, -0.2533419748172987, -0.2240556047087011, -0.11900314573745083, -0.18516258349874726, -0.2764839561733443, -0.34969422145564644, -0.12771572260171735, -0.28621469797479365, 0.04383692956172348, -0.11871274175989988, -0.2975707875706344, -0.10338006673130762, -0.07484713392207536, -0.08868703598114422, 0.01207119069468971, -0.08112289689409954, -0.009976359885207356, -0.06678669977503675, -0.0497495631897003, 0.016989282232910925, 0.008449721440362138, -0.04015768804204727, -0.05555271128445618, 0.005876744806746815, -0.04007617338284932, -0.021846664882447117, 0.016828454110295595, 0.1765934894568759, 0.1440607141051647, 0.053195488420520076, 0.23348972866473783, 0.13570179713390568, -0.20319742530236698, -0.09860969709771636, 0.23886664575505687, 0.09377542170548535, -0.08281510745204118, 0.10078092243712586, -0.02798261415748921, -0.010717625534571467, 0.20949108760077984, 0.265132905791374, 0.20036944203372561, 0.13115728193574752, -0.013621407933322314, -0.08249801890971194, 0.03172500467013747, -0.03326956406442773, -0.007712115108995947, 0.017954071443347368, 0.0678592722315786, -0.012082592911360823, 0.06322601022121015, 0.045110397893062884, 0.13329329373791007, 0.11290224735161732, 0.1796729635519161, 0.2719776298105709, 0.5860681243217202, 0.00971066966160977, -0.13187334407267223, 0.10820698385979212, 0.225247892529883, 0.1764071681865485, 0.09387183271524324, 0.3188391526042005, 0.29950586985883837, 0.22346918660789072, 0.253924407899664, 0.2909527660609548, 0.15811517803393688, 0.11271817693482818, 0.02076335067790751, -0.011080038924698275, -0.0377057949535652, -0.04908019246408348, 0.06759424171507167, -0.010242313664948323, 0.05476871809442058, 0.028741838343529617, -0.09656362773405261, -0.07971207947969172, -0.045634377370273475, 0.018452661311890557, -0.07716540201382892, 0.08761255895957046, 0.137834750169972, 0.12148730384459473, 0.0534965070022377, 0.1714712117856869, 0.050919890809864, 0.20263226954939942, 0.038694502807802726, 0.363296437514942, 0.32663458301775694, 0.2659196498357411, 0.3580528734494924, 0.35071533765824986, 0.29934042654243764, 0.12310597507412617, 0.07564557657588125, 0.004598528841750172, -0.02269122671805358, 0.01730941053216327, 0.0027262218369727455, -0.016347235055884715, -0.028300365463844127, -0.19391684645464488, -0.1853179183930707, -0.05641596874816509, -0.15462466588990928, 0.005641973017993909, -0.20615568467006573, -0.08713162985224941, 0.07208784976724335, 0.09023822979594953, 0.15386641810436574, 0.17138098006167524, -0.18548344304626002, 0.16566813192599758, -0.022992654985429788, 0.003677608808161146, 0.2931688392218756, 0.05813895553442786, 0.14249110403176202, 0.3702622806659833, 0.3290092411879869, 0.14213884305601274, 0.111511115538888, 0.05451052035870085, -0.017281075479915215, 0.0055808803120787846, 0.0007787018643605596, -0.0708986732802136, -0.03549577578740214, -0.13678479942989943, -0.23507923584781176, -0.0034483500961341187, -0.22546130490425598, -0.12017481262563397, 0.08458455165390069, 0.3370597500799255, 0.2769690018061713, 0.1923483154885591, 0.15106499450816754, -0.025533901021295012, -0.0951196302848063, 0.06180415854918643, 0.31804607489301334, 0.3155317728136333, 0.2550757125152567, -0.01074995599607371, 0.19925247667867213, 0.185823953218962, 0.24238560080785682, 0.2957705787350667, 0.15400714142007596, 0.16910819764454468, 0.004030525891737316, 0.03808076761741412, 0.028052149731186235, -0.06773343780209337, 0.07551910656108522, -0.01781722570755715, -0.014556140787658475, 0.21527453132394497, 0.10295532051799035, 0.03106427934330772, 0.35725972426811353, 0.3799396181718524, 0.5372926148954723, 0.2782181551962704, 0.12522636833505774, -0.15517371776259295, 0.031042376724045157, 0.05125469885013915, 0.17761690367172597, 0.20842473154264485, 0.23431709861826375, -0.0668586564672094, -0.029799341973934367, 0.048587812499591876, 0.09843516115359667, 0.0612494129260563, 0.15386370771061236, 0.025757074260221034, -0.008877096178151562, -0.035089187048542865, 0.043749523273485004, -0.007403416285754395, 0.10388559058379127, -0.10579255839923354, 0.04883708828178237, 0.16976172961057012, 0.10272407194119422, -0.021830018942274616, 0.2181260723371094, 0.08719710797110349, 0.5162625202378821, 0.10737324273540891, 0.022433852097373773, 0.3790598428110261, 0.016058319528736015, -0.0867020119951609, -0.06841690316825244, 0.2309011039911449, 0.08610470721698023, 0.07019818833666994, 0.03540631932858215, 0.03937189204677369, 0.024188565561741402, -0.06859667667047255, 0.23886603382829077, 0.09081010969014996, -0.007429549569990253, -0.04716625809697428, -0.04753227890449692, 0.0027685866975589615, -0.11993220077357568, -0.2247560020033316, -0.10050929407467232, -0.032979828155210875, -0.07425604321967752, 0.02969430275352268, -0.23861439843033125, -0.0822658299341432, 0.1980363054253124, 0.021276877743713996, 0.16947049982089488, 0.022640639526396958, -0.02495473649293584, -0.18458087713945198, 0.3895995408345207, 0.28995013510365275, 0.14202272302586216, 0.20383309010205586, 0.04923377778684237, 0.0915376421125695, -0.04572602068913555, -0.0968355143870578, 0.11202564893028984, 0.042998802065551636, 0.036796268068908546, -0.014136736086416113, -0.00584784192517944, -0.047107814324371174, -0.1995735717826728, -0.17410956680034315, -0.02500116443672266, 0.023643392197368066, -0.3277159656545216, -0.15314649118521906, -0.20338807533868014, 0.0027938846303433335, -0.18725023179502162, -0.15264708327864507, 0.06278939232232432, -0.12573558000984122, -0.28052776458910916, -0.11979379109609849, 0.2832968241745044, 0.05463331130903932, 0.0717141051019986, 0.13187398196219474, -0.006715484086879265, -0.1506471127314283, -0.2468326835970673, -0.17976675358852834, 0.03864263164797201, 0.16487380999565335, -0.015153877281040472, 0.006932543534576471, 0.04494197864061634, -0.04621141740881011, -0.13101766447584698, -0.11025685450108559, -0.0863446801533338, -0.1395734492576844, 0.11002905395584424, -0.04262548061006819, -0.01673291368414416, 0.23352958353363895, -0.05201480971066163, 0.10462399229088351, 0.34920882017915633, 0.0033348092597795223, 0.04849658284930843, -0.1266603404768248, 0.14912256611541452, -0.14132493701831803, -0.5131493289465165, -0.11496369345094497, -0.26118979155629907, -0.31409527456329, -0.5384603467113456, -0.2901639520626016, -0.019022509679462726, 0.055059190365141224, 0.017469089938462884, 0.00989909016285301, -0.020743624130241427, 0.0016038283854061224, 0.02920543004866374, 0.12776134599551614, -0.1791800629352874, -0.07971580371987312, 0.0712650262975636, -0.022831936703346697, 0.1960861479856817, 0.16504933478610756, -0.24313919350391605, 0.11889555217662716, 0.09347195716064366, -0.38603904174015025, 0.015423641493243982, 0.07561389467414177, -0.09512855723655352, -0.17522261931800637, -0.16991535487123344, -0.2868351314991088, -0.22201391533450568, -0.5051773311121042, -0.589846503088287, -0.1332212360546212, -0.027851434639024685, -0.033221676084805675, -0.020914640504892546, 0.041886672759931576, 0.019982878218837, -0.028148012675698456, 0.004723771434392112, 0.24398999503501542, 0.1286475487549993, -0.05744129945968817, -0.12566474646801834, 0.20643095337758915, 0.4153883527819638, 0.27316774610993716, -0.021258316106060347, 0.18092927535864683, -0.23177546849076203, -0.6883191955359927, -0.24905724491217796, 0.22990885147925652, -0.0011448493684870283, -0.3454257558624278, 0.0154338136516406, -0.08220200600239727, -0.047457834526426844, -0.35264382834407515, -0.2345805333591652, -0.0068118366666149776, -0.20881148609356484, 0.05125122659693737, -0.02059069699309475, 0.014024176864781501, -0.05781573918247047, 0.022025869400843414, 0.0174688172912387, 0.15629073832552837, -0.03439928585143256, -0.019793906333842443, -0.006203688543366041, 0.06543431025375071, 0.22845886254824568, 0.2303581527221004, 0.12733668800938813, 0.09513401409921073, -0.2577257151555384, -0.3639584351957145, -0.15717444785599338, -0.13011996137239948, 0.07418477253470264, 0.18635884666655178, 0.1195143159893537, 0.0013670918965042807, 0.03505952702760196, -0.01564057593987465, 0.04519222432150207, -0.02782782141693378, -0.12867645898786642, -0.04627768109924991, -0.007740939438610508, -0.009555480476935677, -0.009571720248139412, -0.05568469379539084, 0.041107717920128045, 0.14341077274352595, 0.031115277931762816, 0.04386777492993229, 0.1588859013335709, 0.5339568816371641, 0.6602586684015602, 0.14434186315630984, 0.057196685379307374, -0.03675436662859289, -0.26211256863932253, -0.0785271376496759, 0.13015601463788545, -0.07051117488504985, -0.16075288442024943, 0.00010521856381722348, -0.03909675705602399, 0.0723745534002136, 0.12636058654597063, -0.1983233406264276, 0.1909192382404355, -0.012939806533930604, -0.007594134520833069, 0.0010824786147751561, 0.01457702094231237, 0.07167911073238578, -0.0016768945370947215, -0.04251357870976285, 0.06233394460996876, 0.1529141103687685, 0.16354559119800272, 0.3625776568150104, 0.11782680118056439, 0.3113158747044175, 0.5239082059244733, 0.34237253544566515, 0.07955893040923889, -0.5342932803772098, -0.5119550720357472, -0.4557879735560825, -0.5472284084971474, -0.05892989050605736, -0.13345281428748423, -0.1654208588586615, -0.010295219828801721, -0.12543866625093714, 0.21160321883175415, 0.0917880321334261, 0.1476202860695987, 0.18135649049252903, 0.05575683620242814, 0.02885882813133503, 0.023147480147802414, 0.06057060958635142, -0.04062321462310262, -0.024480132007696664, 0.09097688969619344, 0.1821319090019751, 0.21990097069613265, 0.3092168548267639, 0.280253896867242, 0.3962742643823718, 0.33175749293581475, 0.13808454786110122, -0.5223241594399991, -0.5205852549574653, -0.7012809583620104, -0.2518132294760608, -0.2780801560164244, 0.22612284360186002, -0.007129525154486866, -0.0184889386689094, -0.03100749771569568, -0.23837055039002786, 0.157005229029456, 0.2870464085939898, 0.26619651261873956, 0.26337489159499017, 0.08379924822789224, 0.006205317782353107, -0.06995420244146362, -0.027825131380250057, 0.007761496341566527, -0.015130098513457734, 0.05891912030416922, 0.13243933838823704, 0.3131959761204524, 0.3118074796382758, 0.3429868399128429, 0.4358883831509619, 0.5394545306065613, -0.3100731337445587, -0.7279649542637473, -0.7258260681623154, -0.30347501191361037, -0.19228617210441876, -0.12362543922733443, 0.17072126909955182, -0.3565415587624536, -0.2794414264097865, -0.1706491884689965, 0.07015516177309646, 0.28486752067723264, 0.4164061160473408, 0.14797297681128543, 0.14279212095027669, 0.04046256881136837, 0.014557757657041905, 0.01979125319194429, -0.03130923630814719, 0.016339687269749107, 0.039084229050079924, 0.02866188117570657, 0.26677213596955, 0.376693409741687, 0.36209297163111465, 0.5688973483264095, 0.35791609040594413, 0.3983716325198694, -0.4264893990482253, -0.33046155815203865, -0.21056089686028362, -0.005338844387606013, -0.1875159009360952, -0.41128818099995695, -0.018173254983772355, -0.028321956435512285, -0.05956247927185486, 0.0499486024182563, 0.13638720996721285, 0.2601307742110282, 0.2233203880772558, 0.176529033392683, 0.13057215009411835, -0.021050146173565314, 0.011404732022133957, -0.010164379278642019, 0.022262287832751165, 0.023123609638516646, 0.03796141111317794, 0.07246792615515096, 0.08631981218353242, 0.1837019251687496, 0.39193433246887993, 0.4216737430494894, 0.3343831315239923, 0.3967421133935982, 0.09246409884208644, 0.19879248403765631, 0.10694729351599817, -0.0852812227012735, -0.2332942943878655, -0.31104111079288077, -0.14589849668983504, -0.07216409314405081, -0.08927667475705393, 0.26472269140986926, 0.26393872611523767, 0.052503713020210716, 0.31319237106449643, 0.2267736134141213, 0.07810774847246703, -0.014918514007977527, -0.0728951321583163, 0.0021931651485141983, -0.04473537964586894, -0.0825428095117418, 0.03229975604916382, 0.00855949066769838, 0.10092976159126642, 0.10832814796168788, 0.11924555553743817, 0.30726319731223795, 0.458729249114035, 0.0778282269518855, 0.18989547277138794, 0.2586503470239073, 0.11162374586743096, -0.025528990793969395, -0.19004932058620994, -0.26475876869027803, -0.2171073271714041, -0.07690899515066839, 0.08561825243721077, 0.0345093072499302, 0.0178667720680997, 0.07460824242104908, 0.13903084995868314, 0.05070048397067545, 0.1472358464485404, 0.06887287411808152, -0.049984146134593135, -0.06509218339153285, -0.08043225959730373, -0.039151786102801955, -0.009469840828925366, 0.07810767678760432, 0.03694983328597605, 0.05008726506391458, 0.06525564671952358, 0.41173630950913537, 0.4425684875114138, 0.320472944074859, 0.3515867412222002, 0.20837898446579275, -0.11937224899424684, -0.013826512038731621, 0.01853845279539366, 0.04136533331242743, -0.133502596712738, 0.13254866280489155, 0.05489851793651655, -0.275857418846591, -0.030351270201857128, 0.015537639552509197, 0.0394033871770169, 0.06398030563737134, -0.008727105761492484, -0.026630555605084313, 0.08757747601274236, -0.03885397216323139, 0.0031776843622690894, -0.007334781086376718, -0.0045003309239222, -0.026485065895558393, -0.008802435961198129, 0.01988614465608566, 0.005820517534852781, 0.1328847780291564, 0.18908089069353254, 0.231973354203922, 0.23346831112410926, 0.17600142424496232, 0.2589205806321118, 0.2318319019581442, 0.16104326610638892, 0.1526355089986102, -0.11437000887437213, 0.08052016691672999, 0.0007460125551383422, 0.16884832125301602, 0.07419038897177332, 0.04208239267675937, -0.010156245899476233, 0.02822477302291151, 0.028896406081849804, 0.030501158360084414, 0.054983845183574645, -0.036158391874101574, -0.025994799462321534, -0.03081358540005113, -0.02346984625437578, 0.03758474241134412, 0.032878224417220846, 0.013980560311112132, 0.08332747631554818, 0.07491069832235037, 0.0310176412360198, 0.13549248530939612, 0.10154554398423937, 0.08712010476392124, 0.1812654442671524, 0.17417951747190508, 0.22320896660610312, 0.04038999056895724, 0.13607135885845822, 0.171302396739948, 0.09636754603229714, 0.09699350887773077, 0.13326970303164098, 0.014465474923568731, 0.02704289912680684, 0.003966222106540443, 0.013541507884370769, 0.020448881990521372, 0.04271506418328826, 0.02619954471743822, -0.013421504467087406, -0.018202564666870837, -0.0016189579461793973, 0.03796134083500567, 0.06587661013649583, 0.02646108994829781, -0.08981275918137989, -0.05045700815949139, 0.01704735566582619, -0.01637583455603601, 0.0015365430883830158, 0.04819212342914131, 0.09435380025023915, 0.043304229530717504, 0.05760445168176539, 0.019420456503892132, 0.012912298073395148, -0.01285145918664254, -0.03921853627275501, 0.011596941620118179, -0.021298362458876945, -0.013196010565938809, -0.015762195896062852, -0.049848997069761175, 0.05273526668965956, 0.055523239611318845, -0.034018454906473664, -0.001422867719976422], [-0.017899324291391537, 0.020516162135178862, 0.07795686600909424, 0.07715417471331394, 0.015734013550517886, -0.031189187533455672, 0.006014322534482308, -0.010908586788971412, 0.06551258909155507, 0.017636527203755324, 0.052269510437468115, 0.047126031900394105, 0.026382000024264652, 0.024605615048118326, -0.07103927693503358, -0.02896007129486581, -0.0402669563112197, 0.001304836212820289, -0.0020655494135580995, -0.03969942775527938, 0.036741414132297985, 0.05995464274010789, -0.006242556648379507, -0.07202858060168303, -0.005038464347619538, 0.03321919954237532, -0.008932373336761218, 0.014366080404454478, -0.002757945952115846, 0.029107028595563748, -0.0021541166820943465, -0.014138262964884756, 0.01506366927601639, 0.014232246069902994, 0.0034569737965236057, -0.013251567513317618, 0.028298207740042675, 0.036710496712484615, 0.034185450622035145, 0.017551044729834358, -0.018725814707596107, 0.09544195732159157, -0.0001737514465709555, -0.021538577944211715, 0.042797593591270756, 0.0309777820403589, 0.04813625476096749, 0.016881453558902026, 0.021330582928360677, 0.014558713806799045, -0.020918050396842826, -0.053386755590126525, 0.0403276502310189, -0.015375821042541345, 0.04524987252711001, -0.03554205693842152, 0.019967490702411442, -0.027572992999570133, 0.004562084259564309, 0.04382316033727056, -0.016755414000486173, 0.008570651672605867, 0.02809180747981869, 0.01907170382118187, -0.0361902583954112, -0.042078382849288505, -0.022405291973060838, -0.012896035268931289, -0.00914269048277525, -0.06670079690505379, -0.09829617324025594, -0.08277391067462642, -0.01493194522824284, -0.02810297192026346, -0.026521082067663224, 0.018917708913446043, 0.014542450820071509, 0.04442960857477839, -0.040744771205011666, -0.039568829537028095, -0.05353676395219327, -0.002201156951506401, -0.009091110088630375, -0.015003701477508844, 0.03554899074836758, 0.0020248465660822556, 0.04394964454303315, 0.017835265019824655, -0.019479506899944318, -0.01003290768077932, -0.15010906864604734, -0.09926972868009629, -0.08359082445281375, -0.08030538371559175, 0.02720695879513134, 0.021615849202485243, -0.005553415268313729, -0.05962930457809015, 0.027745645159106238, 0.11414568556077755, 0.0726167342905204, 0.027046711551731155, -0.019753064242179093, -0.07418825863521855, -0.047573450562540365, 0.02879489139130343, -0.012265763065900702, 0.07367109837755483, 0.054681056412986664, -0.023733604025105777, 0.04129123392935106, 0.023847472033879973, -0.02507969344511327, 0.04539857143094452, -0.013604088828753826, 0.00693676117648504, 0.07181096045362778, -0.07352479642100021, -0.0018599258385403681, -0.03893125276882571, -0.11341474623249492, -0.12182039048331351, -0.1343932992055347, 0.05019623009633522, 0.08303849163059199, 0.07094286501892222, 0.061072513962115244, 0.22988488598536908, 0.13405503372520997, 0.21668347616233277, 0.1146533614386781, 0.22182931180176482, 0.0533955188874145, -0.14152538938219555, 0.13551048838363738, 0.12414658114470717, -0.0902538066391663, -0.12938129148594157, -0.035631643999160745, 0.012759694253612737, 0.009997537977653142, 0.0742937656104459, -0.08488431310384283, 0.004341628269851346, -0.06673627514443028, -0.04554630811567345, 0.0722213051687666, 0.01715781259570789, 0.24768322259435877, -0.08825188183921999, -0.1320736601064005, -0.02725915019512876, -0.024569587515996392, -0.06464064334786886, 0.041775936409600894, 0.12954190692540551, 0.36568624282703793, 0.40856177784386016, 0.39568561422974396, 0.35572848649241406, 0.0745473896158463, 0.16712014706203057, -0.015627779713520376, -0.03933952399615556, -0.13504171411435462, -0.12145938929652836, -0.007442159986254168, 0.03279166624585952, -0.005573438081441548, -0.0818781687285994, -0.02589417813900032, 0.0008181549994015022, -0.14932567419631734, -0.03395671471646932, 0.09565021758860537, 0.09373188774026726, -0.2306196500710202, -0.17254197935986623, -0.09841331580091013, 0.050035841584643026, 0.0007157360261837502, -0.07098037678730645, -0.11904954720960857, 0.0682218702881068, 0.106111545473795, 0.18091502251539832, 0.48268495348069235, 0.2541163173064526, -0.09499360805411518, 0.2728169362942961, 0.24852634979040183, -0.013732452492089254, -0.3012235238304759, -0.1228431341658404, 0.0035592807877724533, -0.03261106811295519, 0.028603475262017303, -0.01799203314341944, -0.04667244219998365, -0.020514816871659045, -0.07495394647258975, 0.0984331178912323, 0.26080334298630364, -0.02261764658755596, -0.5068887390134869, -0.08224944423011366, 0.13325810246826922, 0.09446723794900765, -0.050287968640734995, -0.05423522090269371, -0.23306074346521613, -0.17962735328253748, -0.10985407820874661, 0.36370571227765386, 0.4401084279125686, 0.254545269634468, -0.09132452706681238, 0.13373951558069797, 0.18869885233954906, 0.17694682738096282, -0.0018080337540281165, -0.13634405199812438, -0.08265970481313623, 0.0076014796000699585, 0.0600426087707285, -0.046369202502324916, -0.03928982748575675, -0.019327213721625068, -0.06353537826738577, -0.05980592556635828, 0.1775076850486904, -0.05892595089403928, -0.12029417163733118, 0.1708459006145669, 0.10206890640870389, -0.0775388052158231, -0.16355720178213626, -0.30252919381262106, -0.2683106416791494, -0.0792781711353993, 0.28880947809017443, 0.6313819607900018, 0.41889709251604806, 0.06065752582774186, -0.08992357558582459, -0.07885272698457031, 0.06509726484457816, 0.267398466922419, -0.11053132357768745, -0.258073361588155, -0.11380276657781913, -0.01785444195338585, -0.0719430445709078, 0.004300536112011018, -0.0525098485933291, -0.008918112558151194, -0.1000085139133443, -0.1415267819205306, -0.0552334151192457, -0.1257849117647144, -0.3350966207398389, -0.1432846612853644, -0.01862376529324576, -0.23007198395437642, -0.19195100866078058, 0.03766040323767961, -0.4881262648205002, -0.18851599179446601, 0.013612607634428148, 0.06383662220372946, 0.8419336885228157, 0.7976569024935525, 0.42187724085576844, 0.06548329104472098, 0.05887519812097468, 0.3671833562389565, 0.033945564915640235, -0.304138008253418, -0.12891746341285532, -0.01231075026723085, -0.0320391919766625, -0.028273417947284944, -0.009039986080549615, -0.10251980197090879, -0.18155518070131324, -0.22606214111686943, -0.19636742661686662, -0.3160980646231556, -0.45782251387752865, -0.3714471553199926, -0.3575776369349509, 0.005115843337221493, 0.14441850651726504, -0.2998281137064076, -0.19163617803507219, -0.23930415967391958, -0.23872675733653914, -0.0868031651015908, 0.31193320894023135, 0.34985440962805087, 0.2923520960545566, 0.12082996889766152, 0.2223923551957845, 0.17595209585866323, -0.16268168517126372, -0.2277635045399649, -0.11200582291408769, -0.007262059987955257, -0.006701849550946999, -0.01845690477778141, -0.030472618600327253, -0.09127369780232314, -0.2903622323556314, -0.3063036516649583, -0.20867956634461246, -0.03874380332994482, 0.035222359874729936, -0.15330901941951566, 0.015354584656325292, 0.05725889156407566, -0.08385117101820387, -0.08428109556937682, -0.005592733314838937, -0.2233298532839174, -0.38193257069330955, -0.5512707818559646, -0.09134310250251247, 0.06643411955259797, 0.11823813845062858, 0.0634662870642948, 0.267679050379387, 0.055813025402176496, -0.10389422906913062, -0.07818868180255358, -0.08855402486772751, 0.012947329561921635, 0.0546754201863591, -0.00011948416366263378, -0.011733666089575929, -0.07827926252146773, -0.17879947433075385, -0.15605438062521731, -0.008649954085472627, -0.09650322289880221, 0.4337896732557512, 0.2803391194628742, 0.11326749574190582, 0.13908546237177802, 0.0032914274016603417, 0.05642081243308745, -0.14020133892406267, -0.25168234325977346, -0.2841013683265369, -0.37692423495082944, -0.12637079828730205, 0.0530667196630842, 0.031344104882308925, -0.013459889963296228, 0.23041660434339525, 0.40529887279681726, 0.32547890660257645, 0.0654784081072968, -0.0378288685827874, -0.004968440222067075, 0.04195986416822891, -0.006297680273445122, -0.0045995812254567385, -0.00826635538330806, -0.09537289033852082, -0.0871944489928134, 0.17590012641710098, 0.18298718424373397, 0.3254449807874335, 0.41531042563725873, 0.4830008535542408, -0.01837486168600406, -0.10225557018819344, -0.1144022818430775, -0.21384502635217556, -0.23403347486103757, -0.11625118360934233, -0.2438569338476423, -0.2299952339777056, -0.21780374991579432, 0.05704927229959257, -0.17511542193833898, 0.038901719819287195, 0.19187858522909176, 0.26279450979914554, 0.04291773967392225, -0.002030604325174362, 0.018574866085189934, 0.024995526704130612, 0.0443237553403976, -0.06719271771124521, -0.008502259179184223, 0.07224338275339319, 0.2982347118007068, 0.4274941360908272, 0.4114121229329741, 0.21639127689434723, 0.09045914103761145, -0.1640230709603445, -0.09911192653454154, 0.023220360713457313, -0.1304321791895338, -0.13719711437518278, 0.06429039450286705, -0.08900433659585648, -0.09517431969903822, -0.09807817585316593, -0.1506241862183249, 0.029433926000333024, 0.10897834095878742, 0.15072600774843692, -0.10302099857678633, -0.160168781333529, -0.08260400742854655, 0.03892153652623029, -0.013831559419096954, 0.0420918227564991, 0.0471856867908479, -0.028816986179859245, -0.004630598798994243, 0.16125544980611037, 0.38283181084597856, 0.022836536521836624, 0.23352581077282053, 0.22651655697282683, -0.02937086801934391, -0.13243139723996702, -0.3315563007291366, -0.0797754278334201, -0.06657208793071609, -0.18621162153925086, -0.21833726846253612, -0.1924624681211656, -0.12261073402417175, 0.13951790471265063, -0.22833663811186322, -0.05319557427553544, 0.09413658325537581, 0.1275430638330553, -0.11991414640072717, -0.19838428987362378, -0.07062502632191285, -0.01626360867193912, -0.0023422548727845115, -0.03281547709973854, -0.03522936043058228, -0.027365722718821303, -0.10428722880101637, 0.21057293971132987, 0.030726417607417247, 0.007598097486611113, -0.05206363172707878, 0.08408120273010172, 0.24128506859341955, -0.35834758988675336, -0.3901702246318454, -0.11178751346278966, 0.16042006517429885, -0.1925713696623325, -0.38543273752904056, -0.2002610642002189, 0.13698968333214706, 0.07329798950756855, -0.07597682230883729, 0.054511720534860565, 0.04035351521174102, -0.00031959842968011206, -0.26913562405890246, -0.354911163731087, -0.02596870657988529, 0.010361394348722075, 0.04491034363549897, 0.055608298790035274, 0.019525547297039973, -0.01868693320834093, -0.06739312869169134, -0.03219138344068885, 0.11356953579678554, 0.14024021869503703, 0.09479763285563511, 0.19567437836700707, 0.0649938102553066, -0.1241336141089325, -0.19777024084706152, -0.2947072029625813, -0.18455363030233693, -0.443298527472374, -0.4015185629635725, 0.022548047246676875, -0.078747171871919, -0.17704553631293252, -0.30057970571291615, -0.2246485595688895, -0.16971271689874423, -0.0022874742629629325, -0.16028291231806494, -0.11262815803561448, 0.051249043027120945, 0.03259136876389381, 0.05446249997335181, -0.03722467092558153, -0.017735672960907136, -0.05288847104534199, -0.23537190499201527, 0.0009604784252876459, 0.21491798330155779, 0.11934250583027049, 0.013506914941998304, 0.2519995397093669, 0.34351964726783196, 0.08441668766325879, -0.3968231329452428, -0.45981476060332377, -0.4854789894037113, -0.15026550507292255, -0.20516641211101286, 0.05240784877426762, -0.011734660520993463, -0.13878049843576493, -0.30145167717608345, -0.10690198440103119, -0.25550742495793155, 0.10386003299229359, -0.16807316390209806, -0.14249897006675802, -0.045972098709272734, -0.015555271580763617, 0.020339550372534338, 0.011754759129120558, -0.03451824380361863, -0.03961987346161711, -0.23087133035642862, -0.2815089145869057, -0.10618931686912443, 0.07581571572535335, 0.29282739368816874, 0.25492085725755265, 0.44979615466105966, 0.01880009651742805, -0.4003221289543453, -0.25802990052140884, -0.4751566785146637, -0.31262240259306046, -0.3057575030546024, -0.0351223745560399, 0.026138089255745182, -0.3908393478157815, -0.3095958453890249, -0.15862654869572582, 0.04060653703565132, 0.21022392079534627, -0.012414526751893017, -0.04841999369359505, -0.04759857827329951, -0.000601255918335504, -0.06798695524530086, -0.06556490154730739, -0.036617880524302406, 0.00566872264624212, -0.06923538954870194, -0.07620936778039314, 0.17301656445628244, -0.014075368760238592, 0.18354651335593444, 0.09717114811252721, 0.3962128938679816, 0.5682162496023164, -0.10284546116689854, -0.16382152204665437, -0.2606834224588836, -0.3233346752982228, -0.011922542736716947, 0.24881680351238364, 0.022725655709459357, -0.31462978124026697, 0.18163153886193742, -0.014832206967388331, 0.10310644587491341, -0.05263430460768438, -0.017325371193412667, -0.033933121088089095, 0.015241472781927756, 0.02181946707601029, -0.034060028015417076, 0.006854744912778263, 0.03952215622860313, -0.04185721494140871, -0.04169734946687867, -0.1530781195625584, 0.05657606913967156, 0.02787112377612469, -0.20077766200441763, 0.004774326914857554, 0.33419395158162346, 0.5111431722017605, -0.1382022744605024, -0.42242187009127313, -0.21505174966857854, -0.49490791111122995, -0.03780052745441574, 0.35922513049947974, 0.21722727926676194, 0.0501740233983105, 0.07651847596258458, 0.04547606175476093, 0.12397668605046418, 0.3066873792358761, 0.05677949339792213, 0.12081249703285911, 0.05289720689609717, 0.008659267280616263, 0.05709839958571263, 0.0402720579938444, -0.015640473914122942, 0.05306032422920131, 0.0385304193097831, -0.05329835375808071, 0.09861558213998435, 0.0192797429174355, 0.08084400202282933, 0.38122655522177956, 0.38934533207915606, 0.3169844327634085, 0.18549400976052488, 0.10799997222970723, -0.1780556723400298, -0.40949045422936137, -0.21710240689351412, -0.08786999356976218, 0.334894674547232, 0.24049102226873115, 0.0001831529802832131, 0.18041874986274467, 0.1894932479546338, 0.03775700133936035, 0.14521994016264234, 0.05273905435801962, 0.0010204623968650566, 0.039268060697267265, 0.04311500268989909, 0.025329187218375463, 0.0001484420882037255, -0.06297087817936756, -0.02464090020781223, -0.005623013300726015, 0.13980941026232527, 0.08062377833488485, 0.30284112254031825, 0.17178488726937605, 0.41351606323705314, 0.33434100491715163, 0.13689386996487293, -0.03662946096536832, -0.21405506228551152, -0.30128266682676114, -0.12340281241362615, 0.10764795032280283, 0.14610122827253694, -0.17581731789603208, -0.07882935970797073, 0.048121434347838846, 0.0677379239785745, 0.07947411957455199, 0.05146442993274289, 0.010486978077788447, -0.04180277125249199, -0.03919639356966535, 0.015298226255197566, -0.018715276424763422, -0.04717204977190325, 0.013219109661663068, -0.06683176313075159, 0.08141664833846028, 0.14882573126407042, 0.04661805621276588, 0.12756985473114177, 0.08313685745914877, 0.3152531452283433, 0.2496246228832955, 0.03504089830619708, 0.014665155432049954, -0.16654823643218064, -0.2584076448827813, -0.1384830817335886, -0.01203595212022026, -0.17317508579867713, 0.015847260188825128, -0.17286346672439223, -0.22902941610559996, -0.027950446744849363, 0.05159874271580545, -0.09795173489405079, -0.034600612263894326, -0.04419749681050737, 0.02078278756154701, 0.02052677179053686, 0.03167218620743062, -0.01898208599584277, -0.06539959158735914, -0.10966277928862642, 0.02139081408147968, 0.08280662234213854, 0.03342149439208272, 0.13767795343268363, 0.1442671475265119, 0.08518877058969922, 0.08510753625929823, -0.07804981458114248, -0.03381215067437685, -0.14555896129436072, -0.1942698880053114, -0.1128527138359325, -0.028708200653588468, -0.10019031528664382, -0.08933022768892078, -0.09260834832632632, -0.013861052181830934, -0.02940969463696859, 