{"weights": [[[-0.0008457500742953032, -0.028526591905762483, 0.0646900036562307, 0.0032387264636122653, 0.017091237373178667, -0.006727680195583047, -0.04885771335519607, -0.02580103907734067, -0.03836761976491275, 0.00570876882983056, -0.022392332984974696, -0.034212743906432294, 0.056464095979057626, 0.0500304186034832, 0.01380839771666471, 0.015374849944511751, 0.04842028564849497, 0.020294061624104222, 0.0027234301783259896, 0.012160063309958636, -0.013344344248889325, 4.362038772906606e-05, -0.03476679124854698, 0.001702719597459593, 0.04951338039297116, -0.01139622721851305, 0.006484847615429916, 0.06145261069975466, 0.0015933123940193438, -0.00432076758733684, 0.007128164265813328, 0.013972788741573554, 0.04615764626660423, -0.015238521283765976, -0.005979019969577345, 0.0016999588318670931, 0.017220967505111033, 0.010554838473521028, -0.04377877304839861, -0.041412027698979795, -0.029572109772235084, -0.04684673908910405, -0.008732705946745255, -0.04702579923554397, 0.008523305084178808, 0.009439514948733711, 0.031192411118246405, 0.02295046018726417, 0.034818924945696994, -0.10285261152934078, -0.05405969124268013, 0.039390549814926505, -0.03501924794805585, -0.057069692272131954, 0.024406875315758525, 0.01595395718525394, -0.01288698342315529, -0.0126764806874026, -0.02603693715638236, 0.015227168341644533, 0.02935455965232041, -0.002020240386369196, 0.0515717319716775, 0.008985055451798065, 0.03822090964586737, 0.055976614811286796, 0.04155739285210603, 0.21412701848167146, 0.1335339221012607, 0.05319274423397947, 0.06786948969377876, -0.28399567744388443, -0.15393983905248282, -0.15282984614201722, -0.06555050532111784, 0.0686629309778155, 0.010092227295612767, 0.03391843737224844, -0.042877261064160024, -0.055305727511341954, -0.0325621111476554, -0.04178282132197233, 0.04179378707229486, -0.024038292049017192, 0.0232840824375941, -0.02563396290351228, -0.04518827405938292, 0.07526812787307567, -0.03763919310129858, -0.05142290172959886, 0.017449831903027024, -0.00029960029145701934, 0.08944665063304763, 0.20559244216963946, 0.15094928197733246, 0.1050006034625046, 0.06203585421922694, 0.15530658715241025, 0.08303344565230454, -0.35469327125604155, -0.05297275554879295, -0.1921724778358379, -0.15868489757533916, 0.1842235975606362, -0.037681921880174545, -0.20969210714361539, 0.1209318187211529, 0.08139752926739593, 0.14197545474585832, 0.025823782608784582, 0.11851048424515158, 0.045940629311303376, -0.04123079030019681, -0.02875725686301706, -0.005243226479951097, -0.05626151743736818, 0.008739903904271727, -0.004276107103745987, 0.13581856941154694, 0.19815473714604, 0.4751183917663402, 0.9080424352762919, 0.9133165749610609, 0.09250937804990007, 0.39310509927338255, 0.14647133800082804, -0.34940414120188273, -0.4845178361491417, -0.46638772778732557, -0.015675285311464057, -0.20320149294693166, 0.02464612562231679, -0.08019602395318264, -0.3330632763873566, -0.2791764023560353, 0.2498358993472886, 0.24208962483330432, 0.19786689723746273, -0.08330544640041296, -0.05519076679844991, -0.027158264438021492, 0.0407055010915679, -0.013791230755629888, -0.04904275224381727, -0.00784119057632173, 0.10836290996076091, 0.15382354687394278, 0.31065129816345916, 0.7953248215119653, 0.9485183631660865, 0.416199986269609, -0.5413974715474785, -0.37579698464038525, -0.45178650786948965, 0.4159523390540452, 0.623295630967872, 0.05791747214569795, -0.04914036461928933, 0.002490981174957099, -0.12221385473577602, 0.5614826886856621, -0.172514476381824, -0.5915260640179468, 0.4223200157556491, -0.16741823972808578, -0.1974024292702388, -0.08349859809821816, 0.05216884844304914, -0.001777303518734628, -0.09351643553534128, 0.05606583004062427, -0.07077543385046552, -0.03260850662309206, 0.24549458946559352, -0.13632300086110724, -0.27833955165036617, -0.3941847915495346, -0.6737337961767821, -1.1644103256602933, -0.7939789216375405, -0.6661909299933412, -0.8757648726839065, -0.44664442424242734, -0.47438104758739447, -0.5903693432168317, -0.766463091822798, -0.6400041060842422, -1.30724733495672, -0.9163037802391675, -0.6676120503550738, -0.4797361059195389, 0.15926398171906186, -0.34469686610522443, -0.2216668640182892, 0.005533984842483302, -0.06109383203727097, -0.017431377799113662, 0.000985158553482348, 0.03537916113310772, -0.2071281697274387, -0.31784074159552167, -0.24996017458224284, -0.0704306625271602, -0.29934785504562483, -0.34253677981724173, -1.462082958368832, -1.7836278764432574, -0.36991804339198664, -0.8854016515804719, -0.6715062694443956, -0.6307018432000366, -1.3859454546021732, -1.0301481205338232, -0.8199994236157376, -1.93810528299513, -1.0939591778664317, -1.0799472410527093, -0.3872326702207874, -0.24885500896785823, -0.33129173172744464, -0.0622220632331978, 0.0695009829450792, 0.17993966813846238, -0.07917460545938639, 0.014823774399287774, -0.012101371913459488, -0.022503120983866632, -0.21277903228845066, -0.7050229945661866, -0.4626631423703929, -0.1786859961998025, -0.5278709529389756, -1.2743939631325774, -1.3135551247918105, -0.7080932217214988, -0.757988571865957, -1.2468712532521833, 0.053453431258263066, -0.4080099911214952, -0.6173591342950946, -0.9690154704548966, -0.26930745678685913, -0.977007265110155, -0.6392377951963315, -0.7157926333293286, -0.8616780025795224, -0.6981726243044409, -0.2925197565259918, -0.25670313001650535, 0.10686329822933276, -0.10911005425735101, -0.0997165184993032, -0.07516886191041283, 0.014860585144700759, -0.16043486027022105, -0.2511180019659491, -0.3253690495409343, -0.5025951562578509, -0.8842406280698961, -0.23295570893702974, -0.864003945716187, -0.08801970662178499, 0.23040213063241105, -1.2358378797073566, -0.13106975754990194, -0.5451156841120512, -0.37387960111589225, -0.5575983556748687, -1.206749280582644, -0.5658367095053739, -0.6565129505829203, -0.8235463705711941, -0.28262556186904514, -0.19186476546272063, 0.13483966819176083, -0.4120021195128306, -0.3969822017907623, 0.07321092112657983, -0.10887535922232756, 0.12398787629207689, 0.011534460048134548, -0.009007774053609844, -0.11018053453533874, -0.029835153683460965, -0.30146309235505825, -0.7441740002967251, -0.5836713790627985, 0.010449049002769543, -0.4361244568653838, -0.2699599883198752, -0.3543717370574098, -0.8997693387959039, -1.3223547054433862, -1.4798773746008722, -0.8841353653038232, -0.6496400757424905, -0.3158502836084208, 0.04626017843484977, -0.004768394036237227, -0.2774476822672632, -0.23406717360560333, -0.5507209936404024, -0.06089872521993871, -0.06340028418660429, 0.30279286931957694, 0.10351225839410158, -0.1518635875453945, -0.06934210442433861, -0.02897642693351374, 0.07006383378251496, -0.022450052979033304, 0.050164949660226284, -0.13942143555507858, -0.4759675778111785, -0.7564347667478847, -0.7307364952854263, -0.43115314180281794, -0.16040999717141796, -0.6988255322451383, -0.4327186481984724, -0.28401775976453264, -0.8272489574253247, -0.8500406881559937, -1.0547345496185798, -0.4455180622812651, -0.620392776885689, -0.6366888176968412, 0.16984828374398583, 0.17489369005711441, 0.006856763378058882, -0.4848624274375804, -0.6328301013322623, -0.3470965454488344, -0.3955883779342665, -0.41680140683294165, -0.09479254715973134, 0.008659354369348256, 0.030277130540466508, 0.03123183026702188, -0.2037006696017864, -0.49888928874492605, -0.6362461997311412, -1.206251219434412, -0.6455537458925568, 0.21731767093374452, 0.3742412728513956, -0.7111560216406052, 0.4478519720041246, 0.04482984935047619, -0.7000066412810386, -1.2940223861380082, -0.832729789876355, -0.5667051195398966, -0.8839749203755053, -1.2000412941043954, -0.8734820610292343, -0.5544678407631028, -0.8331692549859968, -1.396761405695473, -1.3253739085506877, -0.38564158057875864, -0.02940902931486772, -0.1326031101200375, -0.03595652594419757, 0.01129270219311692, 0.012111013599160487, -0.03294275243581615, -0.13022742172967489, -0.667033060894422, -0.8867623719513419, -0.7305958527292276, -0.2556005417018755, 0.2498498960305481, -0.36371055699669963, -0.11381765411767727, 0.20348952698426714, -0.0005159906916041108, 0.22088527782055403, -0.7975436015986429, -0.17374240632936452, -0.27753750000632427, 0.2943679738066157, -0.17779720116422465, -0.6950016997710348, -0.9519194085410697, -0.1366829927321174, -0.03404139325087832, 0.45447198626752366, 0.0832210204758683, 0.2890069386240052, 0.12554829213308888, -0.037433816327455405, 0.0008928627762765902, 0.010742040211598835, -0.035488521732641165, 0.16046825998506242, -0.10809484113608543, -0.4613835974785032, -0.3544859239347136, 0.4863915446988998, 0.9910163726540151, 0.9244259086088337, 0.5811870729762671, 0.7232680496265754, 1.1249093517188018, 0.7818013907374604, -0.1926287150338425, -0.3884331726451621, 0.5301771070273311, 0.7926672218267224, 0.34853975444482277, -0.30199480549898705, 0.1010130866403022, 0.15367990086310512, 0.6911522736576856, 0.11054625813599608, 0.025464634666291487, 0.22907188411389348, 0.11425722493542899, 0.08367407043776352, -0.037569895956852256, -0.02496733454875047, 0.034777792675775084, 0.0846176257514519, 0.07043973244138536, 0.29281827660827386, 0.20173193840549444, 0.8815640380764435, 0.24396092532388441, 1.1319319571303377, 1.1911311570374026, 1.1856800142843122, 1.1057004018951735, 0.2626282061809758, 0.07961180878294552, 0.8808704395116091, 0.8719648466356114, 1.2766766648445789, -0.14578903743337282, -0.5154792259790805, -0.43375125483946364, -0.4296430526166709, 0.13931492886521488, -0.35358895302767274, 0.34685234150221883, 0.43659007143881473, 0.06219035385897892, 0.03915846405758249, 0.00018457858059130875, 0.09406516925466453, -0.18351934967418682, -0.4710929413785375, -0.30352885790265094, 0.12467826111811117, 0.46290893587604814, 0.7481404915543266, 0.033994498428258677, 1.1095209758906872, 0.36467099326135266, 0.36920161830578435, 0.658695133898677, 0.7143380441613062, 0.050974904296733736, 0.7828169220398318, 1.059388778803487, 1.4325599824097428, 0.2758718182347994, 0.40265166991769324, 0.5068415063343341, 0.8516282297070473, 0.7325843768633148, 0.5237314566673711, 0.8172206206941877, 0.40513305016317336, 0.10798189033979311, 0.007252386793778392, -0.0038030265246644817, 0.04437822275250693, -0.21511357688176425, -0.4593240471467337, -0.26690758104760165, 0.35530416757892136, 0.9531660649161215, 0.8059273773715655, 0.8608864146865872, 0.9304602324073264, 0.6929968754229138, 1.1289264231084657, 0.5820180830845515, 0.6068334886496439, 0.2030297756270115, 0.6458814411374488, 0.6519473536921698, 0.7728509650496341, 1.0559960417318763, 0.5270749746150537, 0.7352265940855168, 0.3674598231652965, 0.5561431269007182, 0.28528585380555477, 0.37213791802968954, 0.20929971305103973, 0.035282230786626435, 0.051429317807035836, 0.03070647063499269, -0.026309863412695367, -0.18817736036611252, -0.21628550781814593, 0.4213266348609249, 0.9210027179830735, 0.8026384593575239, 1.0005205397046713, 0.731560312361554, 0.1791708614857234, 0.4497607606302168, 0.4799511992311308, 0.7915975677686813, 0.3899171554987751, 1.267987379386252, 0.6336547795419489, 1.9800343062692598, 0.9775194701529449, 1.1691405454096233, 0.8632977981739621, 0.20339757219735005, 0.6615410876101292, 0.27358741077527166, 0.5688515673050593, 0.9770621975286159, 0.3558198669833519, 0.06532041116710789, -0.01895026369106699, -0.010590419781478937, 0.009156035504090231, -0.13553444992975427, -0.0979071239062554, 0.6604507225556965, 0.5596884864285397, 0.2833787159443605, 0.5127366934585322, 0.03256598320845026, 0.4175732940141406, 0.23566984496113622, 0.5701608393299132, 0.2927033697332684, 0.07611192105170306, 1.041603730718125, 1.4782427925155868, 0.7191345542670207, 0.441927998551237, 0.9049570544819079, 1.0425067320579786, 0.39506144806989474, 0.6875208579548349, 0.4544362834329887, 0.4979921698339409, 0.7567556065692697, 0.24702650292895056, 0.058892106127835527, -0.028824940522547457, -0.008487779443983762, 0.013833022696381028, -0.019493851809827285, 0.0381438934950952, 0.839671234613017, 0.16732199711259654, -0.2777179185881664, 0.40033233191905004, -0.17459891985771633, 0.060312887020746435, -0.001813080984894526, 0.2574501938125965, -0.23353114439386713, -0.6748678852858373, 0.3473508976050717, 0.2361174833012608, -0.24314605087098878, -0.3642421918847808, 0.487519907376358, 1.5252522583505865, 0.37801879319449083, 0.6367701445112787, 1.086807631271173, 0.9031107612770225, 0.5350132357827122, 0.2776089024743386, 0.040634654849343824, -0.04575178052444618, -0.024147958679617935, 0.028326118988987178, 0.023239475361861075, 0.19067708974085967, 0.4878261201140102, 0.4268589881604685, -0.5002767779028674, -0.24538038609960303, -0.5817684509408241, -0.7865228113789346, -1.048198518794475, -0.30546002433396174, 0.18851011213100338, -0.14054624751897987, -0.5282131218584137, -1.196697283408906, -0.30884534971941613, 0.13575162543235494, 0.8417872791875357, 0.9596710218507488, -0.24303970123450538, 0.02533901992062474, 0.29348190879310837, 0.6399294608302086, 0.36042770815913555, 0.18578460896323032, 0.09980054607716637, -0.004539891867077743, -0.0037279718916816474, 0.027888033934625564, 0.081174675442615, 0.13075229703325056, 0.5621294997949364, 0.2182968938441488, -0.38678507426498315, -0.603375803209368, -0.4968810459196923, -0.31661989514453737, -0.40517328456417834, 0.23419074926799496, 0.19452551460666284, -0.861668512093263, -1.215985601943453, -1.1483401691636, -1.1362600420033482, -0.8482808095824642, -0.3366136282072078, -0.4663922628882056, -0.5502716172274299, -0.4998425659953543, -0.08874529366057055, -0.03833638068184619, 0.09426290539045123, 0.10213344481209624, -0.03390365760749574, -0.0658570752782768, -0.03213029033259459, 0.026148701988587302, 0.038020416100479404, 0.12639994137681168, 0.2666744653548224, 0.22919881888467108, -0.20065188934800224, -0.4726694689454468, -0.607779470661907, 0.005019396986683494, -0.05460990282454574, 0.30731992407093817, -0.9525394630945485, -1.3258150354883649, -0.4367204792675141, -1.2772118067095595, -1.8165735687379736, -1.6342932565290176, -0.7756122263193427, -0.7594041710722272, -0.5712079575186191, -0.1670138660111088, -0.01657278121827975, -0.18528122465446917, 0.07222557048429257, 0.035335082560075656, 0.02920273290224755, 0.01287100831828093, -0.008310335530123236, 0.014418284992752866, 0.02439547831746669, -0.02067278505355359, -0.022168468993688798, -0.13988022449168355, -0.16379093285571503, -0.20523510011336382, -0.3201431983435223, -1.0386129457268367, -1.0261584348763735, -0.6619776728819304, -0.6306687090408067, -0.10613539768586483, -0.1838412495438875, -0.32430851773748526, -0.1842238162800816, -0.57618366312001, -0.4993536405886314, -0.38291000257825064, -0.22380916104728438, -0.13156843822317757, -0.022387989306810477, -0.020162007979131417, -0.053522110738059736, 0.016085225236071737, 0.00116084620223346, 0.06310332635926001, -0.048608332808386945, -0.00563869662227239, -0.024265203828916754, -0.05000124871407085, -0.017933735976366758, -0.060256469966686724, 0.053867179970744763, -0.07492232459767884, -0.47711826472607705, -0.8823933148951035, -0.32946673129083176, -0.37024922567911256, -0.6507596625200007, -0.46664718450142456, -0.38706720669170913, -0.5755144660230743, -0.5519674598948843, -0.8190331269619429, -0.8639428775792697, -0.7011997463159414, -0.24750390962745034, -0.30824005010522004, -0.12936636329203063, -0.014642575077969268, 0.002155179071878943, 0.030206249660636692, 0.0398628892660088, 0.01908528936827061, -0.02193355491865177, -0.0526914426735542, -0.04208494507790408, 0.0394506814992909, 0.022888144633989676, -0.038110982870742244, 0.0726188516873852, -0.07910308846420318, -0.3104191764757492, -0.33074814178863404, -0.4107060999737962, -0.33656170198006385, -0.2097434125074407, -0.22564460761873603, -0.3998795911958571, -0.3579178805856342, -0.26811955231254664, -0.2725817429415092, -0.4165403718765973, -0.21587447807013954, -0.09758712539681164, -0.04790930827389612, 0.006593905921686284, -0.011429708711009323, 0.012813913362811818, 0.013113649506074564, -0.027544146293955095, 0.003207485188884468, -0.027359285224690007, 0.0015110427333568208, 0.03286410595131483, 0.031405931972363375, -0.015894312157134362, -0.003025670615713476, -0.02670495329069734, -0.07615827428249336, -0.04703683334175328, 0.06860882156646916, -0.01824095896378448, -0.01597472721459346, -0.004024495502610819, -0.09693613036837652, -0.04292154112802599, -0.03567819936675673, -0.11387473599252093, -0.0917958439507876, 0.01024108058128225, -0.037935337824385365, 0.07340964555411204, -0.018483213928477793, -0.007723752123193422, 0.017779198226859992, -0.029145233304494856, -0.020195050146391735, -0.02353896456604918, -0.02542446268528801], [-0.04090871316642441, -0.02482295372309039, 0.06224410416713455, 0.013019487803569308, -0.040693964053410456, -0.02268976899006216, 0.03156782408816554, 0.042012668860683826, 0.03469572771288575, -0.036791638143844965, -0.02999904228525908, 0.04252932496150151, -0.05250847308613654, -0.05818445575380735, 0.029313365713480404, -0.003126768071194689, -0.016683363410864814, -0.02603218750229128, 0.010858242813036803, -0.04499384549266521, -0.04814893973068148, -0.02586418058552959, -0.02168700287737036, -0.013071237162546354, 0.017812096860137728, 0.007342509244684372, -0.036998339741750666, -0.034859693092018224, -0.048948760381154345, -0.02204316762313744, -0.006724210240620933, 0.013603427457770004, 0.03258126462839192, -0.026939898839391612, -0.0298526288772868, -0.0006751960706875725, 0.012745714121710008, 0.013636460047559527, 0.019978091183092933, 0.020940672508994493, 0.008307029499649756, -0.025417193575280845, -0.09881338727700908, -0.023904973407435512, -0.010571352365248561, -0.021042488327247342, -0.006158013940584904, 0.010501140636593694, -0.025029600610328252, 0.03921603107091438, 0.05137295314799856, 0.03993818647524138, 0.02785978329735022, 0.019170467779005083, 0.013417647346439713, 0.025713912594854147, -0.015450445589717093, 0.07320341060258406, 0.024721842986954755, -0.0033229096267800517, 0.006291172633062679, 0.035456132442648974, -0.02372191207922349, -0.09253165494091238, -0.20967398225366984, -0.3814367266180849, -0.2790927698793623, 0.09412069351802664, -0.006097806728096685, -0.05360910866816165, -0.056600622092028596, -0.16822601882507193, -0.29317584534373664, -0.18874366158147607, -0.2580033075823331, -0.4276453703872709, -0.4127088185752569, -0.26191392241184075, -0.15820573591060122, -0.0849657759939717, 0.06409357777280629, 0.10603728567457003, -0.016827775966188067, 0.05099002290034736, -0.04284816530089085, -0.03630957477250912, 0.061793299394842356, 0.000970680026807975, 0.025615171864064996, -0.0018617056269852248, -0.04435683702232138, 0.0604823618739679, 0.06992428932096906, 0.18367978709478788, 0.49492505896519223, 0.510837310322391, 0.8669216294168176, 0.8885938170050213, 1.0124316756589673, 0.4015764590360689, -0.11119218856958323, -0.37609829420353585, -0.901974363905708, -0.6676610380844783, -0.5720286811265647, -0.5352165752245425, -0.4798841141752824, -0.3426368525460812, -0.0898840184842656, -0.0021169028959819097, 0.04085083501260965, 0.00047968224104193754, 0.0386590817658931, -0.008681310902566783, 0.0019597956521483057, 0.05096548576254945, 0.03908910958420138, 0.22760277477352472, 0.23897229788921814, 0.2235277960315898, 0.3980795164610041, 0.7593807708236219, 0.8767982928530611, 0.8538659985849373, 1.3712026357322717, 0.6416752912967164, 1.0078746343320573, 0.9112317572498712, 0.2610211104836943, 0.24250930904021098, 0.00452920005036746, 0.05007887732382086, -0.36674826598369537, -0.40937691166053186, -0.48953050623779976, -0.3050320430759568, -0.025461289187473743, 0.09453233469834985, -0.022980490691419414, -0.024255962557008095, -0.027115950096367938, -0.0976324907554981, 0.019983569619913315, 0.1776256240592491, 0.16480145201042457, 0.6466508225325796, 0.8351574895425615, 1.0163021703975978, 1.1795539248793365, 1.1563598151006023, 1.3568747315446787, 1.4074577156474484, 0.29148123954712, 0.06653110545406274, 0.46598774531214376, 0.7617480602608023, 0.9770838007291233, 0.47717556930714794, 0.6469142665357626, -0.36927614161654415, -0.6894029600907102, -1.2723939518826266, -0.9463227583102436, -0.5814599466452234, -0.12108657221316231, 0.3537002932122859, 0.044525356162828995, -0.006221524516161806, -0.057728771679547534, 0.05992024839947984, 0.04045170366183143, 0.2042628781289608, 0.3957770751848643, 0.7846913102101639, 1.198419995887174, 1.2565777638425668, 1.632538946931374, 1.0612131813315508, 1.5813271978693828, 1.687243484264195, 0.2650395228039879, 0.6061648546964536, 0.5274568673893354, 0.14921513120572447, -0.06732499510964407, -0.07497824853203999, 0.08140696040078553, 0.44740161696482267, -0.011541958347850198, -0.14389651150128246, 0.22238221094049057, 0.04609680492432702, 0.41787917456498264, 0.6130049051019554, 0.06177356607781433, 0.02792447533071467, -0.051307719724051286, 0.024639280677317844, 0.21451295910773413, 0.30593227398396844, 0.4866257910845248, 1.074241319361792, 1.3978295613154745, 0.9339166370929324, 1.2125306807428493, 1.4160202647469995, 1.1000200740845871, 0.7493899059992101, 0.5745229162447099, 1.1192370423719673, 0.37611924027358606, -0.1326576805670242, 0.6605264812520335, 0.4896340884095471, 0.4675463671128823, 0.2628776828486437, 0.49698345580098985, 0.777288822187423, 0.8700739965735514, 0.07783747512369037, 0.20140812916889436, 0.4145513153408582, 0.056775447909431453, 0.04188253962230323, 0.02143403370569522, 0.06206773072673921, 0.2848626811947383, 0.5025348428957342, 0.8114678545211856, 1.341482857884752, 1.183329032977288, 0.5900038525369806, 0.9761951914835802, 0.5307638860512338, 1.3589968735046, 1.8059076082296026, 1.156712988240578, 0.523666182219997, 1.0323698888297532, 0.6626680020297079, -0.06488122144712104, 0.3233362531680325, 1.029173635980482, 1.3529352936044814, 0.8301021293628795, 0.5736796716431015, 1.0406363072405922, 0.6044831369395682, 0.3641165314720799, 0.36218192582651276, 0.024633899162376353, 0.0507839840656878, -0.010983724658584574, 0.07029618488831303, 0.25526102447116933, 0.6186972295302169, 0.9593551039913296, 0.9797093960155756, 0.6423764161268621, 1.280235910089888, 0.7292236919647975, 0.5048279679204665, 0.37281875537826975, 1.1086337654978664, 1.6299367230462223, 1.574975456776635, 2.3014660579020085, 1.518241807876478, 1.12607161847074, 1.3312273898242304, 0.3627794231829835, 1.3513526187118323, 0.40120968659946116, 0.35653940272288875, 0.9450395404628679, 0.34629493494298647, 0.5857769570903119, 0.42654667616898606, 0.051137427194601244, 0.06997233698408897, 0.006060002427466157, -0.05865183621639552, 0.1251496012200512, 0.5591333902421932, 0.3911972934482146, -0.0357621171308939, 0.1974174072239675, 0.10951202023338001, 0.04021646000744155, -0.33942203523858777, -0.8575366751902226, -0.6611083812883498, -0.5463108774802472, 1.286313917663945, 0.8098464843757741, 0.7459177871000692, 0.7463792469375385, 0.9797060577438523, 0.13122296649342668, 0.12657308440201862, 1.1296660825345213, 0.4244621822663865, 0.043836683429219814, -0.43172115605563915, -0.05718672488625272, 0.28276118013774265, 0.04719998293221419, 0.07671903203235168, 0.04737889882284268, 0.017035514113533816, 0.1012507192172105, 0.09978949157122405, -0.5473986923416956, -1.2567806159632506, -1.108653175221906, -1.7104560401540452, -2.0186537818328056, -1.3880440316035618, -1.840502263658421, -2.064595125205779, -2.1706418895310953, -1.7989233875748822, -1.7207646974609279, -0.4145948337992923, -0.20373102746327568, -0.5106660112669769, -0.4441389650314479, -0.751493778796111, -0.11588795480873557, -1.1026966754648537, -1.5242662180288593, -1.3671529364071535, -0.500999642530184, 0.026744411472448944, 0.048896623554487706, -0.02789443276041261, -0.054758233180147504, 0.008642246707234808, 0.07822143417998874, -0.28651406800342083, -0.9692801631872593, -2.16452754958157, -3.051795145010214, -2.9469584871214254, -2.2471372954438147, -2.588037362166083, -1.7813392236750996, -1.1896001307377717, -1.650323776981641, -1.9930293730553992, -2.372795537397189, -0.7863793947734395, -0.05105240934889619, -0.7244023155361913, -0.9152600404638741, -1.4703287436579504, -1.0860222432777265, -1.7676532544529615, -1.942028299523543, -1.4491506033746135, -0.206771376218671, 0.07103593669018435, -0.02148568891693717, -0.02576257319046641, -0.0034209297550308413, -0.045032064737555416, 0.023405337364384205, -0.43620630192463117, -1.3026998068582494, -2.1632390986770917, -3.223555571497718, -2.3526628419293605, -1.9666056194447321, -1.639117595633462, -1.2782104734720983, -0.0148582937157656, -0.3066930101329339, -0.7089954221149918, -1.5317890498397828, -0.683290311993089, 0.5269966144425542, -0.4746902339138014, -0.5054826166193424, -0.8773768165085379, -0.7152066452132116, -1.3235718364352451, -1.4284341107262557, -0.6234405503018924, -0.11237946057953097, 0.06724874962698077, 0.09804659560670831, 0.15051831906145113, 0.07715285317735492, 0.05475152129446428, 0.02770436272808278, -0.31814316015587846, -0.5462854890084149, -0.9969607522647157, -2.4192409927823033, -1.125427769795519, -0.6119362487262244, -0.6368921390090087, 0.39371071435461297, 0.39863666130733383, -0.6744679173161945, -0.5737088584438118, -0.8477351197749359, -0.4414775600402245, 0.18337597051401897, -0.35861313122778415, 0.012859651319152945, 0.30361969154482077, -0.23724235161556206, 0.13400289207912836, -0.5165557448915185, -0.26571792489358437, -0.020748092860106662, 0.4915246639088768, 0.13791678856999642, 0.019884585326442304, -0.024547851376390206, 0.008981567244764305, 0.02055207530007252, 0.1607240981814413, 0.2808994088161963, -0.057284086033504315, -1.1329578053269853, -0.7028275444555905, 0.039258152162751296, 0.16780314775110525, 0.4866185385449974, -0.11766727762744758, -0.32751330663753064, -1.1890475587292326, -1.4944878838889435, -0.7165003982503996, 0.026949427211446837, -0.4378571386443301, 0.26692113059015177, -0.08266578361033823, 0.6643735046213873, 0.5618745392200948, 0.24365316211205856, 0.18762735981638173, 0.6954600609754787, 0.8216486142746454, 0.19186524546000808, 0.06291621184088012, 0.01278270840260223, -0.003667164104730774, 0.14997661344859547, 0.30934153555714156, 0.8205212794792066, 0.7345539404713655, 0.4306778557633012, 0.5703453924949587, 0.2167049395822656, 0.1500329377085162, 0.24527741733102285, -1.206553500522598, -0.1294217507485198, -0.14224596335504852, -1.1775668614674322, -0.3899151455974906, -0.7469917203622944, -0.2963551324188009, 0.2165501871373947, 1.125520099302214, 1.3509389381779426, 1.319996157869756, 0.498339913606019, 0.7322311021830443, 1.3833268886703844, 0.9340640830099572, 0.23928952081598692, 0.03983976150520972, 0.01012877475652639, -0.031002674102059043, 0.27269146789810034, 0.4997909686598789, 1.6812142616001953, 1.405638562153974, 1.1411453518985175, -0.011433735591460185, -0.35651426015497045, 0.01638698806360739, -0.8477587881218096, -0.6050822103197393, -0.6079442035904168, -0.5655046163661387, -0.8690605295488848, -0.4885123957822201, -0.5637128198255035, 0.5419237186051759, 0.19541624933605065, 0.39035833948893306, 0.26032997732115737, 0.6251728934450798, 0.4079389200085079, 0.7048519021025048, 1.0513594400331827, 0.9990416883659575, 0.12494824813485611, 0.03721722020033438, 0.0003632813356354664, 0.0215374045990497, 0.1291292901638804, 0.46259094048018007, 1.9060947321124435, 1.7755337966333657, 1.6623890114517519, 0.07632566482744946, -0.5741640990993352, -0.6475615515963327, -1.2616847020860897, -1.126996215544232, -1.5664888566412278, -0.8474134133802151, -0.35652325532357315, -0.38059685438063384, 0.008156408100830244, 0.6316011687855885, 0.30370445031652976, -0.09621484793379206, -0.5276966111344046, 0.5697394359843092, 0.4429933293168806, 0.7313153569872319, 1.0824200329360782, 0.5056523400713444, -0.018582356145092672, -3.2228801548321806e-05, -0.047970081291775664, 0.013250672269846948, 0.024212407077597187, 0.3600706602198879, 1.4278013297474699, 1.218229402865581, 1.5147913685659098, 0.5227585309110795, 0.012364238494458238, -0.2517686930685773, -0.03689600267382712, -0.7400545374220806, 0.22484222401465043, -0.09107879957866141, 0.4939627456320757, 0.2414473675219183, -0.5604416619410536, 0.3608236677901648, 0.28449404364560904, -0.47285102713972693, -0.07233626528832912, 0.3975808837254855, 0.54499238847411, 0.775830841730563, 0.4599266083440568, 0.161794241319421, 0.0076934082257266185, 0.017684756052350308, -0.030598093395248733, -0.06590049368205499, 0.0642362253911853, 0.47128892980970455, 1.4855993347034857, 0.8178626419158048, 0.6930869418720947, 0.5328302620323635, 0.8517317322390922, 1.0095721239177264, 0.5400410798916857, 0.6772536946921496, 0.6724734077784101, 0.5752026720012838, 0.43653479246169996, 0.16723351562173608, -0.8233534484776031, -0.3083624365497262, -0.35774512041551465, -0.12420538051547185, -0.23660065247029366, 0.22364428568022582, 1.0759485843691277, 0.8707813554627482, 0.05041431620710983, 0.03770578944377502, -0.07254969478030841, -0.019654125920237603, -0.051857732580491034, 0.02472786536969173, 0.10437315801615417, 0.5988292885535016, 0.927440313940172, 0.22665831481706797, 0.3430738325393579, -0.147997683379923, 0.5230139447990563, 0.7187508138743202, 0.35744221282375593, 0.8279386645730589, 0.30611612256185144, 0.14011402020899472, -0.0832700870430607, -0.011799985446463677, 0.15820680650017763, -0.5263271610616049, -0.7796020814862237, 0.04301759536227188, -0.679259036574139, -0.3526134955452113, 0.344350580738016, 0.5652313172221579, 0.17712683982907274, 0.2984556915046282, 0.01035157062898343, 0.021839471254694348, 0.02451455063052758, -0.04686446039485935, 0.08423982486743842, 0.2589304588671658, 0.7206187393852471, -0.01155495722043143, 0.43581527228368344, 0.5965753694305731, 0.5948998849551098, 0.2303592794505222, 0.1811340222102367, 0.8946312875716876, 0.7491659257864449, 0.23690597014442227, -0.3221311410919733, 0.8452501453283796, 0.18282013011449272, -0.6256793522140524, -0.3096676462977826, 0.016154752655311348, -0.5727630636815864, -0.22996763386821864, 0.036323525808659475, 0.19625899306577113, 0.11699487537398595, 0.12792521430015438, -0.002389974041885574, -0.04136234882969388, -0.04407370258112224, 0.047378814154314546, -0.012183225799328004, 0.12751458252107384, 0.7192608562111236, 0.44272447278891186, 0.8228119080272217, 0.9626376233668962, -0.09279698305860182, -0.14152037411541243, -0.06089336771399099, 0.3726649317764248, -0.5954463584927417, -0.12304256977785472, -0.22556189168533586, 0.2550702364691558, -0.5436113916653849, -0.5999556330429042, -0.517931730472699, -0.6440448460879846, -0.7621408854079829, -0.5504912337637943, -0.5106434928119381, -0.4898803330859905, -0.018237801897593824, 0.07585420852852132, 0.034874852521946255, 0.016382108306718504, -0.024188164541597775, -0.008123960313976566, 0.010485328442322054, 0.1567658393174226, 0.5003745560004648, 0.5895393428931127, 0.8101055777393998, 1.0564966404609757, 0.5463423729539164, 0.2385959591119582, -0.37330301858633713, 0.06420164111785333, 0.5264636487037525, 0.7744659806413394, 0.6603375648571563, 0.3400386316714994, -0.16879017622659293, 0.29175578948273295, -0.217978281926255, -1.1270812044328824, -1.1991544032241181, -0.9799259861545472, -0.5462112876478095, -0.5803339173171425, -0.07992102216650988, 0.05886231907626434, 0.0007509602103491723, -0.008782179077296882, 0.03991619218460853, 0.010032501585088905, 0.004454099633880813, 0.07190048300886992, 0.08722887678816137, 0.2944316236427987, 0.4828137871297555, 0.6941618908530738, 0.9322385378283279, 1.2175108919388375, 0.6373052491502861, 1.1700448877390843, 0.7958562201427823, 0.5118292387856694, 0.370152782074713, 1.0041619829892174, 0.7962773070901001, 0.1409997876087095, 0.3330816554477519, -0.08842733625422015, -0.843695917712272, -0.8142761090138256, -0.16975499603434469, -0.09772878791582788, 0.10214787414202851, 0.04732203072201182, -0.0326584248497701, -0.024053957786804265, -0.05106999073041337, -0.045885188270461945, 0.016859778852714332, -0.11104551167643414, -0.010911936615918424, -0.17725536942182166, -0.31827326826558333, -0.06984271500189784, 0.1148040813300464, 0.22391950535178148, 0.22064233898431657, 0.019863462951773395, -0.09357397607834472, -0.5448697569879399, -0.38866378071066293, 0.6853851177308353, 1.0502205939875935, 0.3654488821140668, 0.5662117036668093, 0.7233843462120738, -0.20582422783351254, -0.11876264181563335, -0.010481668119003062, 0.04084460915553412, -0.006993189004948156, 0.00340046940056794, -0.026929290692568643, 0.015003699745288654, 0.01082517585958514, 0.008685201302996265, 0.06799766420376578, -0.0757486445992268, 0.017163855808490915, -0.030960446447811898, 0.009568701359208766, 0.07138157285569843, 0.08895418637871207, 0.0672086028391188, 0.09824289874994672, 0.08863454919615152, 0.1324800912189568, 0.1349744994957579, 0.1993835272526828, 0.22121389318580842, 0.10029819557143038, 0.11427120141398377, -0.056503275292167816, 0.0337574060331195, -0.12376470710153005, -0.0676916492204829, -0.0010559598359194272, -0.021830323047426898, -0.030330113510198094, 0.03475669663851271, 0.03791522703804025, -0.022982703079478025], [-0.026163621768633554, -0.026348113434488615, 0.03059122236088863, -0.025558821417600207, 0.11621363796242702, -0.038212624954203765, -0.038310799822658184, -0.03252500503460471, -0.02759173595899264, -0.014026414455019658, 0.04712748217730386, -0.016437775336964576, -0.08754810097642879, -0.013926508570714622, 0.07236076848195774, 0.043016903761815946, 0.010230846499858807, -0.008966724153290225, -0.05462576442518429, -0.04224610198683707, -0.002540177713019734, 0.011090239980894229, 0.047903336299622234, 0.05443501737674229, 0.05938446419992345, 0.0014150714511209654, 0.04140687902024885, 0.09270045853240405, -0.019174996069258286, 0.0619813624164791, 0.07547224291869988, 0.047132398296689845, -0.03082700049230581, -0.02257018206409334, -0.040921693000764175, -0.015691220716592576, -0.011736380659831992, -0.02901829637168865, 0.036427704574030655, -0.060672054180308195, -0.0030248766157670677, -0.01210284205131572, -0.06879996204723149, 0.029899024459583156, 0.10654528838075913, 0.055870835147832705, -0.0245467907835546, 0.028677542221045033, -0.003880533550998171, -0.010731733578062567, 0.008015571076992231, 0.030188500305923873, -0.01999461853405607, 0.013134524084091827, 0.008006083419348806, -0.0013262513150739444, -0.05512544059035018, 0.01019460815218347, 0.015420548536909672, -0.08783442754043175, 0.03574359530388767, -0.008717207715789953, 0.011859331661430357, -0.08269408561195353, -0.17712643662488475, -0.25504987982213867, -0.3176569721783327, -0.3935189113980829, -0.32380639061594846, -0.34366155931040543, -0.2123560656169454, -0.33162070027647617, -0.15053044906765622, -0.07195872108701722, -0.18574653023599696, -0.3951436183819307, -0.2622324067596561, -0.1125259653555914, -0.0792050341938264, -0.1106169322603458, -0.10185390456045625, 0.04133501484473227, 0.03251727345246371, -0.018191248809963152, 0.008292618993401163, -0.010225109604260128, -0.04017706916861687, -0.028901378919342864, -0.01484810526187228, -0.0368862149000033, -0.1109927379654116, -0.24068379140078647, -0.20614578233354708, 0.008338413712354073, 0.4223832535625895, 0.6345496139836223, 0.47116575959869433, 0.8708054005080482, 0.6800849696146727, -0.08833799075612202, 0.5970957660018495, 0.2572743218498819, -1.3249188473311675, -1.3652879063868797, -1.1164979444814098, -0.9069591757947565, -0.9024228068680888, -0.34987629085833977, 0.01845304627037689, 0.09670090751703697, 0.0547571016346148, 0.04594233224364005, -0.03262006186565516, 0.0020124275753967973, 0.058081343976778166, 0.021987193455711325, 0.04988123219741715, 0.10411971430434282, 0.04603139339127333, 0.1044508896433158, 0.38562981930303436, 0.8147948723410824, 1.3112107564376025, 0.45152336325172043, 0.11488324230428662, 0.6635115656785455, 0.12450536360053109, 0.9147963896498431, 0.8809984330836825, 0.7717413352933841, 0.10892998782587543, -0.5864078711807647, 0.048611454516962326, -0.3506222844007042, -0.499733195885471, -0.7240671135041913, -0.17222547272109381, -0.023308573049435646, -0.002815565080138515, -0.005764952889530006, -0.04582587003392048, 0.04831740965770433, 0.02295617367379483, 0.07867496051337215, 0.1960328903263207, 0.19731963543483502, 0.4031350064291719, 0.45573364462857463, 0.3641647747483871, 0.5844480129978581, 1.0551879823652766, -0.5575841653500022, -0.3322600427554133, 0.806659480904906, 0.7946349512951573, 0.8211504005944505, 0.6144792881910172, 0.9488822393937466, 0.49722561473396815, 0.24593545426771388, -0.1716484894708603, 0.12431411177393763, -0.40312355881550394, -0.8689272695914473, -0.5704147078737699, -0.2105376249802635, 0.014442461885252295, -0.0258103121668723, -0.00607209529359151, 0.06034817127935751, 0.0029953218165154403, 0.12515268353826126, 0.343694816155384, 0.3817727200813009, 0.01618363539847303, -0.7145718655056642, -0.47611821225726325, -0.2774738903575859, 0.35147143189594166, -0.15928730932281276, -0.0843143480112866, 0.9001305541166326, 1.5223736735133486, 0.9459897885514638, 1.1732950899502252, 1.2849446923020449, 1.7462419531476898, -0.26247485085330846, 0.41228656249667167, 0.7379758274492708, -0.2373487669561517, -0.8109772983531335, -0.9830235587121355, -0.26272321301688456, -0.001152883498976906, -0.0309721761534359, 0.0011038949593079697, -0.018573398008717375, -0.015158317990096417, 0.0675481944937711, 0.18154841967557347, 0.5998800862933678, 0.19564073490302267, -0.09964885882908414, -0.991988827661067, -0.1814648207400011, -0.057970021396235395, 0.16802269300286735, 0.40907303163999326, 0.5737211035526223, 0.6809155345963874, 1.233971232627704, 1.6286792220730355, 0.6682260111892658, 0.6561836365759378, 1.1814287774435168, 0.3344004139312479, 0.7392428659343067, 0.20598734294897228, -0.8125476601956766, -1.6406715710668542, -0.17082385334262518, -0.11607763913664698, -0.036067524995573044, 0.04013204389280013, 0.01388562868441733, 0.02814348552705056, 0.09567679739300583, 0.38895911128966176, 0.7337425121050584, 0.6050765546631449, 0.460894058476332, -0.1642543884991534, -0.03479007922023051, 0.0097443866277463, -0.48066706226226186, 0.22931700061057006, -0.7474618274554841, -0.2445513579439901, 1.104100485615459, 2.282605824642466, 1.21979579332332, 0.970453298631654, 1.289766794782191, 0.8023506789795829, -0.2267067793714208, 0.07392842187358516, -1.5889059614178866, -2.3159546034478664, -0.8564065836866533, -0.2323610558656349, -0.011785614755486874, 0.007144962903873518, 0.0021217887012539845, -0.13835429237061933, 0.06837038653309269, 0.469027108072712, 0.5606213418512618, 0.3271099907709586, -0.10510687686441728, -0.08761102702716136, -0.4141822032388867, -0.3656228723423185, -1.258926808965869, -1.4498534045468654, -1.6854786152113796, -1.3579678591165276, 2.095294740780217, 3.102886369868444, 1.600022975665691, 1.9445900498796682, 1.354336897217347, 0.252298630698379, 0.2985209799310256, -0.2976136595092401, -1.7831865014351003, -1.871956449153572, -0.9589743148750727, -0.2167700922177006, -0.03243262451658285, 0.02350364361317592, -0.022790037746407546, 0.008857846246582299, 0.23925041859020924, 0.39687255154994566, 0.20243808803261576, -0.67647251854439, -1.9155648046777667, -1.733245047511835, -2.492205983080605, -2.968349657701552, -1.7474751702490805, -2.07660184292272, -2.9732234441203644, -1.6682405021802122, 0.8979105882966805, 2.465234662420722, 2.154106861147743, 1.1077416808109943, 1.7676420065058513, 1.0647568363939857, 0.514413862148179, 0.24839401159699964, 0.11862981357535722, -0.34432849932659404, -0.5406448408849525, -0.1164915627856795, -0.023872773420769027, 0.0465419649811998, -0.0220760307656432, -0.06334735335670381, 0.056459096198555485, -0.05937941907426941, -1.1823797498083486, -2.0235929355216573, -3.1625291706680585, -2.340611260642637, -2.117698367927639, -2.0727131813957302, -1.6921051230123638, -1.0786657308578413, -2.1961247991807924, -1.558906260733607, -0.6719823872837335, -0.17304073457575267, 0.8770169500482317, 0.9822531361085799, 1.3757935029457855, 1.430462399554657, 0.8695328367379048, 0.5854769607971242, 1.228607799414612, 0.747770344527875, -0.20789101306486366, -0.09005257431299422, -0.06599918141487492, -0.024744880478419298, -0.011795594046164011, 0.051853711496660695, 0.077390581088941, -0.3189998807953449, -1.8187558644557218, -2.3679644298478943, -2.8270756612294043, -1.5296591846353487, -1.2624982844279886, 0.546705320218144, -0.748527269268531, -0.6059047136970264, -1.0445709328663997, -0.6354657915256865, -1.4694409964551254, -0.19939505642233385, 0.16482083873760842, 0.023695756553078956, 0.5307770423934759, 0.720578229519295, 0.38537993565711554, 0.4685237571087396, 0.394468659375667, 0.520308121443769, 0.14638972456206165, 0.03218764037526277, 0.006577640897052895, -0.027371130108961913, 0.05554053603846714, -0.021899720441521553, 0.06560785487388485, -0.1937599558301244, -0.7965178342360484, -1.3115133533847367, -1.170412561137893, -1.1126652738442915, -0.2648118604573103, 0.09721607077624429, -0.9240618826193414, -0.8530672329773176, -0.7280416797370538, -1.2390102415051512, -2.1396168528813018, -1.5380099402351324, -0.5506121308772194, 0.4164614366910711, 0.08535291868249462, 0.09176841690348815, 0.7123514853841181, 0.20133954539504398, -0.15464678177175614, 0.22569527537444148, 0.015160833205978962, 0.009564682008168417, 0.029948795303133283, 0.04944457113432575, -0.05270976811922057, -0.03108843775282236, 0.04856713581624151, 0.08011854731257705, 0.7208196317111938, 0.4537536230200841, 0.42646338807369505, 0.06763522620606643, 0.40716546684432187, -0.4993745499420368, -1.1259216101560887, -0.6165733505402052, -0.41329550565319195, -0.3921613539182698, -1.4071339645203769, -0.9590640445336326, -0.17193680293290556, 0.27428981628858334, 0.20023818992365533, -0.0690829571021647, 0.8732292413798036, 0.32395452192357854, -0.3633083814658319, -0.08128033547208909, -0.08662129395653494, 0.0973819415463876, 0.010544943027091141, -0.006442127804089465, -0.0075728418025915074, -0.017426866007746677, -0.12459747452424047, 0.5856313722934876, 2.2663984894937794, 1.2409146335064358, 0.8710299449009029, 0.3036783035911581, -0.42896557495443216, 0.1743567350104805, -0.6076780986756416, -0.2795983789911394, -0.20608341195537166, -0.8352639822705497, -1.075385662402935, -0.6996645374411024, -0.47462765651204847, 0.10419926237220153, -0.1547557857834771, -0.200384381750518, 0.13850165072029452, 0.06481971438971625, 0.15964001797911928, -0.7541980983639712, -0.062149363652280486, 0.13676139655447336, 0.04379692598516284, -0.009390350019935762, -0.018305314474020104, -0.0073011936004190705, -0.24220698662336915, 0.7634892110639164, 2.151782675046154, 1.2222847571604476, 0.5035677695701785, 0.121544813771553, -0.17916724836126463, -0.28323303469480987, -0.11958803073309651, 0.05448716772308332, 0.022798473961069408, -1.1008612495998742, -1.7369540559181582, -0.6058373508434459, 0.6306728685798884, 1.0859456896163564, -0.014874896102345462, 0.5443577969684409, 0.220138970783249, 0.2906141118431811, 0.16834275974719048, -0.5859643952246207, 0.06514011041921672, -0.034950167035841584, -0.043949046878655536, 0.06584843397362636, -0.013304936813131283, -0.002424682933205934, 0.03467905254690213, 0.9292825973584831, 1.1653170626176852, 0.24921465704837656, 0.25484659506116664, -0.27900254220137777, -0.765709326171322, -0.44996673146769967, -1.5928412570778123, -1.2926677703736147, -0.6715818097739367, -0.540789734678644, -0.47423011137057597, 0.11237344476164021, 1.10395285577271, 1.0068627202164822, 0.8130029212284721, -0.2435162329731952, 0.226225553310936, 0.5449936560305598, -0.3627987176695559, -0.29206178395315135, 0.4855559966971744, 0.01289026439252362, -0.004925745560413458, 0.03110942831437796, -0.014560315575622646, -0.01656465893230479, 0.23878431010108597, 0.47119176567690146, 0.9173406144068018, -0.40864328054386856, -0.021665553094470994, 0.3099282291455764, -0.07988945145413029, 0.3386422630781238, -0.26789900724790006, 0.721395799232461, -0.30064407887610123, -1.0198386466927003, 0.6461890089537373, 0.6242365017644739, 0.12808628060192617, 0.8595234645556293, 1.0592630886764938, 0.5513259234344696, 0.759048892415811, 0.4354798602045962, -0.13671732192319505, 0.3010041224671063, 0.5952069552739032, 0.012408354389630684, 0.06651041739754075, -0.03741824198425617, 0.032058882058901686, -0.03441495970919736, 0.38874852997868825, 0.7684289925924301, -0.10789304696741792, -0.8411960329282728, -0.3702822995977434, 0.17030340048389628, -0.11089214584246307, -0.23116859447040838, 0.5960861117765467, 1.595163910527694, -0.6443542983592703, -0.48756562710520457, 0.6935167434187192, 0.24915655911035398, 0.1540633840321891, 0.14526989432623288, 0.3728509455748967, 0.8052477062717501, 0.6085972293879928, -0.3826336538414373, -0.05739464571287698, 0.3607585149966954, 0.35556229817463275, 0.09770163271821235, -0.0004035849900214556, 0.06921121650807592, -0.03136738212123741, 0.17993942123393583, 0.7229573984667368, 1.122199961571803, 0.14444700668880228, 0.9924492508463745, 0.5703536006946038, 0.4441104953607288, 0.5684389041792492, 0.28821017762256707, 0.18239676465565294, 0.3606994139776825, -0.47321889157515123, -0.42402140231854696, -0.19536086334620048, 0.4782313673922698, 0.25416049248339967, 0.05725074750753419, 0.2774995195548278, 0.1892339951105627, 0.035921573511364484, -0.35373243601301996, -0.2675815331748787, -0.01598540023414584, 0.19725486148138885, 0.008455701600246435, 0.013372471706342683, 0.037100610162241095, -0.008638174723844, 0.12670012797429933, 0.6689476231462509, 0.3583475400727838, 0.5480186386796495, 0.8802752125938128, 0.3943711860693203, -0.465606237556636, -0.463941110065149, -0.31100041072846984, 0.06542347274220679, -0.4769450473057047, -0.7924926355996879, -0.7582876101020117, -0.36733167229292735, 0.21385321740982738, 0.48396027268157493, 0.5039473844661132, 0.8063555112822643, -0.049526725547529724, -0.43900378084772224, -0.11628383250300317, -0.1744383516542883, 0.08232167601570908, 0.06454130188778526, 0.004158385061179615, -0.01449327864606451, -0.0076227338784877925, -0.06285582879049555, 0.09596289225720175, 0.5255167652398322, 0.2972658244032857, 0.6383680460334896, 0.15501311180402264, 0.18869694866303244, 0.01754161550693107, 0.7689169504657383, -0.2444170952263415, 0.42432648281662566, -0.5850134421241607, -0.33212128884362546, -0.31485898427972914, 0.2571223142756553, 0.2876005242329543, -0.01274619954535978, 0.1862264778092939, 0.6117229841550046, 0.39576826493390826, 0.31727382436191004, 0.3577959609473058, 0.17001052302530228, 0.07052639168146789, 0.05102176101997457, -0.034762346241173324, -0.0454997934849498, 0.06395663331111026, -0.03375561391910757, 0.009899379614089541, 0.307959255966073, 0.38056295289210695, 0.26117134484337473, 0.5189622432505273, 0.30272214952925425, -0.41775892784100094, 0.7070804136195731, 0.20341835710511078, 0.10317854873339746, -0.7502963006017762, -0.6259522049548656, -0.4375647363302563, -0.6005533935921329, -1.0425417784075324, -0.3213871745070408, 0.7456753557976363, 0.4840966448602359, 0.4664453252963323, 0.6949828831188248, 0.3296861226190528, 0.01870468393596263, 0.13836981143337626, 0.02578558019281658, -0.03905615439767611, 0.00627403592062673, -0.022626360739971433, 0.010501988126816578, -0.0054823882546840615, 0.31902952653712424, 0.46280688080262194, 0.5750785489713669, 0.9696875771525791, 0.14899462587957318, -0.47920292140186455, -0.05263849050254394, 0.2771082457312198, -0.09548501225970343, 0.3140318153576787, 0.2114998551451041, -0.005558625723214892, -0.6210030555852537, -0.28441093428604786, 0.025126196500373923, -0.39226604710561036, -0.796901460313782, -0.29823918542328964, 0.08891133049017977, 0.024690828999044352, -0.004335400710667014, -0.020658802320968644, 0.05862504927696899, -0.06675318364841518, -0.04112403321719952, -0.009500313082621876, -0.018872024940280573, 0.011744058036904256, 0.0015552901633500054, 0.047370018059308, 0.040234816069430385, 0.16751096838201382, 0.008148224379712177, 0.013702264064648103, 0.41594350645777484, 0.5278198004545479, 0.43481234833696725, 0.17770829401431398, -0.10334724073650217, -0.39712462878427224, -0.4538591201786826, -0.3560959408988088, -0.14065348221045793, -0.40451767284660556, -0.385846019443224, -0.3065157792603691, -0.12834142398373333, -0.049835768811235276, -0.12589377554136827, -0.05003077045089015, 0.04045730714552245, -0.03676540656172246, 0.06104284765471211, -0.04253595412136079, -0.026060614887453103, -0.0037874646885015747, 0.02485465660549308, 0.039918405487188606, -0.01396112383884523, -0.0645855928988377, 0.06465589619528161, -0.029943408512117128, -0.15062877693981952, -0.27041597553717883, -0.3299611134830623, -0.3564940483781516, -0.2127296461383175, -0.24727030385739185, -0.2990362150559717, -0.1816098659761166, -0.25555952200154947, -0.14561063619232856, -0.034628286980012066, -0.04788461975250944, -0.023129964956575676, 0.02811082975379839, 0.008955255392878031, -0.05170679362012883, 0.03665255905271008, -0.009014103027824802, -0.06465394109204328, 0.01952847858986703, -0.0023539097991055634, 0.00685587121156092, 0.04325134193354332, 0.02149450484184275, 0.014916619067791863, 0.03243577412182662, 0.052256016936276024, 0.042163601894654755, 0.014481742218318648, -0.06937902019149617, -0.05446729536339465, -0.03359423725238258, -0.018668888938305435, -0.01585597710676057, -0.029110283623495353, -0.015825136808483256, 0.0019939155736781343, 0.0384856938292635, -0.02645606776663002, 0.02067571128968961, 0.060114015949963455, 0.0187425937352921, -0.031747891976636536, -0.06224498074926195, -0.001697941354388563, 0.0515434656169345, -0.05791103818609149], [0.0106849652088021, -0.006422904324754482, 0.057518579166974296, -0.010136590597182119, 0.040054606099481575, -0.008361033435147273, 0.033254402862744156, -0.005971280563234108, 0.02862016214156639, -0.017106500984784775, 0.03040824038105516, -0.0289408951810125, 0.07490859879128223, 0.04352188585747299, -0.007831228905129791, 0.10229496499111988, -0.004955269189982697, -0.02779197807168332, -0.07144981020922381, 0.006622605989549578, -0.05487190846251435, 0.06117922855500616, 0.01658350175841374, 0.02942315626101488, -0.019913717872302988, 0.04238898322539308, -0.021658599274452166, 0.007265787150886158, -0.038839861405407565, 0.04441544657722065, 0.04361424451527541, 0.0056706783531304565, -0.040983803283999386, 0.04585909798702294, 0.06012893996383061, 0.023994472838833696, 0.15951312965831826, 0.048266197838879615, 0.04724951220124981, 0.06995882927455266, 0.10758896882350365, 0.17038227218018823, -0.005635743890619594, 0.036790423102081055, 0.0810204823234355, 0.10801167691945887, 0.0822756747047423, 0.1452148103063462, 0.028676570779647803, 0.029326435910238993, 0.04557608899067126, 0.01189528392040374, -0.023118146592090588, -0.004067557244407833, 0.01356578680162485, 0.007210162002357935, -0.02726650524767068, -0.023416939781692337, -0.06298974674406016, 0.030937799105467456, -0.008525015671356748, -0.002901426693876115, 0.0684819833481056, 0.10502137812411995, 0.20629918993014704, 0.10305546881387247, 0.20670223499811022, 0.3841249124531997, 0.5665890392658832, 0.5693465288092341, 0.28825634512979614, 0.12336348235649516, 0.24430832743080313, 0.19906828224994255, 0.25279119541434736, 0.22625232489173988, 0.030329374638582856, 0.008537464962138766, 0.17237491913764108, 0.10707580281365879, -0.030625113784619618, -0.0552620100592494, -0.018809780929015973, 0.013408467365703202, 0.012440286290216313, -0.03722760477907897, -0.035839342102835355, -0.015101807384899649, -0.004752169605401023, 0.04253545063649231, 0.239649551691721, 0.2879166173542874, 0.35815318416664016, 0.36645062324674393, 0.18831432440146303, 0.2880586700714194, 0.8325830567643925, 0.8044383149475679, 0.7759301852619281, 0.44166725038960913, 0.2285047035940841, -0.017293727481648504, 0.20039261612481185, 0.2584120738869689, 0.4157462608532391, 0.3248946254684059, 0.36078839563684845, 0.2561284803871268, -0.11782094508445512, -0.060155252334992575, 0.006972874111728276, 0.03469519931928726, 0.012051768187901211, -0.06742702848687972, -0.06268821003829296, -0.0011292903976007963, 0.017811055386070716, -0.010885877105189375, 0.0459364728491187, 0.013119555376320593, 0.13309479458358653, 0.36280034653072424, 0.4245708964153344, -0.0330967103275377, -0.07709296116645804, 0.07023439062768914, 0.8079560830254705, 0.6835292764110174, 0.29446631432299747, 0.3917556637400549, 0.13016269973366182, 0.39562939912759215, 0.7273862247239863, 0.38696693693110856, 0.1718140075689163, 0.07420614982915179, -0.12547676251858764, -0.05371723904992199, 0.055066011817893036, -0.020769463137599684, 0.007080424934020886, 0.008591140619731086, -0.0267328949976221, -0.0026771460063222388, 0.03447844044226369, -0.08921112484584753, -0.09886302160342883, -0.4202246625120454, -0.45670176610303925, -0.29464434822263175, -0.4407422507710354, -1.5249573028084993, -1.608886178417427, -0.13373206671155966, 0.2966379747483607, 0.3695090223657904, -0.6435171708678677, -0.8575067365138308, -0.842978890650611, -0.7631529789213273, -0.44556563357707546, -0.43662992809380996, -0.3095043213158413, -0.43117908880488515, -0.30291590325283885, -0.060305557106150154, 0.03211721030829819, 0.011024856316933491, 0.011276359686596212, 0.010904421116673193, -0.02291734812678649, -0.12625739923504947, -0.12847438403534805, -0.004665881325113613, 0.11725516842676362, -0.3241648646657338, -0.6064084432357663, -0.6650754107503103, 0.23309881600681578, 0.24699965376321675, -0.4534687245641214, -0.41777498068848723, -0.8107696674489873, -0.7198358230033503, -0.0035594752791433173, -0.4525759346260373, -0.36637020323014197, -0.3679831224875484, -0.9042738493479539, -0.4016173450176661, -0.7873604852860834, -0.8364085812687018, -0.3542891947752609, -0.22786512197349953, -0.1383577734047323, 0.029285223659374807, -0.04053856681581486, 0.016279890218616085, 0.08002671819354759, -0.041866933914936184, -0.20379617057175536, -0.20647658903856136, 0.42987551716755174, 0.21531653535597312, 0.1740175022103574, 0.041380275721974835, -0.1288259216150223, 0.11826185470936193, 0.36489905570641584, 0.07968180059935687, 0.38704929014670314, -0.22026030791200085, -0.5011042107065906, -0.43332835695676786, -0.6894920257342602, -0.6882411371080454, 0.17339858666911917, -0.3519080232208732, -0.46192716976853776, 0.04431475286916095, -0.02899284897729694, 0.07680560885611383, -0.18654256249280132, -0.012791733307224397, 0.056545235975335666, -0.021039809395768737, 0.0447074444647115, 0.19604249503973134, -0.08670478468205337, 0.06114783226555395, 0.717152008280173, 0.8828100741406361, 0.6464171051933043, -0.37840743345061534, -0.18370033068146255, 0.34290100458009587, -0.10614943397976015, -0.3242094444318261, -0.1250842341136468, 0.21191930683207513, -0.3596403435266472, -0.005211768406405513, -0.5977545078945851, -0.8126067831457024, -0.3083877002311313, -0.6665635694592272, 0.08322864050082915, 0.29210150652487127, 0.1384798546922532, 0.18849079612546746, -0.07199805838339923, -0.10715330387352551, -0.006563421921375516, -0.017744082246808172, 0.05623421965279909, 0.35272543469942846, 0.23212999673611018, 1.0162810054582672, 1.0066871831960014, 0.3565405655802884, 0.5272937807264647, 0.44338506402646494, 0.202242347313099, 0.3473999933804334, 0.39306927950627313, 0.20090995047729043, 0.6826875234204156, 0.02505207535444694, -0.2138081389377718, 0.6368993970152569, -0.45757467566387494, 0.31308408424419987, 0.18587285502480702, 0.31472768900678794, 0.8518279219089167, -0.10682927933726517, 0.3237842149706402, 0.19351404756079205, 0.06110248529657837, 0.1658161622195879, 0.06779592989887938, 0.06580927395383611, 0.2839691256133927, 0.5007075785157705, 0.15206240236299437, 0.7477219603909937, 0.20144428029214625, 0.4086685105558164, -0.31979969332743335, -0.2239895800843457, 0.35030889493115447, -0.18132616008437108, 0.4432492381869443, 2.753096075712761, 2.313496063389047, 1.273217869660124, 0.8873023898177246, 0.3377430184280087, -0.14739681870427912, -0.27156078904551884, -0.00805322094373166, 0.869476702494852, 0.0952611064258925, 0.5368357264899747, 0.5392096525889238, 0.6406330408249168, 0.2221486026088177, 0.07017128953782208, 0.02177136159034589, 0.04245314225891145, 0.17326400657045063, 0.42014093099950306, 0.39674854568207885, -0.017470059507888002, -0.6948938433887152, 0.19250316647957288, -1.0394955076474732, 0.5342643596434015, -0.47936030663325185, -0.5408399955070522, 0.4239402712777481, 2.1717109155463215, 3.054711276609129, 1.8912579901960915, 0.8536166576240184, 0.5726557729355473, 0.9137588309266474, 0.0686707493310787, -0.6038627042602135, 0.014676541151083251, -0.23879001242150358, -0.01259828815665501, 0.1460673785093117, 0.4899102298752485, 0.17978793675053, 0.02369358190730472, -0.030079300383129896, 0.09115102399846035, 0.28463709318408986, 0.6091905482968316, 0.42995886797068056, -0.12908753738978912, -0.49299430527911164, 0.5267239811126122, 1.2067357609332041, 0.1353481768196022, -1.077276089146497, -1.7861860549411044, -1.0883323944387646, -0.8151296086551979, 0.18062446860678333, 0.28480635978806834, 0.5039797741056303, 0.21887332073437554, -0.10205605407955001, -1.0622672259873358, -0.4934414104100442, -0.799075408758247, -0.589556651221823, -0.5165939797687468, -0.30793194407731606, 0.36008887695042524, 0.1648863881211946, 0.06050914800566581, 0.038427680539968964, 0.050249500954940345, 0.13951149545957367, 0.28138205909052116, 0.4530871158705719, 0.18302002203930734, 0.050823587221206466, -0.6663240236836877, 0.2869342702996776, -1.345616387019207, -1.9207547716227262, -2.446186396250738, -1.4675045644945264, -1.3761288459831644, -0.7317188084346964, -0.6065464117541539, -0.13212979070660658, -0.25365339968667217, 0.29257916524584676, -0.2660131140145381, -0.02113872017199803, -0.06454218360511058, -0.16790911934078354, 0.48231914583475105, 0.6362767884934157, 0.52899132964818, 0.13789238677462357, 0.13728987717967384, 0.02079237441425876, -0.0016002079430591518, 0.08145842294953136, 0.021722433387504264, -0.3295327884461317, -0.0806471911817998, -0.16523595104605882, -1.0951350861807287, -0.8599964893612613, -1.4303287387225514, -1.140417085290388, -1.7441613881999378, -1.5335669044064348, -1.1507762155783707, 0.09105727691226496, -0.5232688577762219, -0.344902577146318, -0.4634213742796426, 0.9239264497140935, 0.7557363751703201, 0.4406770840370893, 0.6320173250893009, 0.7542213469318131, 1.1107575401200633, 0.4715301091697467, 0.3114903218544132, 0.052267398374066194, 0.03329014535566327, -0.06446037206838688, -0.06615964384369515, 0.08993271375511402, 0.23645663825039212, -0.6466049506970983, -1.1671715358071428, -0.7107063082368925, -1.469422897197589, -2.122739484664998, -1.4400276547725277, -1.359911231464218, -0.9530874224454372, -1.127004056240282, -0.46090615253744505, 0.24401988050759554, 0.4728743295251134, -0.4624662920894337, -0.3154241992363521, 0.41095973273504427, 0.8837624911012313, 1.5499427814823277, 1.0266004431932536, 0.335150839989851, -0.15452078946265946, -0.2475498330457106, -0.19344262804937826, -0.13103567594426865, 0.018740978093613327, -0.03731101112560968, -0.004018295811803437, 0.03955785321562752, 0.2117760178168672, -0.29385488993357034, -1.0770349970632906, -0.9373236166028087, -1.3123283360498705, -1.3316752162501952, -0.7621998763832127, -1.4333052560102808, -1.9046893509527139, -0.46537742842633545, 0.06978609237759487, 0.29516667523724, 0.1964233303041928, -0.11646115005049573, -0.14298516237152362, 0.7682445748299986, 0.2830785818062894, 0.7880859217438778, 0.625114384396789, -0.3015727177364272, -0.6785290146356016, -0.47513068073437564, -0.3197485839324592, -0.17265057627362337, -0.0071262134359586045, -0.04955586203979524, 0.011263994171881595, 0.01368361514268053, 0.0774489715217354, 0.07406492821505312, -0.09553631550461367, 0.13716569197230885, -0.6346197063931438, -0.9689686769939791, -0.6979062230844979, -0.9899604271703952, -0.5295777355516408, 0.09674343757479534, 0.0701247075837321, 0.34178900210587804, 0.08349164269655347, -0.16406992886804214, 0.5867396926090596, 0.1801156459990303, 0.5436313293357856, 1.1134906437289505, 0.9877667259857706, -0.21459652778067584, -0.42829821446523086, -0.23473520520671326, -0.23915470061640884, -0.04754054099072969, 0.02905899164002488, 0.05988376312023533, -0.015432646584802274, -0.02618432062103156, 0.04365293603190578, 0.1137410226488854, 0.007238317701602349, 0.5207568790207978, 0.6033058251722826, -0.38093425392429725, -0.7061020030760236, -0.9607861205474552, 0.20422586445465044, 0.565352974849487, 0.8135098706739066, 0.05458784752114799, 0.07504133986573376, 1.0231114501361689, 0.9164109530876755, 0.19720960357123496, 0.5129842530896317, 0.4137538849854861, 0.1346926915812355, -0.41068735472713297, -0.07010500322434329, -0.09486757943766513, -0.1781122554241451, 0.05053054614380733, 0.028090559113821214, -0.03172041213056125, 0.002020701594521448, -0.04601911136547896, -0.0932720853256006, -0.15898911747504227, -0.32938105266473733, -0.36960298685867016, 0.10008488893837802, 0.460733011208163, 0.09475698344590258, 0.23818520155925638, 1.047972762734301, 1.5013725198860668, 1.1764243582136187, 1.5717578400811945, 0.8349196400118226, 0.46691044877269183, -0.34340580370416673, -0.3663648134112949, -0.33094057549957917, -0.5110794189610582, -0.6545043188724065, -0.47698913730030235, -0.14904865708203233, -0.04800015221815652, -0.266728694484508, -0.04651803882408653, 0.04339716673125828, 0.04645122386341665, 0.003779085711348816, -0.035001197144680266, -0.29767005209011493, -0.5723145455522428, -0.9905122074045956, -0.6978928724572625, -0.3616844240196112, 0.35368872727651035, 0.6900856585774644, 1.1632193480788542, 1.1010358570404852, 1.6257944100010546, 0.8466774781464965, 1.7818294613461243, 0.11408756340736385, -0.20399481545452416, -0.5206522894017216, -0.6394192809586956, -0.8565746573696404, -1.0247133429380046, -0.6315205087786474, -0.6772328132127271, -0.1854633837738552, -0.13485356574826676, -0.2185889120414006, 0.05298189715175081, 0.02533523610666576, -0.020967074872940982, 0.013586793776376305, -0.10985253851034618, -0.23015705753581545, -0.5361813912866226, -0.7863567293840004, -0.6639174570537731, -0.6438388154558865, 0.266294852003335, 0.13078034160121685, 0.16181128183783913, 0.31782819698333237, 0.3266187134246659, -0.12004708019995665, 0.6281939820334944, 0.25916233609712885, 0.33140115478151305, -0.3431445237759978, -0.5700937868505941, -0.9439980090350013, -1.305944712017107, -0.8124368846345378, -1.0066647156940964, -0.5134501723277113, 0.0023510925744922567, -0.006834292736290389, 0.08197615694399746, -0.010776301493693437, 0.030102790360103802, -0.005401999485338475, -0.06067069714291729, -0.22105952281030128, -0.4836563999351464, -0.4277210994831036, -0.3702758599135611, -0.20447614630135066, -0.4065514892305809, 0.1241922644129256, -0.005019012507149741, -1.0265376665529025, -0.7760555098311743, -1.350356297903197, -0.6586721347660278, 0.060049717867338925, 0.047335000374123214, 0.43111355121413025, 0.04847625154915382, -0.5453751137387773, -1.2232013267159267, -1.428224861179276, -1.387385439156501, -0.8976760459918035, -0.21375701292651636, -0.06072054624919147, 0.009049036601585276, -0.0074478014271531405, 0.002212464939395388, 0.00054231893048728, -0.07936246267752407, -0.13232197081451919, -0.1086781059084603, 0.04734681272240838, 0.31940849273688837, 0.0822996974031778, -0.807945502438671, -0.6084637930396215, -0.8953338139323087, -1.6456902161435134, -1.309555668109819, -1.4503988149381564, -1.2118649176376275, -0.08930605991624804, -0.7689474588821208, -0.053289095863305, -0.7897742382694218, -0.910294151819079, -1.073548996211082, -1.1165157626712232, -1.2679922371973278, -1.1137115608842498, -0.2878272391892972, -0.053611858129499465, -0.06291808587881965, 0.03621076548107704, 0.0052456299035964484, -0.015163261277834088, -0.04051480905246975, -0.03237101476956651, 0.1946969013183449, 0.476947843476441, 0.44995659659339915, -0.10408977146468985, 0.03599390355337661, 0.20243189622480842, -0.17229480020775548, -0.34616373644801873, -0.6510268463739388, -0.6382795227778769, -0.8838478946137093, -0.2579159322382583, -1.070244790131479, -0.6402515422727582, -1.2709198863087998, -0.7852003888676962, -0.7372837954210634, -0.6463410252210086, -0.4936090276323738, -0.8208952147933525, -0.1971109384325434, 0.020409364064756554, -0.005432800437582445, 0.021334429143061502, 0.06097866537317426, -0.027463783635206147, -0.041185450516863883, 0.030274794271242876, 0.1052293588843176, -0.034927480181911164, -0.17898932381374924, 0.037002157594515694, 0.5334530755623624, 0.5504845451637936, 1.062003963050203, 1.041431745040126, 1.0772093851710232, 0.4805628800848128, 0.017349685495407757, -0.27040547644179314, -0.6329717149257891, -0.5092095272677587, -0.32314165061805694, -0.04434789825067305, -0.24039364489824705, -0.04515978567715918, 0.13620369179261, -0.24485247135641894, -0.013144740606221951, 0.04361030238903832, 0.014561854368683132, -0.05592801586358437, 0.03430117108965867, 0.0023947729597860053, -0.07302119757206316, -0.009380724927104643, -0.1379547166420771, -0.08846258797685357, -0.2770857612137292, -0.10112435361813464, 0.034857176622968646, -0.08929193374556228, 0.006680155138275129, 0.2686233213514499, 0.16703253215830802, 0.3267144665807063, 0.2458870194846691, 0.1761732964798209, 0.6421720192919697, 0.1734809315630613, 0.18718830789538768, 0.33386128683498084, 0.16023045939258335, 0.13686513064530625, 0.07081924133013577, -0.0724290783033708, 0.014227291482809802, -0.0031826688047479155, 0.03879170595558744, -0.02536222264376759, 0.013325635146282724, 0.03222791757264842, -0.02172532375996374, 0.01858048610115769, 0.06256936745977121, -0.0036733655933685987, -0.02546654502870225, 0.08509646521016664, 0.046167626843889954, -0.08164048024485608, -0.003319813242958013, 0.014975545518895706, -0.06502835826715149, 0.05429450075751657, -0.05972117359854225, 0.12369275000842185, 0.17673100151011722, 0.07470297727104029, -0.011191897929787496, 0.06185538025920868, -0.0024950894986575166, 0.010325096147766886, 0.06796706806851255, 0.0463051466370896, -0.03363166886770353, 0.038458998897626974, 0.05599561759453279, 0.0420689432499991], [-0.03777033851023578, -0.006986021946137881, -0.027697822905902603, -0.009107484358925897, 0.03518415107616011, -0.0017433533021184416, -0.00010218434174686251, 0.031235067882038125, 0.008507019129591533, 0.02660496200030834, -0.005599245591185152, 0.037857344033386496, 0.06753793123102345, 0.0813305536357505, 0.07091996249874173, -0.020664102171716294, 0.046067905700828894, -0.0016398787720306406, 0.010017645558207017, 0.02384055763163933, 0.025759024797627362, -0.019745080994487046, 0.0306181060367422, 0.010110271621170558, -0.0016645866801130369, -0.10838403873801458, -0.02549797405942994, 0.009235529203853881, -0.025992117832740417, 0.026463213132352097, -0.025252151889480295, 0.0028962970257096063, -0.03524787073116562, 0.0005979725721786362, 0.04254071681097784, 0.04069874112154951, 0.12321092747220086, 0.14164237094043772, 0.17647124440094553, 0.3110292128083607, 0.2719097732110803, 0.3281670229357098, 0.20445758857899016, 0.09229868269987482, 0.12928052129369882, 0.1524062790703877, 0.2020018306261801, 0.22139626947523947, 0.14412695868246322, 0.2773700750334829, 0.1374188337239358, 0.02924327065443201, -0.011893890135060906, 0.0849479356345568, -0.034315291304264535, -0.02145127714406514, 0.04408893357856419, -0.019661801148437078, -0.005118887407652692, -0.007527871959812266, -0.03572913048722513, -0.029909417235489205, 0.04022804673520681, 0.0745409235326036, 0.16786334090792784, 0.3092282010551059, 0.8629490790833635, 0.4674568627948079, 0.7503556071201513, 0.8293920656399475, 0.6600083772770469, 0.6397276230862401, 0.730989520137309, 0.4641385690055425, 0.4210363826009305, 0.601584904795363, 0.24433575553482512, 0.31955661741195074, 0.3671988835946561, 0.15012560245525314, -0.052309105628071124, 0.0032579579828769306, 0.007066281928747695, 0.015446357209662104, 0.06643777395824771, 0.02556254033433202, 0.008216236258734766, 0.04986147144117692, -0.07925061457345742, 0.03400806355314497, 0.16051530407565537, 0.14055948707374166, 0.16187542888618237, 0.5412822788375098, 1.151100440503973, 1.0868955126061592, 1.0431297663672359, 0.9863008649834929, 0.7779945568131609, 0.32587490007892156, 0.4233205318363835, 0.700041896152257, 0.9233975727911826, 0.9384589853147303, 0.9746290612114198, 0.7628882973892938, 0.19869080901990316, -0.025307473606957287, -0.1174241310615366, -0.1724307916385756, 0.020694317794409632, -0.007105479154853278, -0.08739042307757457, 0.03492827139570559, -0.03545332629369114, 0.06467548734546415, 0.04686261606646075, -0.01756571147959537, 0.00831822812605902, 0.05262728981766382, -0.01966773102741229, -0.07309740705324938, 0.35051921373994377, 0.3107207041732213, 0.02652076801064877, -0.5861252768256834, -0.48688316207057925, 0.763290351338039, -0.04410603521145435, 0.7469622475694939, 0.2443908466940153, 0.20575936001749323, 0.6801656217517311, 0.29241358923185595, -0.024496501041511767, -0.5646489068925361, -0.4722331844388166, -0.31778171875631467, -0.11914106833621294, 0.062368879999698736, -0.0014126472376134768, 0.016063159804696428, -0.04101555219162805, 0.036217284053878654, 0.10132101047693469, -0.09203110839063207, 0.08019648345270619, -0.2895378946489288, -0.11565072639229604, -0.04020043590289718, 0.3125601633949119, -1.1342870115601358, -0.9015045111247149, -0.38809965650887096, 0.11208104884384601, 0.006742269284949301, -0.9036171745245339, 0.09606136381473523, 0.05999142885559311, 0.7831614120913396, 0.3406688573009907, -0.5953076631035642, -0.8703485516594466, -0.5072835151036598, -0.42870983367889476, -0.5034488616156397, 0.007662142973061262, 0.0469502755757802, 0.035914804046385154, -0.0059258842151096655, -0.047012449508029845, 0.05476484953154513, 0.123952623157507, -0.14930315335712593, -0.011594141256832724, -0.03603446982274201, -0.040822083321998645, -0.3942846196836671, -0.4653011197794156, -0.22758391498852518, 0.30908776674886845, -0.21436614740262058, -0.575431965429114, -0.7302820409909733, -0.6732786484404422, 0.11299873563549466, 0.2828080242829656, -0.7570192601104796, -0.532902069562409, -0.01743939178605772, -0.6608872285900877, -1.1307811047798606, -1.2745947171015082, -0.6481926395043579, -0.2727897234701294, 0.01698702067906924, 0.008145037984415404, -0.01854531754285293, 0.0032460638127975714, 0.016789228672589078, 0.10947849154108198, 0.1323283070488172, -0.37453169742134945, -0.4609904557907433, -1.1871390518594989, -0.7767038089133439, -0.5529067435928107, -0.15666381483107356, -0.2680849078988995, -0.668301285199408, -0.08463862725280412, -0.20496580277468987, -0.33046210801514475, 0.5862010977809812, -0.19672633715007104, -1.6381814577229599, -1.0087117839730053, -0.6081883078552714, -1.2745321203014537, -1.3618192014702215, -1.0841984492611245, -0.69653172355033, -0.2905792878912264, -0.05377727413780211, 0.005555376347144437, -0.05390664569383577, -0.04228964221017359, -0.08121719322839055, 0.09798694516511577, -0.10230496959978212, -0.7524302026197863, -0.773050458858003, -0.7476308837044998, -0.9469692984503512, -0.5913713620250299, -1.0919170224639665, -0.09652759964222482, -0.4484546512098927, -0.4180088213504417, 0.2840933996978993, 0.3513882396182017, 0.6523067982694539, -0.9807622359407704, -1.6895896384660842, -0.4550858595674554, -0.5348448870916075, -1.2508316604980447, -1.4350875444603146, -1.4752042481932697, -0.8945086955760427, -0.2860872830267529, -0.06458813640504929, 0.07542151866143815, -0.02066862970639835, -0.002581559913221096, -0.020225963567922653, -0.1763711502904896, -0.3895676311853674, -0.390017792169521, 0.23408462614875333, -0.25546811412076736, -1.515348454164089, -0.9266997052031922, -1.517097236514016, -1.0310767002511592, 0.07026652502809232, 0.9422148771040115, 0.1771655614184309, -0.8819958418783904, -0.6016136041116054, -0.10303332373354086, -0.5947829459814737, -0.2619345859525841, -0.8988320452658789, -0.9117460837670516, -0.5948109425245267, -1.4680384834115754, -1.4076542225488764, -0.3523157378360817, -0.03347692806167299, 0.02681893825776997, -0.018389856593722366, 0.01911083564979997, 0.03558412194410579, -0.4201618200188311, -0.4424977059173641, -0.5951707842311873, -0.20005397855685583, -0.7635859242204788, -0.8256522945657221, -0.6094896985734423, -0.09306658881605424, -0.0028431878418993667, 1.5834884827723532, 0.5952278282214761, -0.873367621094118, -0.9463656173232725, -1.2781848725403613, -0.2132982760050142, -0.7663872554270599, -0.45576595266497827, -0.7943231066265144, -0.13922632345256133, -0.14923315792906441, -1.1426432269986044, -1.2849975597480356, -0.5944350904881592, -0.05160813572851441, -0.00323578129598224, -0.019212514288217342, 0.07309891754632704, 0.06533884151486415, -0.21065283526340256, -0.8120916304489251, 0.1302197939502455, 0.5718598160974687, 0.0770952242913424, 1.2190493062177994, 1.3170971843447425, 1.5487761656705608, 1.1219093976953782, 1.846867359242959, -0.31868200170619093, -1.1105834932048169, -0.27553286463804344, -0.612658110086327, 0.08976133139219988, -0.03896182910411373, 0.6259810219273224, 0.877088358575545, 0.09840205471026783, 0.08521498665822139, -0.752387228021424, -1.4626440863677304, -0.5348846461677611, -0.05497110483330682, 0.029215124487225984, 0.000875337263576258, 0.07274769426225904, 0.016320788601476125, 0.01339448717227427, 0.391153136022299, 1.4686644022686013, 1.7823124258456653, 1.1419719917286473, 1.8036110573613529, 0.9549811569776149, 1.5286919924892082, 0.6989115935377688, 0.15030407768148216, -1.3295444452534584, -0.6960766254523785, -0.10242348126977179, -0.20925456119844288, -0.10745968691814278, 0.01780807464571793, -0.0301707695148896, 0.23349772947544783, 0.7119436227007262, 0.9013878390343505, 0.10835550107243322, -1.2144520562671084, -0.5443099647106066, -0.09015999334161305, 0.01656638326096481, 0.08328416308672301, 0.05112428010808059, 0.13710090733154842, 0.23479551659266926, 1.2036531688178322, 1.8050388417688465, 1.5376880704591938, 0.5147365114216246, 0.219906428525596, 0.42774405535319476, -0.07416685000126266, -1.023581935918106, -1.3862287910661661, -1.1363405029779359, -0.05835519538412504, -0.5646527177639814, -0.6052752150481508, -0.34036335410541374, -0.03592567078976128, -0.96114418663513, 0.685816954056487, 1.372930205315649, 1.931295876826402, 0.8796706385501953, -0.4931978374619438, -0.4532760150867398, -0.2596267664286208, 0.03466917009624249, -0.012039749760468624, 0.06320575070050269, 0.009801332907889778, -0.18421233782971602, 0.5158108132491696, 0.6272691321980948, 0.17584369070156053, 0.14701798072812397, 0.00028388761465184166, -0.036961672547646665, 0.1684630421660705, -0.8247240122733255, -1.7611659581822736, -0.5670869983624429, -0.5892558731074595, -1.1212837128558126, -0.8431004522420997, -0.4535699191678019, 0.2727406076411688, 0.6079738885838128, 1.0093536322868795, 1.2837436731732526, 1.5124397687576527, 0.28715179250532846, -0.47971763667308287, -0.36936651792464387, 0.01702558040512526, -0.028304372642468555, -0.00047450088564238185, -0.003200544335762658, -0.2228780045742331, -0.40399419206955334, -0.1098587842396429, 0.2205769111355291, 1.4606549225779306, 0.2314528004551743, -0.22588222681341313, 0.5259866985380215, 0.3087603660102851, -0.667224435022772, -1.9959340054497559, -0.9095194328432116, -1.0337911269585816, -1.0497285983897424, -0.026760564495670405, 0.3306367101825444, 0.3728374420151316, 1.4075154888905959, 0.8648647188946079, 0.4072603060854552, 0.6426434199205694, -0.1368928421256456, -0.31595435383562015, -0.48042541333356714, -0.023782870706030575, -0.06636607614724374, 0.010349711598163927, 0.02660786783983239, -0.0744091145426577, -0.1728804638343267, 0.024168284315627373, 0.5186857345775797, 0.8861557415803635, 0.7803067871885498, 0.279991408075913, 0.3744190420743457, 1.2400601935198432, -0.6569245125510413, -1.2581555468021637, -0.5776147356518191, -0.9067554109326649, -1.1090947473682373, -0.5885836393613434, -0.09158761343634796, 0.32896252417410976, 0.24626005705507423, -0.37274504016326215, 0.030507536172346812, -0.16354395114516812, 0.149680266853504, -0.49511031613605594, -0.42842192173366733, -0.018525760987975298, 0.025355540833376967, 0.035005648403503044, 0.020816702312519343, -0.09731800570094931, -0.47306627198739964, 0.04798505904880705, 0.3763497362397364, 0.5905436599138858, 0.4006259707534562, 0.1705643140411649, 0.13249757407900453, 0.8335091986696821, -0.6047038348254589, -0.8494979578241041, -0.6874684381450591, -1.392986162342097, -0.9734567018016138, -0.3382787424907899, -0.14980997716646152, 0.3337579564923943, 0.2531053338465048, 0.03344746101501088, 0.7226443147008197, 0.4082372148364794, -0.13245659283880418, -0.3723246613495258, -0.18428014246303265, 0.008472531096953992, -0.006668287969550412, 0.0013851754760164554, 0.09558904658689203, -0.36733228147629926, -0.9319889075196024, -0.16656995871341215, -0.703354664685495, -0.5590355615624523, 0.8860262543956731, 0.17664002575989915, 0.815783351475354, 1.0423241460737829, 0.7939282500362608, -0.6401090878734365, -1.3335938282308948, -0.14950367508905726, 0.5422555678190653, 0.8391956516354916, 0.8330279769484358, 0.07206477629913237, 0.026478490071999115, 1.0775883620589333, -0.18272550833568046, -0.3602176795784409, -0.5853152939137893, -0.5248432635458439, -0.08901734279269409, 0.05477106259535692, -0.07324429673571942, 0.01959441956347837, 0.030426671900567515, -0.11033943950182215, -0.758104802912837, 0.31562498181886167, -0.4544953941205224, -0.7202705084467369, 0.4087345926960866, 0.5224154364789052, 0.7696071015523593, 1.7589196057904748, 2.1317925625348364, 1.1283930573770737, 0.19254997765342777, 0.39443253792617416, 0.6869239786122039, 0.5487192695863796, 0.4039885512359705, 0.70749173936121, 0.5584632405372932, 0.22831134889167187, -0.7814116195782016, -0.15886072951658037, -0.6775468800103298, -0.4499362286880438, -0.11107335137483632, -0.0039876595201492485, 0.03062548613268104, -0.03696998419032472, -0.027648558563482497, -0.3422910628395816, -0.7497177621589434, -0.0964194330671017, -0.566369976909931, -0.9001220330532582, -0.1017513158061253, 0.24917915948379282, 0.14967991932082456, -0.455640652254099, 1.0034043487438689, 1.3501130094869915, 1.2641525639451905, 1.2031643822897522, -0.11099956303174878, 0.1464131347342203, -0.4133610886851554, -0.4535931928142663, 0.3944075949768935, -0.14851181521441856, -0.5933091243796045, -0.24287393190223247, -0.49501278033119944, -0.23215605069026746, 0.02879200549888867, -0.0663147826586066, 0.020918347164411176, 0.08243175094270964, -0.08969409422878244, -0.26788528771676606, -0.7212803395650341, -0.5059963633626712, -0.898726066072599, -0.8496184156703358, -0.35195848846047295, -0.35505781014454213, 0.08425054605412141, -0.270349358756152, 0.9666323800448439, 1.3190428350667924, 1.140705995794026, 1.4022240086248616, 0.08084579910063538, -0.26186397795072835, 0.2501636386044332, -0.1758170687539929, 0.24355195438568034, -0.22621546330071712, -0.24473238423417681, -0.3630134753631667, -0.22127510146405266, -0.044660794334020995, 0.027392486150361082, 0.02908241964905333, 0.059054654970183335, -0.00911498844379488, 0.04713903111285303, -0.06538409846506472, -0.4730542955219033, -0.3970113482627786, -0.37583747483961705, -0.7958982956182956, -0.45813120788235967, -0.14618944477267595, -0.21725646087029182, -0.16362576910124157, 0.17779351928504322, 1.1185859526996034, 0.44051779171871774, 0.8899121769432762, 0.24576846606723743, 0.18022597739284912, -0.39375272885451834, -0.3349530192458998, -0.041127447882066695, -0.17926099870976667, -0.4105853260919436, -0.4602095013936149, -0.23744772323987612, 0.07249108213280238, -0.017631282576056426, 0.018065384065834154, 0.013959552046857353, 0.00399254439930005, -0.023676242146839253, -0.021170518147218407, -0.27665053873640233, -0.3479703281359014, -0.42492400808398906, -0.4046477723476849, 0.0346868094187075, 0.2612095411903956, 0.4170962821106958, 1.0140571026394338, 0.4957639273514488, 0.3699592800313829, 0.049326383009179534, 0.3417467544836586, 0.20240882183464226, -0.014700388758388411, -0.15865826898656565, -0.3253519513337434, -0.42133878893145615, -0.38670971423295925, -0.5115081315740958, -0.2528702506656851, -0.027348346090066256, -0.03294015371846361, 0.04920362092676667, -0.009670847208736651, -0.015989627955732385, -0.0515261920508339, -0.0030046029170580197, 0.055876470664257355, -0.005491595998236246, -0.2205061129010963, -0.3463234673665663, -0.42642184788544624, -0.43100115442659287, -0.2558144281777614, -0.4260350181037423, -0.5327794852859198, -0.03475550846665649, 0.07927219345747444, 0.16336286490101545, 0.42115947472278703, 0.3257912700709625, 0.31652277222729064, -0.04607332329327509, -0.3067554648654041, -0.4150177879780267, -0.317738005390699, -0.037116275956315115, -0.09027227245568535, -0.026616547168367574, -0.022405405397895185, 0.004096646104141492, -0.0035779193542796847, -0.059667027408370384, -0.04100732607536018, 0.050349555884160596, 0.03676423402355818, 0.017175196383418995, -0.06121799626833575, -0.014916915563703998, -0.053279876020018546, -0.2685290559010061, -0.5706182157694265, -0.7585992698820344, -0.7802057832153427, -0.5699667271542019, -0.5227259493966623, -0.6449050394475698, -0.7051211210210445, -0.5973375410750763, -0.35835006552656423, -0.31367663944425134, -0.16359016268396093, -0.10563142815509512, -0.046673724448346526, 0.01964970416985021, -0.020466210944133704, -0.006640061924165617, 0.008496384318274841, 0.011487762834948581, -0.040193049622223406, -0.06492937005678838, 0.04293386269187767, 0.02211441597977148, -0.04273324147755797, -0.03948278232843104, -0.00039457267979631276, -0.07444466920350962, 0.02281358306227461, -0.09675043379324062, -0.32157817034110375, -0.31085090051558434, -0.2821946193932859, -0.11144990016557148, -0.16212002234518366, -0.3245127873082036, -0.09524348607425202, 0.02993376959230197, 0.019880658605694396, 0.01710194146221159, 0.05130933523683566, 0.006640688692318047, -0.0648818296992305, -0.02227294432860418, 0.0638932656997216, -0.043023623410291215, 0.017946306763883303, 0.022580345713615772, -0.03624093885213315, -0.01911967649717603, -0.01011083773113162, 0.005561704103620896, -0.051849229201581984, 0.004613122582448192, -0.02586649747585727, -0.017009745601035915, 0.0006313761482542016, 0.036113563093906835, -0.006418918022619374, -0.06542911573247234, -0.006612256019039935, 0.022475771443565478, 0.040089832971715866, 0.02758173362205487, 0.0050342026912904144, -0.008881305141403813, 0.08208515794685954, 0.004638721441474582, -0.017596022392787215, -0.035141580116664836, 0.00027767169919016345, -0.013721795138055442, 0.028702738147204452, -0.05022324374249597, -0.08351514160461533, -0.020895353982926714, -0.0028091006618211727], [0.031210374713704987, 0.002145936598693227, -0.002090389507149416, 0.014917042612754287, -0.017081249931149848, -0.012178269192909487, -0.03039502713094522, -0.018820198236322146, -0.0067692102285467955, 0.0015811927629778926, -0.012419462451241248, 0.03264819998305157, 0.02648302877943582, 0.009637369718229408, -0.021518917182920653, 0.009937126754221173, 0.03193926020873634, 0.04448362390316783, 0.013063225406791138, 0.0467084674245553, 0.05056913563750073, 0.0808871646726074, -0.03621762758184875, -0.08206580238322823, 0.05628196889774507, 0.04578476583136709, -0.05239959776455009, 0.06725108402518735, 0.02028360263346698, -0.0353523269950713, 0.03499929929422773, -0.04208716322995331, -0.07958245930087454, 0.040299816672325295, 0.02747645088326473, -0.0033149554679215228, 0.08136553605850012, 0.047835684224358216, 0.031027682053626434, -0.032603045121367594, 0.03370399695400566, 0.01999270753085818, 0.02948174189693865, 0.11417307287341424, 0.03265477593915427, 0.01020615168922433, 0.012866151532700437, 0.0010269184627596834, 0.034307181408398085, 0.03697100545230154, -0.005847468555370608, 0.08978649440548814, -0.03313125037830196, 0.07735217939361348, 0.05054787366915633, -0.024290419775406722, 0.010669097811377069, 0.04221233394158707, 0.0026153547106021195, 0.0027353297078368624, -0.060565289485617665, 0.01085657519836605, -0.07846005170695557, -0.02312580180362484, 0.06951366891820719, 0.0717885525488899, 0.0831845514889644, 0.1828655645445311, 0.23483561825602017, 0.13237692795185702, 0.21823604959889542, 0.14969236544513798, -0.06278922425223077, 0.03473125384857405, -0.3016187457068885, -0.1983953454321589, -0.22140717049664374, -0.07215349466222697, -0.13906982172329987, -0.05695556681402937, -0.05117861338090701, -0.017513016370957323, 0.014471282691657636, -0.01085024892461387, 0.00979500862025889, 0.05550202738997491, -0.008506727660732252, 0.03543971928047052, 0.014821725579681835, -0.030853074993574658, -0.03244939826810167, 0.002514896481224642, 0.04279134577755471, 0.03214827902346896, -0.06980434230660748, -0.13545379454715392, -0.44334266051172544, -0.46330279795484836, -0.3889500813009079, -0.09663393635973769, -0.07520617907173131, 0.15725012589558082, 0.1803712586927421, -0.050707419332112875, 0.13181118490395527, 0.13326450548768154, 0.14133890909140126, 0.10446702197463345, -0.1261732289747027, 0.05135919475027147, 0.0059035892946432845, 0.04234647225379983, 0.00415232906255664, 0.0028156379220406454, -0.020937194217593946, 0.013699308715922178, -0.10900419914916086, -0.29484423990927183, -0.1998609387487741, -0.5087006954932576, -0.5027916866946964, -0.07097678038934456, -0.06183492776772361, -0.5801254604837329, -0.6610997265778877, -0.12734173245314612, 0.1858992687987375, -0.5539832321870234, -0.056270549834556996, 0.07856966763700583, -0.7509620794567303, -0.2427564388473111, 0.7526925148358242, -0.40204245961907703, -0.3823398960066683, -0.30587657774855304, -0.7858642214073804, -0.20236406513417604, 0.008072099942102347, 0.06472939522071464, -0.06678391515960251, -0.03970572743658134, 0.03313394059892782, -0.08921302551044327, -0.2843060067582051, -0.39883459858840675, -0.5496948941858146, -0.6856604247958258, -0.5059387397301581, -0.08952186764612471, -0.594584205314276, -0.46993700272019845, -0.31938466636139223, -0.49403552125458644, -0.17520641720345118, 0.06651963233260338, -0.5016782376541575, -0.27940111813740226, -0.46817500907744125, -0.2155109222737193, -0.5722876920270142, -0.4305378547215617, -0.38212566905179496, -1.0595770885178055, -0.7762224272000654, -0.19944174176498863, 0.05584436151760275, 0.0036690227684682435, -0.0034009954482800905, -0.027647573063370155, 0.04861845607452334, -0.17972551063055106, -0.318992174224542, -0.7000717492084889, -0.5928875910949327, -0.46518321216909225, 0.007950629186407378, -0.28320524926632773, -0.5141449893307678, -0.012589725026188695, -0.04176111849376363, -0.2829715753640797, -0.33396050769735486, 0.2593129697118496, -0.3270624685247937, -0.36821847285409687, -0.3827614339177267, -0.6051024660965411, -1.121035354431649, -0.49104527362878114, -0.06314641991498697, -0.8548660466153054, -1.6467140291343108, -0.5700961998839649, -0.2892693254817288, -0.014893586936631394, -0.029668300416237803, -0.017262099511108405, 0.003742362552043932, -0.3606325067820073, -0.34417158374103535, -0.5152511932856947, -0.27017580345872855, -0.3946911320793652, 0.08867582937818613, 0.18159866112980064, -1.0434887481679327, -1.2537198324007133, -1.220698288429145, -0.647391302800748, -0.7941490149175446, 0.03364483085075657, -0.7188690956009848, -0.4409890651161182, -0.2757868962379343, -0.9017317506415888, -1.5589107180718484, -1.0353046963669357, -0.1740018535071385, -0.322344799006266, -0.661437365523951, -0.8082996451676104, -0.20864456233434944, -0.03612791941658584, -0.02987020972535825, -0.06030802091637237, 0.06569213699198989, -0.2384006572536066, -0.33510945274045206, -0.19696943728515992, 0.22806028349760488, 0.05370056574828514, -0.0899810742607717, 0.4063134822737806, -0.17064761447908902, -0.2267299528068163, 0.1604360351909937, -0.14132211788815494, -1.4159529310458334, -0.4306703364857457, 0.3320355700317836, -0.6102270192071167, -0.8607910783634808, -0.27642489073836124, -0.4216996112388042, -0.36498997105633835, 0.13912411187444074, 0.6613557150749315, -0.4893156330189436, -0.7235516129248851, -0.22300876443475723, -0.01646780003396374, 0.0012522098928151651, 0.02454725749646693, -0.006713804833946098, -0.37274604852800614, -0.40294117662235085, 0.4130452306320162, 0.14931446222856512, 0.08134177014939449, -0.1233444854739456, 0.17976262040249721, 0.4412324346990528, -0.26138038326137825, 0.32949092615930337, 0.4312467998801054, -0.13217906997914453, 0.6793661136704989, 0.7713853639099321, 0.6693163672534195, 0.6457584054110815, 0.7393455089104688, 0.9728798670712403, 0.6782606706119374, 0.9199067978695131, 1.603191462656341, 0.6179695483865649, -0.2525610457507594, -0.15119913062899298, -0.03980996125909826, -0.057251244845428595, -0.016813037164723654, -0.10025982660467028, -0.4981857984528623, -0.269596871306207, 0.10668110524891858, 0.21436364203395503, 0.7472238426118412, 0.13586023719048135, 0.2245057250352573, 0.8063053525228413, 0.6720497038909228, 0.8835925027376189, 1.0098260806540194, 1.1214211696613212, 0.9541533986071692, 1.1791435362056464, 2.139833396493964, 1.8165304280914802, 2.037593668955603, 1.3776107500560777, 1.6270366915497412, 1.8513176596195915, 2.1444825216632917, 1.1567680961880844, -0.012349620508964657, -0.0701057991288731, -0.022460636515141918, 0.03581089392825025, -0.008911298591529384, -0.05247953951729147, -0.298831539531331, -0.08091523742833277, 0.625232974103604, 0.44111594697653655, 1.2988829474935035, 1.331581653530288, 1.1788093936226365, 0.6916725323571044, 0.9281768208907483, 0.6837920645459544, 0.2858522073782049, 0.2648639528527211, -0.12382280525122925, 0.46511994634266074, 0.3481364447931419, 0.37918864254178447, 0.6786738423219079, 0.9816933039055405, 2.0499915085693043, 2.4370006174327936, 2.2833167881279626, 1.5429533711883778, 0.20674420152159012, -0.030202428958686037, -0.03821866788040924, -0.02038404154288068, -0.035803114839991414, 0.009003244211769427, -0.16854474138011122, -0.0002454967709791154, 0.5247275790142676, 1.0500202868205204, 1.0648113322433888, 0.6117467817919713, 0.7524961716509861, 0.05584804631238574, -0.017622553505135936, -0.16231550780244164, 0.4700029375702824, -0.021219474435856603, 0.4435359397004076, 0.19493834851552658, -0.08180395225273517, -0.05925545265923224, 0.3526294451304045, -0.4671145023855911, 0.7901435708624799, 1.5199135400251682, 2.170769595750297, 1.446251297461053, 0.26782459953358767, 0.024459592808103288, -0.015020363013929543, -0.00548148926862221, -0.050823338423853504, -0.05992953666870677, -0.040878823763730254, -0.2461709652223148, -0.2772060025638702, 0.08634990459194701, 0.5088028975904657, -0.3329394236493525, -0.3716216751575323, -0.17158945774557496, -0.6055852649010859, 0.05949114356882705, -0.345185325445767, -0.16044107500750346, 0.7954114390669138, 0.3965332049678988, 0.011369490558964693, -0.3145397984331988, -0.002537720530817178, -0.0452692782831872, 0.056107644079941225, 0.7074099376985191, 1.4235811575384194, 1.430895613310177, 0.3204141420858127, 0.00511918558890197, 0.020905385454962826, -0.016575572380885396, 0.05438644446655323, 0.007345724249671273, -0.08403596645720056, -0.4226984097498768, -0.33364662105993453, 0.03644678149434399, 0.32197617139355367, -0.4176926019906784, 0.6607227718046171, 0.43327149995245806, 0.948308956585467, 0.8505966354988842, 0.6707371959521691, 0.2291525206042895, -0.0019035356427350085, 0.8950371839970676, 1.0089170619706713, -0.11112425993626925, 0.2818861133043716, -0.11954240607381478, -0.06256760366786823, -0.08222519557392571, 0.2205974034158076, 0.8377424990237832, 0.19597885693978, -0.04149582890169445, 0.09005726576615244, -0.058652623853639195, -0.017909933769582737, -0.06489405589084968, -0.28637796312901564, -0.22063489070012998, 0.49020629507517766, 1.1760506942228608, 1.3770970997577647, 0.7847070525938535, 0.21680260284951475, 0.047279476794272586, -0.4488421213602165, 0.498894104482612, 1.1351921644429919, 0.7124809755829113, 0.6355767643516357, 1.2524865526974194, 1.0208239156260588, -0.5497564868463101, -0.9754539012761468, -0.5861052844362433, 0.1306973494619775, 0.0919393380603468, -0.2605638511668542, 0.03585587268279127, 0.04983535573318601, -0.030975653346251564, -0.029156595627304785, 0.04764593803732294, -0.05126536447586075, -0.01801444898177659, -0.3554425403465992, -0.0527523742440809, 0.8303976532925822, 2.208796080661938, 2.6340176087449274, 3.1037735901807997, 1.7924900301586795, 0.040472109417198636, -0.541530724257411, -1.0565657707786795, -0.7717006656359099, 0.018864792761996475, 0.48413557999028134, 0.9290231218369635, 0.07547629775714589, -0.8604877160924658, -1.020053548524393, 0.02682015991845147, 0.10983299312450183, -0.17813897315230715, -0.19194477798645637, -0.607382083465717, -0.10151841505953278, -0.04797595195059255, 0.012679088547908958, 0.004949079896615956, 0.02373315018895268, -0.039868446698384644, -0.36561977405579305, -0.46137600407043333, 1.0023529412618601, 1.6668620549961166, 1.7694069356084579, 2.9539622520158955, 4.021011876187252, 3.4998594487168595, 3.0421229685483397, 1.0318831012137988, 0.5659337502232848, 1.5319474824090944, 0.5765538591543634, 0.7419890148493254, -0.4288614606215281, -1.3516811314498516, -0.26297307682168464, -0.19780340688019032, -0.42773967473229924, 0.1547493229374628, -0.43799311489912884, -0.7528353572718173, -0.11505935439930315, 0.05313749665286582, -0.07308922384024029, -0.027323740191522713, 0.04553186266784758, -0.09985164660113542, -0.5332559555075317, -0.8176642825517932, 0.5063159020688016, 0.9066707468104785, 0.5165240073162349, 0.8410136482174613, 2.5693427051101474, 3.975111631043826, 5.264898048075229, 4.785174902903122, 3.7945352440623825, 2.469132405681708, -0.10158305797966014, -1.1347048742842383, -0.3582960320207339, -0.9714425076823267, -0.9482286393157762, -0.5527025449758075, -1.2212094394060389, -0.6393887092817463, -0.8020518779260192, -0.2608744430942104, 0.0221994357123179, 0.08580577764126751, -0.01818079219081482, 0.03412066566739709, 0.043399062206803375, -0.0947316460007978, -0.5727450827679192, -0.6313932432394702, -0.25445100945572563, 0.2757556688465766, -0.02835930344242385, 0.29588926547773176, 0.5724232885165834, -0.017462951478158285, 0.090596477092573, 1.1579023475403063, 1.3047406237565808, 0.7795991309770752, -1.0969293601314274, -0.8752914818125055, 0.0514586547748498, -0.7597612054802646, -0.6498095414527519, -0.25085227345622907, -0.8898588233457303, -0.5717329097420304, -0.2273575520231613, -0.02671662605666038, 0.11738167125212365, 0.05682248997028007, 0.042356049058708996, -0.0254700149452324, 0.013993303332653279, -0.05595560869899226, -0.39046788017712963, -0.5449401692970504, -0.027350739162630516, -0.1284746983684948, 0.2690247060901782, 0.20051258349005302, 0.901824465841061, 0.41352876294335195, -0.637211367036506, -0.7639320983563519, -0.8835696494417871, -0.5867122602234951, -0.5041732672022398, -0.4630067306682184, -0.9023230905961132, -0.3758097962486368, -0.2286390393835938, -0.7771313095631412, -0.221407319270441, -0.1797330758255055, -0.05463857056128371, 0.12218413109421414, 0.11924942621192033, 0.04290660619287566, 0.0055867186429073646, -0.006058113519776965, 0.040219648121788965, 0.004772915818801607, -0.38174032593975094, -0.5671161958939986, 0.1718281296547098, -0.121303050198862, -0.39642480960648263, -0.6353882077792585, 0.41124025444164064, -0.1994832347188454, -0.08811064234732408, -0.5671458145384249, -0.4603079486516907, -1.0029943509618056, -0.8043808613927961, 0.047886411213326104, 0.34583440492924067, -0.6597765202135406, -0.18014140201114404, -0.7256441514837056, 0.08451368565505962, 0.11328066867572362, -0.3465543762153196, 0.05694603826050092, 0.14342020159688748, -0.004478436577400785, 0.025406446043368926, 0.0178938692354425, 0.01643119841586738, -0.003485199684660674, -0.1730696831576447, -0.2694415553157086, -0.37858355932404303, 0.10553715388810593, 0.09291439956989749, -0.567022704003289, -0.4911222890799426, -0.7248981771014639, -0.9379551452115765, -0.6734312292840766, -0.36935373642051395, 0.08237099767988246, -0.41908314246705686, -0.10893802097425509, -0.24568294480335812, -0.10110853539813902, -0.8291927395819235, -0.6524166953395255, 0.31695163263223214, -0.10142416914472481, -0.2809348025367477, 0.23859109089757405, 0.12017583051474567, 0.10266536117116652, -0.04442922384061812, -0.05119981130687873, 0.02417155024222682, -0.018637624148730037, -0.1650803273890262, -0.5277319924355869, -0.8976789635757835, -1.2571762883754873, -1.1899425067003926, -0.5195484253220689, -0.40199743799334015, 0.029655942830283433, -0.47673982934374287, -0.39745575035299757, -0.23414201679956168, -0.27474527932753673, -0.6968065837827788, 0.23107128248754558, 0.13901828135934102, 0.6046197547993872, 0.4088648489355457, 0.24623842102530608, 0.1816351873948228, -0.27389215930648375, -0.1274927829721964, 0.15356519872598173, 0.13499426300518336, -0.02388010420113795, 0.023422915296905, 0.038692086482198296, -0.016506335794834768, 0.027451754917982105, -0.13362499262078747, -0.43413946236169265, -0.8127291501566513, -1.2918207683356133, -1.8754580425169296, -1.3143985537908813, -1.3674164793457877, -1.2638368740993287, -1.0638716533505537, -0.3822727938129547, -0.2764582015601821, -0.7806447216371257, -0.1076887018221079, 0.28042115195125766, -0.10856779296532225, 0.6228601229827299, 0.7245478194339982, -0.20114201507365584, -0.41984234018199884, -0.3604749807160113, -0.08532534611096318, 0.032866352253795375, 0.04217488765291154, 0.010328026592384694, 0.0017011143864763994, 0.01301035926198321, -0.04575786773609317, 0.012695914095416917, -0.01181269989020688, 0.003528505716057699, -0.04883489008445134, -0.27826903695137334, -0.6350772717335625, -1.1698167597558589, -1.629605768243839, -1.3300360223771543, -1.5174441817875215, -1.8072635602381661, -0.9344334699171455, 0.11486930346962135, 0.39202594659427226, 0.0976436989606753, 0.44532300281075776, 0.22853950643701215, -0.14619170682228178, -0.08853179199736713, -0.06815294923319248, -0.23055965409339432, -0.05086078284469524, -0.05344089352923866, 0.028934127080720625, 0.004916119357226801, 0.022911787657540157, 0.011545304928478797, 0.010421983678759876, -0.03606133438240733, -0.021613939635180244, -0.01732907260220245, 0.06170074743471068, 0.01692024000057672, -0.10971846847413742, -0.12497605344080773, -0.24293063693723743, -0.17584489220928629, -0.019496904112969362, -0.03313622295960324, -0.07272754754660302, -0.04073030444593483, -0.305159430657746, -0.2230437896765163, 0.011529131857639617, -0.23081013629917216, -0.20476789722681513, -0.16111899634935362, -0.18543885584235267, -0.1259221773890474, -0.04324309400469706, 0.006341424830020043, -0.03906667601615794, 0.03242602510158119, 0.048091758999082475, -0.01204067482789688, 0.07284361930380413, -0.03251036173658242, -0.03678123927877038, -0.0030124533433389337, 0.04387027847856986, -0.03853460591305723, -0.04592607661241806, 0.008145773811979333, -0.014295034714774203, -0.03419628249948386, -0.030144329973763807, 0.07004197954535851, -0.024239043253845634, -0.024101212240179682, 0.004859142368036943, -0.05096441884089235, -0.006932353099145014, -0.02197857809345135, 0.01499038363201674, -0.060148496502414904, 0.023100882671525116, 0.02727995403629606, -0.031149349589436624, -0.060592213960778796, 0.028968774929248566, -0.040128013840104775, 0.02355179985599914], [-0.025541190304731193, 0.021755822099451406, -0.023643701411623096, 0.030336290915535948, 0.04550888558255655, 0.030113962479814706, -0.033598826486259815, 0.016489794406432494, 0.047050467299213035, 0.009108178971393198, 0.03878978942344822, 0.020910147242975578, 0.06576495960582907, 