{"biases": [[[-0.561429719555807], [0.0372446180867087], [-0.44059984477587744], [-0.7705158829748593], [1.0699687269644198], [-2.2722106732877116], [0.5079665496408353], [-1.3232408969403144], [0.19008253629866742], [1.794595008955475], [-0.1153893678735423], [-0.30672350717370395], [0.0021372260504203236], [-1.1946030035692647], [-0.8325693587131563], [0.6591152141331307], [0.7223953751191659], [-0.43284880168041173], [-1.0074414288880889], [0.04750225643800106], [2.0711860339434476], [0.46044199250066986], [-0.8072811330809534], [0.8204111472682615], [-1.201735549908214], [0.2798812395373536], [-0.20758568093022278], [-0.2467423033818172], [-2.0217839178483], [-0.6919222207982806]], [[0.08334619625329605], [0.4774545820056654], [1.1399070029267129], [-0.5176357160940637], [0.009931780846853474], [0.24117461320056122], [0.1654212804485987], [-1.6852276148322314], [-0.6356370987795791], [-1.9408907646242737], [-0.42671320689684417], [-0.3037431350119799], [-0.11710472135952552], [-0.7549747003157825], [0.7545938318503651], [-0.32587079681363534], [0.05173207863793127], [-0.4762558468170173], [0.4239349379687858], [-0.025123094984280128], [-0.8247791371480085], [0.5446151705931501], [0.11802023285960556], [-1.541444199682354], [-0.7548533823110237], [0.026339330564215536], [0.6492559569068944], [-1.2674050761586244], [-0.24429230103089306], [0.5344185153085584]], [[-0.9767052850276764], [2.003153105016006], [-2.258548288744512], [-1.1682257321647742], [1.3015275582514079], [-0.7200523819780122], [-0.9810289191463291], [-1.8539478021915505], [0.9380502845374972], [-1.7994446920970186]], [[-2.2634441271270145], [-2.206426361135607], [1.2923199057508652], [-2.09136234456894], [-1.0424272057887882], [-2.7871278678985676], [-1.2087662269427737], [-5.631255641266231], [-1.6688288532058833], [-4.461332275031391]]]}