{"weights": [[[0.03451281618831186, 0.062416105616202235, -0.012494379158292494, 0.0018102273198655104, 0.031361033789000466, -0.0311889180612461, 0.005206767208350829, -0.027810480547593976, -0.0003176755843028871, -0.03396717295184762, 0.04799644442875262, 0.01605286048204676, 0.0431547941586336, -0.0019059641137351782, 0.01648109124643944, 0.07510782592670726, 0.05536667414208219, 0.024384950055031416, -0.00796967586835239, -0.016791850357051753, -0.01054805667680624, 0.08635958703466615, -0.012382565371205941, 0.030170586588417897, 0.0077001367252511384, 0.03046937126580705, -0.06895644115248098, 0.011236143043108368, -0.05795685186928951, -0.0002248745002688455, -0.01959539774537714, 0.0050775879541738655, -0.00020066867348886186, 0.01449309840972371, 0.025490482421636238, 0.03790234142087735, 0.075422270679234, -0.03245957477010115, -0.03086133916169235, -0.007944402355247545, 0.006613530387793769, -0.005560707239538054, -0.012593387955354618, -0.037555339950952914, -0.0003376885459801262, 0.044732880360798824, -0.02571644466552323, 0.03314491629191009, -0.010505351870997574, -0.03010679781959433, -0.03859997961625599, -0.006827983221789031, 0.034286549547528154, -0.027795045248488266, 0.04849070713949186, 0.00030655349508924406, -0.011824539885434247, -0.05858013935473573, -0.03916717538676248, 0.04268704482746339, -0.08303280913921739, -0.0389180450938904, 0.008767068385211033, -0.036837782428538426, 0.03745434174870661, 0.09016570319305066, 0.04639091774789483, 0.04197071351206921, 0.0009881074523771765, -0.06448281980003866, -0.04783399393455151, -0.0281907616008364, 0.04028808628343077, 0.045533255149137565, 0.026996012437203627, -0.026658398043212735, 0.01371345074189926, -0.0076406908104360086, 0.09679036212283276, 0.018814638537843816, 0.009461457827570262, -0.06652290112797488, -0.06402690673470049, 0.028510111512495856, 0.011994747530672473, 0.048174978953929505, 0.0201444300512633, -0.0034207102963720237, -0.03325432788465596, 0.012258994013627955, 0.04793828458878633, 0.01589007415910305, 0.01207082504327882, 0.12937599007685455, 0.024671563515911234, 0.060822299388615414, -0.019771069397390626, -0.0032916917110087864, -0.07783641116827997, -0.14536574633627547, -0.05090483303212167, -0.1782038572656701, -0.119556839924658, -0.038123169114125034, -0.08766320275909271, -0.036114235543568816, -0.05900176543222109, 0.020634080334553873, 0.10071809478210023, -0.028530025850714225, 0.01704965619391871, 0.01495811497958868, 0.014130760993215108, 0.017765189200325292, 0.052396422615135496, -0.021029348960831577, -0.02858753489649445, 0.04539238543641436, 0.018024789267228853, 0.029854492518364042, 0.024804311116628824, 0.11278078793454303, 0.1704845379067376, 0.0890734933331158, 0.2382261935663936, 0.1519082088906461, 0.054126201294593224, -0.14925817692903645, -0.10349329181583866, -0.12292638883198018, -0.14017295800456012, -0.1601397661572103, -0.024077126772438066, -0.11679709871486293, -0.10281377892671496, 0.026606733428465413, -0.1246853819112291, -0.052177160043595246, 0.01668700140550792, -0.025464616548533405, -0.034885708150278645, -0.003980655036752449, 0.025593040584936493, -0.07771764435736604, -0.024374763439701564, -0.003571783895590372, -0.050173320833101956, 0.06554481939014195, 0.11781374981600565, 0.02611498569802932, 0.11537145732561056, 0.07572158117983763, 0.1952492628915609, -0.02007347224971361, -0.008028030036588439, -0.08406031698081835, -0.15363451201606923, -0.1466501531375995, -0.07678324379417412, -0.053452908210355574, -0.007847706704036431, 0.04345433787158479, 0.0012998526633663562, 0.056352064721802, -0.02532226741805499, -0.06081363113065613, -0.0415616107503002, -0.01843174810200935, -0.021560260220543283, -0.012770167143399819, -0.025527008479647107, -0.028084527670002277, -0.03620814272229193, -0.10387686226712615, -0.004480845870641586, 0.0023037785482460547, -0.10499954127399641, -0.1205390343322219, -0.11083376430161954, -0.03954806337899073, 0.008389458268508308, -0.24877092921079866, -0.43787400130536186, -0.5922526963947284, -0.30176605655059474, -0.24369305988965023, -0.03354025236481138, -0.1792953507713641, -0.22915856528232445, -0.08220694929207452, -0.011961282209750354, 0.04174770805531969, -0.04857429754165124, -0.05797125866067547, -0.04728818629505923, 0.007483385072018661, -0.004810208210093315, 0.012385067418756356, 0.02764338343512809, -0.05129988996699754, -0.07537562417039327, -0.11944161009147028, 0.04660853479524774, -0.09164357142320904, -0.06068539463974502, -0.08283956073265274, -0.05829777311274296, 0.16399569837855013, -0.03231007334457302, -0.1768237339310698, -0.4468390239631633, -0.5731548443528673, -0.37198970093019884, -0.177774195319906, -0.18779969426931248, 0.07094650170733845, -0.1867776817845308, -0.0873856748760725, 0.0251576362881517, -0.026696879736172137, 0.0310987640858624, 0.04892485169019859, 0.0029060209647599434, -0.009093161626162463, 0.02900030306801772, 0.04203642216982083, 0.022488246484512614, -0.10930357102881566, -0.11735467312039918, -0.06466328332575441, -0.11033732542947523, -0.20767752852422924, -0.28316815095171266, 0.020895487034795344, 0.1338921520531782, 0.08532792906644326, -0.045347487342701984, -0.026431170895086644, -0.38851730105882637, -0.4435586673629984, -0.37829954907688607, -0.05333061222786423, 0.008222895360063955, 0.024207818512332877, -0.01967810931111499, -0.14853567803264617, -0.0942039813434322, -0.05101324518099576, -0.03272369544257918, -0.01451627688459188, -0.04799888731365879, -0.01473709476605741, -0.018172396152124508, -0.0997335255192019, -0.011935182847523417, -0.058002217586292266, -0.09113583150146229, -0.1359174357542204, -0.3381311097497024, -0.3577825189874782, -0.2754058617110119, -0.01391291493943089, -0.09531105236575985, 0.15169206590167028, 0.22595490061293882, 0.003893244743361143, -0.28309370150227703, -0.3915209111100387, -0.07677142740202875, 0.022023350301898646, 0.08696698924828442, -0.11091736347610023, 0.08722422550181139, 0.003952724491536752, -0.02213298308142538, -0.16772487096989652, -0.10980685448647715, -0.18302095851732933, -0.04072538704453864, -0.0007753917691382802, 0.0673471138105846, 0.016828678003647016, -0.026819606655006538, -0.08646977854242259, -0.15045858486629152, -0.10133601598923618, -0.19300078403392398, -0.17258945629299155, -0.013368942862533194, 0.01036885701509929, 0.04123725251255525, 0.1992235869766599, 0.16830315014143124, -0.09873610367845885, -0.41709674773390126, -0.2079372929915156, 0.10672953668416955, 0.07658490466232822, -0.019931345778961263, 0.012189486466422223, 0.018860389930200488, -0.036112994965869526, -0.10116637092615059, -0.20625236773875852, -0.11534684004703959, -0.2444627798558869, -0.09503211117314998, -0.03490433684312107, 0.021542619654858066, -0.0623138263246894, 0.0025905404821599323, -0.03798668850237849, -0.08611430448190634, -0.1428312145033034, -0.19643016597844015, -0.15314453000140096, -0.07995618937884516, -0.03450770309997655, 0.07166872083003989, -0.04625091598381932, -0.17276868485374539, -0.6011788745926979, -0.46332928028421905, -0.2907550104811035, 0.11578049707179491, -0.14555971928806963, 0.019134892302459492, 0.11426102300082844, 0.0007056768281191866, 0.027532292856853772, -0.11751613293712612, -0.1826783042863932, -0.21861074411660786, -0.21269262334852035, -0.09799717551388284, -0.003389894661164141, -0.001238213000256562, -0.0495976491917944, -0.009978480216766132, 0.10748153899954087, -0.18994940005369515, -0.3261645884932924, -0.2674321011401211, -0.03282482045230345, 0.08687706809429299, 0.08271120553704012, 0.015470339122651035, 0.029025645094194134, -0.3701011261549004, -0.5492176870431424, -0.20823761927601797, -0.12476396814108746, 0.028862406147323945, -0.10457783544228216, -0.008064344294224415, -0.07721481366853906, -0.020921402075538473, -0.02240154475612171, -0.12310204268922638, -0.1171293526347959, -0.020372957663247846, -0.01783149698221447, -0.1649647348571098, 0.0411465218490606, 0.001260557097106374, 0.03913199314966899, 0.027987736121448403, 0.09876326690361711, -0.14652502543311563, -0.10465614867789588, 0.06062773857265526, 0.10256938069713056, 0.15844109196058098, 0.029903198618094495, 0.07366731570401025, 0.05385467811673656, -0.031562162511621784, -0.1105325184037492, -0.08783761072884709, -0.07465905492289446, -0.2977537319535051, -0.12837515440697986, -0.12025585257124943, -0.030099718401518087, -0.14476377756416142, 0.04730421214190785, -0.05542673386243156, 0.10753175955857139, 0.15634827890938918, 0.007700519455242744, -0.021382598494473822, 0.012932899516930909, 0.05190965265841103, -0.005293858855329996, -0.04745325297806333, 0.09328087147742853, 0.1018309419029704, 0.01973696600663937, 0.06116788029393341, 0.1644094967554084, 0.28297626739359005, 0.2619565086678891, 0.19512822811093533, 0.4055174241886944, 0.08065941750358754, 0.06367689017491535, -0.02360038014981384, -0.09142656620079037, -0.1340228016592969, -0.16504190412930253, -0.04462183025406671, 0.07795646055333813, 0.074814963779884, 0.036497141541658194, -0.005732239797589151, 0.13958037529406067, 0.10736205016620068, 0.07098525880744046, -0.001903479754476322, -0.026525322651717326, 0.00247708476172264, -0.016455074558315123, 0.0013479673976813955, 0.1716092495823736, 0.13112896943400323, 0.09600437996640251, 0.1742996824311654, 0.07104593261744645, 0.14405016434191315, 0.4018781225613477, 0.34602839431495896, 0.11881995391407343, 0.17844684178619982, 0.13376291050263053, 0.14797509842778672, 0.004873253033856815, 0.25263958016141463, 0.14195607687644873, -0.07091192718105206, 0.03796183481280557, 0.031205122266215007, 0.06825766320637165, 0.1471903470681513, 0.03639004865868543, 0.17869835999580247, 0.12172639969586428, 0.0636062234070115, 0.008350519429906172, -0.05851631396700798, -0.023074395484563505, -0.0027090506459972645, 0.14054756679945157, -0.07318376638922466, -0.06836448155038562, 0.06922004960007884, 0.024481032821057822, 0.1516059989974391, 0.2276853437045939, -0.018199359392688973, -0.04037969907241197, -0.06310311653457977, 0.25324135642573553, 0.20869415556135099, 0.30634076798037385, 0.2832175095999518, 0.3044532819187016, 0.16368238690287687, 0.19608500311755353, 0.08723251004485438, 0.3023743336398828, 0.1551652338810103, 0.16230079883046258, 0.2603859695913729, 0.17879411573281848, 0.08269088410712205, 0.015259774654521562, -0.06467021684558819, 0.03268298858535081, -0.0578163349673018, -0.03494029411212516, -0.022597374816404735, 0.07617497699745651, 0.17940670515255644, 0.17756490412886047, 0.2096201814716867, 0.1323375061739272, 0.033414066625534304, 0.010400888194598633, 0.07902603844293139, 0.07918942189487652, 0.24254270078255735, 0.20496257631581255, 0.1657455211321646, 0.19902296357484384, 0.18968839192053322, 0.005635712163074708, 0.24930698578050317, 0.19952590638298676, 0.2509716159571781, 0.1818257149818259, 0.29214573958237167, 0.1808352412123429, 0.004277725445670338, -0.028196905746404113, 0.08796746013499852, 0.008888454623623167, -0.03660195634137131, 0.06386876400335954, 0.11962576057682657, 0.16869527295266645, 0.10830535465907247, 0.15386679671796735, 0.17790471390878312, -0.012475487058138146, -0.03504151678775471, -0.06551838207867451, 0.23923706858851002, 0.09056416551225112, 0.23289026709108546, 0.0437687518042527, 0.32779989094145606, 0.18581349818563236, 0.11819922104701323, 0.19239371067065011, 0.3025862823835767, 0.2542348896545885, 0.438815527468916, 0.4207633581344888, 0.2721696077002282, 0.12640539750875956, 0.021812394974984623, 0.016060418557142943, 0.03928780125021538, 0.024606225164220168, -0.042783004366230754, 0.04468769303400207, 0.11906771816591923, -0.08802661093584475, -0.04503937607319395, 0.23089048060156744, 0.15723603284546284, 0.2437012066587883, -0.13568339088349846, -0.08614799593550292, -0.19774665469138955, 0.20559181730140516, 0.10878733204920778, 0.22049182153896238, 0.13043139551230631, 0.03683136092650099, 0.10204765971374052, 0.10547231389196539, 0.1808849847027488, 0.20959610318231478, 0.30418708108916087, 0.2892027940311877, 0.3183413375964973, 0.03330556105928014, 0.08444237917606845, -0.010790713363573444, -0.03671049103676446, -0.03837842404167936, -0.0649449534034777, -0.009634378261715613, 0.20439884919667287, -0.04207741941199159, -0.08578928123081862, 0.1074322018489022, 0.1558144126756513, 0.2119488212010238, 0.15156683191085188, 0.007453756169000052, 0.022410645335521756, -0.043383883911133236, 0.08582363494918278, 0.09730903671155505, -0.01274395068647676, -0.14227644700643713, 0.04193921602087519, 0.0241832813287588, 0.08468378775412859, 0.09934570775275146, 0.07195242980487143, 0.23454600029415026, 0.23987287969186186, 0.013037405545027346, 0.021781633005404935, -0.006464010115789279, 0.04592256224637908, -0.03287905008492587, 0.03151702594017758, 0.17401940707366056, 0.1214027733587032, 0.06501418343810611, -0.034001866144812744, 0.016333167336136042, 0.14407241532456821, 0.05929867988442432, 0.05798023602105551, -0.13324725191708825, -0.13972920089218627, -0.1392656344141318, -0.13494858517716726, -0.1905663042044865, -0.24153310250269616, -0.1892445074094636, -0.19166959295689343, -0.18807376956437724, -0.1712145050124801, -0.029041502753064028, 0.013599796907155263, 0.22192641248662764, 0.1474848144118356, 0.07160589692748179, 0.02566476534599055, 0.009169408502613764, 0.005295273891311588, 0.022519289904848663, 0.013118423178705686, 0.06797341411878266, 0.11183394867592257, -0.014924396638337787, 0.06258606101519884, 0.03692493581623139, 0.06989550398985889, 0.17681340650505825, 0.07329416299820012, -0.07854664275545145, -0.1228869509755718, -0.17045172015385499, -0.27104520472911175, -0.23978463063216054, -0.356953324409787, -0.429454340270955, -0.424549022385011, -0.287261247931982, -0.15702634818850994, -0.11670772903822993, -0.06802968258927006, 0.009763403326386925, -0.00395004526307615, 0.12087937774014934, -0.024735742512867767, 0.033640446487827325, -0.002541208605460038, 0.07765968023832012, -0.008759871459136533, -0.06447961271800469, 0.007625003401142587, -0.015527714529532862, -0.041630312759877434, 0.0880922749006699, -0.0411551588686914, -0.03339130586834254, -0.1265523075021165, 0.02226069244207979, -0.0582309007863571, -0.312544187977173, -0.23093780572247133, -0.3641880538249921, -0.2903252686262383, -0.23463532069590606, -0.31748175943432355, -0.3247658006351496, -0.20016101653705476, -0.20888222830510156, -0.14494627269598453, -0.16793580980483547, -0.08366491476431394, 0.028856509102628596, 0.044272611004398, -0.04755741278392927, 0.026945583596185825, -0.02248992789828066, 0.0028887718126425436, 0.01020984154074154, -0.09876229635489783, -0.07118443285960081, -0.07945936920433644, -0.09534061153106987, -0.13314152350356823, -0.26573192687801483, -0.2814531562210229, -0.1360249284618418, -0.1663975562931041, -0.19558006642018483, -0.024840023016079557, -0.10259284685226923, -0.029409351729761894, -0.13390254535599402, -0.23419253171272483, -0.26242573539946906, -0.25510173252466223, -0.16351541730018648, -0.23441180196284475, -0.2717198566569589, -0.08948840479731293, 0.009623831068612334, -0.03773342984646551, -0.02063472730179499, 0.008044388817760258, 0.019137591385863552, 0.050776663241787465, 0.010860000518205693, -0.057674283009185236, -0.08008185001753744, -0.061999319882533474, -0.09366804685681962, -0.20337481212279235, -0.2770596143573355, -0.15773607290326722, -0.12990706449692835, -0.17694936656287225, -0.11008081145660527, -0.10070111889238477, -0.11387923469361674, -0.03302233080168585, -0.039661835710872624, -0.19731661982137363, -0.2113547296161302, -0.21832121431395823, -0.12765750417075533, -0.17679442818074215, -0.12341576515982383, -0.028187236175900954, 0.00823116747043764, 0.05015366724414463, -0.002627219562789141, 0.028327259366073578, 0.04167763031160499, 0.025764073705777966, 0.05351139626020647, 0.07749350930422073, -0.08383153198799442, 0.025309465315802082, -0.0660335958858704, -0.08692179468062283, -0.16439188642951955, -0.17187383768669315, -0.09342898874190173, -0.09283885410833413, -0.14056221140757819, -0.19267073640498986, -0.17760170184881646, -0.14207924834172067, -0.07414761802854238, -0.14974304181900544, -0.08028266641998189, -0.01945053963772645, -0.07241051140975557, 0.06500803425831599, 0.026309341812920356, 0.0438142251787053, 0.029889522098711555, 0.015354291433534775, -0.0012705920668340815, -0.02727333879199177, 0.04711560559530924, -0.01778824278843445, -0.04008703407204412, -0.04346699819271482, -0.02055684686083593, 0.014302857180874887, -0.008079069670282164, -0.012762543230594406, -0.08975699572141452, -0.008628969305509248, -0.0026203515052295053, 0.01971381378348253, -0.028208166187043818, -0.012683874835957457, 0.0007828883357705787, 0.04694558928275774, -0.07972805198607472, -0.003978227505660224, -0.03423371462143132, 0.05617493832865195, -0.07796498474150551, 0.008358004158430892, 0.045629198141349324, 0.026174753271966972, 0.0010665791911620272, -0.030304376180370303, -0.06653572669492788], [-0.022184044178829434, -0.015191745769683048, 0.02239243504837727, 0.010921964527829935, 0.044102472055567395, 0.08206613415768696, 0.015239814663948678, -0.02582777327083197, -0.022557012992117608, -0.005605774698074095, 0.059295300173647335, 0.047970042205204434, -0.028625425379685206, -0.021542579552152982, -0.019438926566481232, -0.03768853492271099, -0.02076115655113499, -0.051831606041682875, -0.07555330450641502, 0.024628086992733885, 0.025717402979018252, 0.046152076984644415, -0.003151320000182664, 0.07004484198952989, -0.019355189535498477, -0.02312124375564343, 0.028336185041811564, -0.01759656104342968, -0.015061931165823605, -0.01823957829596166, -0.02157063314629933, 0.0009321244625921151, 0.003635835668451774, -0.05072484010652556, -0.051892714134567676, -0.08348065018579769, 0.005149817525057269, 0.02145803021935854, 0.08055229567553755, -0.037021185533566814, -0.006132895731542239, -0.04575737960692454, 0.048999910217808924, -0.05728393228689239, -0.022108698921467797, -0.019485453897468186, -0.007447577666238558, -0.00428986765683218, -0.010305768502328231, 0.0010684412668823216, 0.024874900554464056, 0.05363435386924047, 0.07459128540951224, 0.03265506190286592, 0.052149519842951506, -0.07835580646971048, 0.0009273937481735795, 0.04724935760771454, -0.02323996598901632, 0.032073399122292866, -0.02027669064386963, 0.026915209432656857, 0.017354633867059314, -0.06698603981030914, 0.021748976222579288, -0.0953099105215497, 0.005066172637646568, -0.06769716074462671, -0.09187621023315164, -0.06144866741477928, -0.08736088761029999, -0.07405639652622677, 0.01616693840388467, -0.0638567455947005, -0.05156493031018616, -0.015070157307965617, 0.0640940717156267, 0.0011698686544885787, -0.027563598366361006, 0.07364954068087112, -0.027062074572045357, -0.05505511939250793, -0.02695807981693574, 0.010293127337349259, -0.029537545162353608, 0.001373020573918616, 0.02671664795908612, 0.011698394297852301, 0.008211926762517224, 0.023382318090802517, 0.07076764566398182, 0.011699189967170068, -0.031103759976815453, 0.01625682683488655, -0.061434420870116746, -0.012286890142478999, -0.09923313357971511, -0.17952269535665397, -0.17649529892750568, -0.1393852445105595, -0.09578985761220365, -0.005329317298387645, 0.056497560319896334, 0.08301454409383352, -0.02078463228386875, 0.00428550855585259, 0.016955095557228038, 0.014060707635436194, 0.025989085259132152, 0.02992304899426566, -0.010129150262996644, 0.0614437001979677, -0.07943764490326645, 0.023842689546002525, 0.004970624550745993, 0.028612408900244878, -0.04488191787807762, 0.013528014214284225, -0.021345269921584652, -0.06502033203643105, -0.04452773585245232, -0.07976084010642824, -0.1546258502214818, -0.10614045126456982, -0.16766751313791214, -0.16885298492089904, -0.23286305026433982, -0.2226212750380965, -0.16527339361269242, -0.08159362124020843, -0.07873009436150667, 0.037365831084314446, -0.017887900374121014, 0.00823736317944839, 0.10297196835152846, -0.00871178585462296, 0.040144863268304874, -0.049663909821406386, -0.05647516168857836, -0.020991346222349785, 0.05136109743942787, 0.03646855803614113, -0.048770058136226355, 0.01926465003674697, -0.03522780015383284, -0.003784366733617388, -0.05672016641809219, -0.010751308917156461, -0.09192724705049031, -0.05290589956699791, -0.07820385186301783, -0.07498644656638004, -0.15843806148269965, -0.08513283234501956, -0.12293065107366745, -0.04376857096044506, -0.16497876953704418, -0.09321921613408306, -0.11242803859309351, -0.08269997460434302, -0.044007186400000536, -0.06855789324275116, 0.041573740248315574, 0.009913374042476119, 0.06212905438934102, -0.011358668871902807, -0.0374798627435609, 0.01481752015750081, 0.03377606877971858, 0.006807449200785941, -0.02294928769353348, -0.013090944058934078, -0.0012346080731533082, 0.027552677321302302, -0.06076964354848852, -0.004743602131036502, 0.021346988976339337, 0.010037784723723677, -0.044611894406811625, -0.021559121719411906, -0.039213991398495934, -0.04680449623097094, 0.047163283622842674, 0.06367711148710348, 0.08852178430888799, -0.0053402426278148325, 0.009355599056584658, -0.08624021677212206, -0.0911512352554066, 0.012438612358119576, 0.024247416821054926, -0.021848900494779448, 0.0011191395124389384, -0.035890836463457816, -0.016130012294255133, 0.007893665796950151, 0.0025475744485305516, -0.08037864673047884, 0.06146741490193795, 0.03441318632744339, 0.012189263448228906, -0.06207190565655412, -0.05343184893585371, 0.022460823594091225, -0.021748735804722592, -0.004086446297087956, 0.11732402525080572, 0.05114159624132656, 0.17857587668311883, 0.11371123521268724, -0.0060679046045255215, -0.03268769461583091, 0.12351351224911707, 0.1282672361916133, 0.0925063643578025, -0.05344176933937443, 0.043984789970786906, -0.022480527521969107, -0.048904418058614736, -0.019480298157985562, -0.04488797155228527, -0.10962797101267499, -0.012904385540338847, -0.030516545968179203, 0.028582370404899155, -0.070252813571133, 0.010523865140219926, -0.0030467235696397003, 0.0919446920612766, 0.06392625959382016, -0.019394669720320903, -0.05118360724212004, 0.08751304545992593, 0.09002560881784943, -0.014551997897325386, 0.12917609220279738, 0.09315772927201338, 0.019591010311033042, 0.04333995587822315, 0.1350586027129878, 0.05592256614481825, 0.05700712463053517, 0.12424175965539822, -0.03108669895796952, 0.044578216965099775, -0.03639011025700507, -0.11588474887730046, -0.018225021126337684, -0.022260635436972796, -0.05835430601789754, -0.06385547799885727, -0.06884564979495353, -0.03565597893326901, -0.06193527078390819, 0.039768355327170005, 0.018906488026106862, 0.0023410153205905373, 0.04116420434428565, -0.031155579305240245, -0.09114446343609375, -0.0996411345361782, -0.03942943154440155, -0.033249199784427357, -0.07155992009065858, 0.0016213129815128538, -0.07448901472499779, -0.08762947727712539, 0.03295472589212347, 0.09038982750610579, 0.16358236042946928, 0.11285992138723744, 0.05898358390977106, -0.015639880749998, -0.07969781844104648, -0.04886614578309646, -0.13899879001128249, -0.09573946262282397, -0.08068717165311988, -0.06726263558690845, -0.03645840536948248, -0.028752745240690172, -0.03160328236397037, -0.009128477116418066, 0.015449641998035791, -0.028483257897987318, -0.023232090230179206, -0.12724444888090355, -0.18837574384755076, -0.24459977134861344, -0.1522997549514988, -0.05982076868770646, -0.025943097991122047, 0.04802569797055028, -0.11728446738226299, -0.2014093222383988, -0.019186338863273315, 0.15614293770982393, 0.20745227418736467, 0.08706380545261314, 0.07713313102128373, -0.04678555036298027, 0.026163988439058327, -0.08716133377292894, -0.15567782995337387, -0.14857278232891344, -0.09768457048810762, -0.06215930503273677, 0.011046404243752146, -0.05747926085072342, 0.05131214484737017, -0.05706147521177888, 0.023735337392324793, 0.03128731056012104, 0.003447313269273882, -0.007206855386043441, -0.036404997955080454, -0.08385476634600986, -0.0777284175388298, 0.09547769540551324, 0.22318751510103635, 0.013780652584506586, -0.2516525786099746, -0.32134481159988565, 0.013529869901056691, 0.17488459617696261, 0.2648328716957261, 0.1258766306969503, 0.06445699363421291, 0.10456847360416885, 0.12019868333886348, -0.001883195817330062, -0.16792720257880236, -0.12194873328965099, -0.15372189473794817, -0.05011010558422198, -0.006085779111990181, -0.05066956789196143, -0.00505881299352129, -0.03229702681741928, 0.02534959101229169, 0.031422669367125566, 0.01894919889298379, 0.05684729875309035, 0.06651422416077495, -0.08020430046606535, 0.03552114455376084, 0.10024499763838492, 0.25124073027836324, -0.08302359448814209, -0.32628269577540703, -0.38938927369948856, -0.013239272367611268, 0.12563000466889157, 0.20891008269570013, 0.11237825212844509, -0.03734422723654515, 0.07634572131835263, 0.09274629366828875, 0.05393937559758219, -0.07030738786436092, -0.14837532579522084, -0.06751987886356647, -0.022193259528262746, -0.004996085064907901, 0.014162450373038194, -0.07418743479288885, -0.09575693784022163, 0.040722200001145445, 0.02741575357328594, 0.07503559474931178, -0.0036363754700785103, 0.07923330176575501, -0.0041664747501673205, 0.05184004735459798, 0.1876914803622366, 0.14384354762014412, -0.18666510848041595, -0.3899746027938381, -0.1476864111030331, 0.022423443761080856, 0.07353607875739902, 0.1623603750123216, 0.10962950299762801, 0.13231484183919573, 0.18379016266101295, 0.17188775387515448, 0.007966615395082505, -0.12762280406859114, -0.17373796001497455, -0.04279644739808298, -0.001948981308365323, 0.017290885389358572, 0.031143311439778353, 0.007303404625883221, -0.010956956429418267, -0.0394160813229656, 0.0023378557811954393, 0.03027972033476255, -0.025736176552399657, 0.06504797749697543, 0.06484146986589062, 0.05837696654509872, 0.11608901350395509, 0.06838836315815111, -0.2749358100027504, -0.3238831531216039, -0.12000246734477944, -0.07203355844150393, 0.09495284905255354, 0.13160436476137194, 0.14866703321683658, 0.28930430360083004, 0.2329477183889878, 0.1311192326114319, 0.08644115572928845, -0.07571731007220288, -0.16734309673683337, -0.028182543221395948, -0.09224646826254065, -0.043935634498360986, 0.029189967405771025, -0.017244669158848005, -0.02143849333639276, -0.005857173736637055, 0.11670814219169832, 0.0041659331296378145, 0.05032848288691167, 0.007587143332196715, 0.0535084280356395, 0.06452467746601213, 0.08374601293762264, 0.03142086486924647, -0.18808567080993394, -0.3217026242885751, -0.14807362611002692, 0.019211827523865615, 0.12519895689049396, 0.2666935307301338, 0.2670020872768745, 0.23683274784647154, 0.16926952284305122, 0.14005107068328165, 0.07838664071628204, -0.07254179856566137, -0.17476363597169314, -0.1689924999788602, -0.06410046813514897, 0.009242999036774368, -0.04147326186248191, 0.02713940735106136, -0.03063867904760393, 0.022715295995272427, 0.026275145233942716, 0.044833369741717886, -0.013902272295201336, 0.0990157385141638, 0.14851970713930446, 0.005260562205090952, 0.02394588021676119, -0.022389924649230182, -0.17146275862005184, -0.09174635966718905, -0.08354484633548892, 0.08315802547104435, 0.19009433734410394, 0.22403915801662913, 0.21501678758276693, 0.09906905969899789, 0.12109074235513727, 0.04454601029007861, 0.013544562087883334, -0.12787562082755993, -0.18189385302288316, -0.14606739418866335, -0.026364866189484235, 0.037937924092958146, -0.03934372776960952, -0.017617984840313877, -0.00146500005837759, 0.006291546038725874, -0.009899208636580574, 0.059427534416663694, -0.0462607775005907, 0.005442419828324198, -0.022389802104575557, -0.06945690967419854, -0.028206945460211734, -0.11282908359244063, 0.013559374238157462, 0.20630653109059524, 0.11605222337363003, 0.19978835651175883, 0.07224464357106263, 0.0797589618715255, 0.20277538988406285, 0.1000796739302999, 0.024224355500484268, -0.0012826621981594072, -0.18620977139476258, -0.15883619787206377, -0.15666001144917, -0.0627633548548072, -0.024249744933492277, 0.022056430086139372, 0.0016993770861990186, 0.020721304171107572, -0.02788937980637729, -0.03494817527740396, -0.038473089167594406, 0.028872592498696534, -0.10852163738816024, -0.07414238518143915, -0.037401701554987045, -0.03100266579374412, -0.017885482696045053, 0.07161013375938453, 0.15528163888806465, 0.21923405079397149, 0.12419152085818175, 0.10455209870569605, -0.0589985279772255, -0.07385156142345878, -0.018981882978499367, 0.0617508771695173, -0.012087828957624525, -0.13191207877716365, -0.1936646658274152, -0.16578981915902047, -0.17319630347209036, -0.04673884747010992, -0.06128567956467402, -0.022663527523246796, -0.02465673451480998, -0.0066105189515871, -0.026412267940000272, -0.056957946405465414, -0.026203789356389708, 0.021066289348317977, -0.1639562521462434, -0.10270514332736491, -0.12962745000224668, -0.10124801167082045, 0.05647680631175368, 0.00926143934516938, 0.033999708396270555, -0.014258060652284833, -0.07209096113815595, -0.16246369150141957, -0.14621605778553273, -0.1566919449465054, -0.17527927284419467, -0.004738908177288477, -0.1411905313981998, -0.18641485211726155, -0.274631554985563, -0.1860672058243138, -0.07253538223612267, -0.06280055255693058, -0.025467298921649038, -0.031214025469987895, 0.011596840945683043, -0.016877363407178183, -0.026420803058169316, -0.01971016422365773, -0.08605816141693695, -0.11684292932449401, -0.13511938343055294, -0.14774502902473602, -0.2018211998132348, -0.11428215408805875, -0.17483175705993087, -0.11265713125784349, -0.052776797880841365, -0.09658882474434509, -0.21889799406326244, -0.3221101600822784, -0.22907416287584312, -0.252022297947893, -0.24843588276551973, -0.13160268958628313, -0.23421173400154247, -0.2046483262986988, -0.15753151468264445, -0.16176197570268708, -0.08753868394785665, 0.014377979146248535, 0.053787379025254496, -0.057208231773673575, -0.013131555775193688, -0.05973053116484226, -0.0036993790405732757, -0.09073754976035202, -0.08098534848605907, -0.10933665596763031, -0.10758172148843503, -0.1869175264753711, -0.10538918512479717, -0.15530426393341148, -0.07714624553304185, -0.17977862561177527, -0.12247784198277727, -0.3078083660842421, -0.2567759665272718, -0.14991776938488835, -0.1382820360469945, -0.2561625652315432, -0.27611142411272077, -0.23098068684549933, -0.12684383547028683, -0.06097047958475654, -0.09410874879429697, -0.08247779803169113, -0.057451174111283615, -0.005058904345654284, -0.046915501800251225, 0.012349115221649712, -0.034295569238119536, -0.015654271120027985, -0.024241412002953776, 0.012420251932739048, 0.008202426512184538, -0.05910230676605013, -0.07827549561772355, -0.10584637592414235, -0.0237068612109631, -0.06119384387035974, -0.06582912950749817, -0.11107268923044218, -0.056056087662199106, -0.09204671417449616, -0.08346934121739764, -0.0780190115600784, -0.17228796203223534, -0.2202131673651193, -0.25654787415830616, -0.13631439991212121, -0.05094464224305485, 0.01867456318481579, -0.012801097016246543, -0.04574511143170965, -0.0055028453411932144, 0.07265899421929514, 0.007536330091307186, 0.016472363344008683, -0.01873431244320833, 0.025389960697883275, 0.04708944471156909, -0.010205043273770125, -0.037558276985225285, -0.10596477731623567, -0.02326591533799217, -0.04465405567350928, 0.028898265795097744, 0.020886910625397055, 0.07062619153969805, -0.039787041003812626, 0.05843478835692286, 0.019557822664342674, -0.02395557535815753, -0.06249058843012211, -0.21054426599552423, -0.32187666237527607, -0.19411316293807143, -0.1799625443186841, -0.04697779058186652, 0.03150931089833716, 0.025315249542041153, -0.05909736509178818, -0.03716207117596073, -0.024581196535796674, -0.03115140716055012, -0.019327259197461113, 0.006317031355232803, -0.05267609681366161, 0.008037768260592739, -0.07218099795072903, -0.025431085507511983, 0.02708419443456204, 0.03204206841875343, -0.028316251062058737, -0.06623519553605292, -0.09542028375652588, -0.01677493124829594, 0.04574091603435696, -0.0004898066629039644, 0.10728761919534978, -0.20628079572596023, -0.1439668467765027, -0.2551443077355242, -0.19657926763204092, -0.10727392060850241, -0.08340598232440061, 0.043023635025678214, 0.034674184571919314, 0.020979888197641232, 0.07663034834567171, -0.024739895269754928, -0.005089668131087189, 0.00968643275391193, -0.04098980831687778, 0.02216575141370528, 0.04048411353069076, 0.007860710731869438, 0.016390771834909956, 0.008369995396434982, -0.02549455981749515, 0.0032367701079548403, 0.05375051110167273, 0.008559294564199996, -0.12188316210635021, -0.126753495864575, 0.038329779402270045, 0.0183153244855712, 0.05421105489899964, -0.026410521280214858, 0.014160467863957735, -0.014103227963551807, -0.024716173227834017, 0.0010474201502432593, 0.038719120273657086, 0.014952621097653636, 0.058682191591052306, -0.09276152780927492, 0.030214143101174887, -0.0077856128655288724, -0.011240006650268697, -0.04422252369699837, 0.0696627744845808, 0.005225627365410361, -0.08639109868841752, 0.003705839781183791, -0.01940792410876517, -0.0568123526725662, 0.04053695925712895, 0.0448881046321961, 0.05249569160219488, 0.05306068114443708, 0.08272591602530599, 0.02315179567565838, 0.06413504486459767, 0.11953813974516767, 0.008881285069575029, 0.04487975721001916, 0.050469445255265276, 0.02198668797110426, -0.022578337843910064, -0.002815399993840502, 0.0280963042869353, 0.005990542381421135, -0.0320387786334348, 0.02510250523197755, -0.0006629577405621749, -0.01165099191104528, -0.006886246575647623, 0.01819358603138784, -0.03264358608883148, 0.03772038459855841, -0.011002725918656862, 0.0019781620059526927, -0.04037157886082866, -0.011167766624656317, -0.022802068526429707, 0.017674827494692007, 0.04669658447553476, 0.06880749218771053, -0.011959536883554361, -0.026001207705288337, 0.016060938577562155, 0.03527181231934377, 0.013190380251715218, 0.035774120742552276, 0.031448413229378, -0.021856078151811842, 0.016873966306638587, -0.006685724054209003, 0.03555175605752076, 0.049934064724903, 0.059291475438370655, 0.057000955917846166, -0.03611230850248104, -0.02001660946483495, 0.0364970987299882, -8.97083059738705e-05, -0.004310004655322686], [0.0028352275908164865, 0.0012024096960708466, 0.03181800685447642, 0.07430244649527855, -0.031904305430836145, -0.027254078152946584, 0.02032239204757613, -0.0443477391468441, 0.015617578818048298, -0.0014799377660227842, 0.00019718230188541154, -0.044726998550669084, -0.016626939010793065, -0.030865906286089328, -0.03202528891921371, 0.03620232872989712, 0.026252891202735534, -0.01780010248250703, -0.007871374747715163, -0.002720576358054773, -0.03327799906990509, 0.016310664960633443, 0.00626544041716566, 0.019171605416745324, -0.051046472771927455, 0.03581911786953448, -0.0018424633587824423, -0.007395747647780481, -0.020256450596074383, 0.05770404285681243, 0.017195366231684946, -0.007601491980749594, 0.02151702849642869, -0.022895724231771285, 0.058086164965308204, -0.0818130407592756, -0.006132087724204652, 0.01708335932688978, -0.04440876467770183, 0.024111721863066173, 0.02738146558989759, -0.034367665937053676, 0.05247580502970567, 0.06117760152841912, 0.029831280045119486, -0.008638322976160169, -0.0017800155262442476, 0.06806219683773032, -0.024060149466802263, 0.03781953776882754, 0.023900551625905802, -0.059277228823774245, 0.01490553601246007, 0.044235857047018705, 0.015488137834877177, 0.07451474637760006, 0.07805493561226533, 0.053112022152720435, 0.017536859419265027, 0.003643576927494477, 0.003788068418000234, -0.021125840521677507, -0.05272258562312147, -0.027044062371141715, -0.045564162291202484, 0.04222132552439976, -0.013622471659194906, -0.040042069213832375, -0.05064963555163506, 0.006141844170526816, -0.003586457551849426, -0.007188357175935319, -0.004429385838547424, -0.02621323906275828, 0.029464983128360635, -0.05838880406766373, -0.05549818534796417, 0.06089213274381817, -0.018805690880870023, 0.01905802977360415, 0.00560480600374522, 0.03236729782431859, -0.04305788496405283, -0.05767239727200094, 0.008720134064186797, -0.04719440467630375, 0.00814506020366803, 0.03048948312710003, 0.08415454888183824, -0.0495030668102097, -0.0232052492851777, 0.047688894700737214, -0.030706815130066286, -0.0998640028817002, -0.09402620671788561, -0.11196691703403694, 0.007056389402423502, 0.008852981382298942, 0.0905081699792479, 0.00819267278937988, 0.030088404911903226, 0.12716081179836505, 0.004191666376846969, 0.008210640255145209, 0.1445342332343994, 0.11046149520023352, 0.030571493102760545, 0.026893987697920244, 0.026443265430500712, 0.03446176502847179, 0.10537263317307853, 0.04644726909453788, 0.03308992727806931, 0.015286423316170654, 0.041875912307548, 0.02884476601916011, -0.015136893527786658, -0.012613003943184629, 0.012194698779585917, -0.015346004804702692, -0.009699433582711586, -0.0436731291472939, -0.028699272524360296, 0.13733322961140507, 0.1457125157938512, 0.22317613655497603, 0.13755361303326924, 0.18633936224000444, 0.045312006035987375, 0.08848234556383158, 0.0781528303067236, 0.07340568984526871, 0.07035372006718923, 0.01083573329393665, 0.05753860333360663, 0.10219332553548974, 0.15129664164189582, 0.036995338102757375, -0.019655058473790395, 0.04270585615868141, 0.003936612469801327, -0.04122069042077512, -0.02404925343153695, -0.03497837560826898, 0.025178963680287134, -0.00314217651832808, 0.0013911138257286858, -0.06230899678785716, -0.11402610081792404, -0.00603963128320464, -0.11347017543916911, -0.05108947944954339, -0.022091545105768245, -0.04167550866506882, 0.014363085160691581, -0.017153042054853296, -0.018947592879981004, -0.021048551943565596, -0.11537947495534566, -0.08219344139093719, -0.020443309378003843, -0.06796078077313567, 0.12699859420061582, 0.14578728061654095, 0.13033129083499254, 0.1400698952772295, 0.038158844755483465, 0.005815897745723025, -0.022201685045816877, 0.00932832605376918, -0.004620249260468437, 0.028580348598874806, 0.030251073904500447, 0.04921291108304349, 0.008858727145036042, -0.08177902290087403, 0.00879676927778216, -0.030440092056701704, -0.04109584236471905, -0.053721973012350197, 0.025282649869393076, 0.15902085713171515, -0.027774008605430483, -0.03950339129316662, 0.023523193665730784, 0.11039384360284892, -0.10358792133721309, 0.142252299635577, 0.11359976296396558, 0.18643456111008247, 0.22841054318122583, 0.2831259644395593, 0.2945160033880588, 0.13545045695570482, 0.0980915227391317, 0.10461070113986327, -0.028273599636676052, 0.02348473237806041, -0.007974847460395099, 0.04232931530124105, 0.09761805550530847, 0.12836959401957923, -0.009074449577859692, -0.025744709013894713, -0.06449886351939493, 0.007108877296972037, 0.00024408805563570736, -0.06266240545821553, 0.05531184402840891, -0.09217010331670343, -0.09757575001549745, -0.042838572887414904, 0.1524240376846204, 0.11992843566420769, 0.10892702035516062, 0.10289987750289675, 0.15230189873043165, -0.004916298064984071, -0.013682292803786689, 0.36512519428576595, 0.3111369290827335, 0.12029267099166803, 0.018537054942060673, -0.0711402913409053, -0.014692055866417506, -0.023043312176353477, 0.0697301400666179, 0.040424128902297976, 0.06676038839330668, 0.07774634025916817, -0.06923799745856898, -0.02323936153418532, 0.01641782583902237, -0.04931709489056434, -0.1670577081403171, 0.022524175614424914, 0.028842302128661196, -0.011879524511657403, -0.04994220689379043, -0.07890177085279736, 0.04083100212190993, 0.08560514642596487, 0.19654796645141603, 0.037669740368052276, 0.02079292587738816, 0.06664638769519254, 0.0009671423147601661, 0.21102035610994088, 0.27167972353768266, 0.14358146245905934, 0.029554136016159915, 0.0015810501111879073, -0.03924452368686018, 0.013738770297825957, 0.04823309174821107, 0.08637546343063363, 0.030159585823824223, -0.1865872671052028, -0.08570264936703072, -0.06235250294248282, 0.05736579935105353, -0.08336501224053007, -0.0543347845262156, -0.03147250234314174, -0.14378091368676352, 0.002521040693992369, -0.18112081179438322, -0.2210645975958731, 0.007081414491110009, 0.18316668683481221, 0.012309732091523381, 0.05801033943372938, 0.09356101773526894, -0.021213832290653597, 0.0522851455464431, 0.11233835735077592, 0.19856037427330783, 0.14997675392713358, 0.032198697676588985, 0.013704644053450328, -0.021672990441855642, -0.038187121043478045, 0.06676617019717504, 0.05837664570008687, 0.11905764273599799, -0.16039013629994534, -0.1310428756491833, -0.02438400347380653, -0.03224238156609979, -0.0755666439971065, -0.2283946202856973, -0.10525607748143222, -0.058826451265866435, -0.1494467056828651, -0.02061711534016923, 0.038721076159778225, -0.008539547248201686, 0.022255879251786126, 0.00784570311181141, 0.10239131868153957, 0.19824912835325048, 0.04724621708102416, 0.18620551950271927, 0.0328111074441751, 0.1827024192174649, 0.13371031913964465, 0.032309599611224996, 0.04742783211937983, -0.024316149445700888, 0.0004189485953025968, 0.0036735704859791082, 0.07793738779795599, -0.044957096159547745, -0.13073305461041324, -0.08964381301416029, 0.033367520022815574, 0.14358599024637556, 0.02669806788708055, 0.074642162652022, 0.1659995140510906, 0.2479458226902936, 0.423984277164217, 0.25138471407255, 0.32326770208555744, 0.08119583967924178, 0.1585311613462289, 0.026659439977146558, 0.0013096576730229712, 0.1664578587808272, -0.010191150634430535, -0.0008962877955573655, -0.054123806556546555, 0.05489895534304781, 0.053468259606444975, 0.12056489107590859, 0.0654900266317658, -0.0015361977368571645, 0.0018397944355628803, -0.02282463028084332, -0.04966850552126875, -0.07449832801945061, -0.0655056910627537, 0.112592810027867, 0.18043362664269802, 0.15453744587877027, 0.1637350693420773, 0.48662978859198147, 0.4804723850932606, 0.5783984825112672, 0.8151654727337327, 0.5388649594823717, 0.48883064472338744, 0.3393540483268536, 0.19959880906201355, 0.09868696251313652, 0.23020752865520314, 0.22839959657429373, 0.1534822754405813, 0.05308621017415841, -0.10944078851211649, -0.13621654947868547, 0.01230335436422894, 0.03715164380708196, 0.02668979929155926, -0.013835357485715443, 0.05256557040929704, 0.021705845883074015, -0.10636179239642662, 0.06229302699297885, 0.06884283560683092, 0.09319957606476852, 0.2538527065153125, 0.34309897163260505, 0.481401465994237, 0.4543183849380194, 0.4152224574822822, 0.5092119360206648, 0.4009130089877211, 0.38190858455796806, 0.4467757002881238, 0.5680463699400702, 0.2556427305199981, 0.3999229929499117, 0.20956725408031218, 0.287275886816928, 0.07815669941118544, -0.026668347903212746, -0.21838195863510057, -0.22922564443329205, -0.11628485144263971, -0.06762344869516258, -0.03806539694635, 0.04146475132479188, -0.018393623684145162, 0.01631138713444771, -0.09352909270083269, -0.038623616906672424, 0.002238790029531694, 0.10603259235540052, 0.1801013364010623, 0.247964474511358, 0.201921589106516, 0.19069663562437608, 0.1854300041519668, 0.331586946467099, 0.1786581343443947, 0.12588009474563366, 0.4187632170694365, 0.26265528120197806, 0.3177148001175362, 0.1957673305751087, 0.28806239087542496, 0.3615829616840818, 0.15519325876711165, -0.07087835316841885, -0.3032640254033794, -0.1643467086209104, -0.09143517375211317, -0.09477835467382792, 0.03863710333783214, -0.013341362991119795, -0.01573231950120249, -0.0007509244252812775, -0.0955659876943835, -0.06692837609990271, -0.03321962016614878, -0.03402861667926168, 0.03315090571780417, 0.09409280981671467, -0.023072561343563728, 0.023339941375220625, 0.08989961700536601, 0.19117505756014996, 0.08986739783164772, -0.03792598955331569, 0.25439814856632753, 0.17926896092599287, 0.06743204853644752, 0.24394771723366437, 0.38717454552100217, 0.3212514455778647, 0.1566079059509837, -0.08373057134177996, -0.19271678697134267, -0.175499591268511, -0.1779416305658564, -0.11466664023469854, -0.04707896663502595, -0.07810069640041169, 0.0020794933283623624, -0.06461055442206025, -0.04412453683676379, 0.04012848614698769, 0.026124095178431284, -0.07014016768093237, 0.05167834171302858, 0.056316178091681636, -0.21657029549664636, -0.1987421245914258, -0.028060912378462373, 0.10032232407777257, -0.02588287723805327, 0.0002970561044601434, 0.14999488783925619, 0.09612711349839, 0.11860241507359419, 0.23156474714525224, 0.11526504866380494, 0.198782890360313, 0.029671299873685407, -0.16904293401634946, -0.21048498353573716, -0.25398121272102947, -0.3130045179279513, -0.029941315019793097, -0.03435076173027246, -0.009213764576833395, -0.008268313830483166, 0.03174083571619203, 0.083927208928402, 0.08826343965821469, 0.03360327369950808, 0.001940267033220697, 0.0016491398593394917, 0.09953785675416539, -0.15280265794677672, -0.2772004349074529, -0.11852895838260868, -0.08163588762196669, -0.020854451820307804, 0.06111800388788513, 0.060600608998115445, 0.1415104778441768, 0.18128725172054275, 0.12738298659055172, 0.13986544323732913, 0.18831074577971654, 0.0882244122278239, -0.15010183472899652, -0.1827740442050763, -0.20865644282012352, -0.13022842156824552, -0.04181372726418099, -0.0130150191657088, 0.013296474714684377, -0.09539552877118555, -0.03461275920562726, 0.03428186288602296, -0.032582600012488826, 0.04946852757362419, 0.01585974400175196, -0.13491883734890606, -0.145417700099203, -0.038663702314692884, -0.1870552372316038, -0.2091642898911664, -0.3393891410372274, -0.11491237357696206, -0.15430573779149845, 0.14531497303314225, 0.11522909567097613, -0.005905869268043423, 0.05637465324116227, 0.054819471271124146, -0.019292938376359453, -0.05491541925086228, -0.16698375867175033, -0.26557946047731223, -0.2529529709020515, -0.12263210777626586, -0.04819306248638571, 0.042266304909208754, 0.020887466781034047, -0.013222335638628294, 0.006365016879933651, -0.03215005660423387, -0.03781060052979652, 0.04468840163278382, 0.10644151958603768, -0.09558919733170816, -0.1704223985557601, -0.27511869027236785, -0.1647169554666225, -0.373273844028779, -0.25188783755585853, -0.3795996235014332, -0.09874147380218257, -0.07858586216300652, -0.06883399844836838, -0.11384598903332921, 0.03432669155597357, 0.00898188179319209, -0.09314993136765337, -0.24839827503478226, -0.19793051743542187, -0.26623045616329666, -0.20267048052121114, -0.14608972404616558, 0.017137999797332472, 0.05549536786511283, 0.05483491589050314, -0.07849766763522607, 0.043381505136214, -0.10652331067593544, -0.16562678911526985, -0.01980692137904746, -0.07882817108591503, -0.24807141213225756, -0.22586272029962765, -0.29015102777223833, -0.2456904600896675, -0.4572344268175161, -0.41278957218019796, -0.2763757083730823, -0.10486993139834667, -0.20363185071279774, -0.10668673621185205, -0.09344896700565643, -0.03647311706754501, -0.0829594429252487, -0.061407730168654834, -0.08890200803220001, -0.23768186598314828, -0.35729204198010295, -0.18811413706764324, -0.03972659477555792, -0.03654873270408549, 0.01237468756692067, 0.002800071537106525, 0.029849422885780106, -0.047463079854924047, -0.11258242375930701, -0.2587923797152294, -0.1744170780910241, -0.005944468786740154, 0.030441896695704088, -0.014737701969832206, -0.15178006577056738, -0.1186427745093009, -0.23154899336543935, -0.2040728806687171, -0.05867907952939354, -0.09607527973454857, -0.034896161587762826, -0.05176182524203186, -0.23676279824167976, -0.18468488917857429, -0.06825869065690582, 0.08459546202577241, -0.20557161589869039, -0.299999501234512, -0.3569219849336257, -0.1880106589313172, -0.06939039351317464, -0.08690825698165605, 0.045309863020009694, 0.06251761922679605, 0.004621638536007206, -0.18218731405200056, -0.16788506553225183, -0.20343509347266447, -0.20461900906596012, -0.1630749629642703, -0.032571453717494446, -0.01685230683194018, -0.07148774574997019, -0.06438423561482481, -0.04485485059452808, -0.08312124066130586, 0.11153660906866977, -0.16731404583029638, -0.04376702471827559, -0.05706878211238783, -0.15192955825313162, -0.31312058877982646, -0.1571295726939548, -0.2220561454501993, -0.3381104565484448, -0.3240990967633747, -0.1453472923633427, -0.13718754429831206, -0.03805946583594846, 0.009049536025630843, -0.0036002715860907505, 0.013067594374839646, -0.04546126810171728, 0.023035946111416555, 0.05390664769717383, -0.04394408940764522, -0.010170682100294372, -0.01046446881170096, 0.010992538613796815, -0.05113742634631523, -0.0909809854745359, -0.04608801633172541, -0.17623562311833837, -0.1491344932423628, -0.020857786583502392, -0.06095753862261639, 0.05230661138343601, 0.10513831417160786, -0.1690082217162851, -0.24298786128785813, -0.16384946019693764, -0.19841761595650134, -0.2475077224222771, -0.24712700596340345, 0.06254175271751407, -0.04588241716870042, -0.03702877600580079, 0.04354609066676505, -0.0036634556280702823, -0.014835046523473264, -0.01946186655393122, 0.022315981923029485, 0.04185156225107423, 0.09541542078209946, 0.08553946032408541, 0.19242618782545973, 0.2569306330776958, 0.17219823465233494, 0.20411269070731, 0.23471945121310137, 0.11735070471538919, 0.1143642032938085, 0.03900390971557243, -0.12026118882875898, -0.015752093973089677, -0.001326407555790575, 0.061227477739198025, -0.005048157678193635, 0.02860480613409078, 0.043626450581670105, 0.0405247897423816, -0.030332106055707176, -0.0024281750406854245, -0.03081369999258669, -0.08563452874753145, -0.0024893064971806948, 0.03767541321999264, 0.018784176792758484, 0.04772618910874055, 0.0013084077970015992, -0.01655669976864742, 0.06538827307335614, 0.057749070208503485, 0.12286895234927372, 0.15590567334339822, 0.16329231503271024, 0.3141192303904683, 0.31438181605873705, 0.33620820567504023, 0.2637117048372309, 0.27924043484965305, 0.26219939566766787, 0.23821026364459696, 0.17177475821342425, 0.09789267605487191, 0.14852852908596, 0.16139869872864884, 0.14618204830345183, 0.12118619851406293, 0.03929369719296782, -0.00656716478975361, 0.011229377478400695, -0.005021458006638917, 0.016892818805587156, 0.07167375199942795, -0.02428956913914167, -0.045527691038612525, -0.048941377375042915, 0.016415495209928868, 0.005079719679384122, -0.01445836593955338, 0.006440434950237612, 0.06594361718798455, 0.11320739075955923, 0.11803648283619013, 0.07773105979094987, 0.05212954020406602, 0.04627988705263213, 0.11751359214189147, 0.05901776268017522, 0.08309195347557657, -0.019480913907922604, -0.029909051935711667, 0.07156666000298383, 0.0010007724039203802, -0.019956436009450216, -0.012404093632068328, 0.03133243842955741, 0.052915100211777095, 0.0011121209414776977, -0.04988569165455926, -0.012646668846389581, 0.032917780337622396, -0.014034911058177984, 0.03381106340642625, 0.03373523350270403, -0.015007795438070477, -0.008232158306943339, 0.05424879840664938, -0.041314646585703926, 0.05874787899227312, 0.020391808712057792, -0.01325326870176219, 0.02022304587327694, -0.022619225810569313, 0.018011215488626494, 0.010030322183590868, 0.05332335592198117, 0.010589984107333252, 0.03448925932305611, -0.0024034119339477827, 0.01249087267074567, 0.05083783030701256, -0.025128087752633324, -0.03885842722296875, -0.014959718827250137, -0.0067242417823253076, -0.10329077914827042, 0.06118120701414453, 0.09636994310678507, 0.06496210097755516], [0.034235830758469275, -0.02176161813179397, 0.036953252666250255, 0.05979558908390598, -0.0027667346347261287, 0.029338569331954865, -0.031003449830566816, 0.029093440561584416, -0.005109424877589052, -0.0009337731160681435, 0.031847077100930044, -0.0018377427105799754, -0.062090029242057435, -0.021569147924193746, -0.04389864270894577, -0.04012800402022853, 0.004418737928140079, -0.04762863411352731, -0.03865492451685668, -0.06586191524700535, -0.0470402434835839, 0.00885650758891937, -0.02835863581558762, -0.048591710721495256, -0.07752849295165522, -0.013305423374151717, 0.01443630354080315, 0.0076055525395609, 0.038221057750221256, -0.0015399956917741026, -0.017970589933953663, 0.002376689611757227, 0.047841762753020926, -0.016958796210750464, 0.008977274225895537, 0.008557212063017364, -0.07263718440997546, -0.007281773583973513, 0.01387187225319341, 0.00084972996080055, 0.011934309307073803, 0.01957142955549237, 0.023638312851097607, -0.013451158543564646, 0.030425966467729704, 0.03963180918865412, -0.03213412767738543, -0.013215823920848706, -0.0046719863851356685, 0.003975518155440163, -0.03567648164263099, -0.040852397043470316, -0.05200215109713605, 0.011051602441330324, 0.07039185890247109, 0.017653320968536147, 0.06010274280977949, -0.019155349417244123, 0.05354056489393455, -0.04732254782406973, 0.011469705858620486, 0.005993358899672095, -0.010716265697880792, 0.03914837626689048, -0.011181467009461196, -0.08323858055553861, -0.036592736585299886, -0.010757076811109266, -0.0034497995893209227, -0.0375127211817652, 0.0022321041131309607, 0.058297917605160544, -0.01605098535851796, -0.06347999411916071, -0.018344954578076222, -0.10050452841797383, -0.029647176568141934, -0.06193953223832588, -0.010556025395442745, 0.020869967370527872, 0.042643861602198775, 0.013276297607799529, 0.007116980949421747, 0.02825568279748575, -0.031242460297978704, -0.036474853648288626, -0.03504890802858578, 0.008716184296874456, -0.007247536469534124, 0.021591400574114135, 0.005661175623328716, -0.02080661176253846, -0.03320505767979542, -0.04834818860487931, -0.04680879405972567, 0.0693990010488996, 0.18816395071417938, 0.2580315773481071, 0.260698847523305, 0.22574887202137392, 0.17172927929783827, 0.1021913636261446, -0.08209703285149368, -0.09320332729106148, -0.17650723031738208, -0.184654455811914, -0.2438867273967197, -0.1131287629977766, -0.1252737729878749, -0.024597181845497442, -0.024254810457897843, -0.04289072142847778, -0.05095437286905291, -0.014934969072721344, 0.01565800049038486, -0.029975582774239676, -0.0477351965177359, -0.07121447725414916, 0.000473931954746726, 0.0259739337894852, 0.0016522638576647573, 0.03588971894570639, -0.010465958532678657, -0.04541262360644221, -0.022597981312094166, 0.10845269214409338, 0.15867034142046343, 0.08905199675978297, 0.16089394746246513, 0.0624645011262733, 0.1795318636657396, 0.12729498426527316, -0.004159643460153331, -0.20169698566495908, -0.3594172553559001, -0.2755972767522703, -0.11039318111557406, 0.01775210226471224, -0.010646423132779737, -0.02398768876462999, -0.005664674364947838, 0.010933905351436226, 0.034669016641774915, 0.0709386090268767, 0.0492889653084707, 0.021773369793261686, 0.02658675808401194, -0.03269059373086032, 0.01916713999523196, -0.07599565732862751, -0.05915630714114036, -0.22658487587099777, -0.1311203777267473, -0.13992441301737918, -0.1481427397465723, -0.010217594331596955, 0.019999509173422986, -0.03836325894559007, 0.13345562063599173, -0.052863726227744254, -0.0029985365187378044, -0.04029417659797881, -0.1450305425062042, -0.15930126494171268, -0.09428284992846941, -0.06995531975250024, -0.05409276476924461, 0.026957336756988644, 0.0005774365129473635, 0.05171593293100292, 0.03919260444083033, 0.0183099200148037, 0.03231176373397873, -0.003073736962000707, -0.04959777596106092, -0.11495826542334216, -0.09402117389936857, 0.038224812559468316, -0.044508335570243314, -0.06600275842797503, -0.11618682652451164, -0.01039032322241722, 0.08218842387806777, 0.01505473136276737, 0.16873821280868218, 0.05862973714409773, 0.1544699791581964, -0.02162088710073667, 0.12000440316852254, 0.02815452309962738, 0.013259376678047257, -0.24521280103951482, -0.18687222287633598, -0.1122905743597477, -0.07272301862169685, -0.07716413161436483, 0.011807081224000506, 0.022621385762244827, -0.006813410039406102, 0.03812912921660505, 0.03707019638352589, 0.005187245426941112, 0.043330172329771544, -0.027419453164954456, -0.0009074788667985562, 0.021314117013140486, -0.10510225017840497, -0.10571468397986084, -0.019675025468705688, 0.10626092077002725, 0.2464975927759422, 0.1479234370731046, 0.13373462019123109, 0.11564363608941997, 0.07052084499880093, 0.2321041238868607, 0.04778219195206831, 0.08312313501094425, 0.12969197168559335, -0.3002372855358242, -0.33139124230147793, -0.06538316781497439, 0.021813358524637828, 0.00023161174122965437, 0.034783068615643536, 0.01577367111714032, -0.018968059630637767, -0.0042863044320461206, 0.03037626921984391, 0.030284232134718935, -4.611219334475365e-05, 0.08733880950642403, -0.025836213230019608, 0.04327055578774882, 0.02975143032530422, -0.012721061059082365, -0.006919847980414754, -0.10480744283544946, 0.09329441364861772, 0.25706973269987726, 0.30479355848274686, 0.2639253386721247, 0.30197794566943453, 0.21565794137338004, 0.020039534280079516, 0.03423997199270861, 0.044686885850314634, -0.2892549881067923, -0.4044208615987816, -0.14907660545033494, 0.021021498918108183, -0.031509711927109815, -0.0024440625014080074, 0.010418424004907383, 0.0661680350029606, 0.03285347770176068, 0.057010467592095666, -0.025196536029864342, 0.13245269469404097, 0.10527632735569335, 0.18128019807588472, 0.23227667069200136, 0.16111125263856982, 0.060268099890409065, -0.06781325614057691, -0.6979352495752313, -0.5708341594941728, 0.20670947866151762, 0.5641520247451164, 0.2681747593888582, 0.30243746791491555, 0.04167019917720564, 0.09029670612048965, 0.04327673513895477, 0.008104937472085476, -0.2814221996951717, -0.28253217060397784, -0.05191435809751785, 0.049487668478619684, 0.004857604727791644, 0.0036531504221635376, -0.01775597019899216, 0.0065204673903171235, 0.01992550013253109, -0.08330181314275949, -0.02084914016036188, 0.04833426032426395, 0.06172530386686144, -0.009226334137047777, -0.05280004776459855, -0.30689588468114926, -0.6179209431882223, -0.71027994259232, -0.9580550171308843, -0.7760236530307237, 0.029995783849256975, 0.2900551627505858, 0.30859304411946265, 0.14706403008047866, 0.05651607669611961, -0.018381868355536124, 0.011478082004435175, -0.11560579961149713, -0.1069215753961776, -0.054860543623698424, 0.14180476224539448, -0.04118294881976518, 0.04459823118352306, 0.07150321822811344, -0.03266596933040104, 0.00523441448012353, 0.004145331257171273, -0.18719482290117118, -0.2835610966462703, -0.22864589802260038, -0.5260316379270068, -0.5971228191743251, -0.7106593365716469, -0.8175073152391797, -0.719881831669931, -0.5232110909229937, -0.6032965060071799, -0.5472776367495449, 0.02571786606991666, 0.3093330597562555, 0.18974285034312052, 0.17758263789109482, 0.2331439880172474, 0.21243630154980936, -0.022338217971633285, -0.07840670871235697, 0.04063701538328492, -0.004332896321489126, 0.036689559579319214, 0.0028826525274994862, 0.05376641536764029, -0.03570211973119708, -0.0012222220848604353, 0.051252570850969556, -0.0839964536469746, -0.226949545237437, -0.4422878507824537, -0.5806155024786402, -0.7401188735877563, -0.8147120545850481, -0.6466705607826623, -0.36100358515583064, -0.3508498043908848, -0.08101475476090723, -0.34134790733530623, -0.3707034898897558, 0.012682041213077061, 0.22495870299745394, 0.08518327603063881, 0.1218018305133937, 0.0441027755303746, 0.09962239650507052, -0.06401127897518687, -0.056363529739360436, -0.03410812127154195, -0.03278569281746359, 0.035943706563695964, 0.04002954169418807, 0.006251675442490694, 0.045392115453993694, 0.025273633301092138, -0.005058443390538616, -0.018974566418723818, -0.25801660558589207, -0.5305233635319851, -0.5802083925625188, -0.6674990373363135, -0.4184237168207521, -0.3148457802272316, -0.15188891958113487, -0.07698092457885246, -0.038792157108108676, -0.04591994143540204, -0.22909149569326967, -0.11265387003171597, -0.039621568556027775, -0.1555222692438862, -0.06775789253859311, -0.08866364657061326, 0.0459880536829214, 0.09151999481942977, -0.010632949612864517, -0.006639701255273823, 0.05785719277144831, 0.0552633192699846, 0.02482946998726507, -0.030287682061480862, -0.00942578808855553, 0.012291087043253449, 0.0283081443022919, 0.024430266261175993, -0.040148224086910766, -0.2654123474863429, -0.19455449031693942, 0.010931337094964768, -0.08180005385743816, -0.004157933392394543, -0.0018440557994630336, 0.012972153004289342, 0.0841336301423667, -0.12529491034323018, -0.09823865072630673, -0.04593621769313646, 0.10772338138916691, -0.044236765280594094, 0.2049209969794558, 0.08435000736791495, 0.05464267467219916, 0.2619921701616263, 0.09622781810475926, -0.03699861083689521, 0.086027962471436, 0.18299295058901818, 0.07598567476269742, -0.01857650387184642, 0.059527540985266525, 0.013818350499277697, 0.01237537953725328, 0.052899290318418966, 0.07676472554072224, 0.011261336947419253, 0.14068234689582748, 0.04865046385118546, 0.061120800819050775, 0.04044116412783525, 0.01775158405337293, 0.11271709170008182, -0.14998438754758803, -0.10525323803798599, -0.19906581930436623, 0.0013139093654423073, 0.04897061025702551, 0.07673737321889577, -0.010043815878542708, 0.21693753505770222, 0.032208289533567296, 0.20994951070404627, -0.06328568579785479, -0.05589388168253202, 0.1601693154426532, 0.2153504113772373, 0.028590829665769868, 0.038689504623852705, 0.016842211361911663, -0.028126178881790757, 0.035424622603979154, 0.11443929223899214, 0.1859457462316137, 0.08876853632488808, 0.03413512303135831, -0.16652849910081058, -0.0674508270639421, 0.09553526734141901, -0.059326954829764474, -0.04486213894242594, -0.0038779754069870453, 0.0018930830760779047, -0.17257761368109933, 0.006265081063331572, -0.07344251697992991, 0.1658415749066474, 0.24834311216796057, 0.19667564640427945, 0.03208570872027515, 0.12260679691891176, -0.048983673142989126, -0.06756846386264466, 0.12220278538660755, 0.15441445173566376, 0.04260531505483436, 0.007883500057210351, 0.013478649837201637, 0.00697535564852501, 0.027334925476816166, 0.13938779773351714, 0.3607455582416181, 0.06156848867549544, 0.06756576426727257, -0.04576409395227337, -0.1330609240174948, -0.08983139770872797, 0.04546005070878514, -0.03456205975719481, -0.04982978338120917, -0.11277425110107288, -0.10266752796456453, 0.01670298869998221, -0.047828071409125726, 0.07614149820380804, 0.14647700255356563, -0.02156294928860456, -0.19017994759054033, -0.12012217095632872, -0.06571338939789528, -0.04282321601417438, 0.06567016682392521, 0.11204595579268763, 0.02277053868282378, -0.005224511093908465, -0.0039032972172915684, 0.021920567496493334, 0.01779755472995128, 0.1731190570435267, 0.3814639019650724, 0.07006020453229486, 0.0639978939457197, 0.01696378160312919, -0.1376664133946369, -0.1693217942797942, -0.10224322661352689, -0.08091865548986348, 0.10943010438776563, 0.057856447060978186, -0.07719623340150411, 0.05856220045393126, -0.10529507899454447, 0.039292540367446976, -0.01496533608782424, -0.008656073617366481, -0.06868758485619395, 0.023231847191975342, -0.14211761620160968, -0.0037200710103804384, 0.19707049357817413, 0.20781977780787403, 0.04535098918349522, -0.015576470959491846, 0.054130274476862375, -0.032178674189246276, -0.030898175460305058, 0.052988193734614865, 0.2585506165201363, 0.09074051214673669, 0.08258158920640483, 0.09986123574442761, -0.06415670320568202, 0.0832781561277869, 0.022404349162655504, 0.11003314958199177, 0.036027309724151795, 0.20827730270919353, -0.05308190722365823, -0.12322481200298427, -0.028396653904816726, 0.010507289412399992, -0.11527908812460205, -0.1000968094359198, 0.17238397247103496, -0.004000703119440694, -0.07818071329831772, 0.013048711590932283, 0.025445307560342786, 0.09929234820216946, 0.04891236546221243, -0.017591748043454366, 0.024961428567380563, 0.01050671241698562, -0.01017229897805722, 0.14629550470552052, 0.3702359756161869, -0.007758345981740824, 0.028398536556872404, 0.028817599578340423, 0.18814366495614476, 0.2793540477346783, 0.11530583749744991, 0.18013320535357935, -0.049991636395359695, 0.07412256625355323, 0.002287180596601636, -0.06971021175841233, -0.025269420856677733, -0.06976829401281316, 0.04029598415446622, 0.050084478366723056, 0.13016517243142395, 0.0022655297275895113, -0.09127229601443082, -0.005877642208037177, 0.04684255487389367, 0.03411396323719384, 0.02137011886598916, 0.06875284006529289, 0.04488245410718995, -0.02380799715312539, 0.03281725258205204, 0.10606747117523592, 0.22455836993440667, 0.11542804861185388, 0.00047963932754234244, -0.029010290255885092, -0.00918576416020683, -0.06450562272933001, 0.13227363709095194, 0.11991330344933182, 0.06381723550014935, 0.11272100476318707, -0.058347293359337124, 0.011385811665513234, -0.052784730441301705, -0.01830904585825645, 0.04287189719128794, 0.2434332981013967, 0.03315159216887184, 0.031860872521690765, 0.049186681678858854, 0.13309120122235418, 0.02874287230373452, 0.009285716227331743, -0.04382048575889469, 0.036880888613856064, 0.01703316635073702, 0.010303289992513941, 0.003393970682421148, 0.01629715400361813, 0.2888621626291512, 0.2841579031603626, 0.16343514235356632, 0.2039691603690047, -0.00606198125036564, 0.05299542951107116, 0.13185476406172034, 0.12931523766859584, -0.05666496183444444, -0.10146487010987967, 0.044195024164216945, -0.0025274170732307727, 0.06558247408826563, 0.0148158383742273, 0.0039010217574892386, 0.15370359791559687, 0.030753818874913776, 0.0770438779015471, 0.14953678032517542, 0.05664837537189073, 0.0881539704465065, 0.029009690400967757, -0.021591588310658886, 0.019974671686145456, 0.006822710147566337, 0.01126514378584306, 0.05271166497228922, 0.0670450053421454, 0.13756345382340682, 0.20201938228037145, 0.25041669652312565, 0.18904664677115493, -0.12583028145978253, -0.02404219346846455, -0.14901922977960502, 0.05631377078193295, 0.04394061227219583, 0.06625178394972667, -0.07317929985168257, -0.12246029619813906, -0.08432572725974846, -0.008661951406100774, 0.16047900434081624, 0.14884288995811057, 0.042609234876098384, -0.015185922929004555, -0.0008923613847490769, -0.00400013324214671, 0.022906623445655513, -0.03434199983290537, 0.03623277461300344, 0.011603804676253831, 0.028805452050048422, -0.020886111500483865, 0.03535053802076408, 0.024670565138594638, 0.12016317214827256, 0.12827586055186666, 0.11843809107978309, 0.16347212721708615, 0.015116945769926754, 0.08487820306538603, -0.028087375572480776, -0.06126440182820438, -0.13502312334452576, -0.047947162966713086, 0.005355930147766701, -0.08555721260788474, -0.0004347241435083015, 0.00955212328476832, -0.0982123030047024, -0.17855713566674392, -0.08515786088646467, -0.09283800827232652, -0.0004908808596972086, -0.038952498129874, 0.09074689095226933, 0.05716248633348093, -0.014380810924833334, 0.014512755787811596, -0.02779650804337742, 0.006070981576893657, 0.005173899478247364, 0.012614827145106613, -0.025821552329101747, 0.010773933646558594, -0.023434750243336924, -0.08580218703074047, 0.05382240604008287, 0.11218003418961181, 0.21211833145845024, 0.07173079969919845, 0.20861946555189517, 0.05369072806889782, -0.0039239880344501855, -0.02863329537329778, -0.015984699368978617, -0.10205500997380537, -0.13039453194913828, -0.07316990709786778, -0.06991376746378687, -0.15339106804883362, -0.0667633069654196, -0.014968380895544676, 0.029991289507824013, -0.017580848824981492, 0.06597637051387553, 0.023769973061092606, -0.04352539308180471, 0.011626081472980786, -0.008367873991135972, 0.03145220655210029, -0.024116392667479725, -0.01463710461208316, -0.07735985775428864, -0.029614825637679094, -0.07297681637197964, -0.008769106414891, -0.043618024847677135, -0.01755210671742486, -0.10031491499593624, -0.09758243265305254, -0.08100935951548735, -0.06388752641081931, -0.01799944337900118, -0.056694703382603996, -0.05952376800066135, -0.027245753612519245, -0.11453126866847017, -0.024964956874718443, -0.038621251451065104, -0.04902157394765746, -0.04255234820858661, -0.014549983628413286, 0.03463187463880392, -0.0080593554112097, -0.005737397163963299, 0.036832569324225115, 0.024523492981969052, -0.012215401837903924, 0.04338114790026731, -0.011811679699808703, -0.012495923703475723, 0.007272037997084471, -0.014924241391330523, 0.023710629400062223, -0.04044655717827862, -0.043882092886658744, -0.018934668299200947, 0.05210552494060723, -0.02749433754757001, 0.0056231682196157245, -0.018163590660756693, -0.012664038128696823, 0.016027540390488683, -0.018887573645168715, 0.0595403438183537, 0.017304115272703622, -0.021165959027693956, 0.025350501225644, -0.03268158891754296, -0.0004486817557985827, 0.06879281047741467, -0.016614942750258998], [0.009616853111440957, 0.010321745400155546, -0.03989116595885485, 0.015188409195730395, 0.009746835980503549, 0.00025320146423620985, -0.027423040559801402, 0.011417553871679989, 0.023287437058030717, -0.005154161278804923, 0.0027757367525613674, -0.008735917489157353, 0.05887931952678706, 0.04540696789945232, 0.023502871682708714, -0.00676457328538157, 0.033077734667719606, 0.03380725148965188, -0.0038892702646473654, -0.014281686082286743, -0.03395430024959776, -0.045620617676813684, -0.017436276733684773, -0.055619547558274515, 0.03875487570022763, -0.058757167628525384, 0.00965726890106275, 0.05599670870058533, -0.009351961939578211, -0.07269458283524999, 0.0005666806802271451, -0.009266689078176144, -0.025640407494562013, -0.01515162526000624, 0.006707626946283546, -0.06594763662044414, 0.013868366623685228, -0.04004237824222507, -0.004933938747598033, 0.02367603313986639, -0.057806455194888036, 0.0344777854313593, -0.043116048285060875, -0.06395401242631495, -0.049885440973220195, 0.04429100848617699, -0.019105083711582052, -0.020522365977289223, -0.0008092948621418544, 0.029916000084807937, -0.011079588364627748, 0.05108334092955356, -0.010940066584020552, -0.06383605382774957, -0.06751428213867677, 0.047768898532967584, 0.033313001629398604, 0.011443045294468423, 0.06940694211075493, 0.0373329623109061, 0.002047916729603685, -0.01951118360932522, 0.0065703892463425334, 0.014205191434306501, -0.004074604198245749, -0.0009763724705209255, 0.024128134622494486, 0.03774592238454495, -0.06761705915184835, -0.04028180138075001, 0.005939505326618523, -0.06344828524670536, -0.06510655896989857, 0.04935172495546914, 0.05782196160374545, -0.014480584311716222, -0.004234748296283487, 0.054862481767765224, -0.026881183870115736, -0.035175830148053706, -0.01805000753269812, 0.06393911509594406, -0.01664560069730206, 0.032942225302855, 0.002168713891006161, 0.012292138986254622, -0.060927944255960084, -0.005681833476075996, 0.015278228058432592, 0.09767278233421214, -0.015155688766130177, 0.01915224243841735, -0.01849959866199514, 0.059270754832858194, -0.0029968189384474695, -0.031677929038548935, -0.15018550031818137, -0.18895642993331865, 0.008523907543295082, -0.03904157581538395, 0.04036128024154046, 0.15742570796014752, 0.20504125183987304, 0.32700662680054843, 0.10655950859427997, 0.11332189005344286, 0.04416533568586808, 0.03655486734262553, -0.0010104458473929967, -0.07435877431539288, 0.02447726254158611, 0.010642211827547226, -0.0727322509028343, 0.0004002404285865988, 0.013380396276711325, -0.011074540869951152, 0.027956199705197065, -0.08165303211687602, -0.05107291505977846, -0.07317048455059807, -0.23453195863398912, -0.09098104586051352, -0.14486575118757525, -0.13033043036444222, -0.23876775649911913, -0.1283463382161779, 0.06208537827177037, -0.16449722595810154, -0.11810001569160421, -0.1394035297975191, -0.1403786232646044, 0.10772493454062261, 0.16725867278781945, 0.15088958443243838, 0.13154953941814107, 0.11264812858252936, -0.01494102070170146, 0.009139646764508217, -0.007614361365829246, 0.02794928804790782, -0.004228971401724431, -0.06303171424681091, 0.015523392137681996, 0.0062592331395946105, -0.0723903953801468, -0.18302298053168334, -0.22900587313311999, -0.1484252728094014, 0.0072729722441687425, 0.0023657028519232814, 0.07192136961514563, 0.007822580373689473, 0.06044463677950653, 0.03753823097889828, -0.0767484024522451, -0.25403069142516516, -0.12211094290949175, 0.12515955916487423, 0.09659038490406852, 0.1592168154342598, 0.23600073751724424, 0.34281629736042546, 0.29255447505978543, 0.22954831536737602, 0.03621501329503428, 0.021777205262547, -0.012533010960307482, 0.012043652772603875, 0.012715742331015115, -0.02430369017437731, 0.011950842776418412, 0.014762463057969938, -0.15794012640026392, -0.15325678498056636, -0.2588785624787291, -0.027912935343461193, 0.024629196761986712, 0.07460980352794884, 0.06266283144792957, -0.2733020259526728, -0.07087689261525175, -0.0906746532275226, -0.15567037851968676, 0.08763438425613275, 0.004112206873655392, 0.14548250331603396, 0.059913528739765874, 0.2310144981036134, 0.20211990608868807, 0.29811202271604503, 0.37017228584123035, 0.2397345542369807, 0.05515469764304504, -0.02458568032137157, -0.05373127873187443, 0.03396667762369484, 0.06599148175867614, 0.023164710847264992, 0.001858702414330628, -0.06222443030834301, -0.1995439114161751, -0.05354322904038304, -0.10513567628371669, 0.07901727736472931, 0.16560384192709024, 0.0634616845762952, 0.062051205161054536, -0.10724750376984946, -0.2199346822937972, -0.20288047049207653, -0.010491861648108555, -0.08744648820056963, -0.045499261771768544, 0.02036480539051918, 0.20734076262653509, 0.17584406064675695, 0.16411422943820006, 0.3457113240352227, 0.44009908665636394, 0.360774776117232, 0.23233902737345455, 0.026671289231640916, 0.019642113771167483, 0.011646478403720514, 0.015970628080613978, -0.01536913884594372, -0.03744038906875475, -0.06201393895253679, -0.12859394297104773, -0.0013156931343409975, -0.042415516014066755, 0.00019613113210057857, 0.1012870040128015, 0.017754314922400576, 0.02781740084683072, 0.1512970252169748, 0.06893535822131916, 0.012005445361223317, -0.0005582128685545755, -0.0876292239467281, 0.04864982436810802, -0.24921673614397455, -0.00015163765493311944, 0.06966457764574975, 0.1965184410403839, 0.3727516977851638, 0.47329362510777695, 0.46181055376033225, 0.25277036139820874, 0.07220506063533573, 0.004477881174170786, -0.024827012753666493, -0.02445247000168063, 0.012562613513008284, 0.03058592740328351, -0.04501213972940386, -0.05845400040797767, 0.0008691998782283942, 0.14951506019203398, 0.10656274608169003, 0.2362741244428892, 0.2598913114990906, 0.4061921007472516, 0.34923227143328867, 0.28037722928362374, 0.12876360599944914, -0.1995926612892966, -0.42788924636911774, -0.1609164466313458, -0.13386435453483828, -0.013891740126254229, 0.03600108047995473, 0.1715208386924698, 0.39251216345361006, 0.3560161008728023, 0.3896453355137694, 0.2201680497121275, 0.04427458598866699, -0.06823971549264021, -0.04708519513579476, 0.04121999083864612, 0.0683407786972246, -0.00260498900521206, 0.008529200017435182, -0.0035039588152503505, 0.11878780063250585, 0.24570688770950952, 0.277608216847175, 0.4576329935066431, 0.5040291646729034, 0.30936752019905517, 0.2142478633947273, 0.12018573004760941, -0.11164106446034064, -0.482070158239179, -0.45132208693582015, -0.2960170927464756, -0.08347867405133831, 0.03064588414633957, -0.00892102656484832, 0.09047163499138645, 0.17707954827144903, 0.27525965276190506, 0.24816373181957055, 0.18109173394920383, 0.013980479185762552, 0.004323785794423946, 0.021013868865369066, 0.005535917437778623, -0.08124746816845502, -0.0514020599066522, -0.1018754507464848, 0.012463451504262252, 0.14456702509380262, 0.05167756063684412, 0.060483192295122695, 0.24071338878261675, 0.25902170002977487, 0.06502172022597577, -0.10696439448249474, -0.2827897228976846, -0.34694439303951785, -0.467299038303826, -0.18534320320618036, 0.13425247391977002, 0.10288707985351093, 0.12073054610868518, 0.012865016422875995, 0.1367519178199527, 0.09721153262858127, 0.07932426476145861, 0.06395420862693754, 0.04751013803255191, -1.602211425310904e-05, -0.010044192720173139, -0.03186731797663071, 0.01995647578664096, -0.03039469682967359, -0.06809996284226513, -0.13432085847179664, 0.034617474087117614, 0.03135935165552641, -0.10201931685838826, -0.15327933005159305, -0.06038401526288484, -0.21602422490554798, -0.1945437661565223, -0.0675838573130154, -0.2890600333645794, -0.3640132819363502, -0.3490949470231784, 0.030442684561405243, 0.02080907629115246, 0.23600857054098678, 0.22308993606215471, 0.28873092011507434, 0.19721057924116636, 0.17012534089746228, 0.009037813388245821, 0.05002385942254835, 0.026370759564543655, -0.009936201383215949, 0.08354439376644207, -0.0381815529105828, 0.06023194471603078, -0.07781413492751556, -0.024843996839822177, 0.06206598657706307, -0.028001218154606024, -0.08881182774215247, -0.10333004233387626, -0.11109232308867759, -0.2545465558364999, -0.2047240050001868, -0.07516263889632296, -0.031696974905446595, -0.22930293657244732, -0.22077171647781996, -0.08947444371514089, -0.015242681289747704, -0.17197824764357095, 0.14622026093868012, 0.27267877810270236, 0.3170378317299404, 0.1561105454546026, 0.028023010109158523, 0.001203421197734078, -0.05756162661585845, -0.05276718489223515, 0.015140471126472883, 0.05739678627350372, 0.0328000305746514, 0.009922885046411775, 0.041295370502783334, 0.022319238785540582, 0.031166671528626268, 0.07911408721103481, 0.014759735206941934, 0.03407883438009446, 0.04983917568812312, 0.009587160096642023, -0.0587872762008837, 0.05462295416540029, -0.03877826778010424, -0.2674974895846782, -0.055783136324853884, 0.006531113207361211, 0.015804079807458016, -0.030660446471414155, 0.30668229815751713, 0.3001416940391047, 0.18467784081367844, 0.21718976062017298, -0.13700557465501328, -0.1934578125323545, -0.10095976527944267, -0.026365127482649325, -0.058489937331668906, 0.0034192629288799436, -0.012088532222278937, 0.016674046785547805, -0.04044245174924957, 0.03128603224438794, -0.018509525414642864, 0.07469525181874906, 0.1484563093645482, 0.06810862864740876, 0.07554126008397091, 0.07680580267135388, -0.020337688788976592, 0.11370244803299615, -0.15482923606636673, -0.10171499839533903, -0.08637392647384692, 0.040399214665428104, 0.09093072154729305, 0.05275083437714139, 0.1176290992366761, 0.1417692713571131, 0.08838457305094502, -0.020578991005033142, -0.15401729801473257, -0.2643479756105617, -0.10545244739623741, -0.07468183387859391, -0.020630344589647825, 0.04184661456682404, 0.09628938951787934, 0.03699428473156644, -0.02280879562561445, -0.005995682481756324, 0.023858200824985232, 0.08427260375207082, 0.19557677669286738, 0.05359754648767117, 0.05076527326894274, 0.2113818651030407, 0.2111447407128152, 0.1840852343635039, -0.03913969520606692, 0.3139213353436745, 0.09890076724734262, 0.1286178678087615, 0.33051361772930454, 0.03760027506635047, 0.41362573640172706, 0.16781080261124354, -0.014744843403195387, -0.10438816016426185, -0.19453406966367312, -0.17381775174525554, -0.12623725249262754, 0.010175103322195648, -0.013574846039758953, 0.004926581163529402, -0.013846563564351816, 0.051121444297402785, 0.047000004763800854, -0.004292964635008643, -0.0529646114107199, 0.04333014352672322, 0.06001977184257299, 0.03112920226672957, 0.07259696511264138, 0.16175303745482275, 0.22740646919963795, 0.37515192053795743, 0.603905584160344, 0.6497900551786523, 0.30102956171966216, 0.15952721754187682, 0.2944114685845392, 0.2717233601793062, 0.23199122160443664, 0.0778026088670607, -0.1447663256907948, 0.011379695965056669, -0.11243854990253699, -0.06859161345044347, -0.12472812448431009, -0.041635910289980545, 0.021808783024792076, 0.0063505460073103375, 0.022967354750906648, -0.11133251911441401, -0.03488768753491569, 0.0418743679565163, -0.02051987354472131, 0.0396474349670054, 0.0447937572149568, 0.07122588301522784, 0.1108875093863099, 0.013587553860631471, 0.10829667076855977, 0.20132594339583484, 0.3635593116642503, 0.5029461311474617, 0.24312366123120308, -0.014191728021832882, 0.06663406569827077, 0.22965862304795004, 0.022491800469908146, -0.004455254058545939, -0.21369734583260852, -0.036587102610963436, -0.18307256452752502, -0.17351638639582345, -0.040887557339987085, 0.16334394603449537, 0.06404890068872937, -0.03671522435741508, -0.08316027869930409, 0.04010486487397274, 0.011315872616775496, 0.07356001996510589, -0.07447081938381887, 0.07027592019769192, 0.20398411803289415, 0.23452143130349332, 0.13968136378029958, 0.22582281174180716, -0.05408882728364273, 0.005281226716270935, 0.15063973153111487, 0.15382445110881512, -0.09216268311910587, -0.17089473859879462, -0.06612268810971035, -0.029044470857771013, -0.024352627657627683, -0.07138499890716164, -0.09949024451483203, -0.030195818316241487, -0.20424597235142192, -0.03366462261256995, 0.05558116258277556, 0.11760898368878762, 0.08779288327590935, -0.04233588272648043, 0.022835423568496306, -0.0093182383721702, 0.0010530654102654893, -0.023626594662331944, -0.035724795951846924, 0.02783681132486452, 0.22163299231428274, 0.23807531554201047, 0.045142499274834665, 0.1534950489144784, -0.03732121309312064, -0.12144472713954671, -0.01582745942607699, -0.03962566617976792, -0.04507614040884614, -0.17912000436275224, -0.10660489565831928, -0.08033494625533084, 0.009039037588198818, -0.04651650797162143, 0.024023438158525885, 0.020825199388820312, 0.06727538642433475, 0.14252295988642374, 0.19906321525857762, 0.03139379668545287, -0.02513538870235316, 0.04527736583931565, 0.01249582718060887, 0.0021469030178612354, 0.04886608294879686, -0.01894799148129496, -0.01775503081484902, 0.03753574629240045, 0.10263106282681786, 0.1990340413908178, 0.16865363669262587, 0.11566375046760317, 0.07235570472530498, -0.09069400882327062, -0.01048041730980605, -0.04262269986202714, 0.03529792738418021, 0.01169152680637277, -0.0754684673809036, -0.1111599873270083, 0.02342238148796528, 0.04470577561852429, -0.052893412824118295, 0.09145756744526223, 0.35112734399355383, 0.22437327054092218, 0.25730456354976855, 0.04079646137279042, -0.004855573516791666, -0.0346464747090168, -0.01840974588106925, 0.032064440496165456, 0.03508746383786756, 0.042716846810878104, -0.1312779388064988, -0.0930745753252101, 0.09265270289237153, 0.012636601370337092, -0.000312850784181928, 0.11748258608761737, 0.046858261045489624, 0.12415978836653445, 0.1701730640306113, 0.16808889624793164, 0.046838791609038186, -0.09750597512116176, -0.10103828174339125, -0.0898903324292881, 0.07897467446075021, 0.11147569759865368, 0.01766981803229466, 0.04828298279482083, 0.21974411512981792, 0.2195954781910002, 0.20637696399884392, 0.02753504899719534, 0.04500648697585214, 0.027136328327841703, -0.06526667360704803, 0.013311307448652165, -0.007251000582450574, -0.008797762278813575, -0.040857336707373626, -0.03502849939526356, -0.006875895501933417, -0.016652316446783434, -0.08850647512026823, 0.03636589492843982, -0.016812390922835447, 0.030174990257355216, -0.12220803529241635, -0.16940179008896716, -0.14147804756220078, 0.14658292768473322, 0.062089909114003576, 0.10101872050650416, -0.09328164119030813, -0.04258405582102861, 0.18309383720081118, 0.2102501641844673, 0.15839691548401882, 0.109256239006451, 0.046543157456610945, 0.053854209852117155, 0.02476532915354879, -0.039264587778105674, 0.043673539859570544, -0.03416662632507146, -0.032038411326715276, 0.017934465706757864, 0.05664330571486859, -0.058973574762635025, -0.09406589138751455, -0.06281770759918788, -0.06322438179413568, 0.06286750474697073, -0.006552596536855578, 0.04844457945357771, 0.19374993612897393, 0.08737256752383867, -0.021653840415858053, -0.015843765163812615, -0.03004179382062895, 0.04350528011033778, -0.02318802272040204, 0.12235974616849205, 0.1699343508709685, 0.09445792708038232, 0.039839483620323336, 0.031555316622132575, -0.01373020191717629, -0.03930252438059021, -0.019807714643057417, 0.03863736198599051, -0.014246553132681484, 0.0033707980366585433, 0.021982020419782814, -0.013380955345306892, 0.004256504895241754, -0.021981370623655228, -0.05985770275278317, -0.013061316487425121, -0.051092580602595306, -0.045201646829215555, 0.02289058166645986, 0.07747843206325097, 0.1040634360876794, 0.004668727345434853, 0.006978820530012729, -0.0937218245749209, -0.011688697197501477, -0.12075216766940323, -0.05225640878749398, 0.007434259898370758, 0.03621740965629734, 0.01782418407146093, -0.004621497974839769, -0.014664988223898359, 0.04161996716143876, 0.05309296560514085, 0.0014120271435973805, 0.06860373828182405, 0.020333018479775287, 0.04668469638403649, 0.019791674140796765, -0.021596376910024535, -0.03707851611665458, 0.04375711315588054, 0.025197049312364043, 0.04830145223631059, -0.009030772212507693, 0.040691198852579456, -0.00849343943390026, 0.014853869087658825, -0.02428027825529988, -0.10187792106696267, -0.00497425337816619, -0.011325972142853477, -0.039068522276158195, -0.04209690144236998, -0.0013812836876283534, -0.021524218742930496, -0.05936244161748655, 0.02733809378525519, -0.05276460292490649, 0.06068401304129718, 0.02876348285976094, -0.057939976714738384, 0.020208141295591512, 0.05068236741829386, -0.010359004688071495, 0.015395316473342758, -0.0068468316572223575, -0.040214267253027014, -0.003864836973893665, 0.03624446861299228, 0.06882875888452458, -0.021904941751588008, 0.06603811281382418, 0.03192090499343599, 0.05084496649954947, 0.01699532116754126, 0.006104228951937963, -0.04556988270247796, -0.06562698834180618, 0.008903292664713661, -0.009367292817635202, -0.06068635063116127, 0.005068935695464424, -0.0011446978570153357, 0.0005384403873728733, 0.0033775213789665297, -0.027063461939619466, 0.08527192935680583, -0.010740524327513297, 0.03196315990117696, 0.03843299657854441, -0.013602873879352575, -0.02993843143884039], [0.03662732924016259, -0.0442278135525347, -0.1026283856089585, 0.04947033804156538, 0.08412058261338237, -0.012425277962977335, -0.04391011583756917, -0.021908918706046755, 0.03361731978829277, -0.09388569899352299, 0.004347591215797217, 0.02717079365332455, -0.009237814986819316, 0.02335867698881005, 0.023423002822062722, 0.02114238429048333, -0.007806365231510952, -0.0028165539999994165, 0.06150912433629215, 0.0051148196260013, -0.03226693767989571, -0.02701800048691854, -0.016681243772647455, 0.03584769189346234, -0.02961905431195195, -0.032824071470983, -0.054765204675393274, -0.013233515020203037, 0.005693603089193711, 0.06908091935441443, 0.05407778293845261, -0.019401038988560385, -0.05782634067546498, -0.04223128427673909, 0.05294269028334589, -0.01483430340682251, 0.07925762122873557, -0.004659620999190368, -0.03149713903493011, 0.00863961848976519, -0.07136988672448974, 0.03555706774046223, 0.02207112540968511, -0.033573105566734575, -0.03752695804668566, 0.005755101892596842, 0.06769070998756187, 0.016102085598900594, -0.0051550689227375995, -0.01958522553074142, 0.04016082764377845, -0.05328901044024523, 0.0012063670693417774, 0.03937584105547038, -0.01820301515976699, -0.03169275795101473, -0.0597836816171445, 0.02814295366892594, 0.0026630988637891526, -0.003335582317158738, 0.04723604505489303, 0.023980514866434887, -0.029082544133348386, -0.007957106898288716, -0.0279319686172929, -0.00437919181286758, -0.020111165789119135, -0.019799171497500902, -0.04749251876977036, -0.048362802622608635, -0.006381848979066137, -0.08108690744761932, -0.017030818871701412, -0.044232530766733516, -0.047155529693861414, -0.039229948607879456, 0.004831983065871839, 0.05486131038334411, 0.06486217664377787, 0.009618622550828711, 0.015744004223548897, -0.0466279425665459, 0.029286156810947574, 0.05222530679232059, 0.002009257755143609, 0.07352706549864509, 0.05320202671036938, 0.06451027272623665, 0.01552399532369209, -0.043654830506512705, -0.04529929835615229, -0.0039530255813137365, 0.03984530302469222, -0.006755725725587977, -0.09410670536655412, -0.05566952842075319, -0.12248582909176754, -0.20021703319808334, -0.22282947198201883, -0.19138899275521373, -0.11472116349680937, -0.15229616620215558, 0.0025674111522396765, 0.07742708133415759, 0.08905237552282513, 0.06734774691308822, 0.09577347090229332, 0.08238273244849197, 0.07857160340676399, 0.02801247892911215, -0.039180244106262495, -0.02370685346730606, -0.019202919219497024, -0.017774141114276273, 0.012443817756971108, -0.040803594802355854, 0.004223016026691684, -0.04146781738157376, -0.03874970651180726, -0.06295573714312053, -0.06818034426160983, -0.10828081242582052, -0.1646029203931976, -0.11885733145825367, -0.1473081144632514, -0.1974723429267414, -0.20863237635302465, -0.10193627380010475, -0.050982612375300405, -0.0669805144329785, -0.04154127150689115, 0.11976470980581029, 0.15248171535714755, 0.15168107981697987, 0.17222525490108792, 0.1337534932068732, 0.07376397517988177, -0.007599587965832484, -0.008991368599785936, 0.018747624405340814, -0.0036163171653352732, 0.028202119192090237, 0.04899292848107363, 0.07862969302886023, 0.0326571279947046, -0.025417887422424384, -0.04487323092080507, -0.14309206567470428, -0.13181717434064316, -0.22656318527421074, -0.26951364149387164, -0.087211643516388, -0.11816309037502784, 0.07378160116658755, 0.13501466734027118, 0.021887656098292987, 0.08568012870632957, 0.08829005254210964, 0.14821861713144222, 0.2093685101929484, 0.18427915432591999, 0.10174568724798272, 0.164759111640673, 0.16374114733935627, -0.004284183342313116, 0.006296663940221154, -0.03312747851509927, 0.02705213301757644, -0.021901144484621143, 0.004477865149567089, 0.018581039331759898, -0.02013003809681798, -0.021829355044604468, -0.07152618719362519, -0.16582119975968926, -0.12870519420082646, -0.19401183645572112, -0.22422158382117496, -0.129386400543734, -0.13736979885399053, -0.008766573219555172, 0.18120426674683165, 0.2748375021004707, 0.2147384360880646, 0.057518316875185896, 0.06967751929957135, 0.11016170797398674, 0.09390610182745751, 0.09261131950059845, 0.12217324310916002, 0.15644474609297396, 0.20278078440750688, -0.02573429358131997, -0.011280259265728626, -0.03524274421407941, 0.032255772949557095, -0.027698766634261678, 0.012308538136827167, -0.014263216863898233, -0.04311789392498347, -0.048166725736909735, -0.1560829820098045, -0.12240042463200387, -0.13999766148991502, -0.31716353560147026, -0.2151642761947482, -0.13935489785504848, 0.014570042586468962, 0.13376957791526986, 0.2367880025883573, 0.2953742822933058, 0.126684309801671, 0.1837083665307917, 0.3261608181681005, 0.35043267013392954, 0.2444441013196525, 0.22043052207207334, 0.15169321041784503, 0.10459709183153366, 0.010792962397789587, -0.024148186708243823, 0.0032186025079898053, -0.08408342985160498, -0.03361420402763423, 0.031088825537743486, 0.009166940511001729, 0.03059986856766708, 0.0074382955646248704, -0.07094088455865051, -0.038023989283121534, -0.0879738129164622, -0.1259172770110517, -0.2717419608324154, -0.24680622734372967, -0.20765509606577454, -0.08379419937308842, 0.1581550164126642, 0.1993046876486441, 0.21859244729958488, 0.1651200715747908, 0.48006169648796815, 0.3741699287962235, 0.2310689856434719, 0.0864813039175579, 0.10790547987019472, -0.13627780312160648, -0.25288061211320895, -0.10629866174232712, -0.09289219837456326, -0.046470781931992146, -0.05632139998494229, -0.01473852454084312, -0.025698208558413507, -0.007101021340946543, -0.04280580657717959, -0.0745401469824289, -0.07523274476720002, -0.04243232253396092, -0.017978946573146266, -0.22570473335477398, -0.159188499498896, -0.10402994040299056, -0.14374606297338322, -0.09614683589265492, 0.23269383767036292, 0.2951618694584952, 0.108353861788075, 0.05819890270342465, 0.18337041629102047, 0.050573302044150864, 0.017454715123142287, -0.12202912711656932, -0.13629615786248564, -0.21351938090517542, -0.22412506104483737, -0.18428199689237384, -0.07916145684130396, 0.025089147444028036, -0.0011244870357769927, 0.01476260722817858, 0.0007345690529745027, 0.005546682202003033, -0.012865728505953088, -0.01965796721446968, -0.06083792573251559, -0.02264270106782641, -0.07156629220044666, -0.08397113858236417, -0.16106610570338384, -0.04836136585722424, -0.07972997530071729, 0.0054941307671791855, 0.08108159904361098, 0.1828158536273761, 0.04723177015869099, -0.04352985899497675, -0.24570400221044816, -0.1779750245978697, -0.2923393923975576, -0.23168742071107784, -0.05870551445633705, -0.017511780386584366, -0.08737509042316952, -0.03986835268431705, 0.043978257597039994, 0.0052170980308415245, 0.03045699188341032, 0.07024170935649358, 0.05392551406754232, -0.019365783793640814, -0.03214721995954259, -0.026384766148463176, 0.00880906314433993, 0.0028100500679810645, 0.07389740632288014, 0.011024316394989676, -0.035025919288512924, 0.011967919247789484, -0.1689035649564306, -0.22791045893308814, -0.05429144674953578, 0.10370757463694677, -0.004688034540876704, -0.27737489622093126, -0.3813435194148336, -0.3541529628911511, -0.3098061719064632, -0.17018042677385448, -0.06455431367890241, -0.02134651482697804, -0.07702634262124587, -0.11484599128324564, -0.027676582454586457, -0.01990907251459483, 0.04132398015402588, -0.007744564555611155, -0.02053079791790515, 0.047356827508381855, -0.05241604455701793, -0.013884464122242248, -0.05539174784704465, 0.03834067664205053, 0.08704251076522339, 0.08530582410634437, 0.09973712539624713, 0.14674553386218447, -0.1697208595181351, -0.16877397162569424, 0.12914431399706938, 0.2769877526311229, 0.02028358116108205, -0.24306790668141093, -0.3913355370555179, -0.35280702870377023, -0.2195357564377178, -0.1825551344968161, -0.1397024917773048, -0.06993830606463189, -0.0654339028347392, 0.01704138047512086, -0.0376417000251752, -0.02700821941110513, 0.002283821371018443, 0.05122651457259153, 0.028337178419142014, -0.02878526251233279, -0.038311468655561065, -0.063348142269319, 0.06912192216160883, 0.15004359397938483, 0.14806637693135563, 0.08748934497518057, 0.027997256565370544, 0.04961410361375435, -0.05877996019674247, -0.2410712575169115, 0.10976782342102707, 0.3079881748610579, -0.00970454510569359, -0.3200452321635366, -0.17822259726016806, -0.1597378094571795, -0.22763493384822253, -0.2906455099684159, -0.30124766921400314, -0.2364945650071355, -0.08221049565946038, 0.050822165058248374, -0.0068526291550396615, 0.031498473488436846, -0.04205133413007614, 0.006326848030151217, 0.02330951587114032, -0.02158957318906639, 0.01781169825329115, -0.0014678722600393994, -0.020441496608760035, 0.18346722235328697, 0.13617357188592363, 0.06835547586036653, -0.02527694415845078, 0.03723457666734817, 0.03554819271450032, 0.01469679713660694, 0.18689244699532656, 0.09806062219871735, -0.22106679366834656, -0.26739549862707535, -0.1022345028780677, -0.03667647972945385, -0.15942968603964214, -0.3003950199164173, -0.20241735159471733, -0.1718394808313228, -0.03586346774183822, 0.03888439054367364, -0.004256819136089269, -0.01548238965857278, -0.02312477778867168, -0.02835070476551829, 0.009411796691078153, -0.0736347193699874, 0.0028018652593431235, 0.045885737142164755, -0.05711226935655416, 0.21498386284772208, -0.04818828302735369, 0.1196999070423889, 0.10927045368212025, 0.13325070246541684, -0.018999249234440494, -0.1655615294725999, 0.08373771081723956, -0.32204110515759965, -0.45359927407748024, -0.11672498345851709, 0.05674052293628772, 0.08445983924075841, -0.030607613828042685, -0.27782903967313666, -0.09507843648173187, -0.02291340745645432, -0.059736076426826316, 0.08148484414994388, -0.006641786257497399, 0.040019625762158326, 0.019414367255564408, -0.046474969670863966, -0.04019510466980299, -0.0015120943709670124, 0.00356473836599516, -0.04220492971882321, 0.03811447551266139, 0.1779970802871321, 0.036676074115916064, -0.014631492920582318, 0.10649773059987873, 0.2067329494873992, 0.06359552559393088, -0.014998446125137913, -0.30083098184531476, -0.44909685149832357, -0.2843914706196768, -0.08478852565648673, -0.03237112624315179, 0.057286460890443196, -0.0009511431929251455, -0.014062593745828715, 0.03813052496715715, -0.01677495586217393, -0.009750291166571156, 0.037149647988531743, -0.0642792951211331, -0.052379736230427645, -0.009558819626668637, 0.006763737395878455, -0.005340515338618222, 0.024628432716916948, 0.02757131219826991, 0.007675602675563264, -0.03653649342969491, 0.14128251453969895, 0.06132388241235708, -0.12724766736823262, 0.07771272452810557, 0.16986475301017728, 0.21030606497861315, -0.08756776558781347, -0.28319101985815776, -0.3369625231925711, -0.17755354531206485, 0.04393840188246286, 0.000538183319086908, -0.031051811706222607, -0.013490743827121378, 0.08619155491467055, 0.10596684161376374, 0.046144968304002686, 0.10386279124553038, -0.011410952757969049, -0.05904880494133774, -0.08051415800993308, 0.02672700990155497, -0.05035605848508644, -0.004912660506147066, -0.017911503533920327, -0.027813895803043838, -0.052729824596065955, 0.033194488710318736, -0.0063377539615531294, -0.03280510236061638, 0.029467305384868237, 0.10234440685495137, 0.1330112798041061, 0.02748312278178223, -0.2831008979139844, -0.4267657447072726, -0.38305557292733894, -0.052720653024724694, 0.1905780737411934, 0.1825894558571628, -0.052436144263231774, -0.001357893841667707, 0.023077184044758534, 0.05650576189871738, 0.04244740093475435, -0.005997816693650637, -0.14132256895506587, -0.09130199563359975, -0.0700907636142412, 0.08547117632973547, -0.027176161327495618, -0.09017297224096248, -0.05152810126026262, -0.014534834022694856, 0.015836247288677354, 0.038389282024512326, 0.03795461865406659, 0.029924961260721455, -0.0388319392642528, 0.21412579752715138, 0.21939749648742118, 0.15813632601185063, 0.028197954777506556, -0.2330465089314663, -0.2137981886718207, -0.023463074417237932, 0.09513504611369422, 0.0752263887377787, 0.03724342930907232, -0.03780583875892943, -0.0943069118232038, 0.03746174559183573, 0.04519929368257911, 0.015184926432044063, -0.2063875965739354, -0.03742330414884556, -0.016784520104546494, -0.10965400792164796, -0.0228472283098543, -0.026592275198833594, 0.022917487075629944, 0.049959522325688004, 0.013683667676761734, 0.09723701156265528, 0.073615149997795, 0.06138162507056402, -0.05184381899705646, 0.08504867707772704, 0.14963076721621457, 0.25395960993330924, 0.15258689219407529, -0.0008616498636231347, 0.017101940939261207, -0.07675758972926021, -0.04202559183413032, -0.1563402597417208, -0.06333789775907296, -0.20718068964839795, -0.17451916738790982, 0.01689155814736331, 0.03596261867762991, -0.00557241234646895, -0.16118736010810997, -0.13758164645504486, -0.017810765882488484, 0.018815449214079582, -0.04019227964969613, -0.01155845871433523, 0.017800477131170955, 0.02932889854028448, 0.026428648033229783, 0.08159414059251903, 0.009274589526485326, 0.04384547370392991, -0.04201474446122438, 0.10340795234945141, 0.02279863979728722, 0.20288940953219362, 0.2171582494713466, 0.13292890691489098, -0.0082356801631156, -0.10403236458439742, 0.05009664088669316, -0.017836798070981416, -0.14382540527675058, -0.15521353980401364, -0.07213622560610718, 0.048864575232634266, -0.00259573529931098, -0.013610135364267691, -0.10923768229601134, -0.04352214407320727, 0.004385710536619101, -3.234180134579936e-05, 0.03061567129097345, 0.009983872333528461, -0.00025212893456329503, -0.07569439250292281, 0.052447811402364576, -0.054435786273435684, 0.0575813552143645, -0.033272053826009555, -0.03877850892165969, -0.03695011737606747, 0.013987702196346919, 0.16737733467098503, 0.21186560520513392, 0.32551437867896016, 0.2536893326489319, 0.03652076934912193, 0.12143041084874928, -0.03158600184501619, 0.013908436015424899, -0.06604069798739763, -0.05580031326337841, -0.0028308880007812134, -0.01878580662474976, -0.06720284330026868, -0.06180401537037738, -0.04313625140515649, 0.016309719452233147, 0.0012562610584037081, -0.024396145126798437, 0.04415063628656944, -0.0019020781948842025, -0.06423411687697904, -0.01721636109502825, -0.05066791595406227, 0.06116013507400735, 0.01330300496546537, 0.014430889557119065, 0.06154335661529018, 0.049657563314371274, -0.012487163775508944, 0.06668307379454141, 0.04754916904144862, 0.048936469420973676, 0.03748587922164162, 0.16251247061113108, 0.10876275304847101, 0.055356599144488684, -0.004925252511021483, -0.0039995151499143495, -0.10361082438389838, -0.0935722344673058, 0.0078227801022713, -0.033141070272286896, -0.031204734213557097, -0.02461892442877959, -0.06510571151740234, 0.07524836188415429, -0.03197544264111258, 0.0072585217665057985, -0.03024419783764135, -0.06528310108498875, 0.017394866157169918, -0.0233136668028232, 0.022056571565259166, 0.0020286754984183983, -0.019391967509353684, -0.09067856745161008, -0.08604485917831346, 